//Numpy array shape [5, 5, 4, 16]
//Min -1.705437064171
//Max 1.151090979576
//Number of zeros 0

#ifndef W2_H_
#define W2_H_

#ifndef __SYNTHESIS__
model_default_t w2[1600];
#else
model_default_t w2[1600] = {0.1716, 0.0844, -0.0144, 0.0140, 0.0433, -0.0165, -0.0083, -0.0734, 0.0111, 0.0197, -0.0143, 0.1599, 0.0525, 0.0575, -0.0010, 0.2233, 0.0436, 0.2843, -0.1404, 0.0153, 0.0333, -0.0140, -0.0374, 0.1769, 0.1006, -0.1518, -0.0929, 0.0689, -0.0843, -0.0838, -0.0919, 0.1118, 0.1216, 0.3388, -0.0389, -0.0822, 0.3509, 0.3175, 0.0731, -0.0568, -0.0365, 0.0701, -0.0348, 0.1261, -0.1099, -0.0554, -0.0231, 0.3119, 0.0304, -0.1280, 0.0777, 0.0485, -0.1085, 0.2343, 0.1605, 0.0988, 0.1794, 0.3440, 0.0644, -0.0700, -0.0802, 0.2626, -0.1007, 0.0321, -0.0098, 0.0987, 0.2902, 0.0512, 0.0391, 0.4822, -0.2345, -0.0128, 0.0922, 0.5698, 0.1431, -0.1208, 0.2036, 0.9155, -0.0304, 0.0084, 0.0391, -1.6509, 0.1545, 0.2245, 0.0420, -1.6780, -0.2442, 0.1051, 0.2781, -1.4687, 0.3117, 0.0629, 0.1623, -1.7054, -0.2775, 0.2634, 0.0603, -1.5915, 0.1240, 0.1432, -0.0797, 0.0786, -0.0475, -0.0992, 0.1495, -0.3088, -0.2069, -0.1221, 0.0765, -0.3517, -0.2829, -0.0258, 0.0957, -0.1420, -0.6742, -0.1948, 0.0684, -0.4137, 0.0665, -0.0749, 0.0183, -0.1157, -0.3405, 0.0913, 0.0739, 0.1173, -0.2179, 0.1168, -0.0260, 0.0542, -0.3629, 0.0610, 0.1844, 0.2384, -0.4073, -0.2272, 0.1381, -0.0124, -0.3962, 0.1138, -0.1396, -0.0147, -0.0454, 0.0088, -0.0592, 0.1458, -0.0833, -0.1889, -0.2453, 0.2413, -0.2536, -0.0779, 0.1037, 0.7225, -0.0081, -0.2337, -0.2172, 0.2700, -0.1060, 0.0530, -0.3857, 0.0058, 0.1995, -0.0956, -0.1745, -0.3829, 0.0214, 0.0147, -0.3177, -0.0826, 0.1155, -0.0388, -0.1963, 0.0493, 0.4347, -0.0419, -0.3510, -0.1387, 0.2337, 0.0903, -0.4140, 0.0628, -0.2762, 0.1249, -0.1801, 0.0115, -0.2213, -0.0408, -0.2120, 0.0815, 0.2072, -0.0330, -0.2259, -0.1294, -0.0157, -0.1445, -0.3950, 0.0571, 0.0937, -0.0028, -0.2476, -0.1035, -0.2529, 0.2240, -0.1362, -0.0182, -0.0979, -0.0215, -0.1646, -0.2481, -0.2884, 0.0011, -0.3499, -0.2573, -0.2513, 0.1699, -0.4639, -0.1452, -0.0217, 0.2684, -0.3818, -0.4001, -0.4496, 0.0144, -0.3732, -0.3683, -0.3755, 0.0218, -0.5945, -0.4361, -0.2922, 0.1578, -0.4567, -0.3802, -0.4936, 0.1694, -0.5644, -0.5546, -0.2912, 0.0431, -0.4521, -0.7065, -0.3172, -0.1357, -0.2060, -0.7579, -0.2491, -0.1364, -0.2590, -0.5484, -0.3086, -0.0631, -0.3472, -0.7753, -0.3285, 0.2381, -0.3378, -0.7157, -0.0191, 0.3261, -0.0127, -0.8149, -0.0563, -0.0624, 0.1732, -0.4613, 0.1783, 0.0678, 0.0429, -0.6979, -0.0469, 0.0785, -0.0233, -0.8191, 0.1501, 0.0113, 0.0378, -0.6739, 0.0764, -0.0706, -0.1757, -0.5201, -0.3548, 0.0511, 0.1339, -0.0364, -0.0317, -0.0050, -0.1139, -0.2242, -0.1600, -0.0017, -0.2004, -0.3303, -0.2826, 0.1215, -0.2518, -0.3582, -0.0865, -0.0302, 0.1242, -0.2553, 0.2099, -0.0060, 0.2548, -0.1350, -0.0055, 0.0113, 0.0258, -0.3519, -0.2343, 0.0209, 0.1298, -0.3184, 0.0576, 0.0744, 0.2062, -0.3643, 0.0336, 0.1179, 0.3707, 0.4422, 0.6179, 0.0708, 0.4743, 0.6416, 0.0156, 0.1461, 0.3847, 0.3921, 0.1749, 0.1221, 0.4210, 0.4716, -0.2161, 0.0616, 0.2772, 0.4746, -0.0470, 0.0941, 0.1653, -0.0457, 0.5026, 0.2326, 0.5099, 0.3520, -0.0191, 0.1028, 0.4109, 0.4521, -0.0891, 0.1070, 0.2039, 0.3751, -0.0015, 0.0356, 0.5126, 0.6917, -0.0451, 0.1244, 0.2783, 0.3411, 0.6754, 0.1843, 0.4721, 0.6122, 0.0079, -0.0619, 0.4638, 0.6715, -0.0368, 0.2099, 0.3157, 0.3439, -0.0184, 0.0964, 0.2780, 0.3338, -0.2463, 0.1261, 0.2060, -0.3656, 0.9166, 0.0675, 0.4498, -0.0311, 0.0008, 0.1353, 0.2483, -0.1035, 0.1798, 0.0854, 0.2122, -0.2930, 0.2140, 0.1686, 0.2061, -0.2525, 0.2996, -0.2058, 0.0440, -0.0129, -0.4997, -0.0519, 0.0988, -0.0442, -0.5916, -0.1170, -0.0636, 0.0277, -0.1119, -0.0664, 0.0935, -0.2059, -0.1996, -0.1433, -0.1207, -0.0707, 0.1247, -0.1311, 0.3268, -0.0874, -0.4737, -0.1090, 0.2220, 0.2204, -0.6156, -0.2330, 0.2128, 0.1486, 0.1098, -0.1514, 0.3566, 0.1341, 0.1398, -0.3491, 0.1283, 0.3761, 0.1617, -0.3576, 0.1132, 0.0542, -0.5807, -0.1536, 0.1280, 0.0537, -0.7213, -0.1832, 0.0191, -0.1715, 0.0515, -0.2469, 0.0157, 0.2250, 0.3666, -0.3112, -0.0289, 0.2853, 0.0705, -0.2538, 0.0449, 0.0581, -0.4112, -0.2505, 0.0190, 0.0386, -0.3825, -0.2868, -0.1792, -0.2352, -0.0374, 0.0003, -0.0865, -0.2857, 0.2762, -0.4667, -0.2711, -0.3233, 0.0480, -0.3360, -0.0913, -0.1465, 0.1182, -0.2443, -0.0153, -0.0573, 0.1082, -0.1681, -0.1315, -0.1607, -0.1316, 0.1010, -0.2598, -0.1749, 0.3154, -0.2134, -0.2543, -0.1865, -0.3005, -0.3477, -0.0087, -0.2513, -0.2165, -0.3099, -0.0077, -0.3647, -0.1180, -0.2375, 0.0412, -0.3262, -0.0739, -0.2266, 0.1184, -0.6537, -0.0906, -0.2281, 0.0494, -0.4829, -0.0693, -0.0869, -0.1303, -0.2444, -0.1909, -0.4102, -0.0223, -0.4171, -0.0534, -0.1813, -0.1637, -0.3040, 0.0053, -0.1509, 0.0134, -0.6037, 0.2794, -0.2657, -0.1070, -0.6072, 0.1796, -0.1799, 0.1636, -0.7170, 0.0068, -0.2466, -0.0451, -0.8317, -0.0459, -0.1522, 0.1713, -0.8283, 0.1090, -0.0480, 0.2398, -0.7141, -0.0633, -0.2224, -0.1081, -0.4147, 0.1614, -0.2968, 0.0336, 0.1912, -0.2401, -0.3446, 0.2297, 0.1393, -0.0718, -0.1864, 0.0622, 0.1420, -0.0447, -0.2572, 0.1361, 0.0894, 0.3496, -0.2506, 0.0243, 0.6578, -0.2844, -0.0267, 0.3574, 0.0287, -0.2290, -0.1449, 0.1679, -0.0093, -0.2147, -0.2284, 0.2014, 0.0836, -0.0899, -0.0839, 0.1562, 0.1721, 0.3540, -0.2392, 0.2831, 0.0320, -0.1654, -0.0951, -0.1175, 0.0350, -0.3059, -0.0520, 0.2344, -0.0615, 0.2260, -0.2734, 0.2103, -0.0466, -0.2506, -0.2925, 0.3475, -0.0070, -0.1009, -0.2939, 0.3978, 0.0871, -0.3053, -0.2190, 0.4019, 0.0449, -0.2792, -0.2223, 0.8625, -0.1206, 0.0479, -0.3229, 0.5767, -0.0160, -0.4546, -0.3260, 0.6471, -0.0698, -0.1385, -0.3531, 0.6538, 0.0521, -0.3054, -0.2413, 0.2112, -0.0175, -0.0144, -0.0680, 0.4006, -0.1832, -0.0060, -0.4009, 0.3469, -0.0484, -0.2079, -0.4182, 0.4842, -0.1189, 0.1516, -0.0957, 0.6042, -0.1676, -0.2406, -0.2914, 0.0553, 0.0259, -0.0592, -0.2129, -0.1291, -0.2063, -0.0075, -0.2849, 0.2651, 0.0217, 0.2662, -0.3870, 0.0392, 0.0607, 0.5093, -0.3653, 0.2088, 0.0463, 0.0870, -0.0583, -0.2912, -0.0146, 0.0213, -0.2677, 0.0689, -0.0064, -0.2473, -0.5396, 0.0675, -0.1299, 0.6104, -0.2100, 0.1593, -0.1297, 0.4768, -0.2586, 0.1849, -0.1069, -0.0877, -0.2011, 0.7074, -0.2213, 0.0093, -0.1747, 0.7950, -0.1399, -0.3018, -0.2004, 0.7801, -0.1677, 0.0282, -0.0774, 0.8237, 0.0835, 0.2511, 0.0830, 0.5666, -0.1072, -0.0226, 0.1261, 0.7219, 0.0541, -0.0296, -0.0149, 0.6420, -0.0044, -0.4361, -0.0466, 0.7485, -0.0267, -0.0429, 0.1261, 0.6675, -0.1999, 0.1977, 0.0119, 0.6124, -0.2557, 0.3370, -0.1187, 0.5357, -0.0194, 0.0446, 0.1077, 0.7801, -0.0955, -0.1259, -0.0975, 0.7157, -0.0695, -0.0466, 0.0803, 0.6535, -0.0800, 0.0542, -0.1501, 0.4247, 0.0137, 0.0913, -0.0684, 0.5927, 0.2820, -0.0437, 0.0096, 0.5299, 0.1795, 0.0691, -0.0261, 0.4392, 0.0071, 0.1247, -0.0369, 0.4862, 0.0423, 0.6187, 0.0662, 0.2687, 0.2563, 0.8503, 0.0227, 0.3635, 0.5029, -0.1778, 0.0850, 0.2538, 0.2246, -0.0032, 0.0437, 0.2868, -0.0403, 0.2003, -0.0483, 0.3717, 0.4421, 0.7868, -0.0661, 0.1213, 0.2907, 0.7610, -0.0357, 0.0115, -0.0754, -0.1107, 0.7608, -0.0738, -0.1638, 0.0989, 1.1511, -0.2038, -0.0356, 0.2130, 0.7909, -0.0256, -0.1671, 0.1918, 0.8571, -0.0662, -0.2507, -0.0077, 0.6223, 0.1322, 0.1361, 0.2024, 0.7838, 0.0086, -0.0900, 0.2741, 0.9237, -0.0092, -0.0341, 0.0120, 0.9013, -0.0774, 0.0821, -0.2062, 0.7291, 0.1952, 0.0181, -0.1318, 0.5661, 0.0071, 0.3022, -0.1518, 0.8252, -0.0517, 0.1416, 0.0496, 0.8969, -0.1282, 0.1267, 0.0447, 1.0626, 0.2654, 0.4111, 0.0712, 1.0021, 0.0145, 0.1559, -0.0453, 0.4312, 0.2704, 0.0169, 0.0348, 0.5936, 0.1165, -0.0520, 0.1924, 0.8476, 0.0843, -0.1057, -0.2957, 0.8868, 0.1375, -0.1236, 0.0725, 0.6950, 0.3217, 0.0279, -0.0748, 0.3912, 0.1734, -0.0065, -0.0322, 0.5877, 0.3866, -0.0698, -0.0681, 0.8891, 0.0609, 0.0546, 0.0587, 0.7630, 0.1000, -0.0164, -0.0473, 0.5865, 0.0098, -0.0484, -0.0015, 0.5411, -0.6775, 0.0248, -0.0326, -0.0017, -0.3058, -0.0546, -0.1462, 0.0465, -0.3542, 0.1341, -0.1696, -0.0333, -0.4918, 0.0216, 0.4779, -0.0512, -0.8518, 0.0678, 0.1268, -0.0976, -0.4140, -0.0007, -0.2082, 0.0279, -0.2732, -0.1406, -0.0179, -0.1089, -0.4213, 0.1882, -0.1729, 0.1793, -0.4976, -0.0134, 0.2785, -0.0954, -0.4740, 0.1224, 0.2420, 0.0156, -0.2877, 0.0446, -0.0269, 0.0660, -0.0758, -0.0262, -0.2616, 0.2031, -0.0844, 0.0092, -0.3439, 0.0823, -0.3365, 0.0587, -0.0169, -0.0708, -0.3623, 0.0425, -0.1128, 0.1552, 0.0591, 0.0759, -0.1710, 0.0292, 0.0395, -0.2151, -0.4679, 0.0028, 0.1974, -0.0900, -0.6861, -0.0718, 0.0455, 0.1433, -0.3983, -0.0306, 0.3337, -0.2730, -0.5181, 0.1042, 0.0867, -0.1117, -0.2775, -0.0978, 0.0483, -0.2954, -0.3134, -0.1059, 0.0333, -0.1739, -0.3868, -0.1015, -0.0855, -0.0148, -0.3440, -0.1332, 0.1769, -0.3427, -0.6787, -0.0589, -0.0034, 0.1655, 0.0378, 0.2548, 0.1597, 0.7551, -0.0735, 0.1027, 0.0826, 0.6428, 0.0564, 0.0787, 0.2638, 0.0170, -0.0090, 0.1936, 0.1522, 0.0004, 0.0009, 0.1649, 0.0711, -1.0909, 0.2663, 0.1505, 0.1007, -0.9314, -0.2644, 0.1022, 0.1784, -0.8611, -0.0657, 0.1670, 0.1953, -0.9338, 0.1769, 0.0107, 0.0911, -1.0612, -0.1174, -0.0094, 0.0992, -0.8896, 0.0505, 0.0655, 0.1941, -0.8624, 0.0339, 0.3943, 0.1469, -0.8160, -0.0303, 0.0830, 0.0481, -0.9657, -0.1741, 0.0598, 0.1411, -0.9771, 0.1446, 0.1076, 0.0424, 0.2586, -0.2594, 0.4474, -0.0100, 0.5575, 0.2811, 0.0608, 0.1705, 0.3411, -0.1431, 0.1635, 0.0258, 0.6667, 0.0252, 0.1915, 0.2550, 0.5595, 0.0275, 0.0779, 0.1575, 0.3010, -0.1345, 0.2052, 0.0558, 0.1514, 0.1541, 0.1641, 0.0800, 0.2964, 0.1151, 0.0084, 0.0581, 0.1567, -0.0364, 0.1707, 0.0538, 0.1434, -0.0459, 0.0885, -0.0364, -0.1054, 0.1386, 0.0339, 0.0851, 0.1856, -0.1873, 0.0406, 0.3737, 0.2454, -0.5675, -0.0311, 0.0386, -0.0275, -0.2680, -0.1986, 0.0361, 0.1859, -0.1466, 0.0523, 0.0245, 0.1420, 0.1090, 0.1387, 0.0763, 0.1534, -0.2023, 0.0955, 0.1354, 0.0437, -0.6484, -0.0432, -0.0522, -0.2871, -0.4654, -0.0117, 0.1683, -0.1854, -0.0633, 0.0329, 0.0276, -0.3149, 0.0791, 0.1295, 0.1410, -0.4174, -0.2989, 0.0207, 0.0568, -0.4275, -0.2958, -0.0732, 0.1972, -0.4709, -0.4057, 0.1302, -0.0107, -0.3121, 0.1369, 0.0164, -0.1203, -0.8123, -0.6052, 0.0721, 0.1672, -0.6683, -0.3780, -0.0529, 0.3082, -0.6780, -0.4585, 0.0814, 0.0059, -0.9171, -0.3810, -0.0662, 0.1744, -0.6310, 0.2003, 0.0790, -0.0653, 0.2918, -0.4507, -0.0384, 0.1406, 0.5088, -0.0978, 0.0588, 0.0997, 0.5133, -0.4823, 0.0582, -0.1125, -0.0648, -0.3428, 0.1725, 0.0482, 0.3276, 0.1950, 0.0427, 0.0244, -0.3766, -0.0613, -0.0797, -0.2152, -0.5009, -0.3575, -0.0885, -0.1154, -0.3869, -0.5269, -0.1053, -0.1705, -0.2483, -0.6156, 0.0137, -0.2873, -0.3782, -0.2373, 0.0068, -0.0903, 0.4630, 0.1643, 0.0414, 0.1586, 0.1025, -0.3851, -0.0459, 0.0460, 0.0851, -0.3640, -0.1579, 0.0632, -0.0137, -0.3597, -0.0045, 0.0235, -0.1392, -0.4035, 0.0123, 0.0806, 0.3596, -0.1287, -0.1940, 0.0400, 0.0022, -0.1688, 0.0772, 0.0857, 0.0132, -0.3788, 0.0768, -0.0176, -0.1125, -0.3389, 0.1158, -0.2084, -0.1757, -0.2545, -0.0409, 0.0246, 0.3732, 0.0635, 0.0171, -0.1067, 0.3862, -0.2743, 0.0184, 0.0111, 0.3226, -0.1498, -0.0244, -0.0511, 0.1661, -0.1689, 0.0292, -0.0977, -0.0464, -0.1367, 0.2686, -0.0087, -0.2738, -0.0627, 0.0936, 0.2239, -0.0025, 0.0395, 0.1632, 0.1033, 0.0398, 0.2245, 0.0775, -0.0971, -0.0527, 0.3416, 0.1308, -0.1348, -0.0806, 0.1363, 0.2643, -0.0416, 0.6990, 0.0067, -0.0848, 0.0701, 0.7192, -0.0228, -0.1664, -0.0557, 0.5432, 0.0176, 0.0314, 0.1545, 0.7146, 0.2367, -0.1473, -0.0946, 0.3369, -0.2689, -0.0107, -0.0052, 1.0227, -0.0382, -0.0880, 0.0255, 0.8680, -0.0466, -0.0463, -0.0709, 0.3565, -0.0719, 0.3672, -0.0841, 0.5423, 0.1368, -0.0144, 0.0555, 0.2049, 0.0643, 0.0827, -0.0658, 0.1527, 0.0059, -0.2527, -0.1884, 0.3244, -0.0031, -0.0776, -0.0165, -0.0434, -0.1170, 0.0804, -0.1383, 0.0978, 0.1279, -0.1545, -0.0224, -0.3431, -0.0929, 0.1149, 0.1398, -0.4091, 0.0383, -0.1102, -0.0663, -0.1046, 0.2757, -0.0463, 0.0598, -0.5728, -0.3461, 0.0860, -0.1261, -0.5979, 0.1760, -0.0138, 0.0446, -0.5797, -0.1205, 0.1096, -0.0969, -0.0467, -0.0411, -0.1020, -0.2536, 0.2602, 0.2524, -0.1098, 0.0850, -0.1673, 0.0005, -0.0366, 0.0634, 0.0627, -0.2232, -0.1389, 0.0071, 0.2895, -0.0093, 0.0569, 0.3741, 0.6115, -0.0036, -0.0493, 0.5084, 0.6755, 0.4924, 0.1268, 0.2384, 0.5618, 0.1824, 0.2528, 0.2905, 0.5509, 0.3640, 0.2199, 0.2507, 0.6572, 0.3724, 0.2408, 0.3291, 0.3539, -0.0047, 0.1942, 0.3493, 0.4437, 0.3904, 0.2378, 0.5176, 0.3366, 0.1627, 0.1865, 0.3725, 0.6019, 0.6545, 0.2557, 0.3168, 0.7112, 0.5318, 0.1933, 0.1931, 0.4796, 0.0001, 0.1283, 0.4459, 0.3672, 0.3883, 0.2267, 0.5208, 0.3924, 0.1919, 0.0610, 0.4703, 0.4529, 0.3806, 0.3610, 0.2782, 0.6119, 0.3914, 0.1286, 0.4092, 0.3878, -0.0347, 0.0011, 0.4124, 0.2952, 0.4431, -0.0264, 0.1737, 0.6352, 0.3159, 0.2646, 0.2998, 0.5309, 0.6820, 0.1622, 0.5377, 0.6042, 0.3722, 0.2412, 0.2652, 0.5491, 0.0346, -0.0332, 0.4564, 0.4774, 0.4179, 0.2105, 0.2880, 0.4807, 0.4936, 0.1925, 0.3931, 0.5529, 0.3741, 0.1646, 0.5401, 0.7807, 0.3227, 0.0728, -0.1399, -0.0176, 0.0727, 0.0160, 0.0868, 0.0674, 0.4837, -0.2435, -0.0646, 0.1193, -0.4869, 0.0014, -0.1435, -0.0438, -0.2917, -0.0863, -0.1260, 0.0110, 0.0066, -0.0249, -0.2662, -0.2139, -0.1355, 0.0123, -0.1207, -0.1937, -0.1672, -0.1288, -0.0405, -0.1023, -0.5903, 0.0764, 0.0248, -0.1158, -0.6850, -0.0361, -0.0729, -0.0400, -0.3584, -0.1828, -0.0906, 0.1202, -0.1695, 0.0752, -0.0596, 0.1462, 0.0009, -0.0046, -0.0236, 0.3616, -0.3236, 0.0890, 0.1312, 0.3213, -0.3977, 0.0981, -0.0933, 0.2755, 0.0098, 0.0569, 0.0756, -0.3968, -0.3794, -0.0618, 0.0242, -0.0444, -0.3904, 0.0546, 0.2428, -0.1721, -0.3372, -0.0151, 0.0646, 0.0603, -0.6292, 0.0237, -0.1277, -0.0720, -0.0985, 0.1064, 0.1891, -0.2465, -0.2535, -0.1264, -0.0831, -0.3584, -0.3502, 0.0949, 0.1932, -0.3245, -0.3551, 0.1134, 0.1331, -0.1692, -0.4796, -0.0161, -0.0257, -0.5512, -0.2255, -0.0070};
#endif

#endif
