//Numpy array shape [64]
//Min -0.000000366496
//Max 0.000000370402
//Number of zeros 0

#ifndef B16_H_
#define B16_H_

#ifndef __SYNTHESIS__
model_default_t b16[64];
#else
model_default_t b16[64] = {0.0000001094, -0.0000001244, 0.0000001173, 0.0000001158, 0.0000001437, 0.0000002048, 0.0000000532, 0.0000000090, 0.0000000636, -0.0000001240, -0.0000001733, -0.0000000464, 0.0000002694, 0.0000000207, -0.0000000360, -0.0000001653, 0.0000001099, 0.0000002266, 0.0000001316, 0.0000000647, 0.0000000184, -0.0000000376, 0.0000000813, -0.0000001237, 0.0000000594, 0.0000003128, 0.0000000646, 0.0000002219, -0.0000001915, -0.0000000289, -0.0000000014, 0.0000000366, -0.0000000444, -0.0000000055, 0.0000001233, 0.0000003131, 0.0000000040, -0.0000001290, 0.0000003468, 0.0000002379, -0.0000003520, -0.0000001276, -0.0000001863, -0.0000000054, -0.0000001754, -0.0000000560, 0.0000002192, 0.0000001228, 0.0000000500, 0.0000002143, -0.0000000085, -0.0000001620, -0.0000000706, -0.0000000202, -0.0000000859, 0.0000003704, 0.0000000060, -0.0000003665, 0.0000001268, -0.0000001244, 0.0000000326, 0.0000002392, -0.0000000851, -0.0000000145};
#endif

#endif
