//Numpy array shape [64]
//Min -0.895433068275
//Max 0.861560285091
//Number of zeros 0

#ifndef B22_H_
#define B22_H_

#ifndef __SYNTHESIS__
model_default_t b22[64];
#else
model_default_t b22[64] = {-0.1891035289, -0.3842222095, -0.2996355891, 0.1935367286, -0.0150701851, -0.4530251026, 0.1896188110, -0.2346354723, 0.3891558945, -0.0607407093, -0.2805303037, -0.1638454050, -0.0161825381, 0.2281200141, 0.1501307636, -0.8954330683, -0.0435817763, -0.2499979138, -0.0555160120, 0.3025411069, -0.3064512908, -0.1589101702, -0.1773593128, 0.4627628922, -0.1932640225, 0.0601236001, 0.8615602851, -0.3323090076, -0.4003022015, -0.3526018560, 0.1537785232, 0.3190441132, -0.2358210087, -0.3852411509, 0.0057498217, 0.1295480281, 0.5448725224, 0.1485456526, -0.2277467698, -0.1217258275, -0.2045627832, -0.0158184916, -0.3556323647, -0.3716884255, -0.0244895518, -0.1201412082, -0.0870007426, -0.3575306237, -0.1475566924, -0.0756521970, -0.2881110609, -0.1423370093, -0.2182440758, 0.0291459113, -0.3105651140, -0.0967699289, -0.2004818916, -0.3619355261, -0.2321610749, 0.0678422600, -0.1380828023, 0.3920983076, 0.4432914257, -0.0858903006};
#endif

#endif
