//Numpy array shape [256]
//Min -2.258307695389
//Max 4.126482486725
//Number of zeros 0

#ifndef B36_H_
#define B36_H_

#ifndef __SYNTHESIS__
model_default_t b36[256];
#else
model_default_t b36[256] = {-0.1749531627, -0.4442905486, 0.0288454145, 1.2248560190, 0.1130627468, 0.2878329456, 0.6503345966, -0.1062555835, 0.3638190925, 0.1782611310, 0.2114703953, 0.1135153323, 0.3609230220, 0.8544903994, 0.3578321636, -0.0911789611, 1.3530118465, 0.2125604749, 1.5470254421, 1.3457555771, -0.6859936118, 2.0961084366, 1.6472966671, -0.0256680790, 1.1532126665, 1.0266516209, -0.2580819428, -0.9178140759, -0.1536227912, -0.3579018712, -0.4967027605, -0.3354490995, -0.1771675050, 0.5142647624, 2.4298202991, 0.8293116689, -0.7551891804, 0.4034309983, -0.1766386181, -0.1331598312, 0.1861521900, 0.0056110360, 0.5750163198, 0.2749302983, -0.1941761523, -2.2583076954, 0.0951746628, 0.1601473391, 1.9451155663, 0.2028675675, -1.6021947861, 0.2900757194, 1.1275178194, 0.0108525269, -0.0023079650, -1.3129889965, 0.4130561650, -0.1068004966, 0.7752063274, 1.2379094362, 0.2164773941, -1.2418407202, -0.5861327052, 0.2815942764, 1.0095900297, 0.5956946611, 1.3745104074, -0.2026679814, 0.3521896899, 0.0726815760, 0.8871375322, 1.0393058062, -1.2579119205, 0.7008159161, -0.2242684215, 0.3401275277, 0.8653435111, 0.8985052705, -1.2940496206, 0.2384993732, 4.1264824867, 0.8253451586, 1.0023163557, 1.7026339769, -1.2721115351, -0.6326307058, 0.8901377916, 0.0435922109, 3.1495075226, 1.1131914854, -0.6981853843, 0.6088868976, 0.1968665123, -1.1763768196, 1.5076730251, -0.7906397581, 0.0849855691, 0.0036402531, 0.2040266246, 0.6331971884, 3.9497048855, 0.9186112881, -0.5513198376, 1.3179485798, -0.9955195189, 0.5312902927, -0.0004310273, -0.1677243114, 0.6611440778, 0.3527518213, 0.9874909520, 2.7164914608, -0.2391663939, -0.5712569356, -0.0480200723, 0.0671193674, -1.1511921883, -1.2308013439, 1.0518205166, 0.3789304793, -1.2518802881, 1.9390717745, 1.6623431444, -0.4990427494, 0.1651826203, 1.3910217285, -0.9036701322, 0.2640320659, 0.6972903609, -0.3240211010, 0.0152373575, 0.6580042243, 0.1043128818, 0.2375116348, -0.0765364915, 1.4182384014, 0.5993443131, 0.2185790390, -0.6622621417, 0.4255433679, 2.9728543758, 1.4875568151, 0.0908211842, 0.2162071615, 0.5475975275, 0.4645639062, -0.2700702250, 1.7207304239, 0.2976896763, 3.2229251862, 0.3659839630, -0.6121101379, 0.9730917215, 2.7238450050, 0.1033403575, 0.1140039861, 0.4498997927, 0.1141140759, 0.4195480645, 0.4178616405, 0.6656099558, 1.9190987349, -0.5635696650, 0.6908710003, -0.2438894063, -0.0606950149, 1.4410035610, 1.3488390446, -0.0928458795, 0.7587677240, -0.0985223949, -1.7428874969, 1.1914466619, -0.1133118644, -0.5529662371, -1.3455338478, 0.2908371687, 2.9959084988, 0.9173941016, -0.6347745061, 0.6711890697, -0.2733595371, -0.1566886306, 1.1822832823, -1.0002875328, 0.9041906595, 0.5688062310, -0.2600565851, -1.1234626770, 0.4435394406, 0.2263458520, 0.7756106853, 0.0907082558, 3.0446164608, 0.5717324615, 1.0433366299, -0.1656684577, -0.6743186712, 1.9062920809, 0.2648741603, 0.6571269035, -1.2106169462, 0.4929629266, 0.0579880998, -0.1700167358, -0.5365933180, -0.1211273968, 0.2149270773, 0.6934880018, 1.5063530207, 0.4153620601, 0.5520473123, -1.9967035055, -0.7823665738, 0.1053900868, 0.5379973650, 0.1421889663, 0.5696204901, -0.1755044758, 2.8750631809, 0.2279429436, 1.0024337769, 0.3683066666, 0.1741412878, 0.1557271183, 0.4732298553, 0.3034147024, -0.7184360623, 1.2444800138, -0.4934808612, -0.1660097390, 0.0257388167, 0.3301579952, -0.7129335999, 2.1336750984, 0.3730748594, 0.1810312420, 1.5984681845, 2.4742116928, 0.8922730088, -0.1921357214, -0.0906541869, 0.8899841309, 0.8099973202, -0.7080632448, 1.2692190409, 0.8800742626, -0.1470333636, 0.3640293479, 0.2246344090, 0.3583023548, 0.3467883766, 1.3464541435, 1.1469399929, -1.2996864319, 1.8005719185};
#endif

#endif
