//Numpy array shape [256]
//Min -0.706113219261
//Max 3.931535243988
//Number of zeros 0

#ifndef B40_H_
#define B40_H_

#ifndef __SYNTHESIS__
model_default_t b40[256];
#else
model_default_t b40[256] = {0.3533537090, 0.4801627100, -0.0227684528, 0.1509834826, -0.4427890480, 0.0713000000, 1.4330378771, 0.5714673400, -0.2653131187, 1.4349015951, -0.3262582123, -0.1654158831, -0.0465539992, -0.1249744073, -0.6503739357, 0.2777289748, 0.7935557961, 0.3809096217, 0.0071842223, 0.2474341989, -0.0389133543, -0.0975990817, -0.1620003581, -0.2475873232, 0.3719716668, 0.5179511905, 0.2528628111, 0.2597509921, 0.2298568338, 0.2738613784, -0.1267928928, 0.8119384646, 0.4011459947, -0.0521478206, 0.8478543758, 1.2376010418, -0.0270057991, -0.2558746636, -0.4637605548, 0.0767905340, 0.0475921258, 0.3411058486, 0.3933522105, 0.3560831845, -0.4311799109, 0.4323715270, -0.2028635144, 0.4425568581, 0.3495465517, 0.2219126672, 0.0556502342, 0.2896623015, 0.6006352305, 0.3497548997, 0.1193646118, 0.1714392751, 0.1486372501, -0.1381950974, -0.0373174325, 0.3128100038, 0.0031572878, 0.3490897417, -0.2219271362, -0.0298005883, -0.0845353752, 0.2071490735, 0.6981133819, 0.3620834649, 0.0707645416, 0.1816557944, 0.2401357293, -0.2107562125, 0.3914847076, 0.3934437335, -0.2991682589, -0.1520416886, -0.0874218270, 1.4942373037, 0.2361476719, 0.3561915159, -0.1369761825, 0.1636732519, 0.2739579082, 0.2377772182, -0.7061132193, 0.9954439998, 0.8229386806, 0.1716851443, 0.4245277345, 0.6460738778, -0.3255644739, 0.0486974940, -0.5076767802, -0.0271976069, 0.1762804538, 0.3597751260, 1.2076963186, -0.1089280993, 0.2513995171, 0.3741060197, 0.3764595389, 0.0338302366, 1.1221227646, 0.7254645228, 0.1100636572, 0.0767004713, 0.5280097723, 0.1568507105, -0.3936134279, 0.5961788297, 0.6374340653, -0.1982078254, 0.0538223833, 0.3803144991, -0.1885812879, 0.4682115614, -0.1966401339, 0.0586215854, -0.6361970901, 0.3700887263, -0.1005747467, -0.2676664889, 0.3797533214, -0.2057734728, -0.0717295557, 0.0888655931, -0.1675946563, -0.0238016155, 0.2965416312, -0.1686050445, -0.1731033921, -0.4399777949, 0.2000283301, 0.2088136524, -0.5053558946, -0.2266776413, -0.3776393533, 0.0836617202, 0.1283268929, -0.2554965317, -0.1778357178, 0.2443887889, 0.4451163709, 0.7809293270, 0.2323254794, 0.1462720186, 0.4789386988, 0.0135050211, -0.3143327534, 0.3797046244, 0.0328528583, 0.4263134003, 0.1599718183, -0.2610406876, 0.0322232768, 0.4078653753, 0.4801613390, 0.7902627587, 0.2033386827, -0.1433971375, 1.3705196381, -0.6876904964, 0.3603532314, 0.4658012688, 0.6265131235, 0.6362864971, 0.0980796814, 0.4480018318, -0.1846248806, 0.2037612498, -0.3379884958, 0.5409410596, -0.4264838994, 0.5714175105, 0.2435906827, -0.0479754508, -0.2649129927, 0.6223554611, 0.0012367666, -0.0641984716, 1.6944975853, 0.4313479960, 0.0603876710, 0.2486435771, 0.7025209069, 0.2918430269, -0.3480607271, -0.0490963161, 0.6802869439, -0.2058905363, 0.3792622387, 0.9086691737, -0.0577165037, -0.2593310475, -0.1352235079, 0.2942463756, 0.2040437162, 0.0737472773, -0.2907752991, 0.4981103539, -0.3643988371, 0.0763810128, 3.9315352440, 0.3305694759, 0.1682266593, 0.1023296937, -0.1642131954, 0.3804034889, 0.4808408618, 1.0109814405, 0.5385192633, 0.5428759456, 0.7571666241, 0.2609595358, 0.3290185332, -0.2300455272, 1.3733788729, -0.0094407424, 0.3280748427, -0.4186668694, 0.1776031852, 0.3537737727, 0.5445975661, 0.0587773882, -0.2420840263, 0.3717570603, -0.3633512557, 0.1989672333, 0.3971256316, 0.1941956431, 0.3786228895, 0.7695692182, -0.1099839956, 0.7357679605, 1.4259425402, -0.4631283581, 0.6215268373, -0.6980555058, 0.6580550671, -0.0768504292, -0.1752028763, -0.0981463492, 0.1659580320, 0.3760296404, 0.0299537778, 0.3815997839, -0.1985539496, -0.0655358657, -0.0064213201, 2.0253777504, -0.0465763882, 0.3799813390, -0.0468676798, 0.0042682029, 1.0119963884, -0.2943170369};
#endif

#endif
