//Numpy array shape [256, 1]
//Min -1.770868062973
//Max 0.698451459408
//Number of zeros 0

#ifndef W50_H_
#define W50_H_

#ifndef __SYNTHESIS__
model_default_t w50[256];
#else
model_default_t w50[256] = {0.4522109926, 0.1629792154, 0.1654945463, 0.1158970073, -0.2859722078, -0.1921472251, 0.1091209725, -0.4800158441, 0.3513369858, -1.0764228106, 0.0436582752, 0.0840779990, -0.6590263247, -1.0946500301, 0.4263583124, 0.3058556020, 0.4033569396, -0.3617328405, -0.7446554899, -0.0531187840, -0.6977240443, -0.1819480211, 0.0870232657, 0.2030160725, 0.4344270527, 0.2003034055, -0.3142743409, 0.3119416535, -0.2005772442, -0.1651611030, -0.3901036978, -0.0725401863, 0.0286774319, 0.0669448301, -0.9439551830, 0.0411101878, -1.1156800985, -0.0016737247, 0.0782589093, 0.2407139838, 0.0980637446, 0.1781764477, -0.5367841721, -0.4227240384, -0.3694169819, -0.3365068436, -0.0996606126, -1.4771903753, 0.3117058277, -1.0198640823, -0.0041616755, -0.3254382014, 0.0702629909, 0.6034228206, -0.5182939172, -1.0286029577, -0.3918978572, -0.7935116887, -0.8175226450, 0.4154016376, 0.1137943566, -0.3644414842, -0.6909766197, -1.2355065346, 0.4032659829, 0.4230454862, -0.0646703765, 0.4681860507, -0.7329856157, 0.0805780962, -0.7170041800, 0.1616945863, -0.1526366323, -0.0231388230, -0.4169293940, 0.2817639112, 0.2538338006, -0.6209296584, -1.1415528059, 0.2758193612, 0.2999846935, -1.4156160355, -0.5819122195, 0.1437842548, 0.1091905236, -0.4938853979, -0.1359823048, 0.3606268466, 0.1243458167, -0.8100590706, -0.2255106866, -0.0355520807, -0.8795764446, -0.5550700426, 0.1341910660, -1.0829278231, 0.1719581187, 0.1102941781, -1.7708680630, -0.8770431280, -1.5183206797, 0.1072468981, -0.6672038436, 0.2931537330, 0.3084718287, -0.2285580933, -0.9164244533, -0.6879837513, -1.1223739386, -0.3012511432, 0.1962718517, -0.1000509635, -0.5248931050, 0.0927620381, -1.1044147015, -0.5863747597, -0.5144040585, -0.5770748854, -0.0718571469, 0.2620676458, -0.0671689436, 0.3935873806, 0.1131228805, -1.2998701334, -0.5107905865, -0.6552693248, -0.1676618457, -0.4831095040, -0.1768228859, -0.7023668885, -0.3040864468, -0.5668038130, -0.0522764474, -1.4619497061, -0.4791013896, 0.2213877589, 0.3459356725, -1.0216597319, 0.5732955933, -0.1104026213, -0.1241632998, 0.1904997975, 0.3455609083, 0.1451622099, 0.1902003586, 0.0478898473, -0.5202391744, 0.0263102595, 0.3695468605, 0.4131872058, -0.4651845396, -0.4412894845, 0.4211202860, -1.3478131294, 0.1496074349, 0.5193508863, -0.4339401424, -0.1752353758, 0.0106182611, -0.9122504592, -0.8243215084, 0.2759345770, 0.0437264405, 0.0448910333, -1.1090723276, 0.1103680506, -0.3924061656, -0.1513406783, 0.0855422467, 0.1804986149, 0.2764323652, -0.8313043118, 0.3569876552, -0.5765900612, 0.3318763375, -0.6505725384, -1.2405110598, -1.3545334339, -0.6086095572, -1.0752681494, -0.6016812921, 0.1435993463, 0.3372828364, -0.0718364045, 0.0741589218, -0.3311969936, -0.9828945994, -0.2548446953, -0.1669903398, 0.3094415963, 0.1039985940, -1.2835081816, -0.2068366110, 0.1254452467, 0.1694098860, -0.8615458608, 0.0937870443, -0.9803091288, 0.1163977608, 0.1587867290, 0.0325122811, 0.0639898852, 0.1967734098, 0.0841205791, -0.1540963948, 0.1992173791, 0.0325758867, 0.1594076902, -0.5553498864, 0.1503963768, -0.7808674574, 0.2823074460, 0.3762902021, 0.0943613574, 0.3933062851, 0.0107369563, -0.7713305354, 0.3245331943, -0.3607952297, 0.3995054364, 0.5789099932, -1.4785197973, -0.1655896604, -0.8066462278, 0.2443388253, 0.1439268291, -1.0094189644, -0.5843411684, 0.3337590098, 0.2348667085, 0.3379746377, 0.3769407570, 0.4007836580, -0.1813519448, -0.7069802284, 0.2045872360, 0.3338510394, 0.4341857731, -0.5007995963, 0.0910340399, 0.0673102736, -0.1358226389, 0.3451520801, 0.3119858205, 0.1660520285, 0.2201299518, -0.7129443884, 0.6984514594, 0.3560774624, -0.7067869306, 0.0425990410, 0.0640823692, 0.5573319197, 0.3852548599, -1.0800884962, -0.5022796392};
#endif

#endif
