//Numpy array shape [3, 3, 16, 32]
//Min -0.769434750080
//Max 0.702147126198
//Number of zeros 0

#ifndef W7_H_
#define W7_H_

#ifndef __SYNTHESIS__
model_default_t w7[4608];
#else
model_default_t w7[4608] = {-0.3893837929, -0.0315866955, -0.0096545685, 0.0665686876, -0.2468232960, -0.1769125313, -0.1410622001, 0.0011065443, 0.3530651927, -0.2497291118, -0.3071211874, -0.2377390563, 0.0618275180, 0.0602408946, -0.5341156125, -0.1208449602, 0.1437055767, -0.3045047820, -0.1413133144, 0.0499673039, 0.1082363650, 0.0026186167, 0.1176335812, 0.0819715261, 0.1243164688, -0.0614697337, -0.1584703177, -0.1486014724, -0.0061149038, -0.3879962862, -0.4911314547, -0.1669958532, 0.1344782859, -0.1247651353, -0.2831481695, -0.2070820481, -0.0352515467, -0.1937358081, 0.1320435107, 0.1521818936, -0.1435674578, -0.1822626144, -0.3508150578, -0.3071288764, -0.2458786368, -0.6320912242, -0.0784596652, -0.1169194505, -0.3130435050, -0.3937649727, -0.0379534252, -0.0114291180, -0.0695568696, -0.4156711102, -0.0097389128, 0.0329500549, 0.1662012190, -0.2035029083, 0.0000039642, -0.1904756576, -0.0670954064, 0.1157826111, -0.1720772684, -0.3143307865, 0.0227499604, -0.2385098636, -0.1174983010, -0.0288273711, -0.1519612223, -0.4309310913, 0.0579089075, 0.0919560120, -0.0636545196, -0.0010202850, -0.2316446453, -0.1428480744, -0.2500810623, -0.3881441951, -0.4490831494, -0.1466794610, -0.1358623803, -0.1355798095, -0.2097621113, -0.1594886780, 0.1380339712, -0.2542453408, 0.4504343867, 0.0242045280, -0.2163232863, -0.0741252303, -0.3338840306, -0.1044602916, -0.3129825592, -0.4139415622, -0.1622219980, -0.1201119199, 0.0592402406, -0.2057069391, -0.0652632862, 0.0752471462, -0.2751743495, -0.1607800126, -0.0361908041, 0.0081485789, 0.2065556496, -0.1472722888, 0.0743301734, -0.2454007715, -0.0993591696, -0.0129728299, -0.4163732827, -0.0791103467, 0.0233750809, -0.3218141198, -0.0924240053, 0.0299647842, -0.2559649348, 0.0882370919, -0.1701329350, 0.1029344797, 0.2135204375, -0.0889113620, 0.2378522456, -0.0199328307, -0.0922824144, -0.3332267702, -0.5869582891, -0.2088287622, 0.1317923069, 0.0747331977, -0.2194170058, -0.0437771790, 0.0420643166, 0.0245507080, 0.2436470985, 0.1837626398, -0.0420087576, -0.1245707944, -0.0229362007, 0.0053950404, -0.2814207971, -0.4798671305, -0.2448462993, -0.1207801178, -0.0639176667, -0.0272601508, -0.1707431525, -0.2662200034, 0.0902051553, 0.1737647057, 0.1856971383, 0.0070783221, -0.0254056789, -0.1031049266, 0.0040303674, -0.0735246092, -0.0492440835, 0.0214113109, 0.0192269050, -0.0812235102, 0.0016939369, -0.0734429657, -0.1125050187, -0.1795392185, 0.1096660420, 0.1913017184, -0.0001897989, 0.0688927472, -0.0272419211, -0.2055595219, -0.0850173086, -0.2967405319, -0.1853475869, 0.0682467967, 0.2435162365, -0.2961326241, 0.1437089890, -0.0353151150, -0.2243035585, -0.0940869004, -0.2584433556, -0.1201703846, 0.0784078166, -0.0015771403, 0.0183093976, -0.3755984306, -0.0047444631, -0.4786894619, -0.3716474771, -0.0557790399, 0.2149610519, -0.3060954809, 0.0801400915, -0.1556872129, 0.0818727836, -0.1669379771, 0.2510674000, -0.0016213241, 0.1311742812, 0.0249246638, -0.0899070427, -0.1199677438, 0.1521260738, -0.0629829764, 0.2490971982, -0.0956238508, -0.0453955457, 0.0648646578, 0.2838717699, -0.0399091095, -0.2129303664, -0.1501000226, 0.2775599658, 0.0644731894, -0.1097931117, 0.2327512354, 0.1227037013, -0.0880150273, -0.0111327702, -0.2256159186, -0.2389895320, -0.1053977385, 0.1215528920, -0.2332857698, 0.0762940794, -0.2105845511, -0.2758401036, -0.0808717608, -0.1358756125, 0.1296897531, -0.1430417597, -0.1122078300, 0.1242241636, -0.1948159784, -0.0373881571, -0.5156513453, -0.5553383231, -0.1018270701, 0.1953249723, -0.2033711970, 0.2609342337, -0.2348765433, -0.1729636192, 0.0908039883, 0.0726082623, -0.0181228351, 0.1630335450, 0.1490344852, 0.0110069290, -0.0399172381, -0.0692297593, 0.0888470858, 0.2376746386, -0.1205279976, -0.0305656511, -0.1634175181, 0.2479076833, -0.3103392124, -0.2810840607, 0.0167708397, -0.1177098677, 0.0188254621, 0.1127581894, 0.0894816965, -0.0072557125, -0.0790804550, -0.0901431590, 0.1548966318, -0.1785019785, -0.0103699360, 0.0019571420, -0.2433068752, 0.3192873299, -0.1994172335, -0.3869279027, 0.0726255327, 0.0094608823, -0.0330559835, -0.0178998131, 0.0901575536, -0.1755736321, -0.1723574996, -0.1111043841, 0.0173846874, -0.3351122141, -0.0155178448, -0.0545651242, -0.2804226875, 0.2138256729, -0.0105707459, 0.0200188179, 0.0354486480, -0.1959287673, 0.0086875558, -0.3845174909, -0.7694347501, -0.1837928593, -0.1349880099, -0.0563674271, -0.1919753402, 0.1588295549, -0.0491943024, -0.1670590490, -0.2021230608, 0.1784489006, -0.0795091316, 0.0784909874, 0.0050988221, -0.2968816459, -0.0039791358, -0.2055322230, -0.6324889660, 0.0457304306, -0.0916538164, -0.0571875870, -0.1370324343, 0.2618585825, 0.0876255780, -0.2227992564, -0.2501738966, -0.0266080257, 0.2079582810, 0.1450959295, -0.1837963313, -0.1492996514, 0.2112308145, -0.4163095057, 0.0539278351, -0.0627322942, 0.1359956264, -0.1784674227, -0.0505720116, 0.1946893930, -0.1478899568, -0.0433094688, -0.1152947471, 0.0086277733, 0.0114578679, -0.0245550331, 0.0721674412, 0.0877183527, -0.1193912104, -0.2837834656, -0.4726708531, -0.0182788372, 0.0879346281, 0.1307363659, -0.1530585140, -0.1266790628, 0.1558655649, 0.0599367879, 0.0258338768, 0.0006476385, -0.0278451983, 0.0259269569, 0.0778996274, -0.0284109395, 0.1127691939, -0.2980189025, -0.5815295577, -0.0800828859, -0.0156940222, 0.1789085716, -0.2216293514, -0.0751220509, 0.2420504689, 0.2906916142, -0.0351395905, -0.1956715584, 0.0257063471, -0.0371552892, -0.0548501238, -0.1207937300, 0.0246653929, -0.2905526757, -0.0510516725, -0.0960321277, 0.2251183093, 0.1643112600, -0.0419033952, -0.0449210815, 0.2450755239, 0.3572708368, -0.0497058630, -0.1879897863, -0.3367825150, -0.1803763062, 0.1540804803, 0.0660027787, -0.1827555299, 0.0685401931, -0.1159495562, -0.0112755224, 0.2069054395, -0.0187521335, -0.0206449889, 0.0647894442, 0.0338135995, -0.0368963629, -0.2109030038, -0.0927874371, 0.0132303415, 0.0272760596, 0.1988204271, -0.0606105030, -0.2447839230, -0.1353857368, -0.4750967920, -0.0654464811, 0.1313731372, -0.0557867438, -0.0085345739, 0.1767656356, 0.0829366967, -0.0345010310, 0.0273105707, -0.2003464848, -0.1147616655, -0.1022927910, -0.2116894424, 0.0410166904, -0.0485179909, -0.1298400015, 0.0896813720, -0.1074991971, 0.2398523688, -0.2841218114, -0.1616145670, -0.0395092182, 0.1517698914, -0.0318627395, 0.0504959933, -0.1463296264, -0.1268423796, -0.0526350252, -0.0706348494, -0.0686761811, 0.1701799482, 0.1160296053, 0.2667118907, -0.2298897505, 0.1610250920, 0.0624073744, 0.0835010782, 0.3041423261, -0.4269509315, -0.4859504700, -0.0413251184, 0.0017084581, -0.3929809630, 0.0556540526, 0.0104907677, -0.2335687131, -0.0248464067, -0.0818751603, 0.3717457056, -0.1168379486, 0.0643086135, 0.2062506378, -0.1014413238, 0.0847128481, -0.4209654927, -0.2872391939, -0.0975949019, -0.0261387452, -0.3023195565, 0.0314267538, 0.0718261674, -0.1907589287, 0.0366786681, 0.1111848876, 0.3012597263, -0.3007850051, -0.0155967111, 0.1933019906, 0.1548095345, 0.3145879805, -0.4331000745, -0.2783736587, -0.0386188440, -0.2780089676, -0.0671700612, -0.2472266704, 0.0334570482, 0.1640430540, 0.1660746634, 0.0057691084, -0.0487516597, 0.3926067650, 0.1034470275, -0.1459266245, 0.0502601601, -0.0634912401, 0.1094501317, -0.1964414567, -0.1815017015, -0.0164738726, 0.0636609122, -0.1370760500, -0.1013923287, -0.0017168999, 0.0382919274, -0.0667124316, 0.0117573747, 0.3386842906, 0.1997010857, 0.0013393963, -0.0806774050, 0.1529949903, -0.0474453717, -0.1564163417, -0.0402866304, -0.1196195781, -0.0183641762, -0.2650723457, 0.1084198058, 0.2108504623, 0.0660726950, -0.0851708204, 0.2179775536, 0.2866522372, -0.0509877317, -0.0531250685, -0.0682943016, 0.2820242047, -0.1740896553, -0.2507576644, -0.0532133989, 0.1549767107, -0.1069639549, -0.1924387813, 0.0774488226, 0.0195255093, 0.0530579574, 0.1423943341, 0.0155299865, 0.0975819677, 0.0036674063, -0.0815550834, 0.0854857862, -0.2070544213, 0.0617907010, 0.4032654166, 0.1294287443, 0.3983152211, -0.2702720761, 0.0223538652, -0.1584585309, -0.1404857486, -0.3028607368, -0.1742652357, 0.1123942956, -0.2496100217, -0.0125501826, -0.0775113478, 0.2425948828, 0.1154678464, -0.0667873025, 0.2532272339, 0.1265582740, 0.4406701624, 0.0803044513, -0.1086313501, -0.0614433214, -0.1300461739, -0.1057689413, -0.0286181271, 0.2341067493, -0.2153578997, -0.1713764668, -0.1684197187, 0.3311679959, 0.3242247701, 0.0031167599, 0.4997584224, 0.1005932838, -0.0049786940, -0.1087256297, -0.0139134945, 0.1550195366, -0.2019155771, -0.0029137295, -0.1717740893, 0.0216886606, 0.0333948769, -0.0600187108, 0.0144306580, -0.0674330667, -0.1668994129, -0.1408796310, 0.0771181434, -0.3199417591, -0.0061362758, -0.0129886381, -0.2088869959, 0.1417351216, -0.1901493669, 0.1100751683, 0.0903994888, 0.0701102316, 0.1255498677, -0.0546885431, 0.3412048519, -0.1270367056, -0.2092612833, -0.0440987535, 0.3716650009, 0.0316853225, -0.1144504994, -0.1290283352, -0.1195506379, 0.2281987667, -0.1225919053, -0.0807571188, 0.0611189343, -0.0509725548, 0.2362365723, -0.2283865809, 0.2114943117, -0.0985793099, -0.0558398403, 0.0371436477, 0.2110579759, -0.1779374182, -0.1713004708, 0.0221765023, -0.1417675465, 0.2319958955, -0.0174736232, 0.0810487196, -0.0879595503, -0.0190822110, -0.1436538547, -0.1681511402, 0.1834542453, -0.1875077337, -0.0917583257, -0.1533995271, -0.0078065572, -0.1349425316, -0.0136253191, 0.0788732693, -0.2140256763, 0.3367435932, -0.0553639904, 0.0816061795, 0.1789170653, 0.0417910628, 0.0388870500, -0.1231789440, 0.0323161893, -0.0694572851, -0.1283109486, -0.0781647563, 0.1779363900, -0.1375419199, 0.0112844240, 0.2698444128, -0.4220209122, 0.2389626652, 0.0088104988, -0.0482314304, 0.1332558692, 0.1228310764, -0.0685834140, -0.3157946169, 0.1367897987, -0.1545972228, -0.0261986479, 0.2062145621, 0.3190660477, -0.1394022852, -0.1391526014, -0.0368035920, -0.2810391486, 0.1893198192, 0.1685520709, -0.0339760669, 0.0558965318, -0.0437490717, -0.0494916439, -0.0965789557, -0.2222064435, 0.1434006393, -0.0598172247, 0.2120492458, 0.2390144169, -0.0417112187, -0.0485660620, 0.0696501210, -0.5636500716, 0.1816584319, 0.1308656782, 0.0709917694, 0.1649841517, 0.1653517187, -0.2062259465, -0.1234623268, -0.0008411160, 0.1280947179, -0.1474808604, 0.1905864328, 0.3745721877, -0.0855055973, 0.1124137715, 0.2435098290, -0.3182481825, 0.3117804527, 0.1224925965, -0.1227663681, 0.0766487122, 0.0894472003, -0.1432791799, -0.1783602089, 0.0196973421, -0.0347500741, -0.1660087258, 0.2351336032, 0.4268455207, 0.0147485407, 0.0211914815, -0.0058615762, 0.3000197411, -0.3773652911, 0.2529901564, -0.1574146003, 0.1252286732, 0.1077931672, 0.2295334786, 0.2490296811, 0.1090098619, 0.0038052518, -0.0095393378, 0.1274328232, -0.0986688659, 0.1848075688, -0.1028743386, 0.0753970519, 0.3308801949, -0.1274349242, 0.0843585879, -0.1259786338, 0.3228743374, 0.1034218445, -0.0545229129, 0.6153598428, -0.0379176363, 0.0876193643, -0.2010727078, -0.0502552167, -0.0251178630, 0.1723845303, -0.0112036206, 0.0492545888, 0.0255877897, -0.3198756874, 0.1657482684, 0.0728340074, 0.4174607098, -0.1914206892, 0.0156659856, 0.4658603668, 0.2156832367, -0.1660843939, -0.0110082757, 0.0280821621, -0.2368641347, 0.0672921315, 0.0174183436, 0.1750899106, 0.0302243121, -0.3965816200, -0.0203279257, -0.1115745008, 0.1968172640, -0.0722949207, 0.0782581717, 0.1975068599, 0.0091350926, -0.4403048456, -0.0914889798, 0.0266327560, 0.1015252247, -0.2260793597, -0.1003021672, 0.1472588331, 0.2238149196, 0.0013862330, 0.2346646786, -0.2477154285, 0.1757037789, 0.0267214905, 0.0719393566, 0.2951386869, -0.1327479631, -0.1784582734, -0.3199373782, 0.2367427349, -0.0617452934, -0.1796383113, -0.0546771586, 0.1884397119, 0.0489189103, 0.0786258727, 0.0955521762, -0.2162213326, 0.3482451737, -0.2536765039, 0.2700629830, 0.2673376203, -0.0192937143, -0.1669190675, -0.2649449408, 0.4315716326, -0.2065540850, -0.1731416285, -0.0199196301, -0.1064676344, 0.0756099373, -0.1543211490, 0.0711680651, -0.0899510980, 0.0910230577, -0.3153692782, 0.0580171756, 0.0848945528, -0.1911963373, -0.3277562559, -0.0506796278, -0.1010130793, 0.0293205865, -0.1759238094, 0.0064171935, -0.0162851997, 0.0372571871, -0.1691952646, -0.1139835715, 0.0699778870, 0.0354704522, -0.1981109381, 0.1920205802, 0.0750280246, -0.3095788062, -0.0911180303, -0.2575350404, 0.2062028944, -0.0975945368, -0.2153679132, 0.1035855263, 0.2654266655, 0.4310566485, -0.2455791980, 0.1114899963, 0.0937377885, 0.3427723050, -0.1373901665, 0.3062537313, 0.1513641179, -0.0829560608, -0.0269703139, -0.1298606247, 0.3023331463, -0.2589200139, -0.1613762230, 0.1334136277, -0.3329190910, -0.2505637407, -0.1688419580, -0.3220915198, 0.0163334850, -0.2982732654, 0.1609651148, 0.2602340579, -0.2254866660, 0.1936000139, -0.2928361595, -0.1839175969, 0.1815396249, 0.3715826571, -0.3188191354, 0.2217860818, -0.2927297950, -0.1879442334, -0.2509479821, -0.3631507754, -0.1221192405, -0.1079152226, 0.0481481776, 0.1358548701, 0.0019291430, 0.1010207608, -0.2080126554, -0.2412377149, -0.0252419040, 0.1985615343, -0.3533329666, 0.2823477685, -0.1431722492, -0.1608549953, 0.1087248400, -0.3576192558, 0.0138486605, 0.0708152130, -0.1901309341, 0.1417576969, 0.0236884039, 0.2812417448, -0.0825278386, -0.1156225577, -0.0450965613, 0.1404214799, -0.1782446206, -0.1534373909, -0.0578346141, -0.1354162842, -0.2128757238, -0.2047904730, 0.0580780692, -0.2549988329, -0.0827661306, 0.2017984092, -0.2611161470, 0.0127856098, -0.3208805323, -0.1115059331, -0.0633699223, 0.0360121876, -0.3138531148, -0.1147961169, 0.0774587169, -0.3400344551, -0.0110904016, -0.1909274608, 0.1700986773, 0.0152981924, -0.2511959076, 0.0882352591, -0.1083962619, 0.3341670334, -0.3616404235, -0.0527184643, -0.2209216058, 0.0162101649, -0.0992686972, -0.0864111260, 0.0988524035, -0.1560403407, 0.0702005699, -0.2293683589, 0.1295603514, 0.0626801327, -0.3012216985, 0.0339262821, -0.0067016389, 0.1565829962, -0.0622290447, 0.0575072244, -0.3205124736, -0.0315556526, 0.0764468685, -0.1112713069, 0.0229458828, -0.4218056798, -0.0806553736, -0.0963792205, -0.0205674861, 0.0570653342, 0.1521843672, 0.1459416002, -0.1721399575, -0.1321588010, -0.2367443591, 0.2111331522, 0.0399407372, 0.2609442770, -0.1819123328, 0.0770737976, -0.0416317470, -0.2933246195, 0.1231277063, -0.0103306687, -0.1228508726, 0.1719995439, 0.0886868462, 0.0694067329, -0.1324997842, 0.0375120640, -0.2708850801, 0.0094264494, -0.1856548041, 0.0855600759, -0.1728177816, -0.1003528833, 0.1339738965, -0.3383511305, 0.3340921998, -0.0146125760, -0.3559646606, 0.3565874696, 0.0343540907, -0.2419480532, 0.0310058463, -0.1146586016, -0.1632678360, 0.2077347189, -0.2714434862, 0.0143408896, 0.0290127937, -0.2909260094, 0.0119456705, 0.2202103138, 0.3306460977, -0.0583294593, -0.3374857008, -0.0825011283, 0.1879834980, 0.0198103599, 0.0527264960, -0.3847202361, -0.0258534215, -0.0670110062, 0.2293248177, -0.0353939161, 0.0547685660, -0.1460884660, 0.0415806621, 0.2915862203, 0.1159386709, 0.2002783567, -0.2057865411, 0.0676186681, 0.1695833951, 0.0527040027, -0.0086032869, -0.4318600893, -0.0657272860, -0.0951314494, 0.3508028984, -0.0748756975, -0.1931455433, -0.0175874196, 0.0588895120, 0.3355130851, 0.0364612415, 0.2844663262, -0.2517342567, 0.1461658329, 0.2216382474, 0.0150054609, -0.0898730531, -0.5954622626, 0.0187930167, -0.0099311965, 0.5978565216, -0.2392673790, -0.1527525038, -0.0521301031, 0.0031255097, 0.4902699590, -0.2888187170, -0.1320362389, -0.1186130419, -0.0576840043, 0.1498365849, 0.1638297737, -0.1071881950, -0.3401014805, -0.1849597842, -0.1838813424, -0.6717935205, -0.1779481024, -0.3139455616, -0.1737649590, 0.0356157422, 0.1554403901, -0.4047794938, -0.1161258593, 0.0229895450, 0.0937849581, 0.1274870634, 0.2015809864, -0.1231534109, -0.4468268454, -0.0221564211, -0.1854310483, -0.5211644769, -0.2372484356, -0.2115578651, -0.3038518429, -0.0942016765, 0.3190947473, -0.3324819505, -0.1422164440, 0.1608504653, 0.1845240295, 0.0624566674, 0.1533278227, -0.1172807142, -0.3486661911, -0.2411159277, -0.0172049310, -0.5435711145, -0.3191138506, -0.2072385848, -0.0639184937, -0.0618332922, 0.4921312034, 0.1311371177, -0.1649108082, -0.0146512836, -0.0118556991, 0.3027328253, -0.2086090446, -0.0476402082, -0.0172851477, 0.1038282886, -0.1859996319, -0.5363351703, 0.1194578707, -0.1773784012, -0.0938635021, -0.2129019052, 0.1678089797, 0.1533742994, -0.1483112574, -0.1081276238, 0.1631951779, 0.0734727085, 0.1745348126, -0.1434804350, 0.0757941082, 0.2769791484, -0.2933457494, -0.5075526237, -0.0355522484, -0.1402618587, 0.0465550385, -0.0661068633, 0.2282653302, 0.0872639716, -0.1139591187, 0.2471135557, 0.0253209863, 0.1619452834, -0.0105570629, 0.0200829785, 0.0892936885, 0.4710227251, -0.1027419269, -0.6339409947, -0.0933453143, 0.0262201633, -0.0007081970, 0.0805150196, -0.0738861635, 0.1808727682, 0.1440203339, 0.2055768371, -0.0739112645, -0.2379719764, -0.0340041816, -0.2196177244, -0.2139219195, 0.3686989248, 0.0534928069, 0.1001010761, -0.2336816788, -0.0645962507, 0.0668857172, 0.2286927998, -0.2477043569, 0.0370423160, -0.2718738019, 0.0370781124, -0.0529871471, -0.3474088907, 0.0134089049, -0.2090538293, -0.0170751270, 0.3979549110, 0.3006527424, 0.1710896343, -0.2872185409, -0.1365074366, -0.0405497327, -0.0639318377, -0.4645243883, -0.1117510125, -0.0299827382, 0.0063384217, 0.2354135811, -0.1037806273, -0.2480065674, -0.4617482722, 0.0638039634, 0.2056043148, -0.0039445674, -0.0253277849, -0.1138500124, -0.0827545673, 0.4244501889, 0.0094579980, 0.0196482763, 0.0080730850, -0.0506763682, 0.1453471929, -0.0838921368, -0.1486924142, 0.2227578610, -0.1629164517, 0.1676848382, 0.1250885874, -0.0320082381, -0.2203688622, -0.2307164818, -0.0797663927, 0.2356757820, -0.0012951220, -0.0693685412, -0.0114355441, -0.2098350525, -0.0638972148, -0.1570540220, -0.3939668238, 0.0823684260, -0.1300561428, 0.3086912036, 0.0907367989, 0.0132685145, 0.0388542637, -0.2434526384, 0.1313558221, 0.1810774058, -0.0393700786, -0.4433636963, -0.0359239653, -0.1095916033, 0.1117920727, 0.0849074721, -0.1949563324, 0.1035205275, 0.0201921538, 0.1333814710, -0.1038544700, -0.1414160281, -0.0989164263, -0.1321792901, 0.1778745055, -0.0484535620, -0.1436968297, 0.0979242474, 0.1389073133, 0.0175263863, 0.1715634018, -0.0706898272, 0.0099322405, 0.0358340852, -0.2971122861, 0.4242746830, 0.0346002355, 0.1792539656, 0.0094973780, -0.3887016177, -0.0957977548, -0.0047076200, -0.2080661505, 0.1488354951, -0.3235619962, 0.0194186121, -0.2826391757, -0.1445324719, -0.2337348014, -0.3520955145, -0.2009474337, 0.3395811617, -0.1544171870, 0.2588759661, 0.0703548491, -0.3071515262, -0.0926196948, 0.1433158070, -0.0329808109, -0.1350921690, 0.0062475996, -0.0319282301, -0.3729603887, -0.0919682980, -0.3191483319, -0.0466467813, -0.2851818502, 0.0026856950, -0.2514360249, -0.1478013396, 0.0102410112, -0.2680970728, 0.0981490016, -0.2700253427, -0.1526437700, -0.2150984704, 0.4248342812, -0.2049423456, -0.1307203174, 0.0080005424, -0.5239857435, 0.1827059090, 0.1877828091, 0.0601692237, -0.2449840754, 0.0431537069, 0.1427906901, 0.1105945408, 0.1184466928, -0.1738551408, 0.1844415069, -0.1439408958, -0.0828514844, 0.1800025105, -0.0513195060, 0.0306520611, -0.2511623800, 0.1906132847, 0.2033737898, -0.2039551586, -0.1899565607, -0.0756230056, -0.0009825147, 0.3308114707, 0.0779374763, -0.1878800690, 0.1459301412, -0.1291135103, -0.0485581048, 0.0151466699, 0.0274000615, 0.0897337496, -0.2265627086, 0.3985848725, 0.0300182272, -0.0213436317, -0.0529693365, 0.1040271148, -0.2565106153, 0.1923805326, 0.1983913034, -0.4699351490, -0.0859961957, -0.4032437503, 0.1081790030, -0.2255885452, -0.2418062836, 0.0829081908, -0.4493012428, 0.0582419448, 0.2530583441, -0.2953426838, -0.1097346023, 0.3296661973, 0.3273544014, 0.1581393182, -0.1004112363, -0.5052673221, -0.1307230443, -0.2154810429, -0.4116511941, 0.1338606477, 0.1285604984, 0.1697360277, -0.3271625042, -0.0636613816, 0.3724553287, -0.3846510351, -0.1807610989, 0.3243613541, -0.1126581430, 0.2953869104, 0.1339093298, -0.1354397535, -0.0171175171, -0.2692907453, -0.2590492070, -0.2490107119, -0.0164807178, 0.1994311661, -0.0505790897, 0.1594556123, 0.1216048449, -0.2004487962, -0.3295769989, 0.0364224985, -0.1429377645, 0.4091154635, -0.0546490848, -0.0962029919, -0.3886133432, -0.1398678571, 0.6068128347, -0.4592009485, -0.3265233636, 0.0116700837, -0.3138083816, -0.0551948808, -0.0086446172, -0.2512554824, -0.1366897970, -0.0184254367, -0.0463991128, 0.1371749341, -0.3116321266, 0.0241642799, -0.2230953425, 0.0955990106, -0.1527049989, 0.1954325885, -0.1703165323, 0.2902463675, 0.0449056216, -0.2625446022, 0.2022490650, -0.1881836653, -0.2011702061, 0.0541456342, -0.3018666208, 0.1367707103, -0.1011404246, 0.1064013317, -0.2888598740, -0.0652346462, -0.0310333781, -0.0321964659, -0.2584977746, 0.1038784757, 0.1378198266, -0.1491877288, 0.2669354081, -0.2616530657, -0.1503841430, -0.1430041492, -0.4353395998, 0.4030322433, -0.3800145686, -0.1835692972, -0.1391907036, 0.1586959213, -0.1135947481, -0.1697195768, 0.1876259744, -0.1685548425, 0.0313545130, -0.3040960431, -0.2419294268, -0.0411426760, 0.1341579109, -0.1218697876, -0.0490146615, -0.6714454293, -0.0511391722, -0.1799802482, -0.1359729618, 0.0351684615, -0.2248625755, -0.2144892663, -0.0116603570, -0.1704061478, 0.0280415080, -0.1338523626, -0.3251444697, -0.0683111921, -0.0454964563, -0.1562988162, -0.2486326844, -0.4720538557, 0.0071630329, -0.1244709715, 0.0259153377, 0.0053208345, -0.2459436953, -0.1450327635, -0.1657054424, -0.0120234257, -0.0798456892, 0.0068688882, -0.4140191972, -0.0664662868, 0.0244424902, 0.0536734499, -0.1278703958, -0.5332963467, 0.0801083520, 0.1315274388, 0.1468457729, -0.1354348212, 0.2259893566, 0.0883042067, 0.0425094962, -0.1404876709, 0.0478772894, 0.1857403368, -0.0038356560, 0.0891648307, -0.0683174208, 0.1036728844, -0.0720602274, -0.2085322589, 0.0239290912, 0.2501159012, 0.0422573127, -0.3290961683, 0.0064854869, -0.0254065711, 0.0084146010, -0.1055532470, 0.0415896848, 0.0570045710, -0.0651400834, -0.1317146122, 0.0167960990, -0.1351563632, 0.1270769686, -0.0628242567, -0.1406839788, 0.1444676965, -0.0987016633, 0.0408342034, 0.0618505664, -0.0253060590, 0.0599250421, 0.0837423801, -0.1078756824, -0.0814187527, 0.0042193527, -0.0274145100, 0.0192236267, 0.1657587588, 0.1427862644, -0.2148479372, -0.0919592083, -0.0103636747, 0.0853793174, -0.2267102450, -0.1235682592, 0.0381838158, -0.0427922904, 0.0082203466, -0.3633608818, 0.3482475281, -0.0146160061, 0.0977393240, -0.0212684311, -0.1187354475, 0.1813206673, -0.4256821871, 0.1488411725, -0.0156093584, -0.0524372645, -0.3239865303, -0.2475217730, -0.1508533210, 0.0371524394, 0.0120151686, -0.0973341241, -0.0026094753, -0.1306445301, 0.0469993316, -0.0301677752, -0.2371607721, 0.2182550579, -0.2006607205, -0.0101616513, -0.3528415263, -0.0906153917, -0.1196197346, -0.2976566851, -0.0102153905, 0.0549251139, -0.0576034673, -0.1608615369, -0.1315010041, -0.0663923249, 0.1053151190, -0.1068129539, 0.0178660396, 0.1217257679, -0.2545487285, -0.0583940558, 0.1365753859, -0.0916178077, -0.0110510169, -0.1218163893, -0.2371637970, 0.1738431603, 0.0215696786, -0.0750514716, -0.1101222187, 0.1779737473, -0.2349644303, -0.2298866659, 0.0679977462, -0.3460634351, -0.3547592163, 0.1254083067, 0.1846833825, 0.0401148200, 0.1659431159, -0.4102483094, -0.0344188772, 0.1326989233, 0.4043661356, 0.0310738571, -0.0615220517, 0.0782307535, -0.1718733460, -0.1409214735, 0.0426635146, -0.3015848100, -0.1971107423, 0.0391879641, -0.1458385885, -0.1196547821, 0.1252789795, -0.2336841673, 0.2476351559, 0.0682872087, 0.0714980662, 0.0103747593, -0.3561711609, 0.2160141021, -0.1682816595, -0.1151542440, 0.1813276857, -0.1322075129, -0.1816239059, -0.0496876463, 0.2700580955, -0.1558858454, -0.0276224017, 0.1735794246, -0.2991639674, 0.1483833045, -0.2504459321, 0.2340362668, -0.1017639264, -0.0826015770, 0.0011946161, -0.0678876266, 0.0439677387, -0.1699638963, -0.0834292769, 0.1438958347, 0.2844006717, -0.0971510634, -0.0140559440, 0.2837962508, -0.1269961894, 0.2624131739, -0.0653722361, 0.1291621774, 0.0294286236, -0.0630754903, -0.0993720517, 0.1122837961, -0.1658561081, -0.2441079617, 0.1532948017, 0.0660668761, 0.2046002597, -0.1658752412, -0.0275931563, 0.2893729806, -0.1047019735, 0.1481594592, 0.1232372150, 0.0898109600, -0.0524789952, -0.0204689410, 0.2405175418, -0.0963472128, -0.0038768563, -0.3564776480, -0.0366727784, -0.0313385651, -0.1583082676, -0.0814314261, -0.0893890485, 0.1237362027, -0.0803773925, 0.2342575788, 0.0237837769, 0.1111709327, 0.3066084087, -0.0989135131, 0.0783902928, 0.2676247060, 0.3214652538, 0.3532049656, -0.1191543788, -0.1560763866, 0.0631646961, -0.2440853417, -0.1688282490, 0.1798584610, 0.0487346575, 0.1478895992, 0.0148013858, -0.0155729866, 0.1538047194, 0.1036083028, -0.0273425374, 0.1128332764, 0.0328277834, 0.2313824147, -0.1308560073, -0.0322784111, 0.0746032894, 0.0434894077, -0.3728638887, 0.3245189190, 0.0375463143, 0.0367846228, 0.0191184003, -0.0576341078, 0.3047583699, -0.1915509403, -0.0941828564, -0.0491208099, 0.0868302584, 0.2128841281, 0.0315183550, -0.3264722228, -0.1221603155, -0.0707461461, 0.1044826061, -0.2154988796, 0.0878872722, 0.1389808357, -0.1465895176, 0.0742267668, 0.0431749485, -0.0978215411, 0.3800646067, 0.1206843033, 0.1531109810, 0.0642989874, -0.2307105511, -0.1713582128, -0.0756110549, -0.2600082159, 0.2001104653, -0.0385146067, 0.0038122891, 0.2720141113, 0.0179498494, 0.1216070950, 0.0384641774, -0.2902600467, 0.2732218206, -0.0013751782, -0.1473012567, 0.2113835663, -0.1259183288, -0.2064753324, -0.2583803833, -0.0195236281, 0.2877256274, 0.0752816722, 0.0680253208, 0.0143506676, 0.1149864346, 0.1516645700, -0.0013449586, -0.1393056065, 0.6631740332, -0.0554507226, -0.0686073527, 0.1972318292, -0.1690762341, -0.0738194734, -0.2095564157, -0.0721568763, 0.3001737893, -0.1370666772, 0.1388041824, 0.2200911492, 0.1361830831, 0.1201268882, 0.0051442771, -0.1000580266, 0.0047926381, 0.0740893707, -0.0501335151, 0.4805462360, -0.4522707462, -0.2972894609, -0.1690216959, -0.0623874515, 0.3256223798, -0.1405334920, -0.2551298141, 0.3968827724, -0.2045882642, 0.0981334522, 0.0483741388, -0.1141975373, -0.0459265225, -0.1876109391, -0.1445019543, 0.1561120450, -0.3145027161, -0.3843761981, -0.0766722485, -0.0449481010, 0.3237044215, -0.2464904785, 0.0418647602, 0.2563543022, 0.0375585631, -0.1352953464, -0.1019002795, -0.1589278728, -0.1396926939, -0.0797551721, -0.3118939102, 0.1501333863, -0.3422309756, -0.1528879553, 0.1198143363, -0.0827849805, 0.3419429064, -0.1599739939, -0.0218730066, 0.1376470476, 0.2571381032, 0.0964953378, -0.1869077981, -0.1901688725, -0.0567668416, 0.0364834405, -0.3145085871, 0.2433501482, -0.2371655405, -0.1321552545, 0.2172989100, -0.1365069896, 0.2227955610, -0.0751178041, -0.0908387527, 0.0502681211, 0.1590159833, -0.1146189421, -0.1877154857, -0.1526703238, -0.0563927069, -0.2230489105, -0.2334540486, 0.0405626446, -0.3982724845, -0.2607113719, 0.6535250545, -0.0030337009, 0.3817552626, -0.0164884869, -0.2380757183, 0.0359584764, 0.3636419177, -0.1557483077, -0.0572549589, 0.2274193466, -0.2488729805, -0.2663383186, -0.2845813930, -0.0318894237, -0.1813152134, -0.0319399275, -0.0597802140, -0.2366939485, -0.3270623088, -0.0915485248, -0.3155800402, -0.1610765457, -0.1549340487, -0.0992586389, 0.1812770814, -0.0177467056, -0.0144054601, -0.2741739154, -0.0842203051, 0.2072364092, 0.0546636619, -0.3876478076, 0.0694583282, -0.1279145330, -0.1685169637, -0.1700277030, -0.1330052465, 0.0162979700, -0.0154950628, 0.0828969032, -0.1719963104, -0.1467006803, -0.1363572478, -0.3151391745, -0.1732674837, -0.0731230155, 0.0440724343, -0.2762085199, 0.1693965644, -0.0584383644, -0.2486597300, -0.0817699432, -0.1878917664, -0.1842414141, 0.0753905699, -0.1375409812, -0.0940497518, 0.0736880749, -0.1266446859, -0.4067211151, -0.3670573533, 0.0765181705, 0.4149703681, -0.2262247056, -0.1536467224, 0.0117609547, -0.0397186987, -0.0360587686, -0.0285167005, -0.2559203506, -0.1156542227, 0.0378649160, 0.1505251378, -0.1673125178, -0.2791808844, -0.3062386811, -0.2805743217, 0.0896427855, 0.0714322776, -0.2153722495, -0.0925779343, 0.0110424738, 0.0011421139, -0.0509795621, -0.1020155847, -0.1411473751, -0.0305073094, 0.0304259509, 0.0144941444, -0.0753851905, -0.1234256998, -0.2582797110, -0.2520604432, -0.2681974173, 0.1987574100, -0.1952698231, 0.0784057230, 0.1108663827, -0.1774222702, 0.1886131167, -0.1524582207, -0.2316204756, 0.0077957744, 0.1242924631, 0.1039801911, -0.0931921080, -0.2329825908, -0.3252284229, -0.2327205241, -0.2243687809, 0.1525082588, -0.1785655171, -0.2585072815, -0.2178945839, -0.2128002048, 0.2549234033, -0.1306632310, 0.0787385702, -0.1586524099, 0.0475075729, 0.1092139408, -0.2650503516, 0.1334080398, -0.1571147442, -0.0374133550, 0.0694526285, 0.1448385566, -0.2783553302, -0.1210827380, -0.0917366222, -0.3116957545, 0.1820680499, -0.1772888005, -0.0021089183, -0.1369387060, 0.3177016973, 0.2435014248, -0.2351579964, 0.2041801065, -0.1163973808, -0.2494117767, -0.1885914057, 0.1973163933, -0.4741880596, 0.0988215506, -0.2118101567, -0.2967011631, 0.1381878108, -0.2235606760, -0.0944945812, 0.0868363157, 0.3912819624, 0.0210932270, -0.1844674051, 0.1426743120, -0.0465667062, -0.2794239223, -0.1462721527, 0.3437727988, -0.2036804706, -0.0559181608, -0.1296863705, -0.0508631170, -0.0048894174, 0.0831266716, 0.0048422669, -0.2217052430, 0.1432547569, -0.0939201340, -0.0223526470, -0.0336739458, -0.0075503928, -0.0979345515, -0.3543094397, -0.1562920064, 0.3030230105, -0.2279009819, -0.2926671803, 0.0256831832, 0.2544388473, 0.1085289046, -0.1838924736, -0.0583330616, 0.5061713457, -0.4533176422, -0.1622402221, -0.1918056011, 0.1245337129, -0.0799003020, -0.1993964761, -0.0937511623, 0.1092653796, 0.1797166914, -0.0754400268, 0.0888838246, 0.4346393943, -0.0052433559, -0.0400805585, -0.2402797788, 0.1679884642, -0.1312133670, -0.1961613297, -0.1155977622, 0.2164816409, 0.1708623022, -0.4451527297, -0.0032218937, 0.3572542965, -0.0771569759, -0.0658105463, -0.2110722959, -0.0955207720, -0.0281745214, 0.1511667669, -0.1874209642, -0.0298988950, 0.3331000209, -0.0463396311, 0.3467355669, 0.2993467152, 0.0657028779, 0.4446240067, 0.0955459103, -0.0343752280, -0.4479937553, 0.0041628811, -0.0768000558, 0.2567542195, 0.0583628379, 0.0709052086, -0.0536323301, 0.1388511658, -0.0607720539, 0.0506010428, 0.5586889386, 0.2609032691, -0.0676186010, 0.2690831125, 0.0680931807, -0.1279295087, -0.0575150810, 0.0976980850, -0.2805397213, 0.2078156024, 0.0870903134, 0.0201241169, -0.0480162539, -0.1243064627, -0.0146268383, -0.1802466065, 0.3897458315, 0.2660811245, 0.1540829688, 0.5262838602, 0.1153346226, 0.1272961795, 0.1877564788, -0.0807980970, 0.1224352568, -0.3582760394, -0.3168049157, -0.2493480146, 0.0267052334, 0.0015329401, -0.2979685962, -0.1683652997, 0.1576217115, 0.1753538549, -0.3166382909, -0.2774874270, 0.3426061571, 0.1661148220, -0.0302961748, -0.3371670842, 0.0702978373, -0.2114066333, -0.3515768945, -0.4332583249, -0.0995238125, 0.0235830303, -0.2495486140, 0.1998061538, -0.3226249218, 0.2683295310, -0.3111506999, -0.1909381896, 0.2526620030, 0.0517301373, -0.0832073167, -0.1937862784, 0.2562501729, -0.2592480779, -0.2853958011, -0.2662361860, 0.0816367045, 0.0409431197, -0.6169672608, -0.0540872253, -0.1510354131, 0.0775902495, -0.1763536781, -0.3344844580, 0.2195492387, 0.2440800965, -0.3595547080, -0.0797684863, 0.0098467907, 0.1768282503, 0.2963361740, -0.0141581250, -0.1023671404, 0.2122947872, -0.1273261756, 0.2101453692, 0.0184859093, 0.0467194095, -0.1383590698, -0.1834298074, 0.0321965478, -0.0370673053, -0.1331484765, -0.1969962865, -0.1559701413, 0.1103787571, 0.0930093452, -0.0874550864, 0.0374648385, -0.0737082064, -0.0315835252, -0.0522133820, 0.0076681888, -0.1212965697, -0.4485928416, -0.1797097176, -0.0538382605, -0.1416141093, -0.2391302437, -0.2318237871, 0.0690810308, 0.3194195032, 0.0050635235, -0.1103440970, -0.2540930808, -0.2609609067, -0.1751454324, 0.1426299363, -0.1209369078, -0.0630707741, 0.3218010366, 0.1405571401, 0.0877728909, -0.0879018158, -0.0575410090, -0.0737175122, 0.0405626744, -0.0926203802, -0.2335190773, 0.0247453228, 0.0525306650, 0.0996685401, -0.3278339505, 0.2145345956, -0.1647921801, 0.1219797581, 0.0494478606, 0.0295741968, 0.2055148333, 0.0610741898, 0.1284038723, -0.1407004744, 0.0605886057, -0.3270922601, -0.1236256063, -0.0254898760, 0.2216117680, 0.1115072221, -0.2276831120, -0.0772676617, -0.2618997097, -0.0460691899, -0.0903977826, -0.0692886934, 0.0079595344, -0.0761984661, 0.0945483819, -0.3402290046, -0.0654901043, -0.1279105097, -0.2685611546, -0.1979087293, 0.0080887144, -0.1826178432, -0.3636359572, 0.0963132679, -0.4792414904, -0.0649986044, 0.3653717041, 0.0943806469, 0.0598793812, 0.0899928287, -0.1199283376, 0.0646226034, -0.2939436734, 0.2864314020, 0.3455100656, 0.1759142578, 0.1415164918, 0.0620468743, -0.2262593061, 0.0740379095, 0.0292473044, 0.3286809921, 0.1142480820, -0.0397709534, -0.1621141434, 0.1806682497, 0.0959921107, -0.0472544022, -0.2887693942, -0.1509258002, 0.2373149544, -0.0108137643, 0.1107961163, 0.1309011132, -0.1922301650, -0.2906223238, -0.0140131358, 0.1165484861, -0.1823995858, -0.1932787150, -0.3824023306, 0.0019295223, 0.1815615445, -0.2372681648, -0.0962229297, 0.0041455147, -0.1162943989, 0.0844601840, -0.0903654471, -0.1792278886, -0.4188182950, -0.1227670535, -0.0063571278, -0.2217966318, 0.1837482005, -0.3428346217, -0.2617903948, 0.0374638438, 0.0289674699, -0.1178754121, -0.0678868443, 0.0471969582, 0.0648429468, 0.2413050532, -0.1122379377, -0.0379029922, 0.0728106424, 0.1921633631, -0.1453514844, 0.2427986264, -0.0105058709, 0.2195550054, 0.0584663860, 0.0046497677, -0.1367026567, 0.0897653475, -0.0511352234, 0.0432607494, 0.2314980328, 0.2938181162, -0.1859680712, 0.0968522578, -0.3466628492, 0.1371713430, -0.1329142153, 0.2435406446, -0.0685417205, 0.0478722677, -0.0624295399, 0.0048152367, 0.0443004258, 0.0186115317, -0.0118403221, -0.1544218212, 0.2464691252, 0.3587445915, -0.0808735043, -0.0493690595, 0.1244931370, 0.1762160808, -0.2625810206, 0.0873923600, 0.0236154106, 0.0995846614, -0.0077556130, -0.1151499003, -0.3076475561, -0.1753616929, 0.1907643229, -0.1953260601, -0.0712213516, -0.1414159983, 0.2693003714, -0.0684807152, -0.1616189480, -0.0399843268, 0.5535211563, -0.0298584495, 0.1051856279, -0.0883142948, -0.3846670687, -0.1454516500, -0.0568984412, -0.0880714133, 0.0800277218, 0.0872299969, -0.0729705319, 0.2614096403, 0.1710233688, 0.0692201555, -0.1812621206, 0.1243549585, 0.4589596689, -0.1873486340, -0.2159304768, -0.0798936188, -0.2174302638, -0.1295614690, -0.2308892012, -0.1002770737, 0.1547125578, -0.0713370070, 0.0779476538, 0.1150016934, 0.1198551878, -0.2455886304, -0.1482193619, -0.0357674919, 0.3113623857, -0.3598567843, -0.0097058062, 0.0173092727, 0.0191062838, -0.1488776207, -0.2146136314, -0.2201453745, 0.2477406263, 0.3134506941, -0.3739190400, -0.0392384827, 0.0378055386, 0.1719984412, 0.0421119183, -0.1990792155, -0.2376535982, 0.1273864210, 0.1742789000, -0.0856871754, 0.0965459570, -0.1523651481, -0.0387630053, -0.1543716341, 0.0760118142, 0.1480157226, -0.1290807426, -0.3517816365, -0.0815225393, 0.1851502657, -0.1484883875, -0.0688817501, -0.2077664137, -0.0832457095, -0.1448941976, 0.0258668810, 0.4052088857, -0.2156461328, -0.0232906174, 0.0059934543, 0.1973884702, 0.0249687694, 0.0213847291, -0.0930819139, -0.1541845351, 0.0148955956, 0.0190041512, 0.0991776064, -0.0943460464, 0.0049748849, -0.0431106016, 0.3743396997, 0.3067439497, -0.2760057747, -0.1578971893, -0.2043579817, -0.1064289957, 0.0385508798, -0.2617122829, -0.0903375000, -0.0090558166, -0.0066938824, 0.1224067733, 0.0688915998, 0.0229721423, -0.0489178225, -0.0419964045, 0.2037298828, 0.1730381995, 0.0296237785, -0.1967001259, -0.2799460292, 0.0208861250, -0.0214954000, -0.3752617240, -0.0417423472, -0.1286931038, 0.0741075873, 0.2720801830, 0.0980471596, 0.1762100458, 0.0507287160, -0.0159825608, 0.2925917804, 0.1649741381, 0.0361376107, -0.1447736472, -0.3334140480, -0.1385396570, -0.0508112274, -0.2202678770, -0.0707158446, -0.0854056925, -0.2383641452, 0.2452852577, 0.0313676707, 0.0929045826, 0.1445268691, 0.0977359638, 0.1705436558, 0.0923869163, 0.2967413366, 0.0859614015, 0.0294203162, 0.0263455510, -0.2020829469, -0.2702630460, -0.2941605449, 0.1011929289, -0.1863047481, 0.1387550980, 0.0642854944, 0.0336578861, 0.1821147054, -0.0362223461, 0.0426869169, -0.2148388028, 0.0640906990, 0.1425794661, 0.0171764065, -0.0685111880, 0.1128738970, -0.1205454990, -0.0951800719, 0.1314603984, 0.0785341933, -0.0164741725, -0.1363395452, -0.0716319308, 0.0615103543, 0.0356653668, -0.0627729967, 0.0202571657, 0.2756308019, -0.1930656582, -0.2254548222, 0.0429587327, -0.1662533879, -0.1102914140, -0.1148371994, -0.0675061569, -0.1342209131, -0.0283992812, -0.2043866962, 0.0860945731, 0.2278346121, 0.0462312102, -0.1508599371, -0.0379775353, 0.0616647862, 0.1408034861, -0.0254689567, -0.1327278614, -0.2150272131, -0.2384294122, 0.1005400419, 0.0274141431, -0.4104066491, 0.0397603922, 0.0703944713, -0.0768109784, 0.0423030630, 0.0822290257, -0.2723096311, -0.1674140692, 0.1873608232, 0.1201500148, 0.1166672483, -0.1623862535, -0.1473382711, -0.0292698909, 0.0165439062, 0.0332148783, -0.2279307097, 0.0961362794, 0.1595146507, -0.1938795000, 0.0141213583, 0.0460078977, -0.2836418450, -0.3572824895, 0.2046541721, 0.1884147972, 0.1207034960, -0.1041096970, -0.1160342246, -0.0136469202, -0.1395197660, -0.0400766358, -0.2638681829, 0.0178871788, -0.0041922866, -0.0656838864, 0.1208262444, 0.1069933772, -0.3087799549, -0.3213037848, 0.2182915807, 0.1699552238, 0.2073218822, -0.2243625224, -0.0681598186, 0.1258790940, -0.0377042368, -0.0257624444, 0.3136587739, 0.2019170970, -0.1132453680, 0.0616301410, 0.0570225790, 0.1112075746, -0.1133909896, -0.0860260800, -0.1431920379, 0.0058479202, 0.0627039596, -0.0967327505, 0.1250390559, 0.2857781351, -0.1165623665, -0.0429024026, 0.3132975698, 0.0149394330, 0.1043590978, 0.0079672765, 0.0513596423, 0.0862443522, 0.0665107891, 0.0344874933, -0.1121561825, 0.2382378727, 0.1141486615, -0.1225381345, -0.1717723161, 0.2209410518, -0.0234752242, -0.0062873536, 0.2828145921, 0.0797213763, 0.1193710491, -0.0429962352, 0.0580371432, -0.0822164118, 0.3966558576, -0.0352457240, -0.2944403589, -0.3568579853, -0.0935083255, -0.0181057509, -0.0372170173, 0.1198782250, -0.0967102870, -0.0436093993, 0.1963842362, 0.3921452463, -0.3061283529, -0.1214926764, -0.0097279558, -0.1274974495, -0.1283875406, -0.1662253439, 0.0405707248, -0.2077010423, 0.0146352043, -0.1361200064, -0.0144612780, -0.0215757564, -0.1187334433, 0.1546731591, 0.2518648505, 0.1428756267, -0.1145675406, 0.0674652681, -0.1226133406, -0.1904907972, -0.1649896801, -0.0606820695, -0.0142159499, -0.3721874356, -0.0987372398, 0.2312130779, -0.4797771275, -0.0881889984, 0.0935669318, 0.1052506194, 0.1652945727, -0.1268461943, -0.2740328312, 0.1603352726, 0.0826655701, 0.0911760628, -0.1767743677, -0.2533505857, -0.2329837829, 0.2939879000, -0.0290760882, 0.0547341183, 0.1431772262, 0.2815549076, -0.3491688371, -0.1433468610, -0.1897291392, 0.2173318565, -0.0369192809, 0.2951965332, 0.3695780337, -0.0114793982, 0.1207219884, -0.1811153293, 0.0123880664, 0.3555938005, 0.0505402870, 0.1879796088, 0.1174801812, 0.2514581680, -0.2469995916, -0.1113987491, -0.0956429541, 0.3335444927, 0.0156549029, 0.1473768204, -0.0406329669, -0.1429523826, 0.3311634958, -0.0136327753, 0.0178258903, 0.1832528859, 0.0474244952, 0.3308237195, -0.1623500735, 0.1345308125, -0.0906021893, -0.3421833515, -0.2251174897, 0.1613702178, -0.1763703376, 0.0287863202, 0.3119012117, -0.0546462536, -0.1129941717, -0.3488988578, -0.1394042671, 0.3432206810, 0.0007849192, -0.0695402250, 0.4234372079, 0.1520759016, 0.4931132793, -0.1567279994, -0.1312952787, -0.0027023333, 0.1286727786, 0.1386450082, 0.0385480933, -0.0822639614, 0.1210789457, -0.2483927011, 0.2182638198, 0.4216541350, 0.0755736902, -0.0888925791, -0.0326662362, 0.0890975669, 0.4763874710, -0.2026607990, 0.1660606414, 0.2044012547, 0.1679309905, 0.2263003290, 0.2279341072, 0.0470938645, -0.0336722992, -0.1208207011, 0.3269801438, 0.0834300891, 0.2858484387, 0.0055950191, -0.0199167859, -0.1270008832, 0.5283890963, 0.1816406995, 0.0142368004, -0.0866688713, 0.0180204567, 0.5298880935, 0.0106602805, 0.0962149501, -0.0968137160, -0.4292708635, 0.2314812243, -0.3826746047, -0.3685329258, -0.0350656062, 0.3572811782, -0.1094354317, 0.0230159909, -0.0673148707, -0.1146193594, -0.0337092169, -0.0080482028, 0.0542840138, 0.0893875957, -0.2003284544, 0.1532719731, -0.0629192814, 0.0680383071, -0.5743721128, -0.1262428463, -0.1230227500, -0.3875318468, -0.1206477433, 0.1771841198, -0.2048132718, 0.0552090779, 0.3143008053, 0.0472839624, -0.1256883740, 0.0473810285, -0.2549695671, 0.2457562834, 0.0788556561, 0.1992404908, -0.5585480332, -0.1387156844, -0.3846947551, -0.0686443597, -0.1946830750, 0.0911577493, 0.0143269990, -0.0539335087, 0.1523829252, -0.0682274103, 0.0281398091, 0.0440666005, -0.1104777381, 0.0708571970, 0.2938192785, -0.0390120782, 0.1901983172, -0.1693828255, -0.2753840983, 0.1392179281, -0.0565444529, 0.0645527244, 0.0053476887, -0.3559342027, -0.0647651181, -0.0085348710, -0.1639613509, 0.0248534791, 0.0805677101, -0.2986506224, 0.3257628977, -0.0124859121, 0.2692529559, -0.0597206838, -0.2089839131, -0.2429115176, -0.1776218265, 0.0788848922, -0.2577007711, 0.2317366898, 0.0343411155, -0.0298045520, -0.5460288525, -0.0833549798, -0.0653931797, -0.4632429183, 0.4497848749, 0.2122579962, -0.0110646803, 0.1450071186, -0.1637367457, -0.2323796600, 0.1852974296, -0.1377799958, -0.0823053643, 0.1546909660, -0.0944184288, -0.0235201437, -0.5960640311, -0.1266205758, -0.0706707910, -0.1286153048, 0.4156192839, 0.0588893332, 0.2766480744, 0.0636849850, 0.0291922856, 0.2947158217, -0.2232384533, -0.0035876436, 0.1821107566, -0.0225085784, 0.1374644488, -0.0996519998, -0.0182560924, 0.0235577803, -0.0197584964, 0.0034537159, -0.1332318783, 0.1900644898, -0.0327470228, 0.0784636289, -0.0407902636, -0.0628933236, 0.0558008216, -0.0305895563, 0.1571840793, -0.0939943269, 0.1632977128, -0.1767393649, 0.1698956043, 0.0898270532, 0.0511438325, 0.2317595184, -0.2882137299, 0.1339392364, 0.1465056241, -0.0365966894, -0.0097040534, -0.1030683070, -0.0785942599, -0.0315658003, 0.0734430775, -0.0895951539, 0.1181102395, -0.1107086688, -0.0721813217, 0.0586216375, 0.1399258524, 0.0433455370, -0.2611752152, 0.1674280018, 0.0055284966, 0.0692823306, 0.1604847610, -0.0699110404, -0.0341959298, -0.0511163026, 0.0544486567, -0.2211983800, 0.0319386981, -0.1686064452, -0.0922355428, 0.2831783295, -0.0445648357, 0.0195202883, -0.2746450305, 0.2630819380, -0.0207346994, 0.0604618303, -0.0774786249, 0.0129107833, 0.2120722830, 0.1097879037, -0.0370979533, -0.1566279978, -0.1048659310, 0.0276201963, -0.0784817412, 0.2076659501, -0.2627064884, 0.0060468917, -0.2713930309, 0.1344950348, 0.2088758796, 0.0214587487, -0.1317190826, 0.0107862875, 0.0787856132, -0.0499862581, -0.0301028229, -0.1606079787, 0.0453669950, -0.0576799773, -0.2000111639, 0.0408503301, -0.1447473615, -0.0854027346, -0.2928716242, 0.1143017337, -0.4592638314, -0.0307316110, 0.2610825896, 0.0190256350, 0.0575133599, 0.0994776934, 0.0523723550, 0.2226857990, -0.0848954767, 0.0692795962, 0.1059129983, 0.1259664893, 0.0848735347, -0.3130587041, -0.1823835820, -0.0598339736, -0.4300770760, -0.1801219583, 0.1469865292, -0.1490050405, -0.0414241403, 0.2882191241, 0.0753422454, 0.1767305434, -0.2668903768, -0.1581834555, 0.0733297467, -0.1194732785, 0.0193763245, 0.0464528240, -0.1791277081, -0.1033007130, -0.4488174319, -0.3004036546, 0.0198580045, 0.0774328038, -0.0288780406, 0.1166165918, -0.0140163023, 0.3783809543, -0.1363658011, -0.1102784202, 0.1119588912, 0.0659138560, -0.0823089108, 0.0943351611, 0.1825321019, -0.1770306379, -0.1428394914, -0.0348879583, -0.3085485101, 0.0576167069, -0.1260131896, -0.3902949393, -0.0549372695, -0.0908014849, -0.0370683484, -0.2117848396, -0.2693642080, -0.1350325942, -0.1634510458, 0.1724451482, 0.1639126390, -0.2337036729, -0.0458733030, -0.1986972988, -0.1440390050, -0.0473877676, -0.0456309170, -0.1230956540, 0.1723231673, 0.0333781801, -0.2869972289, -0.0338156931, 0.0466684550, -0.2639395297, -0.2392356992, 0.1461281925, 0.2324056178, -0.2269628644, 0.0407911018, 0.1805818826, -0.1616589129, 0.0678097159, -0.3058498800, -0.2750031352, 0.3337779641, -0.1230074093, 0.0534179322, -0.0358872563, -0.1822470129, -0.1561798304, -0.2152140886, 0.0220851041, 0.3069543242, -0.2302867919, -0.0790216848, -0.2275440395, -0.2601726055, -0.0226265565, -0.0622245930, -0.2023502886, -0.0347906500, 0.0691762567, 0.0616450012, 0.1144681573, -0.0985116214, -0.2774725854, -0.2107200176, 0.0700400993, 0.2223401815, -0.0249745846, -0.0976775512, -0.1476056427, -0.1122601405, -0.1084240898, -0.0350297131, 0.0149018588, -0.1913305670, 0.1360202581, 0.0501570515, 0.0608390346, 0.0205583703, 0.0104985209, -0.3250528276, -0.2178709507, 0.2736859322, 0.0420398079, -0.0636211410, -0.1646262556, -0.1504953355, 0.0734179392, -0.2031490505, -0.0715708733, 0.0721068159, -0.1486593932, -0.0117880916, -0.0452555120, -0.0191497505, -0.2383101285, -0.2576893270, -0.2317809910, 0.0397055447, 0.0660582408, -0.0787374750, -0.0063259164, -0.1563263237, 0.2218774259, -0.2448174804, -0.1354635954, -0.0740552098, 0.0285751410, 0.1474799514, -0.1013981923, 0.0203745142, -0.2505665123, -0.1430094540, 0.2416444123, 0.4199630916, -0.2630085945, 0.1279012710, 0.0832143575, -0.1565370709, -0.0789212286, -0.0529033355, -0.0406602919, -0.0727979615, 0.1549779028, 0.2006372362, 0.0479717255, -0.1326629370, -0.0703064576, 0.0872339755, 0.1802740246, 0.1664821357, -0.0667728335, -0.1123723462, -0.0118812984, -0.1344894618, 0.0247809310, -0.1224359572, -0.0140726063, -0.1729973704, -0.0562577210, 0.0572779924, -0.0030644434, -0.0381758064, -0.1529386491, -0.2778274417, -0.0888087600, 0.0637928098, -0.0068578674, 0.0400697216, -0.0226900484, -0.1666714847, -0.1452635080, -0.1452966183, -0.2237483263, -0.1438596100, -0.1154898182, -0.0064095841, -0.0684043393, -0.0792387500, 0.1241079122, -0.1438311338, -0.0086205183, 0.0501799360, 0.0005433785, 0.1681126058, 0.0294282287, 0.1216626987, -0.0823862553, -0.1100981832, -0.1883000135, 0.0335349478, 0.0450850874, -0.1862734854, -0.2142820358, 0.1554008573, 0.4311383665, 0.2179742455, -0.0969207957, 0.0407613404, 0.1423114985, 0.1690770537, 0.1647041589, 0.2280316949, -0.0117655294, 0.0891407952, -0.1376066804, -0.1151381284, -0.2139490545, -0.4266296327, 0.0941128805, 0.0533286706, 0.1886302531, -0.2497316450, -0.1096420139, -0.0597411394, 0.1181409284, 0.3972209692, 0.0328088962, -0.2028651237, -0.1737631708, 0.1403888166, 0.0478601158, -0.1840044707, -0.3345762491, 0.0211030543, -0.0402258076, 0.0346083231, -0.0282959193, 0.0452707633, 0.0945623741, 0.0986891538, -0.1100846529, 0.3598565459, 0.0815832540, 0.0915833935, -0.0202273037, -0.2236955315, 0.1271017641, -0.2872831225, -0.4986801744, -0.2274075747, -0.0344685465, 0.1006158292, 0.0658546835, 0.0801766813, -0.0428642444, 0.0281422716, -0.0735914633, 0.3564641774, -0.0247995388, 0.1559998691, 0.0919311717, -0.1664501280, 0.0687386319, -0.4605793357, -0.4529142380, -0.2551852167, -0.0350413099, 0.0542783737, 0.1610052437, -0.0961703509, -0.0634094700, 0.1741105020, -0.1354788244, 0.1089353710, -0.2152956724, -0.0985658020, 0.0197158214, -0.1608202159, -0.1583138853, 0.2023744732, 0.1326330155, 0.1866191775, 0.2796705067, -0.0850460827, -0.0436725914, 0.0440366268, -0.0517817438, 0.0507450365, -0.0593823679, 0.0760811940, -0.0377265848, 0.0858118758, 0.0091013806, -0.1359888762, -0.0602598004, 0.0122118033, 0.0557975322, 0.0272002220, 0.0539568998, 0.1635845751, 0.0499724820, 0.1142819226, -0.1256610751, -0.1894081384, 0.0315639228, -0.0299863443, -0.1548610479, 0.1327287257, 0.1708719730, -0.3539557457, -0.1510321498, 0.0642225370, 0.0723561794, -0.0630085096, -0.1594960541, 0.0436022468, 0.0288366955, 0.0988558233, -0.3591710329, 0.2231465727, -0.0449131466, -0.2547071278, 0.0522871353, -0.0893291011, 0.1824093014, 0.1195790321, 0.2464001924, 0.0017647546, 0.2118223906, -0.0669767484, -0.0436147116, -0.1875033975, 0.1662604213, -0.0844337121, -0.2680645287, 0.2712769508, -0.1086225808, -0.2808669209, -0.2547332644, -0.1466150135, 0.2216505259, 0.4498253763, 0.0012117083, -0.3562484384, -0.0714363456, 0.0649207830, -0.2056698352, 0.0311286151, -0.0716380253, -0.3165654242, -0.3652896583, -0.1711476445, -0.0465790369, 0.0626062751, -0.3133378923, -0.3253754973, 0.1782016754, -0.1510672718, 0.2607282698, -0.3393274248, 0.2354446352, -0.0612401180, -0.1595771909, 0.1473692656, -0.4763596356, -0.0305053331, -0.1233596578, 0.2617117763, -0.2977944911, -0.0740253478, 0.0707499906, -0.1362035871, -0.2613686323, 0.0590571985, 0.0716140643, 0.1804157645, -0.0161784273, -0.3385874629, -0.0666197836, 0.0283440500, -0.0207450986, -0.2193670720, 0.1091380715, 0.1733867079, 0.1764115840, -0.1435153037, -0.0716852173, 0.0256333817, -0.3190039694, 0.3744176328, 0.1945986003, 0.1845860183, -0.2759242058, -0.5223606229, -0.2573252618, -0.2130226642, -0.0065999725, -0.0662974641, 0.1567944735, -0.0320272781, -0.0165497791, 0.1508114338, -0.1064405739, -0.2453888208, -0.2917272747, -0.2524962425, 0.3435025811, 0.1095461994, 0.1707128584, -0.6842646599, -0.1250304729, 0.1022905335, -0.4686147869, -0.1336387843, 0.2704188824, 0.0355665907, -0.0960792750, -0.0729377270, 0.1876658946, -0.3206216693, 0.0299446546, 0.1254090369, 0.1892031729, -0.0598235838, -0.0207298826, -0.1906149238, -0.2074766010, 0.1015502140, 0.0796986669, 0.3265131414, 0.1083698198, 0.0568137728, -0.0101568783, -0.2381618172, 0.1616648734, -0.1035264805, 0.1619572490, 0.3767843843, 0.0240678024, -0.0517023988, -0.6372215152, -0.3217234612, -0.1952345669, -0.0856389403, 0.1115560755, 0.2164092213, -0.0781445429, -0.2988872528, -0.1388013214, 0.0457514189, 0.1934099942, -0.2917573750, 0.4054975510, -0.2407575697, 0.1920951009, 0.1961961389, 0.3085311651, -0.2014241815, -0.1281152070, 0.0392109901, -0.2625050843, 0.1815801412, -0.2106807977, 0.0963945165, 0.0046017258, 0.4319999516, -0.1116108894, 0.2887289822, 0.1789826602, 0.0899593011, -0.1446420252, -0.1104074046, 0.1257356554, -0.2421529144, -0.1297778487, -0.1133228838, 0.0502624251, -0.1323084086, 0.1393765062, 0.0737612620, 0.1017461196, 0.4536204636, -0.0534599908, 0.1536055207, 0.0002434802, 0.0991019085, -0.0581552200, -0.2032682747, -0.0309865028, -0.1441673040, 0.0717906356, 0.0545633696, 0.1967011094, -0.2152497470, 0.0960874781, 0.1342532337, -0.1542127579, 0.3821938932, -0.1796850860, 0.2643553317, 0.2452336550, 0.0276975594, 0.0975207090, -0.0602507964, 0.0637673587, -0.1974740922, -0.1725775003, 0.0910166204, -0.0110597080, -0.0682668760, 0.0380381644, 0.0957641006, -0.0723417401, -0.0853034928, -0.1363014877, 0.3589634299, 0.0037056811, -0.2367718369, 0.1488092840, 0.0070649297, -0.0131553132, -0.1825447828, -0.0889119878, 0.0128475474, 0.2806330919, 0.0801161900, 0.0542644747, -0.1624767929, -0.1788886338, -0.1402944773, -0.1708445102, 0.4278084636, -0.0380155593, -0.0129099367, 0.2439601123, -0.2735220790, -0.0242209677, 0.0908684134, -0.0972505137, -0.0448202342, 0.1860080510, -0.2470456213, 0.1160981357, -0.0708453432, -0.1904458404, -0.1819091141, -0.1184700429, 0.3020541370, -0.1052746177, -0.1582685411, 0.2380891591, -0.0674364790, 0.1879993379, -0.0157999247, -0.1206177026, 0.2126786262, 0.2191129178, -0.1846302897, 0.0300765913, -0.2672360241, -0.3116478622, -0.2538760602, -0.2291638851, 0.1120080054, 0.1194926873, -0.4587661922, 0.1111969650, 0.0378996842, 0.1771239042, -0.0418118611, -0.0301549006, 0.3327413797, 0.2038248330, -0.1117379591, -0.1590222567, 0.0085594133, -0.0790732950, -0.2160944045, -0.1845168769, 0.2174982131, 0.0394551605, 0.0544649400, 0.5785312057, -0.5146835446, -0.1929224432, 0.0530623123, 0.0676203445, 0.2865773141, 0.3351960778, 0.0056231730, -0.0164039023, -0.1453008503, -0.2297979146, -0.1838699430, -0.3335782886, 0.1803141087, -0.1328848451, -0.1157553643, 0.6404486299, -0.3102071881, 0.0351731479, 0.0633769035, -0.1055338383, 0.2327283919, 0.3707158267, -0.1822486371, -0.2195000798, -0.3211236298, -0.1820653826, -0.0194180552, -0.0748566389, -0.3199076951, 0.1250343025, -0.2327817082, 0.1123646200, -0.1606078893, 0.0733668730, 0.1496945918, -0.1719957590, 0.1635777503, 0.1021554843, 0.1063927040, -0.1239494458, 0.0693205819, -0.1672278941, 0.0257511698, 0.0326915234, -0.1884314269, -0.0149376113, -0.3794917464, 0.2977158129, -0.0867258161, -0.0130689088, 0.2252196372, 0.0038233791, -0.0185347162, -0.0049425266, 0.0280234832, -0.0672062114, 0.0094065508, -0.0890289992, -0.0519297756, -0.0737415776, -0.3224027753, 0.1531946808, 0.0638566986, 0.1691722572, 0.0544703379, -0.0296179038, -0.0137336999, -0.0235413052, 0.0485993698, 0.0604043379, 0.0329598896, -0.0015930987, 0.1659744829, -0.0325252600, 0.1741218418, -0.1855357140, -0.3903880119, 0.3343295157, -0.0742456242, -0.1476349384, 0.0090978276, -0.0236761663, 0.0697019324, -0.4286615849, 0.0655319244, -0.0383703858, 0.1606605500, 0.0601839684, 0.1739223599, -0.1288404167, 0.2691926658, 0.1196628585, -0.4634627700, 0.1236789003, 0.0470081568, 0.1163863763, 0.0384041071, 0.1800879091, -0.1989545524, -0.2857114077, 0.0523102023, 0.0236814748, -0.0433738641, -0.1944677532, 0.2167083472, -0.3038694561, 0.1702127159, 0.1432121247, -0.3469646871, 0.2236369550, 0.0617649779, 0.0476130247, 0.1807425469, -0.0127391787, -0.1489294916, -0.2445656359, -0.0164545979, -0.0511815846, 0.1186449751, -0.0954099149, 0.1027393416, -0.1460269988, 0.2294094115, 0.1256621629, -0.2614366710, 0.4412940145, 0.0379696302, -0.1643231213, 0.0186438300, 0.2189792544, -0.1366810203, -0.3822186589, 0.1360987723, -0.1456538141, 0.0700487718, 0.2502618134, 0.4903998077, -0.0421034060, 0.3191908598, 0.2012823075, -0.2658257782, 0.4000865817, 0.0968023986, 0.0306629296, 0.0620921701, 0.5233916640, -0.3431120813, -0.4077121317, 0.0947577059, -0.0693767145, 0.0121874874, 0.1172079593, 0.3020632565, -0.0727488399, 0.1442379653, 0.2395896614, -0.3602989316, 0.3841398358, 0.0885917470, 0.0191156026, 0.3173298836, 0.2713974118, -0.2483257055, -0.3369161487, 0.2612832189, -0.3021216094, 0.1612227857, 0.0806411579, 0.4055727124, -0.0587136969, 0.0198249444, -0.3208516836, 0.1546195447, -0.1128431559, -0.4279979765, 0.2365395725, -0.0315529406, -0.0102183372, 0.2807247341, -0.0561216474, -0.1162163913, 0.2694525123, -0.1590816528, 0.2931646705, 0.1865844578, 0.0645371750, 0.1618994027, -0.2442161590, 0.1696995497, -0.2508182228, -0.0622332953, 0.2335027903, 0.1121894866, 0.1087424606, -0.0700830743, -0.2845634520, 0.0046392404, 0.2072815001, -0.2188596278, 0.3286667168, 0.0054031247, 0.0299107451, 0.1000974327, -0.4994229674, 0.0557507314, -0.2262531072, 0.0724814460, 0.1266905218, -0.0407008640, 0.2632065713, 0.0683913603, -0.3211893737, 0.0487654321, 0.1723352671, -0.1270753145, 0.3014479578, 0.1308403164, -0.1527508944, -0.2991060317, -0.0227218214, 0.1404511333, -0.2798379362, -0.2612126172, -0.1028354168, 0.1873909533, 0.2058378905, 0.0725271627, -0.1569003612, 0.0734438300, 0.0941751450, -0.2149240822, -0.7097884417, -0.0653010309, -0.0538721420, -0.4767659009, -0.1924379915, 0.1035663038, -0.1954655051, -0.2084086984, 0.0458947830, 0.0150150266, 0.1586987823, 0.1590653211, -0.2920563221, -0.1099277437, 0.0565570332, -0.2485019714, -0.4236786962, -0.1263167262, -0.1264523864, -0.5061692595, -0.0104793673, 0.0804760456, -0.2536498308, -0.1744517982, 0.4352309108, -0.0598931909, 0.3282632530, -0.0700769946, -0.1399452984, 0.1998408884, -0.0411058217, -0.1407465488, -0.7552186847, -0.1582287401, -0.1739464551, -0.3153885007, -0.1101770028, 0.2664107382, -0.0208353195, -0.1053719148, 0.0103688734, -0.1872851849, -0.0282195434, -0.1679068506, 0.0261366218, -0.3395613134, 0.0250806976, -0.0346809886, -0.4033944011, 0.1364483684, 0.1833179146, -0.0910269693, 0.0477690063, 0.0135603333, -0.0211574528, 0.0203554779, 0.2573331892, -0.0538942739, -0.0399253704, -0.0291558802, 0.0034265700, -0.0826613829, 0.2263322175, -0.0275262669, -0.2328691185, 0.0550904311, 0.1927877814, -0.1721562147, 0.0233097337, -0.0673595667, 0.0041402956, 0.0113197761, 0.1755298525, -0.1786213815, -0.0263572894, 0.0488087945, 0.0895083919, -0.0608070642, 0.1486242712, -0.0427994877, -0.4092732072, -0.1585401744, 0.0240695234, -0.0226230249, -0.0894076824, -0.1274132878, -0.2989458442, -0.1798947453, 0.0290671661, -0.1211378574, -0.0070492197, -0.1404966414, 0.0868233889, 0.2061996758, 0.0696671978, 0.1270573586, 0.0988264978, -0.0843259767, -0.0947318971, -0.0508856103, -0.0082867946, -0.1441191733, 0.0670116395, -0.0034275379, 0.0101680206, 0.1323355436, -0.2200924158, -0.1051889732, -0.1145144254, 0.3537179232, 0.0989044681, -0.1027957648, 0.1542483419, -0.1469608396, -0.0432360321, 0.0227888580, -0.0880053639, -0.1016395316, -0.0801624507, -0.1896741688, 0.1954552233, 0.1598276496, 0.0014079129, -0.1597184390, -0.0002905846, 0.2825475931, -0.0723036453, -0.1928282678, 0.1975849569, -0.0662738234, -0.1008561850, 0.0203754529, -0.0542227663, 0.1912957877, -0.2847712934, -0.0605731867, -0.0439909287, -0.3475250304, -0.5625731945, -0.0063921907, 0.1247234344, -0.3123869300, -0.0094358111, 0.0306131653, -0.0238166358, -0.0300198738, -0.0912888795, -0.0082098953, 0.0109785572, 0.0081658205, -0.0189214349, -0.1808737516, -0.3340954185, -0.3268147409, -0.3902576864, 0.2326084226, -0.0021235531, -0.2374603003, -0.1036044285, -0.0465185717, -0.1797891259, -0.2222623527, -0.0477249548, 0.1805555075, -0.0929249376, -0.0148419347, 0.0623270944, -0.2081297934, -0.0818050206, -0.0764558092, -0.1872486621, 0.1124073267, 0.0918613896, -0.0220227558, -0.1210920215, 0.1523401588, -0.3105773926, -0.1333281696, -0.2308392823, -0.0342047140, -0.2833127081, 0.2803293169, -0.1777397841, -0.1022495627, -0.0293394607, -0.2615467608, 0.0343817025, 0.2013288140, 0.0695727095, -0.0700532645, 0.2027675658, -0.0826612636, 0.0734960362, -0.1414246708, -0.0332539566, 0.0021186031, -0.2255484760, 0.3829423785, -0.0953233764, -0.4727177918, -0.0090468740, -0.2146632522, 0.0120324539, 0.1064258143, -0.0461549871, 0.1385399699, 0.0217020120, -0.0171642639, -0.0427326337, -0.0205203071, 0.1334751993, -0.1330939382, -0.0763164312, 0.1418098509, 0.1181837842, -0.2807128131, 0.1226369292, 0.2332385927, 0.0286410563, 0.1189653128, -0.1208392829, 0.2737849951, -0.1177163720, 0.0349034294, -0.0787242576, -0.2413107902, -0.0891073793, -0.1436499804, -0.1106648594, -0.4198817909, -0.0414560996, -0.1006718054, 0.1214821115, -0.2293102592, 0.0271308068, 0.1578246057, -0.0601236895, 0.0866667107, -0.0547299087, -0.0115598515, 0.1004577354, 0.1125362217, -0.0517567582, -0.0375603698, -0.0996598899, -0.0476499125, 0.0082102297, -0.2031268179, -0.0949004963, 0.0681105554, -0.0247983467, 0.0935207978, -0.0505778082, 0.1284626722, -0.0535593592, -0.0118334973, -0.0753538087, 0.1821924299, -0.0637339801, -0.0908973292, -0.0576568320, -0.1121498346, 0.2509033680, -0.3623625338, 0.1550159305, 0.1363818049, 0.1441001445, -0.0081632920, 0.1514903605, 0.1449993402, 0.0484507792, -0.0508050956, -0.1894476265, -0.0395811237, -0.1229541078, 0.0944817588, 0.1635865420, -0.1526844800, 0.0022625597, -0.1862036288, -0.1131068096, -0.0174269546, 0.0819258764, 0.4374089837, -0.1794136465, 0.2764409482, -0.2492595613, 0.0175711513, -0.0362896770, 0.1543024331, -0.1187815070, -0.0955654085, -0.0983937755, -0.1681353748, 0.1006818563, -0.1725605279, -0.0568935759, 0.0371993817, -0.0104797604, 0.2080356926, -0.0902189612, -0.0650619939, -0.1301419288, -0.0382681899, 0.0543503352, -0.0389114060, -0.0669439211, 0.0611278750, 0.1059434563, -0.0416524410, 0.2427396029, 0.0619939603, -0.1328582764, 0.0042811823, 0.2623955607, -0.0286017247, -0.1802442372, 0.0917260498, 0.1247134581, 0.2108737081, -0.1556461453, -0.0038415340, -0.0790598020, 0.0026090650, 0.0104427654, -0.2108880132, 0.1653490365, 0.0934681892, -0.1521590799, 0.1120339036, 0.1427067220, 0.0444095992, -0.2290996462, -0.0230660718, -0.2253671885, 0.0692588910, 0.1639236361, 0.2748039663, -0.3340055346, -0.1416922510, -0.0862439871, -0.0863434821, 0.1209856495, -0.1638389528, -0.1125833467, -0.0370808356, 0.1164520755, -0.1169968545, -0.1893679798, 0.0580624864, 0.0044931551, 0.0790548548, 0.3464353085, 0.2045529485, -0.3285599351, 0.1339691877, -0.0392375477, -0.0799337998, 0.1541802436, 0.0093695037, 0.0016608493, 0.1193849817, 0.0896358490, -0.3021092713, -0.0448438935, -0.0530425422, -0.0686869249, 0.0517715327, -0.0046885931, 0.2518955767, -0.0373269171, 0.0014139920, -0.0585389547, 0.0590131283, -0.1284366250, -0.0660109445, 0.1467624754, 0.1727714092, -0.3379422426, -0.0884798765, 0.0076352232, 0.0387531482, 0.0659423992, -0.0730322450, -0.2167796791, -0.0492518507, -0.1398637742, 0.0524936132, 0.0027157953, 0.0260104723, -0.0618373267, -0.1212098747, -0.0141560426, -0.0328677781, 0.0899991617, 0.1563451141, 0.0942568406, 0.1479275227, 0.1433352083, 0.0661181286, 0.0177939329, 0.0493542030, 0.1290141046, 0.1841408610, -0.2263135165, -0.0761838555, 0.3114500940, -0.1977807432, -0.1275042593, 0.0849357769, 0.1753338873, 0.1110167429, -0.1146905869, 0.0587401204, 0.2300983220, -0.0558551848, 0.3782951236, 0.2164854705, -0.1509120464, -0.0798065662, 0.2358478159, -0.2621378899, -0.0334914923, -0.0320537947, 0.2857603431, 0.1402238905, -0.1077410281, -0.2260809690, -0.1744218320, 0.0952941179, 0.1851183772, 0.2477750331, -0.3448429704, -0.3479648829, -0.2049483955, 0.1154202223, 0.0115839420, -0.0082239341, -0.2979286015, -0.0569697469, 0.1866644472, -0.1190419644, -0.0231424682, 0.1087853834, -0.0857129991, 0.1206465587, 0.1627629697, 0.2618442476, -0.1697795093, -0.0639563426, 0.1534204632, 0.2173666209, -0.1570342481, -0.1904667169, -0.0131753506, -0.1635580659, 0.1964522898, -0.0896754637, -0.0835230649, 0.1500304937, -0.2730581462, 0.1746589094, 0.1995670348, 0.1043047905, 0.0341686495, -0.1550790519, -0.2092472166, -0.1140697375, 0.0687152371, -0.3334887028, -0.0800125673, 0.0550493822, -0.0125703961, 0.0128667019, -0.0982238650, -0.2074698955, -0.2288301289, 0.0239055604, -0.1944189668, 0.1525629759, -0.2895027399, -0.1971567571, 0.1035631076, -0.1166837513, 0.0062659280, -0.1968067437, -0.2611390054, -0.0546350032, -0.1027011573, 0.0317504518, -0.1347261220, -0.2524717748, -0.0684601963, -0.0095281359, -0.1935707927, 0.2736090422, 0.0067910720, -0.1721042991, 0.0484512001, -0.0970733538, 0.0152894147, -0.2560655475, -0.1671053171, -0.0828773454, 0.0876418725, -0.1862401217, -0.2618280053, -0.0723125264, 0.0159620419, 0.1369958520, -0.2796157002, 0.2078211159, -0.0331019275, -0.2094503939, 0.0289306603, 0.0529098734, 0.0891500264, -0.0966437906, 0.1595052779, -0.2978707850, 0.0259266850, 0.3718829155, -0.2025165111, 0.2124320120, 0.0174274854, 0.0552812591, 0.1789051443, 0.2340063304, 0.0923438817, -0.0194583368, 0.1135409400, -0.2419105470, 0.1802119613, -0.1424427629, -0.1928039491, 0.0840363204, 0.0334070772, 0.1163395047, -0.1073713228, -0.0097165108, 0.2803491950, -0.0412536226, 0.5259370208, 0.3224064708, -0.0113526126, 0.0522762388, 0.3701435328, -0.0487098880, 0.0062878127, -0.3646702170, -0.0834612995, 0.2377590388, -0.0499644242, -0.0042377179, 0.1168486699, 0.1059943065, 0.2382950634, -0.0470356420, 0.4620498419, 0.1883165091, 0.0394610539, 0.1009360701, 0.2871991694, 0.0431339517, 0.0139965080, -0.2205080390, 0.1164053902, -0.1213215366, -0.0206845123, -0.0034607730, -0.3009209931, -0.0813523456, 0.0521716513, 0.0268107038, -0.1768750399, 0.1871148944, 0.1161988527, -0.1985497773, 0.2620544136, 0.0763598308, 0.2389276326, -0.3090094030, -0.0787259862, 0.2571593821, -0.3306309879, 0.0259094127, -0.1901955158, -0.1781621426, 0.2371145785, -0.2453604192, 0.5055443645, 0.2853281796, -0.1935024112, -0.0152288908, 0.7021471262, 0.0324869491, -0.1056581885, -0.1299045533, -0.0065615014, 0.2367402911, -0.2296496928, -0.2356390208, 0.1272183955, -0.0712947398, 0.2579732835, -0.2083892226, 0.4139280915, 0.0228261668, -0.4140837491, 0.1910224259, 0.4944803417, -0.2119804621, 0.1144500151, -0.4044104815, 0.3007248640, -0.2604413331, -0.1413641721, 0.2772473395, -0.0157658048, -0.0013620815, -0.2248095125, 0.1194892079, 0.0348961093, 0.0640804619, -0.1262286752, -0.1861149073, -0.0434582159, 0.1732500643, 0.2067512125, -0.0435346179, -0.0346555486, 0.1514983624, -0.3605290949, 0.0092935711, -0.0325681120, 0.0382569805, 0.2193342298, -0.0471335836, 0.2106483877, 0.4510858655, -0.2807663679, 0.1295105517, 0.0522985570, 0.2264155000, 0.0044668219, -0.0479429960, -0.0254985057, 0.3395986259, -0.3383953273, 0.0132417819, 0.1525981277, -0.0769649148, -0.1556051970, 0.0099271974, 0.0348155759, 0.1337242573, -0.2680670619, 0.1310078949, 0.0160401091, -0.1225412041, -0.0562549978, 0.2297424674, -0.2301728725, -0.0373061001, 0.0308815911, 0.3254066408, 0.0286920555, 0.1560594290, -0.1090814844, 0.0821102932, -0.2218627036, 0.0069985352, -0.1614324749, -0.1365493089, -0.1126186550, -0.1722649932, 0.0698000565, 0.2601889074, -0.2302302569, -0.0410551094, 0.2071626782, -0.0124463821, -0.0423325822, -0.2690158188, 0.1555490643, 0.2384051979, 0.0223065373, -0.0461572818, -0.1671200544, -0.1796244085, 0.0990790576, 0.2140721083, -0.0176710524, 0.1472446620, -0.0713090822, 0.0803591013, 0.1232718676, 0.0036475444, 0.0275227185, 0.2037313282, -0.0005377047, 0.1320245266, -0.1033854187, -0.1193978041, -0.0814428851, -0.1850674748, 0.0689724833, 0.1855960786, 0.0950886607, 0.0745374113, -0.0793015435, -0.1277723908, 0.0122305723, 0.0753932744, 0.2198521346, -0.0463815033, 0.2450919896, -0.0829047710, -0.0418634266, 0.1549262553, 0.0345546231, -0.0121252341, -0.1616085917, -0.1750428826, 0.1373905838, 0.1507061720, -0.1499803811, 0.0299177039, -0.0611510687, -0.0871501639, -0.1892633885, -0.2103436589, 0.1327429116, 0.0047481279, 0.0844175071, 0.0988573954, 0.1182772890, -0.0282050502, 0.1690784693, 0.1298872679, 0.0632598475, 0.0537125915, -0.1411094368, 0.2651225924, -0.0791463554, -0.1530386955, -0.0291854087, -0.0264034159, 0.1530975252, -0.1008343548, 0.1624551117, 0.0092281746, 0.1462257653, -0.0813388750, -0.1173528805, 0.2235423923, 0.1562969685, 0.1217158511, -0.0192714967, 0.0316407122, 0.1606085747, 0.1952984184, 0.1124753430, -0.0107487105, 0.1984177232, 0.0957132876, -0.0903125107, 0.1768331528, 0.1946590841, 0.0911292210, -0.1105564013, -0.0496296361, 0.3088291287, 0.1440210193, 0.0937518626, 0.1724928319, -0.0139879901, 0.2734820247, 0.1985873729, -0.0363208689, 0.0829447806, 0.1118949205, 0.3116740286, 0.3211697936, 0.2691843808, -0.0192747004, 0.1311555207, -0.0567230619, 0.2655132711, 0.0438881926, -0.0231879968, 0.1709527075, -0.0273269303, 0.1425530761, 0.2330489755, 0.0192500930, 0.0010339252, -0.0377044939, 0.1629406810, 0.2789753079, 0.2418944389, -0.1056294143, -0.1450093985};
#endif

#endif
