//Numpy array shape [64]
//Min -0.831234216690
//Max 1.376346468925
//Number of zeros 0

#ifndef B18_H_
#define B18_H_

#ifndef __SYNTHESIS__
model_default_t b18[64];
#else
model_default_t b18[64] = {0.1968727112, 0.0563526899, -0.3359466791, -0.8312342167, 0.1492287517, 0.6710605025, 0.6624409556, 0.9126229882, -0.3190930486, -0.3527497947, 0.6447384357, 0.2643454671, -0.0672671646, 0.7324038148, -0.2854606807, 1.1375893354, -0.4613145590, -0.7455852032, -0.3551561832, -0.4140289128, 0.2648902237, 0.1084008887, 0.1939967871, 0.3828892708, -0.1054889858, 0.1611862481, -0.0624134094, 0.4721871018, 0.6021545529, 0.1073144674, 0.4813468456, -0.2856556475, -0.1670561284, 0.1138724312, 0.1546379179, 0.0695396513, -0.2977575958, 0.4583744109, 1.1646971703, 0.5096111298, 0.3593447208, -0.3659368157, 1.3763464689, 0.5580540299, -0.5548319817, -0.0574723631, 0.1367211938, 0.0810101628, 0.0151625797, -0.3240731061, 0.1663946211, -0.1987901032, -0.3781982362, -0.3754136562, -0.1900484711, -0.2127942294, -0.2679988444, 0.4893508852, 0.9018852115, 0.5689021945, 0.2732785344, 0.0924259275, -0.1740052402, 0.2704072297};
#endif

#endif
