//Numpy array shape [64]
//Min -0.000000205118
//Max 0.000000235490
//Number of zeros 0

#ifndef B20_H_
#define B20_H_

#ifndef __SYNTHESIS__
model_default_t b20[64];
#else
model_default_t b20[64] = {-0.0000000264, -0.0000000544, 0.0000000760, 0.0000000562, -0.0000001420, -0.0000000511, 0.0000000999, 0.0000001541, 0.0000000135, 0.0000000384, 0.0000000449, -0.0000000222, 0.0000000835, 0.0000001437, 0.0000000086, 0.0000001289, -0.0000000182, 0.0000001456, 0.0000000738, 0.0000001263, 0.0000000890, 0.0000000294, -0.0000000353, -0.0000002051, 0.0000001310, -0.0000000453, -0.0000001684, -0.0000001292, 0.0000001060, -0.0000000183, 0.0000001534, -0.0000001579, 0.0000000468, 0.0000002355, -0.0000000400, -0.0000001429, 0.0000001294, -0.0000000448, 0.0000000848, 0.0000000449, 0.0000000132, -0.0000001432, -0.0000000056, 0.0000000161, -0.0000000371, -0.0000001684, -0.0000000227, 0.0000001122, 0.0000000360, -0.0000000900, 0.0000000024, 0.0000000665, 0.0000000193, 0.0000000668, -0.0000000307, -0.0000000220, 0.0000001456, -0.0000000446, -0.0000001933, -0.0000001028, -0.0000001910, 0.0000000867, 0.0000000606, -0.0000001045};
#endif

#endif
