//Numpy array shape [128]
//Min -1.389133334160
//Max 2.463176727295
//Number of zeros 0

#ifndef B27_H_
#define B27_H_

#ifndef __SYNTHESIS__
model_default_t b27[128];
#else
model_default_t b27[128] = {0.9795085788, 0.4470236599, 0.0407877080, -0.8594839573, 1.3853389025, -1.2508056164, -0.0094119459, -0.0028577149, -1.1207185984, -1.0951725245, 0.1909612417, 0.2879140377, 1.0911616087, -1.0244219303, 0.2297177911, 0.9415515661, 0.8934518695, -1.2882100344, 0.7962955236, 1.9247981310, 0.9374736547, 0.9381223321, -0.0368466452, 0.7819315195, -0.9684405327, -1.1238219738, -0.4290818572, 0.0414948314, -0.2991400957, -1.2035717964, -0.3576636314, 0.4769819081, -0.7206025720, 0.0466631502, -0.0514877662, 0.5810776353, 0.3217720389, 0.4251060486, 0.7512205839, 0.1146064848, 0.5855572224, 1.5907156467, 0.4299800098, -0.4890808463, 0.4031496942, 0.5101001263, 0.6677857041, 0.4800754189, 0.7674154043, 0.0824884698, 0.9597309828, 0.6057882905, 1.0890325308, 0.8820106983, 0.2506358624, -0.0443152189, 0.8035566211, 0.9441746473, 0.7023004293, 0.4148789644, 0.1749862731, -0.0782727003, 0.9462636709, 2.0989491940, 0.8299813271, 0.5437242985, -0.0341003984, 1.2769174576, 0.3679769933, 0.6272426248, 0.3059601784, -0.9255784154, -0.9245133400, -1.3891333342, -0.6939992905, 0.8703778386, 0.2027746737, 0.0088643432, 0.0893065631, 0.1409465522, 0.4984338880, 0.3876718581, 0.6800115108, 0.5120199323, 0.7476152182, 0.1072404981, -0.4953806102, 0.2744976282, 0.1397856474, 0.7257318497, 0.3412695229, 1.0922715664, 0.9607466459, 1.4188120365, 0.5860624313, -0.2455377728, 0.1161477119, 0.7203596234, -0.7128403187, 2.4631767273, -0.1011036038, -1.2409418821, -0.4776691496, 0.5084272027, 0.3612653315, 0.5453511477, 0.6654599905, 0.2279328704, 1.0936639309, -0.1154998988, 0.5469933748, 0.6846424341, -0.3986517191, 0.7915077209, -0.3446026742, 1.7522624731, 0.5331197381, 0.0470764488, 0.4468274117, 1.3233412504, 0.9071357846, 1.1782236099, 0.6984606385, 0.3027899265, 0.5274232626, 0.9255614877, -0.8301707506, 1.0204342604};
#endif

#endif
