//Numpy array shape [3, 3, 32, 32]
//Min -0.664273977280
//Max 0.776162385941
//Number of zeros 0

#ifndef W11_H_
#define W11_H_

#ifndef __SYNTHESIS__
model_default_t w11[9216];
#else
model_default_t w11[9216] = {0.0744312108, -0.1261601448, -0.0446741097, -0.0505133234, 0.0066959928, -0.1869402528, -0.0339029357, 0.0208968036, 0.0500533953, -0.0059220167, -0.1350703984, 0.2321469486, 0.0705664679, 0.0270481165, -0.0448318273, 0.2096135914, -0.1407540590, 0.1759749800, 0.0738927871, 0.1837049276, 0.0276011694, -0.0277496427, 0.1636607349, -0.3558989167, 0.0751859620, 0.2986141443, -0.0285790991, 0.0336842127, 0.0736728683, 0.1260814518, 0.2057932466, 0.2671601772, -0.0927213132, 0.0814745352, 0.1502442956, -0.0559883378, 0.0470040776, -0.0804878026, -0.0742493868, -0.0507222973, 0.0895349681, 0.1916005611, 0.0165052954, 0.0141848773, 0.0122890249, -0.0781189948, -0.2070371956, -0.3732375801, 0.1502956003, -0.0883938819, -0.1108219177, 0.0560488701, 0.2207580805, -0.1351756155, 0.0375356004, 0.0055384696, -0.0847694874, 0.1093555689, 0.0632430390, 0.1062688529, 0.0938770100, 0.0120083774, -0.0999329016, -0.2260890007, 0.0608510971, -0.1372759491, -0.0813550204, -0.0652925819, -0.0276625827, 0.1107171699, -0.2873809040, -0.1798512936, 0.0105261058, -0.0721732900, 0.0608214885, -0.1555860639, -0.1305831224, 0.0258546453, -0.0561478138, 0.0625589341, -0.2502284646, -0.1580851227, -0.0292907488, -0.0920665860, -0.1590843201, -0.0482678153, -0.0814934224, 0.0541810319, 0.0360469110, -0.0816414878, 0.0245892555, 0.1496670544, 0.0597811081, 0.3115912378, 0.0047913045, -0.0263123419, -0.1439523697, -0.1691264063, 0.0814936608, 0.1151849851, -0.1487587094, -0.0997370109, -0.0449136086, -0.1861469448, -0.0310343038, 0.1695785969, 0.1423357576, -0.0635802150, 0.2067956328, -0.2029319406, 0.0216695499, -0.1329907626, -0.0020409208, 0.3150485754, -0.0113187777, -0.1248196512, 0.2130334079, -0.2074418962, -0.0707938895, -0.3524383307, 0.1591636091, 0.0839626342, 0.0780538470, -0.4114490747, 0.0601808690, -0.1538152993, 0.0035029175, -0.2424159199, -0.0831038579, -0.0292420927, -0.0606533550, -0.0446496271, -0.0092938961, 0.0899371281, -0.0232939888, -0.0138881830, 0.1169387326, -0.0171752982, 0.0546740703, -0.1935734749, 0.0849839821, -0.0894425288, -0.1010455489, -0.0822144300, 0.0673553497, -0.0648616627, -0.2086346298, -0.0906783864, -0.0335626341, -0.0368612781, -0.0598535240, -0.0153137781, 0.0297977384, 0.1240119487, -0.0103847124, 0.0582817122, 0.0069712591, 0.0370621048, -0.0419672020, -0.2197915912, -0.0300428197, 0.1595752239, -0.0532275960, -0.0591558851, -0.1040792614, -0.2007752806, 0.2094304264, -0.0999821946, -0.1018720940, -0.0268022511, 0.0485358313, -0.0352498740, -0.0713864937, -0.1276861280, -0.1052110866, 0.0700474307, -0.0821130797, 0.0811479911, 0.0378511064, 0.2811122537, 0.1365160048, 0.0078302668, 0.0816615298, -0.1420316696, 0.3531511128, -0.0074999025, -0.0506264269, -0.2525455058, -0.0548221208, 0.0607942902, -0.0063178274, 0.0029636777, 0.0034109117, 0.0998260602, 0.1591642201, 0.1534972936, 0.1053885892, 0.2494256049, 0.2147683799, -0.0827465355, 0.2078151703, 0.2112567276, 0.0601800568, -0.0889149457, 0.2877452374, -0.1228417456, 0.2050867826, -0.0806995183, 0.0949611515, -0.0533696450, -0.3248312473, 0.0464415923, 0.2280547917, 0.0043945168, 0.1902276576, 0.0078478483, 0.0650811195, 0.1007358953, 0.0350829922, 0.1266901791, 0.0636955872, 0.2576674819, 0.1483165324, -0.1453693360, -0.1288310885, 0.0293158423, -0.1403442174, -0.1192776188, 0.0258022901, -0.1037016362, -0.0864075124, 0.1300565302, 0.0093482872, -0.0370075181, -0.1552420557, -0.1436125338, -0.0241329335, -0.0343667381, -0.1770147234, 0.0400761031, -0.0540859848, 0.0895865411, 0.2003075629, 0.0990627632, 0.0975562111, -0.0581249595, 0.0201518964, -0.1000630558, -0.0538499802, 0.0046151499, 0.0000704994, -0.4891107678, -0.0203513484, -0.0308362618, 0.3004301488, 0.0545632653, -0.1025039032, -0.1360215098, 0.0749510750, 0.0114796506, 0.0772648156, -0.0990986675, -0.0821925849, 0.2464178056, 0.0586840361, -0.0090056621, -0.0198231209, 0.0494081974, -0.1842285395, 0.2537341118, -0.0554432534, 0.1168766096, -0.1325610429, 0.0294287913, -0.0931055546, -0.1410319805, 0.3290943503, -0.1029457077, -0.0074446951, -0.0723248050, -0.0810481608, -0.0222169831, -0.0466567501, -0.0214194860, 0.0122644054, 0.0615775064, -0.0147623550, 0.3439100385, 0.1721379161, 0.0053639873, 0.0859190598, 0.1456003934, 0.0080020428, 0.2817887664, 0.1049146801, 0.1026058048, 0.2596414685, 0.0574883446, 0.1562215388, -0.2609440684, -0.1340777874, 0.1689153016, 0.1882138401, -0.0535284579, -0.1746773422, 0.1862200946, 0.1531624794, 0.3122541606, 0.0079893358, 0.2133003473, 0.0362320356, 0.0719484240, 0.2260985821, 0.0873972550, 0.0967750475, -0.0092125321, 0.2399306893, 0.1671426445, -0.0002535195, 0.0283697322, -0.0395041332, -0.0672467649, 0.0790846795, 0.2060429156, 0.0654191077, -0.0848017409, -0.0284982417, -0.2326102257, -0.0593133606, -0.0110841831, -0.1031815037, 0.1218603253, 0.0204577651, 0.0891012400, 0.0959261730, 0.2938285172, 0.0059950808, -0.0012172082, -0.1984945387, -0.2564563751, -0.1489795148, -0.0000804087, -0.1538618803, 0.1776941121, 0.0615685694, 0.0392046273, -0.0656864047, -0.0873855948, 0.0863860920, 0.3219157755, 0.0788812935, 0.0276198704, -0.1436761320, 0.0388123766, 0.0072411853, -0.0513862967, -0.0585699417, -0.1852264702, -0.1268394291, -0.2686509192, -0.0257943980, 0.0743904337, 0.0239394810, -0.0851736218, -0.0203785636, -0.2575092018, -0.4268049300, -0.1324021220, -0.0056746374, 0.1906977892, 0.2530133426, -0.2450374514, -0.0605970211, -0.2691787481, -0.3140397072, -0.3037222326, 0.0049523711, -0.1503840834, -0.0646444634, -0.0564001650, 0.0340866782, -0.3499689698, 0.1089260280, -0.2654570639, 0.0347358845, 0.1490969807, -0.0256535020, -0.0460443050, -0.0070971837, -0.0820580795, 0.0664069802, 0.0972147584, -0.1100055501, 0.0772525892, 0.1863123327, -0.0950639844, -0.0463372096, -0.0010221092, -0.0617382117, -0.1258541048, -0.0649802461, -0.0372830629, 0.0978389457, -0.0535106100, 0.1195017174, 0.3065553308, 0.0667044744, 0.0049686469, -0.1463410556, 0.1130759865, 0.0487824231, -0.2692468166, 0.0169560723, 0.0026451510, 0.0462630838, 0.0263385177, 0.0019507733, -0.0165777318, 0.0584131368, 0.0875809565, -0.0465601720, 0.0487591550, 0.0462037697, -0.0896689743, 0.0867479742, 0.0361978672, -0.1508381367, -0.0579409748, 0.1370470524, 0.0112181455, 0.0933669582, -0.1463404149, -0.0949538127, -0.0845590681, -0.2058732659, 0.1633829921, 0.0304789096, -0.0209898502, -0.0271823090, -0.0154069653, 0.1082546115, 0.1704179496, 0.1381189823, 0.1986432076, 0.0274265762, 0.0707929209, -0.0066756532, -0.1710275859, 0.0634022206, 0.0732356682, 0.0136903860, -0.0599252656, 0.0734623596, 0.0869898051, -0.0277333017, 0.0233248677, 0.0770018771, -0.1788078994, 0.0816820934, -0.1880664676, 0.0346527025, -0.1620465070, 0.0267101917, -0.1563457400, 0.0346301161, -0.2095540464, 0.2756840289, -0.0921411887, -0.0042851930, 0.0745029300, -0.0504500568, -0.1637356579, -0.1620827466, -0.1649722904, -0.0173450448, 0.0774822831, 0.0134511646, -0.0742408410, -0.0471386798, 0.0607967153, 0.0444283187, -0.0501581803, -0.1389186084, 0.1761341393, 0.0710837841, 0.0064620958, -0.0285365898, -0.0864566937, 0.2073921412, -0.0565662347, 0.2100296319, 0.1155252904, -0.0875632241, 0.0914751738, 0.1401500553, 0.1125425249, 0.2021473199, -0.0778791606, 0.1729952097, 0.0551506355, 0.0554531142, -0.0176385567, -0.1317772269, 0.1734236777, -0.0621458441, -0.0737928823, -0.0934051424, -0.1316564530, -0.1124041602, -0.2591466606, 0.0644237697, -0.1745292544, -0.1011093110, 0.1587763280, -0.0516961031, -0.0585315675, 0.0272671636, -0.0880917758, 0.1112990752, -0.1566964984, -0.0000585639, -0.0146050584, 0.0368145108, -0.0528959185, -0.0999266952, -0.0737063438, -0.0726527125, -0.0209282823, -0.0199810602, -0.0087954886, -0.0003321573, 0.2137116045, 0.2361781597, -0.0579538830, -0.0422989875, 0.0423725322, -0.0832623392, -0.1601156592, 0.1688916385, 0.0458918177, 0.0206135437, -0.0932238996, 0.1222315580, -0.1232638210, -0.0536131077, -0.0631391108, -0.0421163440, -0.1877588332, 0.0160256363, 0.1976100057, 0.0071281693, 0.1203676388, 0.1219600961, 0.1337908804, 0.1154274046, 0.0077667306, 0.0047829151, -0.2638949752, 0.0162591133, -0.0875481144, -0.0860552713, 0.0410052910, -0.1744364649, 0.1894721538, 0.1142164916, 0.2420447916, 0.1327036768, -0.1257912964, -0.1003661752, -0.1066099927, -0.1471823752, -0.0562170856, -0.0845533982, -0.1240930036, 0.0589633547, 0.1250541061, 0.0080852099, 0.0112516815, -0.1134596393, 0.1529262960, -0.1599640846, 0.1693162769, 0.2366259992, -0.1397158355, -0.1203360409, 0.1154255792, -0.0041086478, -0.1503690034, -0.0342914201, 0.0225364026, 0.0376819149, -0.0007422572, 0.0899087042, 0.1810297370, 0.2970367074, -0.0790793821, -0.0000422114, -0.0880406946, -0.0493294075, -0.1707978994, 0.0325503983, -0.0143565526, 0.0909043849, -0.0780671611, -0.0907293037, -0.0879769996, 0.0444161892, -0.0888441056, 0.1834317893, 0.1531865597, 0.0394493006, -0.4651083052, -0.4230249524, -0.1204910129, 0.0153144011, -0.1751878113, -0.0411791839, -0.2126182914, -0.0701794848, 0.0863605514, -0.1126381829, 0.2600523829, -0.3384946883, -0.1220436022, -0.0950490311, 0.1445446908, 0.0879082382, 0.0087088207, 0.3072095811, -0.1007041708, -0.0928176716, -0.1411400139, -0.0319816247, 0.0833218470, 0.1074743271, -0.1507894695, 0.2594645917, -0.1427238584, 0.2744185925, -0.1645597219, -0.0365833342, 0.0301999673, -0.0302789956, -0.1298757941, 0.1479974538, -0.0967464894, -0.1055037826, 0.0221081059, 0.0174391437, -0.1098326445, -0.0167140793, -0.0159974676, -0.0964506119, 0.0375683680, -0.1309598982, -0.1485433429, 0.0024987122, -0.0695407763, 0.2861942351, -0.1191381067, -0.3385609090, 0.0385300517, -0.1197494045, -0.1002601385, -0.0512188263, -0.0902300626, -0.1639290601, 0.0321147330, 0.0210842248, -0.1721078604, 0.0674089640, -0.0056845727, 0.0700931177, 0.0340480432, 0.0067724995, 0.1919777542, -0.0087354332, 0.1742875874, -0.0297080036, 0.0721374750, 0.1713220775, -0.0560907945, -0.0708441511, -0.1005634367, 0.1329407543, -0.0372608826, -0.0308727268, -0.0672755986, 0.1021373793, 0.0739002302, -0.1419097483, 0.2615769207, 0.0924625322, 0.0600014031, -0.0692631006, 0.0350278355, 0.0126781119, 0.0986637399, 0.2364581376, 0.1700298190, 0.1262472868, 0.1148025021, -0.0204320736, -0.1280256957, -0.0268512871, 0.0620469265, 0.0434007794, -0.1207965016, 0.1093952283, -0.0444846414, -0.0958922729, 0.0954930633, 0.0157450866, -0.0254685823, 0.1497535706, -0.0075468207, -0.0064323912, 0.0561137684, 0.1220980883, 0.0300931130, -0.0547390915, 0.0122455861, -0.0710822940, -0.0294259507, 0.1364556700, 0.1849924326, -0.0101068076, -0.1717559993, 0.0299142208, 0.0827066824, 0.0060952050, 0.1248883530, 0.0430219881, 0.0361189507, 0.1157794297, 0.1324166059, -0.0339441299, -0.2373964638, -0.0840249136, 0.4067105353, 0.0738363564, 0.0542468280, 0.0464357734, 0.1107279286, 0.0438977815, 0.1337264478, -0.0095416466, -0.1604828238, -0.1090259477, 0.0025739432, -0.1407837868, -0.1129446924, 0.2491004467, -0.0477462225, 0.0953200832, 0.2419596016, -0.0007932739, -0.0965743065, -0.0769526213, -0.0791744664, -0.2639437914, -0.1041188389, -0.3644994497, -0.2210680991, -0.2100815773, -0.2326494753, -0.1851215065, -0.0206458252, -0.1417604387, -0.1565375328, 0.0268398318, -0.1527259350, 0.1079179645, -0.2227035314, 0.1025409922, 0.1773727238, 0.1112245098, 0.0622102357, -0.0094730193, -0.1832253635, -0.0604939386, 0.0857488364, -0.0489738025, -0.0816948637, -0.0924613327, -0.2124047875, -0.0375425480, -0.2007298470, -0.2134431452, -0.0114675378, 0.0242539290, 0.0927684084, -0.2184658051, 0.0471482277, 0.1810545772, 0.0588921905, -0.0834684819, -0.1730056554, 0.1103865504, -0.1198311225, -0.0616129674, 0.0591168366, -0.0888928548, 0.0230410825, 0.1452938318, 0.0691009313, -0.0648073032, 0.0130907493, 0.3160694242, -0.1432516128, 0.0355714932, -0.3382082880, 0.2077290118, -0.1066876277, -0.2793035507, -0.1477994472, 0.0110505205, -0.1548429579, -0.0802440196, -0.0188150313, -0.0563328676, 0.0452933647, 0.0694593042, -0.1215224639, 0.0071275095, 0.0596776046, 0.0701413080, 0.2178579122, 0.0651058480, -0.0822716877, -0.0437362641, -0.1728551835, -0.1149357334, 0.1040784642, 0.0370990150, -0.1360535920, 0.1156936213, -0.0960270241, 0.0457239114, -0.0073073809, 0.0340065956, -0.0683693811, -0.1405364722, 0.0615805350, -0.0928991362, 0.1499002576, 0.0206120964, 0.0768135190, -0.0057729464, 0.0552754439, 0.3174028695, 0.4665654004, 0.1061830521, 0.0543814451, 0.0709040463, -0.0667837113, 0.1582361609, -0.0773182511, 0.0384773910, -0.1702703685, -0.0308125950, 0.1596644670, 0.3046842515, 0.0243761484, 0.0384786986, 0.0723779276, -0.0650043041, -0.0695963576, -0.0059307008, -0.0741784200, 0.1891689152, 0.0397701748, 0.0055116452, -0.1218548790, 0.1400865763, -0.0765080824, 0.0095506590, 0.0775583908, 0.0751542225, -0.1642281562, -0.1424907744, -0.0397525467, -0.0239174683, -0.0584735014, -0.1246839762, 0.1050854474, 0.0147927590, 0.0212957151, -0.0468290858, 0.1146129072, -0.0059633423, 0.0943425223, 0.0461447500, 0.0393688381, 0.0810961500, 0.1252542585, 0.1167841777, 0.0548380017, 0.0173506010, 0.1422297210, 0.0710962489, 0.2431715727, -0.0907147750, -0.0127851311, 0.2282701880, -0.0372937731, 0.0589978807, -0.2008393854, 0.1878562570, -0.0534470081, -0.0100678587, 0.0513716079, -0.0577232130, 0.0404334515, -0.2229326814, 0.0899388790, 0.0570294857, 0.1630141139, 0.1841511726, -0.1777588576, -0.0610396340, 0.0090198899, 0.0634141341, 0.0062410412, -0.0075168652, 0.0738961399, 0.1315579265, -0.1975639164, 0.0162729416, 0.0221661162, 0.0795084983, 0.0479672216, 0.0735641196, -0.0432041511, 0.3067384660, -0.0547004566, -0.0793212280, -0.1832285523, 0.3085494637, 0.1293221712, -0.0873793736, 0.0981757641, 0.0833055303, 0.0579540543, 0.0669050962, -0.1458523721, -0.0506473482, 0.0908289105, -0.0614314675, -0.0109824883, 0.0515772477, 0.1330329031, 0.0502894782, -0.0090346960, -0.0828049108, -0.0053163795, 0.0336492546, -0.0882100388, -0.0097114621, 0.0486877300, -0.0065244180, -0.1192110181, -0.0714753419, -0.3097338378, -0.1464924365, 0.0782380700, -0.2631143928, 0.0407348536, -0.1285234541, -0.0134688923, 0.0900555030, 0.0777122825, 0.0187166333, -0.0347761661, -0.2574492693, -0.3316455185, 0.0238766111, 0.0358085260, -0.0378866307, 0.1541886777, 0.1119016483, -0.1435264945, -0.0741315633, -0.0217517726, -0.0719494596, -0.2365356237, -0.0063551553, 0.1234192252, 0.0814684182, 0.0718675852, -0.0242006984, -0.3806486428, 0.0207750704, 0.1049191803, 0.0494970717, -0.0315345936, -0.0069962633, -0.0392426401, -0.4604715109, 0.0973928198, -0.0710848197, -0.1235111952, -0.2677701116, 0.0124744158, 0.1341504455, -0.1440655738, -0.2162799984, 0.1425147802, 0.0323880017, -0.0392761193, 0.0941481814, 0.1928429306, -0.0343297236, -0.1148646846, -0.1380869448, 0.1058952734, -0.1410675943, -0.1211429089, -0.0248124376, -0.3061117232, 0.1424515545, -0.1303772479, 0.1072105244, -0.2135958076, 0.2742894590, -0.0636393353, 0.1178195700, 0.0914752260, 0.0474172607, 0.0075934497, -0.2152946889, -0.0278703589, 0.0471732095, -0.1787108779, -0.2900767922, 0.2589626312, -0.1051628068, 0.0249833055, 0.0217727181, 0.0705201104, 0.0742408782, 0.3643886149, -0.1342015713, 0.1923789084, 0.1339681596, 0.1752317101, 0.3916222751, -0.1816694885, 0.0286647230, 0.1411867738, -0.0321018510, 0.0646657050, -0.1267768890, -0.1045432091, 0.0662287101, 0.0964395627, 0.0962642431, -0.0794692785, 0.2264567167, -0.3232615888, 0.1449935436, 0.0317453630, -0.1123813838, -0.0499098562, 0.0438535139, -0.0616268329, 0.0880573243, -0.1577220857, 0.0223082807, 0.0317568779, 0.0356608704, -0.1476781666, 0.0776945949, -0.0175036862, -0.1074701026, 0.0186253302, 0.1664743274, 0.0275033452, 0.0688494742, 0.0086533977, -0.0658447072, 0.0229897834, 0.0471879914, 0.0059046918, 0.1031577066, 0.0802218765, -0.0646355450, -0.2380594015, -0.0001985267, -0.0856525823, -0.1662752181, 0.0417533815, 0.1343943626, 0.0766470730, -0.0322767086, -0.0693079233, 0.0271523111, -0.0917872936, 0.0899578109, -0.0611506924, -0.1591736823, -0.1176461950, 0.1195517257, 0.1521383077, -0.1699451059, -0.0115333972, 0.0488342419, 0.0536087230, -0.1166236773, -0.0698057860, -0.0889780745, 0.2050788403, -0.0841815919, 0.0977565274, -0.1301259845, 0.2784884274, -0.0390282385, 0.3808781505, -0.0393264107, -0.1793478876, 0.1048963964, -0.0318144523, 0.0918124169, 0.2491908520, 0.0176320523, -0.2018120289, 0.1129404977, -0.0831030980, 0.0899913833, -0.0569193289, -0.1253143996, -0.1104412600, 0.1308940053, -0.2340089381, 0.1907516867, -0.2376300395, 0.0370469280, 0.1427817345, 0.0366569087, -0.1378745884, 0.1039195061, 0.0000482800, 0.0808368847, -0.3755894601, -0.0356651321, -0.0269645620, 0.0763620660, -0.5038771033, 0.0680020377, -0.0929433852, -0.0179798324, -0.0543709286, -0.0620520189, -0.1486327648, -0.0619425550, -0.0704253018, 0.1064932719, 0.1608606577, -0.0852244645, -0.1211804003, 0.1915733814, 0.0150525765, -0.0292646997, -0.0126006156, -0.0199660733, -0.0860078111, -0.0205775835, -0.1545717716, 0.0477302298, -0.2767817080, -0.3482220173, -0.1594665051, -0.0001291401, -0.0182687230, 0.0788718238, -0.1367911696, -0.0933591947, 0.0720416978, -0.0731170997, -0.1157471463, -0.0189413745, 0.1598334461, -0.0369167589, -0.0814318210, -0.0007158406, 0.0707324073, 0.1230245680, -0.1258647740, -0.2201630324, -0.1068119481, -0.2442769110, -0.1365769058, -0.1471997797, 0.1105571315, -0.1196965650, -0.0412233286, -0.0729442388, -0.0539569557, -0.1021805778, -0.0708180517, -0.1390208453, 0.1175912842, 0.0297939274, 0.3743436933, 0.1895961761, -0.0159523282, -0.0020114833, -0.3205972016, 0.2050905526, 0.0686840862, -0.0140231736, -0.4075989127, 0.1281767488, -0.0546129569, -0.3242801130, -0.1648481786, 0.1318082213, -0.0532664098, 0.1231588647, 0.0754308626, 0.1256000251, 0.0807887539, 0.0811928883, -0.0563116223, 0.2558285892, 0.2130103707, 0.2652041912, -0.1084614769, 0.0148442527, 0.0117650535, 0.2169719338, -0.3183608651, 0.0365461856, -0.0822542012, -0.2842814326, 0.1334398687, 0.1338656247, 0.1032173038, 0.0885195360, -0.0055714576, -0.0487122536, 0.0120210676, -0.0158035159, 0.1066165939, 0.1013233513, 0.1675245464, -0.0428060479, 0.0945887491, -0.0581279658, -0.0133380620, -0.1826182902, -0.0428620167, 0.0575995743, -0.1184887066, -0.2424667031, 0.1024317518, -0.1823092252, -0.0426675491, -0.1600399762, -0.2448401600, -0.0141442139, 0.1171333715, -0.2449761480, 0.0819462240, -0.0770541131, 0.1519066691, 0.3776377439, -0.0584195107, -0.0398105979, -0.0714943111, 0.0182130244, -0.1686556190, 0.1728248447, 0.0354580581, 0.0232153330, -0.3859899640, -0.0131926723, -0.2298343331, 0.0946046934, -0.1124077514, -0.0859857351, -0.1222762764, -0.0082039153, -0.1620806158, 0.1504003406, 0.0997297242, 0.1458398998, 0.0291653425, -0.0065143052, -0.1096159294, 0.1955148727, 0.0650440082, -0.0966799334, 0.2077434957, -0.0114733614, -0.0415611714, -0.0577530265, -0.0338255316, -0.1199511960, -0.2495198995, 0.2951509655, -0.0810337365, -0.0351407528, -0.0521938019, -0.1437231153, -0.0173182562, 0.0451527052, 0.1489721090, 0.0281939451, 0.1285171062, 0.0507968925, 0.2917584777, -0.1490978301, 0.1007250473, -0.1961374879, 0.1719504744, 0.0700717270, 0.2685290873, -0.1849056780, 0.1096810177, 0.0205788147, 0.0913355872, 0.3607914746, -0.1948198229, -0.1291120797, 0.1483269036, 0.1590924114, 0.1015695557, -0.1751687527, 0.0298191924, 0.0981287733, 0.0851570517, -0.0024861263, 0.0719841495, -0.0494396351, 0.1320855021, -0.0441109501, 0.1132654548, 0.0246573538, -0.1589601487, -0.1591442823, 0.1530349702, -0.0924575105, 0.0568499602, 0.0402970240, -0.1800528914, -0.0239430163, 0.2953383029, -0.0605274811, -0.0806389898, 0.1045013070, 0.0126882326, -0.0244829860, -0.0360464789, 0.0641934052, 0.1533764303, -0.1707086265, 0.1190014854, -0.0479297861, 0.0973851010, -0.0736092925, -0.0161884502, -0.0133868754, -0.3526106775, -0.0733494237, 0.1649596244, -0.1279907525, 0.3262360692, 0.2530914843, -0.0585923009, -0.1528941095, 0.0127763962, -0.1861070693, 0.1648761332, 0.0203645602, -0.0383797586, 0.0106234113, -0.1437385529, 0.0375898890, 0.0597513542, -0.0268765409, -0.2344822884, -0.0062589482, -0.1480343789, -0.1499759108, 0.0261375681, 0.0308238603, -0.2233201116, -0.0185240097, -0.2717663646, -0.2532651126, -0.2153410017, -0.0716584399, 0.1448788792, 0.0353672132, -0.2527869046, -0.2911995649, -0.3667985797, -0.0738396347, -0.3190995157, 0.0187862124, -0.1028670892, -0.1609803438, -0.0500066131, 0.0889432356, -0.1422160715, -0.0167672038, -0.0350996926, -0.0260424968, 0.1778792590, 0.0743359625, -0.0371891633, 0.1706101000, 0.0081791487, 0.3360898197, 0.0539728515, -0.0672343746, 0.1152825505, 0.0748116523, -0.1123702526, -0.1052918881, 0.0684149638, 0.0878277272, 0.1551066190, 0.0813847557, 0.0794428885, 0.3522742093, -0.1052956730, 0.1512040645, 0.3065308630, 0.0283589549, -0.1874645650, -0.1401201934, 0.0381054133, 0.0433382615, -0.2594652772, 0.1906817704, 0.0454329737, 0.1372264475, -0.1479558647, 0.1150664315, 0.0084422771, 0.1068041250, -0.1105916202, 0.0100078573, -0.0478601456, -0.0925984904, -0.1486880928, 0.0405314714, 0.0759622827, 0.1587861925, -0.0324023291, 0.0639533475, 0.0981851071, 0.0741360337, -0.1670612991, -0.0318218805, 0.0013722684, -0.2864865661, 0.1436530948, 0.0929447860, 0.0506196022, 0.1952850223, 0.2236127853, -0.0786570311, 0.1251129210, 0.1243911609, 0.0818550587, -0.0779113546, 0.1133476570, -0.0140286917, -0.1220850572, 0.0594322979, 0.0318186656, 0.2059205174, -0.1125578135, 0.1536913067, 0.0347653702, 0.1215439886, -0.0899781734, 0.1774884015, -0.0534984171, -0.0398867987, -0.1078704521, 0.0239969660, 0.0325351134, -0.1399813443, -0.2172693014, 0.1114431098, -0.1579666883, 0.1665971577, 0.0734051317, 0.0935249925, 0.0923357680, 0.1116479710, -0.1972787082, -0.2040837705, 0.0050469087, 0.0242250338, -0.1962294132, -0.2191356272, -0.2209714651, -0.0016195551, -0.0314089246, 0.0325749330, 0.0575165041, -0.0225125160, 0.1332837343, -0.0344737582, -0.0518261828, 0.2926204503, 0.1864370853, 0.0049106381, 0.0978490040, 0.1899411678, 0.2156160921, -0.1800947189, 0.1778482795, -0.2425970584, 0.1616158485, 0.0011122897, -0.1067905426, 0.1453564763, 0.1188785434, 0.0772893503, 0.1380064487, -0.0607204437, 0.0362110101, -0.0902055874, -0.1391070783, -0.0628742427, -0.2357980013, -0.0855064690, -0.0635257885, 0.0560837500, -0.2928015590, -0.0943662450, 0.1624811441, -0.3514626324, -0.0164162088, -0.0281980168, -0.0851209313, -0.2030269504, -0.0038938981, 0.0011952121, -0.0843896195, -0.0520719551, -0.0722855255, -0.1168173552, -0.0457996801, 0.0746554509, -0.0151706170, -0.1048175395, 0.1380964667, -0.0846525505, -0.0709183514, 0.2050702721, -0.1649418175, -0.0054289005, -0.2548532486, 0.0065224357, -0.1062922031, -0.1532918811, -0.1080600545, -0.1867383868, -0.0016205270, 0.1638735682, -0.2618823647, -0.0025139290, 0.0446243212, -0.1629156023, 0.0406173170, 0.0998431221, -0.0051081060, -0.0960450917, -0.0561952703, -0.0751148313, 0.3327425122, 0.1476216018, 0.0782371983, 0.0796641037, -0.2178643644, 0.0349576026, -0.1273235977, -0.0384104960, -0.1061201617, -0.1231201738, 0.0218296498, 0.0569371581, 0.0736180469, 0.0744141340, -0.1271607429, -0.1430935115, 0.0151167242, -0.2302926183, -0.0050998032, -0.1867575347, -0.0871628746, 0.1469502598, -0.0817623734, -0.0052086781, 0.1823924482, 0.1204197630, -0.2363391370, -0.3539409935, 0.1463551074, 0.0825109929, -0.0256474465, 0.0370558761, 0.0116317514, -0.0363291278, 0.0005094941, -0.0865930691, 0.0114861317, -0.0195418540, 0.0017340730, 0.0602434948, 0.0950923264, 0.1886939555, -0.2005380094, 0.1312717944, 0.0103585552, -0.0590847470, -0.2191026062, 0.1141572520, 0.0265422575, 0.1759804636, 0.1755224615, -0.1937584877, -0.1094767377, -0.0373001620, -0.0148058180, -0.0409817249, 0.0583963357, -0.2397087067, -0.2203933746, -0.2367582470, -0.0584553629, -0.0829009563, -0.0814803913, -0.0031617000, -0.0372093394, -0.0237456989, 0.1028820649, 0.0786107928, 0.0896869749, 0.1878062934, -0.2615059912, -0.0818729028, -0.0025177705, 0.0871656314, 0.0438523404, 0.2083802372, -0.0159076750, -0.0699846968, 0.1449158341, -0.2003691941, -0.0071167643, 0.0350295156, -0.0776748285, -0.1381146759, -0.0757633746, 0.0443366095, -0.0397639051, -0.0787579864, 0.1169180870, -0.0139327301, -0.1829746217, 0.1632943451, -0.0525569506, -0.1645810455, 0.0791392177, 0.0894745737, 0.0283927582, -0.0584527664, 0.0373249426, -0.0355569907, 0.0144058336, -0.0018920491, 0.0582827032, 0.1248104647, -0.0486054756, 0.2373277098, 0.1230400503, -0.4494606256, 0.0878625140, 0.1637210548, 0.0034626506, -0.0856676027, -0.0287473723, 0.0261817276, 0.1591805816, -0.0655090436, -0.1850462854, 0.2017333061, 0.0058528576, 0.0677323863, 0.0289718732, -0.1017655507, 0.0791196749, 0.1093906611, 0.0541660897, -0.2538293898, 0.0480179898, -0.0280503370, 0.0086020986, 0.0452827699, -0.0044779931, -0.0134767452, 0.1024627984, 0.0399838835, -0.2271336317, 0.0814221054, 0.0221066531, -0.2723341286, 0.0631092712, 0.1296047866, 0.0729006380, 0.0043579261, -0.0561054945, -0.1722860485, 0.0535916388, 0.0088108955, 0.1175897047, -0.1351654232, 0.0233527031, -0.3059770763, -0.1127193198, -0.0231265258, 0.0486412570, 0.1783880293, 0.0008578652, 0.0639686584, -0.0159059968, -0.1429687142, 0.0125708906, -0.0809783563, 0.1069861576, 0.1196925640, -0.1513335109, -0.0642474592, -0.1567645371, 0.0141671849, -0.0666241273, 0.0094009032, 0.0960465521, 0.2335671037, -0.0114946337, 0.1807243228, 0.0939965770, -0.0334212556, 0.0182649102, 0.1973373741, 0.0966347009, -0.0875812247, 0.1485153586, 0.0186418444, -0.0974465087, 0.2008022219, 0.1084846705, 0.0421750583, -0.1082413271, 0.0457569547, -0.0125489710, 0.0715347454, 0.1568810940, 0.2975759804, 0.1763695031, 0.2538403571, 0.0304261800, -0.1841910481, -0.0672711730, -0.0427552499, 0.2011220753, -0.1766518056, 0.0799755156, 0.1685558110, 0.2686394155, -0.0859650671, 0.4089202583, 0.0929440558, 0.2489174306, -0.0095553473, -0.1228476390, -0.0889592841, 0.0317193754, -0.3424338102, -0.1225121766, 0.0261214189, 0.1328135729, -0.0411353298, -0.0118248118, 0.0351180062, 0.0533057712, 0.1158801690, -0.1285102069, 0.0460286140, -0.1726271957, -0.0138428099, 0.1681431830, -0.0155347520, 0.0838250220, 0.0879306644, -0.2517622113, -0.1538899988, 0.1726116687, 0.0818654224, -0.0767417923, -0.0104776099, -0.1646556258, -0.0899470970, 0.0819559693, -0.4229544997, -0.1077168733, -0.1207361817, -0.0563386306, -0.0791058615, -0.0852985829, 0.1187670156, -0.0630925447, -0.1437981129, -0.0885315016, 0.1070851162, -0.0946988910, 0.0024859614, 0.1250600964, 0.0053821695, 0.0472214855, 0.0714895204, 0.1077114418, -0.0519937910, -0.0904277042, 0.1864670813, -0.1827550530, -0.0067695891, -0.2729399800, 0.2449093908, -0.0838583633, -0.1655780524, -0.2971219420, 0.0585193671, -0.2063825428, -0.1731884927, -0.1327479333, -0.0114632035, -0.0494924895, 0.1089279577, -0.1542976350, -0.2402164191, 0.0860516727, -0.0322331712, -0.0247250106, 0.0499602072, -0.0381629467, 0.0907858610, -0.1467048526, -0.1275341660, 0.2186566293, -0.1112715378, -0.2736224532, 0.0085413866, -0.0434372835, -0.3294362128, -0.0783889219, 0.0098591950, 0.0167589746, 0.0514443107, -0.2625679076, -0.1244437173, 0.0309778750, 0.0642131492, 0.1175478697, 0.1256022155, 0.2495818138, 0.5030754805, 0.2574256063, 0.0527535081, 0.0270322338, 0.0941848233, -0.0219179858, 0.1001755148, 0.0486408360, -0.1750102341, -0.2642917633, 0.0228397455, 0.0176900327, 0.1997128576, -0.0410224721, 0.0101374350, 0.1159996390, 0.1567821354, -0.1766380221, 0.0224086791, -0.0940000489, 0.2373532057, -0.0413274504, 0.0185790025, -0.1363384724, 0.0873869956, -0.1664375514, -0.1656366140, -0.0199173316, 0.2303779572, 0.0263188947, -0.0157607887, -0.0279956218, 0.0186084639, -0.0246245228, 0.1850835979, 0.0327581689, 0.0802049711, -0.0950517729, 0.0514614247, 0.0685171932, -0.0051273662, 0.0595401265, 0.0080932491, 0.0148518849, -0.0267166719, 0.0681750998, -0.0703860074, 0.0915376991, 0.0580683090, 0.0133670885, -0.0152852545, 0.0133605888, 0.2529101968, -0.1613648385, 0.1911203563, 0.0449797697, 0.0443707593, -0.0649751574, -0.0104552405, -0.0907449648, 0.0227009915, -0.2206589431, 0.1291120350, -0.0222143214, -0.1236457899, -0.1030108780, -0.0340444632, 0.0807731673, 0.2008801848, -0.0727847293, 0.0672385097, -0.0468799919, 0.1007779986, -0.1017947719, 0.0683494210, -0.0240191352, -0.1210313439, -0.0580779724, -0.0540542677, 0.0340614431, 0.1024962813, -0.0903999433, 0.1078077480, -0.2073396593, 0.0856101960, 0.1384017766, -0.0494469292, 0.0895975679, 0.3925941885, 0.1751360446, -0.1224181354, -0.0484688208, 0.1214427277, 0.0887390003, 0.0557185560, -0.0716905668, -0.0032677662, -0.1247435436, -0.0084216185, 0.2077495605, 0.0922322646, -0.0522941761, 0.0764651746, -0.1046460643, -0.1314737201, 0.1230715439, -0.0383781120, 0.1104890034, -0.0224659927, 0.0832282379, -0.0508423746, -0.0406021848, -0.2271358371, 0.0157434139, -0.0842797831, -0.0406488739, -0.6642739773, -0.1906126291, -0.1208802760, -0.1005045399, -0.0711880103, -0.0634913892, 0.2109641284, -0.3043134212, -0.1257181168, -0.3621594310, -0.0619900413, 0.0246716272, -0.0033466003, 0.2683143616, 0.1646957099, -0.1391078234, -0.0875605717, 0.0878195539, -0.2009544671, -0.2290194035, 0.0034061347, 0.0567603111, -0.0718331784, 0.2651164234, 0.0470720306, -0.1479754001, -0.0313440897, 0.1495485008, 0.0457961336, 0.1936183274, 0.0405763090, -0.0369392782, -0.3555332124, -0.1994376630, 0.0190029535, 0.0012120452, -0.2590255439, -0.1120709106, 0.1104830503, -0.2010062337, -0.1971052587, 0.0069340225, -0.0785201564, 0.1266743243, 0.2271909863, 0.2492777854, 0.0216604955, -0.0855224282, 0.0782917216, 0.0256723072, 0.0636712238, 0.0180707648, -0.1248388588, -0.3007202744, 0.0681582168, -0.1432331502, 0.0531262420, -0.1507575661, 0.2632029951, -0.0906736702, 0.0672773942, -0.0295108706, 0.0713376030, -0.2098783851, -0.2040388137, -0.0710962042, -0.0975903422, -0.0265777763, -0.0912466869, 0.0055707898, -0.0199395940, 0.1139288321, -0.0954080150, 0.3333269656, 0.0923981145, 0.1965646446, -0.1217932999, 0.2501277328, 0.0914526731, -0.1465861797, 0.1983353943, -0.2971905768, 0.1453052014, -0.0313722529, 0.0461664386, 0.0304966960, 0.1511792988, 0.0440202691, 0.0346565321, 0.1719141155, 0.0766716823, -0.1190133095, 0.0727415904, -0.2292398065, 0.1553259194, 0.2243471146, 0.1937310249, 0.2299106717, 0.1834428906, 0.0042231726, 0.0323477574, -0.0366990417, 0.1736513823, -0.1313932091, 0.1372683495, 0.0223209187, 0.2424125820, 0.1758630425, -0.1365325004, -0.1150639802, 0.3579294086, -0.1413675845, 0.0455274358, 0.0813192353, -0.0300526544, 0.0332593247, 0.0717447251, 0.0591045991, 0.1294320673, 0.2789061964, -0.1162327975, -0.1259247959, -0.0293552149, -0.1171116382, -0.0217928104, 0.0298225973, 0.1467653662, -0.0100171175, 0.0418304726, -0.2949829400, -0.0083906688, -0.0174170230, 0.2154097706, -0.1561171860, -0.1170234978, 0.1014264077, 0.0979509950, 0.0160889514, -0.2105213106, -0.1027228236, -0.1582331508, 0.1623249501, -0.0346057601, 0.0088353334, -0.0898746476, -0.0181767493, -0.0042123348, 0.1123695150, -0.0176500119, 0.2421058863, -0.1062614098, 0.0987665057, -0.0706727356, -0.1002273336, 0.0630638227, -0.1379179806, 0.1167697459, 0.3224174380, 0.0156577751, -0.1022017896, -0.0164653100, 0.0600611344, 0.1248201653, -0.0755208209, -0.0383096710, 0.1818874478, 0.0668331683, -0.0803883970, 0.0603900030, -0.2732813358, 0.0333678573, 0.0606389865, -0.0435104892, -0.0712709576, 0.0123684611, -0.1662119329, 0.1033612415, -0.1762724370, 0.2191570103, -0.0298600867, -0.1257286817, -0.5523036718, -0.1002185568, 0.1920130849, 0.0467986390, 0.1361117363, -0.0318235084, -0.0231371205, 0.0784540996, 0.0707924888, 0.1654193848, 0.3021920621, 0.0765819252, -0.0974970162, 0.2857594490, 0.0453111790, 0.0634663329, 0.1013479605, 0.2147481740, 0.0607944131, 0.0894933119, -0.0925503373, 0.1287331730, 0.0006896115, -0.2641105950, -0.1471649855, 0.0695558563, 0.2029271424, 0.1599692702, -0.1542487442, -0.0716055930, 0.0830826610, 0.0706437975, -0.0810420215, 0.1014171466, 0.1241704896, -0.1066495404, 0.0332034789, 0.0644871891, 0.2915883660, 0.1838393062, -0.1670416892, -0.1474653333, 0.0264480244, -0.1895742565, 0.0260831509, -0.1841809601, -0.1106658280, -0.1759539694, -0.0213914942, -0.1660679281, -0.0290276743, -0.0920074731, 0.0063330489, -0.0609683655, 0.0957047120, -0.0957553536, 0.1837428659, 0.0258295741, -0.0806854591, -0.0863561705, -0.2196483910, 0.1834771633, -0.0500507168, 0.0864433050, -0.2858484089, -0.1108489335, -0.0123210540, 0.0036710028, -0.1806261539, 0.1106334552, -0.0678737760, -0.0423220880, -0.0536799617, 0.0690427497, 0.1036960408, 0.0135372868, -0.1817635298, 0.2035309225, 0.0905391350, 0.0257478692, -0.0019386209, 0.0227172486, -0.0660386309, 0.2914319336, -0.2888610065, 0.0768385977, -0.0638308078, -0.2315486372, 0.0044782613, 0.0256992579, -0.0728090107, 0.1015167385, -0.1405324787, -0.2808401287, -0.0340399295, -0.0476125740, 0.0166274253, 0.1557125151, 0.0822109506, -0.2151477188, -0.0276738796, -0.1801422834, 0.1369065791, 0.0056643332, -0.1083423197, 0.1410725415, -0.2119527608, -0.2412982434, -0.1289198846, 0.0633093268, -0.0938430950, -0.4287071526, -0.3626796901, -0.0519923270, -0.0501347780, -0.0557843372, 0.0820743069, -0.0491324179, 0.1150145307, 0.2925984263, -0.0451167747, 0.0980669484, -0.1145424694, 0.0842451379, -0.1496508718, 0.0620429032, 0.0545787737, 0.0792862773, -0.3770034015, -0.0093112243, -0.1820716858, 0.2992967963, 0.0037017239, 0.0586491860, -0.1614036113, -0.0074301385, 0.1178715229, 0.1488119364, -0.1603321284, 0.0898784846, 0.0584512204, -0.0121102585, -0.1078716740, 0.1134088859, 0.0668456927, -0.1445135772, 0.1295646429, 0.1319496185, 0.1577374786, -0.1171082407, -0.1359538138, -0.0292959269, 0.0564125329, 0.1429350078, -0.0306610670, -0.0618274920, 0.1314464658, 0.1810211986, -0.0770630836, 0.0010816448, 0.2492823154, -0.0246518757, -0.0423895270, 0.1130397171, 0.2613249719, -0.1716619432, 0.0510164239, -0.0490716584, -0.0280867536, 0.0620568655, 0.2300173789, -0.1343585849, 0.0919083133, 0.1199804991, 0.0821985900, 0.1878553629, 0.0200909507, -0.2579627931, -0.1074036732, 0.1755089760, 0.2260317057, -0.1042207778, 0.3238902986, 0.3311215639, 0.1235950217, -0.0597743355, -0.1081294417, 0.0043442855, -0.0630646795, 0.1372535378, 0.0872855112, -0.0103581212, -0.3612786829, -0.1613227278, 0.1205314100, -0.1107885614, -0.0634944513, 0.1061508656, -0.1930791438, 0.0279828422, 0.0286765341, -0.1209208369, -0.1478262097, 0.1343012750, -0.0554961823, -0.0958786160, -0.1799791008, -0.0137068564, 0.0788640901, -0.0823962390, 0.1114318445, 0.0745021626, -0.1211903617, -0.0101064919, 0.1241524071, -0.1931439191, -0.2095237672, -0.0744940117, 0.0642379895, -0.0354262739, 0.0802067444, -0.0696372390, -0.0136458538, -0.0859623924, 0.0149013083, 0.0136876125, 0.1777786762, 0.3185069859, 0.1724154949, 0.0970586762, 0.0586985871, 0.0684350878, 0.1831942499, -0.0775958747, -0.1075872257, -0.0076831970, -0.1423590630, -0.0069070770, 0.0712154135, -0.0495816246, -0.2437165380, 0.0354520939, -0.2101936489, -0.2957663536, -0.1633832306, 0.0409218147, 0.1726732850, -0.0025476948, -0.3369494975, -0.0667560026, -0.2485128641, -0.1623023152, -0.2542367280, 0.0656774342, 0.0106287664, 0.1482521445, -0.0811914504, 0.0310628358, -0.2147369832, -0.0866941363, 0.1686870903, 0.0706183240, 0.1300776750, -0.0191722959, -0.1700118184, 0.0538439900, -0.0178724956, 0.2317388058, -0.0358854346, 0.0400917120, 0.0155974990, 0.1117441356, -0.0492614545, -0.0285075996, -0.0320292078, -0.0117892073, 0.0784352273, -0.1348241568, -0.0024603552, 0.3611189127, 0.0211109705, 0.1536924541, 0.2739721537, -0.0195084885, 0.0005206888, 0.0861397237, -0.0529438481, 0.0629314855, -0.2354447544, 0.0416662581, 0.0277936012, 0.0257292390, -0.0280025229, 0.0172071755, -0.0971128568, 0.1274725795, -0.0565939248, -0.0286779962, 0.1607450545, 0.0727174729, 0.1438776255, 0.2222518325, -0.1186778620, 0.0099402405, 0.1723177433, 0.1363887340, 0.0183737855, 0.0314955264, 0.1497972310, 0.0899059102, 0.1213291958, -0.2455390990, 0.0591524355, 0.0360339768, 0.0502530746, 0.1588778496, 0.0688229352, -0.0127098141, 0.2086956948, 0.0857561976, 0.1499585509, 0.0295495950, 0.2773055732, -0.1682525575, -0.1197153851, 0.0630686060, 0.1424004883, 0.2027683258, 0.1414002627, 0.1750973761, -0.0495970473, 0.0800669715, -0.1814874560, -0.0277835447, 0.0127363140, 0.0385897122, 0.0472131893, -0.0651203766, 0.0145220244, -0.0506260321, -0.1223636866, 0.0588126332, -0.2767705023, 0.2085638195, -0.0604711734, -0.0386200696, 0.0687365606, 0.1969307214, 0.0411097035, -0.1204811782, -0.0762350261, 0.1657159179, -0.3287761211, -0.1025716811, -0.0814800262, -0.0626062751, -0.0159115959, 0.0125534749, -0.1041111425, -0.0760410503, -0.1741758138, -0.1049861610, 0.0101663405, -0.1175607145, 0.0502018556, 0.0335650705, 0.0255630147, 0.0365686901, 0.1696203500, -0.0389213189, 0.2282314003, -0.0973077044, -0.0586751215, 0.0109355841, 0.0252757929, 0.2307638973, 0.0998121276, 0.1236539111, 0.2484301925, -0.0145978294, -0.0355478860, -0.1836147904, -0.0736807436, -0.0378249586, -0.3106239438, -0.1814973652, -0.1368264258, 0.1616871059, -0.3380202651, -0.0270434413, 0.1115728989, -0.2797434926, -0.0081471018, -0.0614723787, -0.1649383307, 0.0280581638, -0.0804226473, 0.0891670510, -0.0896937475, -0.1537174433, -0.1074564606, 0.0938585252, -0.0183106642, 0.1321992874, -0.1156710535, -0.0206829272, 0.3130748272, -0.0574504584, 0.0074171121, 0.2808960974, -0.1034709513, 0.0789633170, -0.0150154941, 0.0525782183, -0.0481371880, 0.0857842192, 0.0810810477, -0.0637685806, 0.1280353218, 0.0448507592, -0.0547205620, 0.1131930724, -0.1381415725, -0.0352086313, 0.0501228869, 0.1167805493, -0.2213921845, 0.2759738564, 0.0473092794, -0.2618659735, 0.2440276742, 0.1180147156, -0.0106736990, 0.0690856576, -0.2334067672, 0.0228098761, -0.1053375825, 0.0052709430, 0.0097497590, -0.1014811695, -0.2088457197, 0.0468944982, 0.0640922263, -0.0020537686, -0.2132628858, -0.1706801802, -0.0316801891, -0.3312224150, -0.2138230801, -0.1741109639, 0.0412031189, -0.0633381829, 0.0562399216, -0.0644134507, 0.1703026146, -0.0127896545, -0.1972455382, -0.0594028011, 0.2186320275, 0.3313846886, 0.0101122595, 0.0549402423, -0.1181600839, -0.1698525995, -0.0020339584, -0.0082061477, -0.0513925217, 0.1500049233, 0.1562498361, -0.1907081306, 0.3048707545, 0.0945747718, -0.0430519171, 0.1920972019, -0.1889729649, 0.1656952798, -0.1724543869, 0.0167891122, -0.0335770324, 0.0764170438, 0.2216499001, -0.0114773093, 0.0412575305, -0.1624352634, -0.1894823164, -0.0434703790, 0.4387206435, 0.0150418198, -0.1705340892, -0.1399349868, 0.0287004970, 0.0300358664, 0.1518867165, 0.1625248790, 0.0406734310, -0.0950340256, 0.5433006287, 0.0797611922, 0.0388841666, 0.3745755553, -0.1884078085, -0.0285377353, 0.0159248654, 0.0359392427, -0.0358551256, 0.2587769926, 0.0334472880, -0.0139220711, 0.3401885927, 0.0209938660, -0.0265872423, 0.2455679178, 0.0213374645, 0.2074349076, 0.1317671984, 0.1762827784, 0.3859983087, -0.0488723256, 0.0812572762, 0.0036676356, -0.0423041470, 0.0851408988, -0.1429438442, -0.1408538520, -0.0461815819, 0.0512525849, 0.0496664010, 0.1384522170, 0.0754567608, -0.0991450176, -0.0049922531, -0.1212974489, 0.0094314776, 0.1005917937, -0.0389307998, 0.2553022802, 0.1873503923, -0.3072453737, 0.0515327752, 0.1091815457, -0.2439091206, -0.0511081629, 0.0652381331, 0.1013136357, 0.0716553479, 0.0375426821, -0.2008182704, 0.1654908359, -0.1916728020, 0.0215159636, -0.1378701180, -0.0732200518, -0.0884084702, 0.0210730359, 0.1839620322, -0.2985501885, 0.0379894115, 0.0884684846, -0.0649603009, -0.0711883605, -0.0503083207, -0.1101336926, -0.0411188602, 0.0879572630, 0.1552317888, -0.0219996702, -0.1143703014, -0.1554771215, 0.0788170695, 0.1897001266, -0.1041878760, -0.0051080692, -0.0221785158, -0.0601575561, 0.1129947305, 0.0712679029, 0.2618736923, -0.0103767319, 0.1653694063, -0.0861703753, -0.1423931122, 0.1008884087, -0.1359884888, 0.0538983792, -0.0327157415, -0.0331327207, -0.1013036892, 0.0040308810, -0.1216049641, -0.0372050889, 0.0056408723, 0.0425598174, -0.2124992311, -0.2167588919, 0.0022528241, 0.2117476314, 0.0958328247, -0.0909129009, -0.1271087825, 0.1285734624, 0.0347440094, 0.1739566028, -0.1136435419, -0.0506222211, -0.0029749062, -0.0176113192, 0.0957107767, -0.1231854782, 0.1748389900, -0.0467650443, -0.1506441981, 0.1607571840, -0.0795109794, -0.1074478105, -0.1003145874, -0.0307170600, -0.0340542495, 0.2183364332, 0.3756802976, -0.2775246501, 0.1668715328, 0.3131598234, 0.2690135837, 0.1376907229, 0.1133347005, 0.1174083874, -0.0875832960, -0.1217170730, -0.0506026633, 0.1524422765, 0.2784670293, 0.2538725436, -0.0022634070, 0.0639300048, 0.1545612216, 0.0629156753, 0.0686362013, 0.2176624238, -0.0301271807, -0.1036319956, -0.2037322819, 0.0080279531, -0.0451555699, -0.2265966088, -0.0512505360, 0.1002163365, 0.0433854647, 0.1703884155, -0.1653551310, 0.0326000564, -0.0858707651, 0.0324889049, -0.0148627842, 0.0292729009, 0.0810230747, 0.0771599859, -0.3358205855, -0.0413259529, -0.0098324176, -0.0760385096, -0.1894021779, -0.1439692974, -0.1434947848, 0.0782988295, -0.0730639622, -0.4011771083, -0.1609880328, 0.0740411133, -0.0145985642, 0.0046030777, -0.0762258694, -0.0144241601, -0.1097824499, -0.1306440383, -0.1330164522, 0.0330059491, -0.1710673124, -0.0022043269, 0.0388069078, 0.1416636407, 0.0529191010, 0.0516435914, 0.0708754510, -0.0345284157, -0.0139880572, 0.2977116108, -0.0521813557, -0.0062017194, -0.0901420116, 0.1375867277, 0.0643197820, -0.0959424749, -0.1576926112, 0.1210706681, -0.1262616217, -0.1474391669, -0.1987939775, -0.0241704937, 0.0318823867, 0.1089274958, -0.2291202992, -0.1032337025, 0.0574146621, 0.1542469859, -0.0002199731, 0.2627359927, -0.0748707354, -0.0341145098, 0.0134283360, -0.0661497563, 0.1378270090, -0.1666565686, 0.0471007004, 0.0156256091, -0.0596699230, -0.2456965595, -0.1896641701, -0.0667321160, 0.0453260243, 0.1137043983, -0.1748489887, -0.0455893725, -0.2617320120, -0.0039666402, 0.0770007595, 0.2118041962, 0.2954550385, 0.4027132690, 0.2817301154, 0.0497345999, 0.0211101808, 0.1724915504, 0.0288488008, 0.0781131983, 0.0677636564, -0.0521519184, -0.2217451185, 0.0651205704, -0.0618884005, 0.1702707708, 0.0178715456, 0.1104762182, -0.0122240465, 0.1885038018, -0.1463493854, -0.0027267179, -0.0383093767, 0.2736182213, 0.0470430590, -0.0355512723, -0.1543375105, 0.1000463590, -0.1085996777, -0.0285595786, 0.0184973255, 0.0374248698, -0.2900679111, 0.0117763141, -0.0908561274, 0.2173609287, 0.0604485720, -0.0998385996, -0.0176299438, -0.0884192586, -0.1847274899, -0.0540857427, 0.0009112866, 0.0302787051, 0.1882634163, -0.0555225722, 0.0558876246, 0.1305998266, 0.0725045577, -0.0193877723, -0.0210855696, 0.0764582157, 0.0167814475, -0.0393181667, 0.0084897131, 0.0177314822, -0.0754813328, 0.1733162254, -0.1084185839, -0.0548021719, -0.0074933730, 0.0542450622, -0.0726675689, -0.0102805924, -0.1255591512, 0.0413282104, -0.1184403375, -0.1679421365, -0.2128187418, -0.0806503594, 0.0552475005, 0.2621673346, -0.1947768033, 0.1169475466, -0.0264289882, 0.1665396839, -0.1156065688, 0.0687441602, 0.0956596285, 0.0160217155, -0.1845630556, -0.0407566726, 0.0317915790, -0.0271892752, 0.0745218620, 0.1216048300, -0.0285114050, -0.0101308571, -0.0773910433, 0.0540764928, 0.1868209839, 0.2370524257, 0.2024287879, -0.0481606759, 0.0219215937, 0.0658387616, 0.0222643875, 0.0217538252, 0.0204416960, 0.0734897181, 0.0481073633, -0.1192447245, 0.0537464879, 0.1391652226, -0.1996301115, -0.1296431571, 0.0311692301, -0.1866827756, 0.0407404043, -0.0521978624, 0.0313887708, 0.0513975583, 0.1952438653, 0.1487176567, -0.0089248652, -0.3007064760, 0.3802717030, -0.1253780276, -0.1339827031, -0.0206712596, -0.2280308753, -0.0523763150, -0.0227602776, 0.0169194918, 0.0689254925, 0.0534772985, -0.0601266660, 0.0060328776, -0.0521419346, -0.2018829733, -0.0258104727, -0.1751391888, 0.1314741522, 0.0618618540, -0.2727136314, -0.0718509704, -0.1163097546, -0.0201377198, -0.0300840866, -0.1535531878, -0.0284729861, 0.0016238150, 0.1120058596, 0.1609791666, -0.0998036861, 0.1043010354, -0.0041275956, -0.0764724910, 0.1069194004, -0.0603229776, -0.1366121322, -0.0783852935, -0.2212668359, -0.1484176069, -0.0706222802, -0.2253318280, -0.2259013206, -0.0501027443, -0.2302520424, -0.0701088533, -0.0153006632, -0.0715148896, 0.0920942053, 0.1353702843, 0.1620604396, 0.1121071279, -0.0391179062, -0.0045933989, -0.0455340333, 0.0489651561, 0.0034558382, -0.1228526756, -0.1412634999, 0.1235314831, -0.1134889275, 0.0478000529, -0.2731766403, 0.0029961260, 0.1780456156, -0.0319270976, 0.0425726101, -0.0132319238, 0.0218334626, 0.4472173750, 0.0151517252, -0.0102172056, 0.0234219525, -0.2128246874, 0.6195077300, 0.2319017351, -0.1431854516, 0.3261123598, 0.1309306175, -0.1343890727, 0.1589556634, 0.1856903434, -0.0032957178, 0.0902632773, 0.1739153564, -0.0283502545, -0.0731430054, -0.0222094357, 0.0864250883, -0.0253989920, 0.2053762674, 0.2352732122, 0.1750575751, 0.3384307325, 0.1497066617, 0.0502511486, 0.1373792589, -0.0195632651, -0.3386736512, -0.1024878398, -0.0200177338, -0.1334618479, 0.0269100107, -0.0927335620, -0.0844956934, -0.0256673768, -0.0244301520, -0.1284807771, 0.2266571671, -0.1887889504, -0.2424220741, 0.0737665743, -0.0669600591, 0.1607761383, 0.1752290279, 0.1792543232, -0.0083627971, -0.0894720033, -0.0127464943, 0.0513323471, -0.0481741577, 0.0530721806, -0.0423100181, -0.0222657733, -0.2607065439, -0.0622483157, -0.1317228526, -0.1191161349, -0.0379417315, -0.1246268228, 0.0854103938, 0.0582402609, 0.1265563816, 0.0151103018, -0.1683255434, 0.0213776063, -0.0550612211, 0.3461370170, -0.0539940745, -0.0734236762, 0.1677366495, 0.1110837758, -0.2368034273, -0.0462387688, -0.0345147364, -0.3199759126, -0.0582954437, -0.1178068370, 0.1371562332, -0.1423541903, 0.1490624994, 0.2364190221, 0.0344714560, 0.0729988590, -0.2013539821, 0.0284009706, 0.2958171666, 0.0313903503, 0.0474489518, 0.2472509146, 0.1084463075, -0.0748537481, 0.0361652412, 0.1156308800, 0.1296551377, -0.0002753189, -0.1864684522, -0.1987390667, -0.0016092063, 0.0858096108, 0.1050355881, 0.1134300381, -0.0533631593, -0.2979708016, 0.1295810044, -0.0151092941, 0.0541057028, -0.1053050533, -0.0053647114, -0.2499689907, -0.0015760814, 0.0424905941, 0.0900397599, 0.2565549910, -0.0462615937, -0.0618416481, 0.1460310221, -0.0293093920, 0.1722509265, 0.0021976384, -0.3078269064, -0.1176044643, 0.0154224895, 0.0064086355, -0.0500809774, 0.1327477694, 0.1293532699, 0.0376884043, -0.0726275072, 0.1740305424, -0.1782206148, -0.0606203452, -0.1649036109, 0.0018414187, -0.0342681445, -0.2182367593, -0.0991050899, 0.0304609258, -0.0403726101, 0.0160134062, -0.1595013738, -0.1430782080, -0.1355174333, 0.0017457292, -0.2446110845, -0.1174016744, 0.0508997440, 0.1467044204, -0.0372311287, 0.1557762921, 0.0764059722, -0.1062278450, -0.1971438378, 0.1228480935, -0.1178590804, -0.1140469015, 0.0261989776, -0.0628298894, -0.0366614610, -0.0622830465, 0.0180709790, -0.1499709934, 0.1570039690, -0.0673641786, -0.1806185544, -0.0514159910, -0.1531433761, 0.0181208439, -0.1840897501, -0.1853354722, 0.0028485169, -0.2104909569, 0.2545960248, 0.3117083311, -0.1007769033, 0.0935674086, -0.1896635443, 0.1794920266, -0.0933201760, -0.0808209851, 0.0385159701, -0.1233929321, 0.0143765826, -0.1348790973, 0.2282737643, -0.1084689274, 0.0730203763, 0.0301078446, 0.1411073059, 0.1271012276, 0.2361119241, -0.0387325287, -0.0083853668, 0.1081750020, 0.1422317773, -0.0208443534, -0.0362055525, -0.0024424656, 0.1651833057, -0.1317642331, -0.0808172971, 0.0060425824, -0.0172534436, -0.0642217621, 0.0615801141, 0.2596545219, 0.1023880467, 0.0809392855, 0.0442142002, 0.0258902069, 0.2153714299, 0.2637320757, -0.1815858930, -0.0175517090, 0.2103729248, -0.0121150920, -0.0990815833, 0.0514717214, 0.1965920180, 0.0503575914, -0.0225249398, -0.2396191955, 0.0282141380, -0.0200631712, 0.1602339298, 0.0071500079, -0.0818385631, 0.0140508078, 0.0195672698, 0.0039038218, -0.3006391525, -0.0537770167, 0.0122312205, -0.1208173484, -0.1721012592, 0.0771363676, -0.0628851205, -0.1591164768, 0.0977307856, -0.0732214153, -0.3671611547, 0.2122773379, 0.1242533252, -0.1133135110, -0.0872122794, -0.0551937819, -0.0918319076, 0.1109502986, 0.1250061244, -0.1516740322, -0.0217444487, 0.1047076657, -0.0521157049, 0.0127004823, 0.0661486611, -0.1536354572, 0.0518678799, -0.1300596595, 0.1742399186, 0.1540672779, 0.1168465316, -0.0851802081, 0.1072029918, 0.0118619846, -0.1353619099, -0.1735703200, -0.0079338048, -0.1125397757, -0.2154270709, 0.0309498589, -0.0428257100, -0.1572121829, 0.1439892948, -0.1722193360, 0.0265992992, -0.1584508717, -0.0900750831, -0.1204618514, -0.0962461829, -0.1941898614, 0.1588518173, 0.2230945677, -0.0062278868, 0.1640418768, 0.1358856857, 0.0064207260, 0.2801477611, 0.0391323417, -0.0712387711, 0.1017055511, -0.1047017276, -0.0283250660, -0.0903752670, -0.0382356010, -0.1483028978, 0.1492107809, 0.1480574608, -0.1198405176, 0.0233546682, 0.1436101645, 0.1669393778, -0.1672921032, 0.1225095242, 0.0402123518, -0.0360886343, 0.0325349048, -0.0053769867, 0.3448698819, 0.1946573257, 0.3589244485, 0.2659801841, -0.1298948824, -0.0552039519, -0.1978047788, -0.2342063189, -0.0963681564, 0.0931556672, 0.1436727494, -0.1790881753, 0.1371615231, 0.1468713135, -0.0107787922, -0.0605615154, 0.0257498249, 0.1476293951, 0.0337321870, -0.0259183869, 0.0138579383, 0.2166978419, 0.1373992562, 0.2011094838, -0.1895583868, -0.3144846857, 0.0342632644, -0.1392185539, -0.0470774695, 0.0988296643, 0.0293112639, 0.0542598814, -0.1870425791, -0.0021050042, -0.0914379731, 0.1536885500, -0.1098557785, 0.1778908074, -0.0259198695, -0.1536039710, -0.0736848116, 0.1127880290, 0.0659418181, -0.0746217296, -0.1120710969, -0.1489833295, 0.0706669465, 0.0152081335, -0.0157352276, 0.0008225021, 0.0900149569, -0.0787876323, 0.0465868078, 0.1222750843, 0.0418891981, 0.0389162563, 0.2058559507, -0.1449833810, -0.0386910476, 0.0796106383, -0.1602913588, 0.0430678427, -0.1197371632, -0.0961926728, -0.0799615905, 0.0168416481, -0.1386439353, 0.0421687290, 0.1769363284, -0.0995259732, 0.1173689067, 0.2023869604, 0.1595773846, 0.0635271221, 0.1446692348, -0.1099178940, -0.0819511786, 0.0010437887, -0.1644129455, -0.0309912115, -0.0740402043, 0.0002348650, -0.2214660943, -0.0240481067, -0.0958578214, 0.0384852402, 0.0031687117, 0.0671631619, -0.0547662303, -0.0011909176, 0.1063518152, -0.0309051387, 0.3401014209, 0.0399128422, 0.2306117266, 0.0389606133, -0.1174272969, -0.0175978933, -0.1001450717, -0.1851285696, -0.1938967258, 0.0011316390, -0.0206919611, 0.1382794082, 0.0633513406, 0.0890794396, 0.0491230488, 0.1153693125, -0.1532008797, 0.0114736110, 0.1981598735, -0.2717000246, -0.1274085641, -0.1029652953, 0.1433511674, 0.0944647267, 0.1480327100, -0.1308094710, -0.0029312768, -0.0188335441, 0.0860876292, 0.2529026270, 0.0597504899, 0.1264906973, 0.0898334980, -0.0296245702, 0.1977254897, 0.2865220010, 0.2733429074, -0.0465934463, 0.1131987497, 0.1339304149, 0.0437674262, -0.1617503166, -0.0878786594, 0.1150630563, -0.2195339501, -0.1569330394, 0.0840321705, 0.0750218928, 0.0945765674, -0.0195756145, -0.0839956328, -0.0463269204, 0.1341538876, 0.0159827918, 0.2110077292, -0.0509383790, 0.0983066112, 0.0249304418, -0.0108937044, 0.1175294295, -0.2834441662, 0.0835914686, -0.2150662094, 0.0097967973, -0.1593661308, -0.0574953593, 0.0697377846, 0.0805019811, -0.1886151433, 0.3173412383, 0.0322505459, -0.0249582250, -0.0560682267, -0.2244325578, 0.0329181030, 0.0165517256, 0.0216365755, 0.1711556017, 0.0832721367, 0.0050001321, -0.0345543697, -0.2237281501, -0.1398344934, -0.0734009966, 0.1810949445, 0.1253963411, -0.0363248847, -0.0673195869, -0.1806989908, 0.2221519500, 0.2364048958, 0.0175461620, -0.0600693449, -0.1308288425, -0.1226474866, 0.1027756631, 0.0070113982, -0.1643422395, -0.0206825379, 0.0684570745, 0.0325207449, 0.0907878056, 0.0242627636, 0.2251779288, 0.0444709584, -0.1358243227, 0.0317281112, -0.0802799463, 0.3870602548, 0.1137361899, -0.0498806536, 0.0006621737, -0.1063735858, 0.0522097126, -0.0695297569, 0.0834560171, -0.0877293646, -0.1893034726, -0.1536853611, 0.1337157637, -0.1076840609, -0.0876196846, -0.2462187558, -0.0677625984, 0.0468312092, -0.0575665943, -0.4468795657, 0.2065576464, -0.1011484563, -0.2647016644, -0.1285195053, -0.1385448873, -0.0179660823, -0.1423784196, 0.0703772753, 0.0071222554, 0.0993992388, -0.1442463398, 0.0101642143, -0.0476569347, -0.0688912421, -0.0946345627, -0.0253337808, 0.1701796502, -0.1152943447, 0.0254110936, 0.0889922157, 0.1913522035, -0.0829205066, 0.0383795463, 0.2309716046, -0.0825553015, -0.0870686918, 0.0928370580, 0.0338641517, 0.0270096790, -0.0244494248, -0.0944326594, 0.0095134731, 0.0836312920, -0.0079434738, -0.1590398401, -0.1059798077, -0.1494278461, 0.0035027389, -0.1146958172, -0.0336808898, 0.1160340011, 0.0452871770, 0.0694838762, 0.0661117136, -0.0091850488, 0.1164344326, 0.0435429513, 0.0734935328, -0.0869202763, -0.0483439155, 0.0512471311, 0.0658880845, 0.2472578585, 0.0833219960, -0.2268238366, 0.0434977040, 0.0635603219, -0.0790318847, 0.2296026051, -0.0246001948, -0.3643360138, 0.2247067094, 0.1551268250, -0.1840116382, -0.1053773314, -0.0889028981, 0.0148494449, -0.2259085029, 0.1047805324, -0.0455988497, -0.0455799550, -0.0145126786, -0.0550591275, 0.1967859119, -0.1569527239, 0.1298064739, -0.1198928729, 0.1041652933, -0.0416332521, -0.1499847323, -0.0974940434, 0.0135261696, -0.3880986273, -0.0797936618, -0.1626590937, 0.2636962533, -0.0055757761, -0.0206682961, -0.1416254938, -0.0931346044, -0.1437853128, -0.1676648259, -0.0022873792, 0.0749242157, 0.2505958080, -0.1588009745, -0.0610218793, 0.1043390930, 0.0651815310, -0.1606206000, -0.1944075674, -0.0398661308, -0.2494754046, 0.2074752450, -0.2047374547, 0.0596495271, -0.0468622521, -0.2041410208, 0.1363614202, -0.0601625890, 0.1327160299, -0.1016971543, -0.2331228554, -0.0376127586, 0.0194578730, -0.1220782325, -0.0704592839, 0.0248574596, -0.1724905074, 0.0093456348, 0.0063177692, -0.1485846788, 0.0668904260, -0.0322999954, -0.0326150358, 0.0452497005, 0.0663169920, 0.1138743460, -0.2631008625, -0.1563793272, 0.0161671564, -0.0733314157, -0.0655760393, -0.1218261495, -0.0684169009, -0.1754351258, 0.0926772058, 0.0241360180, 0.1398608685, 0.0790016502, -0.0355502777, -0.0332582816, 0.0042032441, 0.0600550957, 0.0344510004, 0.0733425468, 0.1003320441, 0.2421355247, -0.1563946009, -0.2580952346, -0.0919317380, 0.1735637337, 0.1643493176, 0.0251486674, -0.0474616997, 0.0401848108, -0.0231932532, -0.1156514958, 0.1962978095, 0.0751224682, 0.1721954793, -0.0072490219, 0.0453239344, 0.0482410230, 0.1413037479, 0.2554879487, -0.0275245048, 0.1160124615, 0.0148538202, -0.0144998161, -0.1298293322, 0.0152474120, -0.0163600296, -0.1457541436, -0.0193531755, 0.0600717887, 0.0224378556, 0.0142904390, 0.0301241223, 0.1077664047, -0.0132187968, 0.2863394022, -0.1174751222, -0.0802530423, -0.1034342796, -0.0188470744, -0.0253850929, 0.1117091104, 0.1719210893, 0.0144998878, 0.2616565824, 0.0919309035, 0.1530831009, 0.0423199944, -0.0068122032, 0.0758638829, -0.0085457349, 0.0212571416, 0.1351239532, -0.0895475522, -0.0243929774, -0.0635421127, 0.0905047134, -0.1114867106, 0.0542623997, -0.1583294272, 0.3792168498, -0.0935550407, 0.0559355207, -0.1205670983, -0.0579716042, -0.0034532242, 0.1912726313, -0.1372489780, -0.0428890213, -0.2795352340, -0.1337261349, -0.1942408681, -0.1761804521, 0.1616759002, -0.1495807916, -0.2670772076, 0.0698772445, -0.0722993538, -0.0545301884, -0.4090040326, -0.0911493823, -0.1196985915, -0.2780758739, -0.1583283097, 0.0188824497, 0.0129103381, 0.0461424738, -0.1052446216, -0.0220938642, -0.0949710459, -0.0054791993, 0.1493105888, -0.0297113210, -0.1215324923, -0.2470600307, 0.0239527579, 0.0594085120, -0.0986736715, -0.1716487557, -0.1305156648, -0.2233756930, -0.2579083145, -0.0673776716, -0.1907305717, -0.2437427789, 0.0934771001, -0.0353113115, -0.0187645629, -0.0261616725, 0.0862794966, -0.2025688440, -0.3863603473, -0.0884384066, 0.0924287587, 0.1877966374, 0.0845567882, 0.1999740899, -0.0982425958, 0.0251049977, 0.3296749592, 0.1189067140, 0.1607317328, 0.0013475767, -0.1408260316, -0.0411960445, 0.0212993473, 0.1886145025, 0.0349308066, 0.0757508352, 0.3268253803, 0.0527086556, -0.0764835328, -0.2732707262, 0.1284241229, 0.0824186131, -0.2205299139, -0.0657622218, 0.1485213637, -0.0133571802, 0.0020712323, -0.1634453684, 0.0568884946, 0.1226462200, -0.0134565700, -0.1787093431, -0.1745403707, -0.0565255135, 0.0389663875, -0.0806701630, 0.0773596168, -0.1133055463, -0.0789860934, -0.1823066920, -0.0808340758, 0.3341756761, 0.2140309662, 0.0146005815, 0.0419732146, -0.0567130446, 0.0043209009, 0.1200406402, -0.0220677927, -0.0349203683, -0.1121366918, -0.1908698827, -0.0246848539, -0.1474679261, -0.0246696007, -0.0406979881, -0.0492710061, -0.1658757627, 0.1940873861, -0.3595792949, -0.2881699502, 0.1589595377, 0.0792385191, -0.2090139985, -0.0899467617, 0.1181904078, 0.1082930565, -0.4397658110, -0.0283575933, -0.1878792793, 0.2405549139, 0.1814046800, -0.0844951719, -0.0458347574, 0.1945013553, -0.0537410602, 0.0200225003, -0.1211992800, -0.1915587038, -0.0141228940, -0.1697798818, 0.1298253834, 0.0725574046, -0.1497904211, 0.0155781526, -0.1055150852, 0.2328274101, -0.2636927664, -0.0196291208, -0.0478104614, 0.0030546018, -0.1312236786, 0.0732584074, -0.1345773339, 0.1039471552, -0.1112937406, 0.2090863287, 0.0158584509, -0.0090379640, -0.1345141232, -0.0988567248, 0.1206023544, 0.0531450324, 0.2737279832, 0.0015479206, -0.0075106039, -0.1008442268, 0.0252781995, 0.0025579880, 0.2949128449, 0.0757443830, 0.0223781690, 0.1070646793, -0.0281372517, 0.0242435988, -0.1263549030, 0.1863230020, 0.0406846255, -0.1275792271, -0.0689848065, 0.0206809025, -0.0420549437, 0.0680044144, -0.0481776297, 0.1018053517, 0.1740893573, -0.0407389738, -0.1588473022, -0.0294636730, 0.2522943914, 0.1479703188, -0.1018307582, -0.0725986436, 0.0364224277, -0.0539303944, -0.2738622129, 0.0036229356, 0.1000336111, -0.0048582270, -0.1121900007, -0.0329104289, -0.1507411301, 0.0466524363, -0.0460948870, 0.0282323621, -0.2508244812, 0.2773570716, 0.1981101334, -0.0873011351, 0.0549764894, 0.0015513249, -0.0946076959, -0.0211973023, -0.1245750487, -0.0076627550, -0.1943864673, 0.0119754383, -0.0936686322, 0.0357852876, 0.1633028835, 0.0494597703, 0.0731100366, -0.0300944559, -0.1802889258, -0.0145970564, -0.0469326079, 0.0006784293, 0.1176751256, 0.1086236164, -0.0535009094, -0.0394172184, -0.3355517089, -0.0501146317, 0.0028241936, -0.1604911238, -0.0286057182, 0.0771391019, -0.1045818254, 0.1167678162, -0.0276544988, -0.1547714174, 0.0789418295, -0.2067059427, -0.3500964046, -0.0703084916, 0.0043092282, -0.0870995671, 0.2048540711, -0.0319795161, -0.1758144498, -0.0045430185, 0.0089140274, 0.0303715710, -0.3759393394, -0.0614620186, -0.0733371079, 0.0488498099, -0.0758300796, -0.0648727641, -0.1029115319, 0.0680649430, -0.0418698415, -0.0263506994, -0.0548311397, -0.0576487146, -0.0759105608, -0.1012096554, -0.0805881396, -0.0963780209, -0.1366744936, -0.1207254454, -0.0817719847, -0.1367549300, -0.1592277288, 0.0105381524, -0.0215486195, 0.0103528984, 0.0308257230, 0.0076133166, 0.1335786134, -0.0253497548, -0.0599269047, -0.0479290523, -0.0991691425, -0.0402475186, -0.0911454335, 0.0120051643, 0.0986467302, -0.0935048312, -0.0526792966, -0.0034195874, -0.0214011278, -0.0396431983, -0.0279793330, 0.1301299781, -0.0375295021, -0.0428099073, 0.1259384900, 0.7761623859, 0.1996627003, -0.0341720209, -0.3890392184, -0.2722468674, 0.5293731689, 0.1695912182, -0.1413259059, 0.3149647117, -0.0404221416, 0.0006013732, 0.3114399314, 0.1810809970, -0.1121686324, 0.2703377903, 0.4366515875, 0.2327311486, 0.1097782180, -0.0377872102, 0.0886197314, -0.0527870134, 0.2584860623, -0.1067938507, -0.0776097178, 0.2987366319, 0.0164646991, 0.1948690265, 0.0292228516, -0.0188417919, -0.2751736939, -0.1243519858, 0.1020770967, -0.2733137310, -0.0068625226, 0.0208696593, -0.0488018505, -0.0214780383, -0.0855292901, 0.1247139946, 0.2128905803, -0.0580535606, -0.2559181154, 0.0066140317, 0.0497553982, 0.1451340169, 0.1657556593, 0.1019459590, 0.0414304249, 0.0598347224, 0.1426607519, 0.0242446978, 0.0161501039, 0.0779093280, 0.2179725319, 0.1020934805, -0.0374208502, 0.1203156933, -0.0993926227, 0.0072515314, -0.0661326274, -0.0822569430, 0.0514948741, 0.1413151026, 0.1217018291, 0.0676155835, -0.1375144124, -0.0819729716, 0.0665763095, 0.2073701322, -0.1499801874, -0.1868324727, 0.0294485465, 0.2640521526, 0.1233481839, -0.0272190347, 0.0386459865, -0.0139695462, 0.0266108811, -0.0848627687, 0.0644657463, -0.1279392689, 0.2063353807, 0.2745071352, 0.0638592765, 0.0440880768, -0.0791508481, -0.1550935060, 0.2167345434, 0.0659055635, -0.0105867190, 0.1696778834, 0.1916182041, -0.1661584377, 0.2573370934, 0.0571839549, 0.0393605195, -0.0723226219, -0.2564200759, 0.0019062127, -0.0040712454, 0.0389016978, -0.0203980114, 0.0625060052, 0.0873468965, -0.1462854594, -0.0272880793, -0.0488832891, -0.0657579303, 0.0750552267, -0.0859454945, -0.4094274342, -0.0068754014, 0.1662219763, 0.1361877322, -0.0638009831, -0.0825225711, -0.1108765826, 0.0451642349, -0.0881647095, 0.1972895563, 0.0241159964, -0.0791795924, -0.0081253285, -0.0248553362, -0.2752379179, -0.1508757919, 0.2469753772, 0.0516069159, -0.0315885767, -0.1266501248, 0.0723442137, -0.1183532998, -0.1596993953, -0.0541020073, 0.0292198211, 0.0474756211, -0.1025338471, -0.2514876127, -0.0454838499, 0.0089294296, -0.2228053659, -0.0589941852, -0.1140456349, 0.1074621007, 0.0467502028, -0.0724251792, -0.1393659413, 0.0702201575, -0.0212846659, -0.0751889646, 0.0824368149, 0.0289598014, -0.0529288687, -0.0646257699, 0.0764840245, 0.0337657481, -0.0127081415, -0.0019119651, -0.0510373972, -0.0662160292, -0.1545839906, -0.0008743524, -0.1050387099, 0.1861481816, -0.0490216352, -0.3405431211, -0.1428379864, 0.0640387088, -0.0937636718, -0.3031697869, -0.0793565512, 0.0167058650, -0.1526952237, 0.2516236603, 0.0792981684, -0.1660698056, 0.0822124034, -0.2412496805, 0.0232753884, -0.0903795287, -0.0937114954, -0.1566538215, -0.0411018431, 0.0781189054, -0.1849086732, -0.0804932937, 0.2086346745, -0.0096757356, 0.1484913528, -0.0150152454, 0.0372302011, 0.0806646794, -0.2837027013, -0.1277256310, -0.0087447567, -0.0541892461, -0.0405215211, 0.0757838786, -0.0528207272, 0.2685613334, -0.1888549477, -0.3322219551, 0.2149568200, 0.1630824655, -0.0449652225, 0.2012551725, 0.1668626815, 0.1446964890, -0.0095147518, 0.0150875049, 0.0816445276, 0.0886211768, 0.1323552281, -0.2571337819, 0.0692757145, -0.2198994756, -0.1087984815, -0.0551716313, 0.0174557529, 0.1365633607, 0.0964193046, 0.0374787822, -0.0656190813, -0.1397228688, 0.0122587206, 0.3104825020, -0.1262596101, -0.1259842813, -0.2255369425, -0.0160444919, 0.1622730345, -0.3505341709, -0.1453462988, 0.1254924238, -0.1002516150, -0.1113953963, -0.0146346530, -0.0828550160, -0.0806807950, 0.2774192393, -0.0367112085, -0.4212035239, -0.0075699608, 0.1200688034, -0.2009626776, 0.0684252456, -0.0324407108, -0.2330170870, 0.0240864586, -0.0719147027, -0.0721442178, -0.0561029091, 0.1287403703, -0.0101847975, -0.0227053128, -0.0652866513, 0.0747561529, -0.0532885604, 0.0029626004, 0.0565651469, 0.1441254318, 0.0029304626, 0.0645379350, -0.0131447334, 0.0723163337, -0.1037365720, 0.0522923209, -0.0831411183, 0.0316253528, -0.3705389798, 0.0788560659, -0.0667249635, 0.0036205596, 0.0339635015, -0.1195944846, -0.0209561363, -0.0252109244, 0.0378873385, -0.0495202728, 0.1047990322, -0.1124650165, 0.1983995289, 0.0150041794, -0.0340744145, -0.0375475101, 0.0526399277, 0.0490661711, 0.3297547996, -0.0949909240, 0.0301490836, -0.0486976653, 0.0087772543, -0.0833050013, 0.0815331042, -0.1788200587, -0.0454251021, 0.2737210989, 0.0461043715, -0.0069405395, -0.1463373154, -0.1170356125, 0.0576678179, -0.1774001420, 0.0747989193, -0.0878368765, 0.1889716536, -0.0094296532, -0.0750654489, 0.0867909268, 0.0014886027, -0.1836431324, 0.1068599671, -0.1770620942, -0.0522286296, -0.0528746620, -0.2021580935, -0.0125201941, -0.0944625065, 0.1018774062, -0.2508241236, -0.0650685877, -0.1321969181, -0.0576817542, 0.0888325125, 0.1332563162, 0.0480187312, 0.0827337652, 0.0933437943, 0.1402142346, 0.2624903619, 0.0967645645, 0.1589116305, -0.0543252528, -0.3345311582, 0.1170468777, -0.0226235799, -0.0452450179, 0.0882358626, 0.0618194900, 0.0243185572, -0.1810248196, 0.0864804015, -0.1545823067, 0.1798729748, -0.0439034514, 0.0848833248, -0.0973635763, -0.2271682173, -0.0382773839, 0.0106186969, 0.1657765806, -0.0534095205, 0.0701773614, -0.0366200842, 0.0945627540, -0.0441548862, 0.0574919321, 0.0165079776, 0.0432240181, -0.1350483000, 0.0024921787, -0.0507642478, 0.0395428166, 0.3509612679, 0.1484894753, -0.2454210073, -0.0306993350, -0.0025284116, -0.0265842844, 0.0172336791, -0.0554128513, 0.0320780315, -0.0685729161, -0.1258642077, -0.0357327573, -0.1258635819, 0.2535769641, -0.0920898244, 0.2245324850, 0.1286563873, 0.1947490275, 0.1272014230, 0.2007407397, -0.0803709701, 0.4222671390, 0.0735123307, -0.0638270378, 0.1286978424, -0.0356097184, -0.0688743144, -0.2384428084, 0.0669594035, -0.3188314140, 0.1616813838, -0.1831095219, 0.1095880195, -0.1167076230, -0.0873933211, 0.0936916694, 0.0909508616, 0.0861811712, 0.1425292492, 0.3013735116, -0.0946932435, 0.0136312023, -0.1394848078, 0.1114396825, -0.2080456614, -0.0070665143, -0.0377824977, 0.1146484539, 0.1262982488, 0.0305348542, -0.1282517463, -0.0211164821, 0.2101900876, -0.1832969785, 0.1794847846, 0.0010752351, -0.1918928623, -0.0992394090, -0.1044756323, 0.0652813241, 0.1270467490, 0.1534933895, -0.1395947933, 0.1212996393, -0.0746004060, -0.0161022339, 0.0695258304, -0.0010891270, 0.0759103224, 0.0548105799, 0.0956071317, 0.0820219889, 0.2363274246, 0.1134212315, 0.0206393041, 0.1777042150, 0.1042029932, 0.0389990993, 0.0059666201, 0.0671363547, -0.0181317143, -0.1656992584, -0.0892125592, 0.0313977487, 0.0278834961, 0.0031088188, -0.1616185755, -0.1496836394, -0.0951655805, 0.1278342009, -0.0675115213, 0.2082595080, 0.1117753237, -0.1956886202, -0.1906925142, -0.0233052932, 0.2822005153, -0.3296599984, -0.0919908732, -0.2719051540, -0.0739371032, 0.0477157161, 0.0398787409, 0.0252510086, 0.1578943580, -0.1827369332, 0.1110383347, -0.1158874854, -0.1853797138, -0.1372988075, -0.0901799724, 0.0311518665, -0.1459491849, 0.0281230975, 0.0257509705, 0.1466971487, -0.1536900997, 0.3354565501, 0.0324810781, -0.0530336499, -0.0824560449, 0.2264451683, 0.1974539608, -0.0607469305, -0.0402814336, -0.2065554112, 0.2764401436, 0.0904913992, 0.0313653350, -0.0885427073, -0.0564947277, -0.1227287650, 0.1546738893, -0.1695985794, -0.0671984702, -0.0722189471, -0.0051298430, -0.0351495929, 0.1264076084, 0.0937817544, 0.3135913312, 0.1420242488, -0.1496855617, -0.1295706481, -0.1205217019, 0.2454214841, 0.1750075370, 0.1472899169, 0.1698794961, -0.1815493852, 0.1445266008, -0.0459592566, 0.1168684363, 0.0692432448, -0.0410245210, -0.1212756783, 0.0688283294, 0.0200726613, -0.2052260488, -0.3087098002, 0.0162529238, 0.2236364335, -0.0410458222, -0.5633202195, 0.0610826015, -0.1405481100, 0.0956264511, -0.0001000107, -0.0640129596, 0.0150719332, -0.2621750534, -0.1342024803, -0.0646072328, -0.1211558953, -0.3388204277, -0.1068518087, -0.0273506995, -0.0964358151, 0.0545924380, -0.0674882010, -0.0271756891, -0.4357461333, -0.0879403949, 0.0013417877, 0.3153735697, 0.1074559614, 0.0677431822, -0.0059741419, -0.0398520604, -0.0903994069, -0.1702522486, 0.0750895441, 0.0210155379, -0.0343774408, -0.1062089875, -0.0005819746, 0.0244892463, -0.0162547678, -0.0815295130, 0.0540087000, -0.1395083368, -0.0766293481, -0.1607748270, -0.1176435277, 0.1086399257, 0.1285071820, -0.0383079201, 0.0412613861, -0.0642269477, 0.2321338356, 0.0350900367, -0.1594586819, -0.0846329927, -0.1070999876, -0.0467564091, 0.0200658217, 0.0299395192, 0.0737766698, 0.1524353474, 0.0175531358, 0.1483174115, 0.0622201227, 0.1259037554, -0.1297933459, -0.4362162352, 0.0734608322, 0.0675548166, -0.2851558626, 0.0700492412, -0.0281261820, -0.1620569229, -0.0333608724, -0.0310606007, 0.0189113747, -0.0984994695, -0.1438771784, -0.0463429950, 0.1790287644, -0.1694812626, 0.0874516442, -0.1845724434, 0.0137553448, 0.0424752831, 0.0164920595, 0.1197768599, -0.3234803081, -0.3687421083, -0.0388620906, -0.0627175122, 0.2344007641, -0.0197222047, 0.0118699903, -0.1182954758, 0.0717222616, -0.0877550021, -0.0356238224, -0.0516836233, 0.0847723484, 0.1943623126, -0.3635996878, -0.0290054828, 0.2290714830, 0.3734129965, -0.2522683740, -0.0669933408, 0.1566974372, -0.1798265129, -0.1579754651, -0.1490494311, 0.0469575822, -0.0059427274, -0.1487948298, 0.0352334268, 0.0089797126, -0.0939125642, -0.0253029689, -0.0225829016, -0.2086901665, -0.0851834267, -0.0745087564, 0.0552591197, 0.1086003408, -0.0041993158, -0.0243438780, -0.1054605320, -0.1910290122, 0.1083783507, -0.0037135924, -0.0376476571, 0.0919811502, 0.2351626009, 0.1362109184, -0.0502984561, -0.0907038674, -0.2711976767, -0.0129817817, -0.1077248380, -0.0472500250, -0.0502495468, 0.0065974374, 0.0636179075, 0.0134684574, 0.1521830857, 0.0385324098, -0.0508277863, -0.0379538983, -0.1576425433, -0.0009087502, -0.0018206210, -0.1671699584, -0.0462980494, 0.0931320041, -0.1667119414, -0.0853981897, -0.2010561079, -0.1224843338, 0.2766708732, 0.0890055969, -0.0975141674, 0.0031248447, -0.0750752762, -0.0155807724, 0.1294943541, 0.0209563170, 0.0743307173, -0.1813715100, 0.0596520416, 0.1108134463, 0.1402463168, 0.0716854259, -0.0321245380, -0.1025657803, 0.1021988243, -0.0630652979, -0.1611487418, 0.1063633412, 0.1238655671, 0.0443356968, -0.0798607916, -0.0406503417, 0.0458960980, 0.1447106898, -0.1564618647, -0.0557776392, 0.1535600871, 0.1742226332, -0.2350089252, -0.1985806078, -0.1082691699, -0.0849705264, -0.1209315360, -0.0288848747, 0.1797565222, 0.0869592577, 0.1120255366, 0.1297924221, 0.0249653663, -0.0324710943, -0.0329162292, 0.1234750003, 0.0290069077, -0.1169327497, 0.1533313543, -0.1586792320, -0.1486764699, -0.0222822502, -0.0356830508, 0.1057883352, 0.1258868426, 0.0303427540, 0.0233351085, 0.1399711072, -0.0148140443, 0.4551877379, 0.1500826776, 0.0132841747, -0.0800078586, -0.1671920121, 0.0739497170, -0.2403672487, 0.0408051237, -0.1122072265, 0.1922314763, 0.2048137486, 0.1714471579, -0.1266349852, 0.0334167033, 0.0528166704, 0.1433563381, -0.1172974780, -0.0054054558, 0.1664673388, -0.0100428108, -0.1419354677, 0.3631133437, 0.3023891151, 0.2029124796, 0.2027215213, 0.0292911232, -0.2230544537, -0.0009059702, 0.1626145095, -0.0849151090, -0.0455959961, -0.2251242995, -0.0801341832, -0.1124962866, -0.1364170164, -0.0273094624, 0.0049690171, -0.1753883362, -0.2023991346, 0.0718074441, -0.0028676477, -0.1662040949, 0.1362207681, -0.1080137193, 0.0042438526, 0.0226172041, 0.1117247641, -0.2172950804, -0.2260356694, -0.1686874479, 0.1518824548, -0.0459546447, -0.0363327190, 0.1681702733, -0.1800021231, 0.0200174879, 0.2959410846, -0.2061423659, 0.0933643803, -0.0567942634, -0.0523970053, 0.1432213783, 0.0736548305, 0.0709793493, 0.0405881666, -0.0466558486, 0.3052532673, -0.0837984532, -0.0421043672, -0.3349339962, -0.0576938652, 0.0096752783, -0.2014057189, -0.1763854474, 0.0731712803, 0.0162334647, 0.0564972237, -0.1945784241, 0.0181306228, 0.0886217132, 0.0395918973, -0.1882150024, -0.2474006265, 0.1237954721, 0.0918359533, 0.0010487589, 0.1341394037, -0.0033443775, -0.0743974745, -0.0038717147, -0.0085165473, 0.2626069784, 0.1763272583, -0.1456446350, -0.0749531239, -0.1742620766, -0.1488670260, 0.0831482187, -0.0174645167, -0.0450327061, -0.0568129271, -0.0836384594, 0.0566662662, -0.1783028841, 0.1124070957, 0.1635143012, 0.0513207503, -0.0934857801, 0.2061363310, -0.2338881791, -0.3808362484, 0.1038104519, 0.0474001989, -0.1654728651, 0.0651729777, 0.1233301014, 0.0001679664, -0.2789616287, 0.0432782732, -0.4122204185, 0.0657664761, 0.0551142991, -0.0026574405, -0.1254348606, 0.2822807431, 0.0287835170, 0.1001032069, -0.0740656704, -0.0663931295, 0.1282179952, -0.0759704337, 0.0215296466, 0.1350143552, -0.2073159218, -0.0119685419, 0.0350408703, 0.1781426817, 0.0296815205, -0.1308649927, 0.1063691154, -0.0189604200, -0.1733730137, 0.2306573987, 0.0152237462, -0.0306162052, -0.1549221575, 0.2286883593, 0.1195914671, 0.0436801575, -0.1253706515, 0.0069219726, 0.0407411531, -0.0115419263, 0.1338084489, -0.0056506330, 0.1050648689, 0.0078673912, -0.0832714662, 0.0056689461, 0.0290144682, 0.0674197525, 0.0523028150, 0.0555716641, -0.1068926752, -0.1124917269, -0.1038699448, 0.1455428004, 0.0196605213, 0.0111159934, -0.1404798180, 0.0106694531, -0.0047695544, 0.1216563731, -0.0698989332, -0.1793514639, 0.0479689091, 0.0391715057, 0.0035704656, -0.1360041648, 0.1278721988, 0.2725161016, -0.1519737393, 0.0598215237, -0.0179754514, -0.1072730124, 0.0238934122, -0.1154400036, 0.0897910148, 0.1108417735, -0.2033553720, -0.0456600972, -0.0860605463, -0.0568709932, -0.0853367522, -0.0394890569, 0.0860723108, 0.0816827938, 0.0854216367, -0.1435103565, 0.0611832924, 0.0858347490, -0.1242145747, 0.0800154731, 0.0020604851, 0.0689038411, -0.0595347360, 0.0014254061, 0.0995061845, 0.0163968634, 0.2238585949, -0.0511217676, 0.0461555421, -0.0571838096, -0.0859201178, -0.0407514423, -0.1087127402, -0.1592466235, -0.2184238434, 0.0386009067, -0.1747801006, -0.2834629118, 0.0757157430, -0.0802310780, 0.0423851125, -0.6437385082, -0.2802987695, 0.0223688651, -0.0680965707, -0.0638936386, 0.0115330266, 0.0163146630, -0.2127652168, -0.1166833192, -0.5602305532, -0.1004763842, -0.0903612077, 0.1445050538, 0.4171825647, 0.0211722869, -0.3145349324, 0.0523927920, 0.0777213648, -0.1906910837, -0.2415086627, -0.0779827088, 0.0620791316, -0.0448595509, 0.1843930781, -0.0416716263, 0.0931036845, 0.1058984324, -0.0352088884, -0.0101650143, 0.0424325205, -0.1330799907, -0.0523739867, -0.3189943433, -0.2415680587, 0.0067954338, -0.0573789403, -0.0547103435, -0.1915105432, -0.0045958422, -0.0653163865, -0.0682714954, -0.0719915107, -0.0783873349, 0.1315412372, 0.1079770103, 0.1588165015, 0.0872825235, -0.0943581611, 0.0356369354, -0.1392887235, -0.2053412497, 0.1139879227, 0.0450247116, 0.0906161517, 0.0514596403, -0.1348386407, -0.1699499041, -0.1142472252, 0.1355625689, 0.1277205944, 0.0889098421, 0.0283272248, -0.0282252729, -0.0616203956, 0.3557511568, -0.0150246276, -0.2428430766, -0.0768703222, -0.2776952088, 0.3615387082, 0.1844219118, -0.0335985459, 0.2937131524, 0.1791071594, -0.2028099597, 0.2044015229, 0.2088336051, 0.1151597127, 0.2504668832, -0.1149811521, -0.0672190338, 0.0776221529, 0.2788659930, -0.0827474520, 0.0720412135, 0.1611125618, 0.0991372317, -0.0090778060, 0.3608960509, 0.2637101412, 0.1266795397, 0.1497274637, -0.1331338137, -0.3568099141, 0.1290259957, 0.2375560999, 0.2929306626, 0.1618819833, 0.0494647957, -0.0102635827, 0.0391738825, 0.0900341272, 0.1897806823, 0.1480706930, 0.1627190262, -0.0172035657, -0.0062433835, 0.0661376417, 0.1162582263, -0.0006964004, 0.1225384697, 0.2032523155, -0.0577469543, 0.1680176705, 0.1913943887, 0.0412477516, 0.2085409313, 0.0288653746, 0.2995646894, -0.0192027632, 0.1376102716, 0.0146760261, -0.0020492636, -0.1659564972, 0.0455761962, 0.1101510078, 0.1479305029, 0.0634320378, 0.1736485213, -0.3166501820, -0.0752453655, 0.1976814717, 0.1738173366, -0.0452261157, -0.0973602682, 0.0424306020, 0.2932869494, -0.0341490433, 0.0021510569, -0.0898995101, 0.0351392105, 0.1666002572, -0.1312563717, 0.0511649773, -0.0127277477, 0.0504603945, 0.3740447164, 0.0711004660, -0.0348690227, -0.1912634969, 0.0476582088, 0.1304572374, 0.1184481159, -0.0677170902, 0.1525472850, 0.3187958598, -0.0488699935, 0.1508706212, 0.1452113986, -0.0219498239, -0.2096519768, -0.4301750362, -0.2308963090, 0.0637402162, 0.0161054060, 0.1663611382, 0.0425746441, 0.0908120573, -0.2650495172, -0.1098487973, -0.0223171525, -0.1890828758, 0.1580916047, -0.2287559509, -0.2857698500, -0.1490564644, 0.0284073912, 0.0656669959, 0.1504473239, -0.0284630209, -0.0772543699, -0.0178772304, -0.2179966271, 0.2416137457, 0.0136881908, 0.1766828299, 0.0058671781, -0.0046265186, -0.1763668954, -0.0819953084, 0.2355010360, 0.1878286451, 0.0477291904, -0.0660173148, 0.2081210911, -0.1448867470, -0.0387141816, -0.0502797402, 0.0448810644, 0.1255880743, -0.0109236212, -0.2209842056, 0.0827666149, -0.0878259540, -0.1651147902, -0.1486435235, -0.1071677133, 0.0420713797, 0.1219866872, -0.1573012620, -0.1231430024, 0.0739578232, 0.1779148132, 0.0026869283, 0.1219484285, 0.0946650803, -0.0072600390, 0.1682297885, 0.0038502319, 0.0091142692, -0.1509204656, -0.0463998318, -0.0175449122, 0.1190754026, 0.0740846470, -0.0574416891, -0.1959431618, -0.0348409973, -0.2160699666, -0.1022791564, -0.1455481499, 0.0365415700, -0.0437905192, -0.0184076242, -0.0729623213, -0.0148823280, -0.0402584821, 0.1259874851, 0.1439317614, -0.1589698493, 0.0556025617, -0.0567323901, 0.1242605969, 0.0053352560, -0.0573746189, -0.0579144135, 0.0118987542, 0.0731395259, -0.1274874508, -0.2112483829, -0.0329169966, -0.0491698645, 0.1056153029, -0.0003284377, 0.1051695943, -0.0379172638, -0.3959162533, -0.0550523140, 0.0427505299, -0.0025140399, 0.0177925862, -0.0727424771, -0.1417642981, 0.1032164171, -0.0936924890, -0.2111662030, 0.0606483780, 0.1127088591, -0.1072872207, -0.0393929034, 0.0685864538, -0.0007308340, -0.0546647273, -0.0679895580, 0.0110998964, 0.0307486095, 0.2349645644, -0.1872400492, 0.1617123485, -0.1722148061, -0.0207311008, 0.0330413505, 0.1326111555, 0.3805711865, 0.4920291305, 0.2003081739, -0.1786203831, 0.0791781247, 0.0840496793, 0.2428831309, -0.0688101947, -0.0745533332, 0.0892607793, -0.1639679819, 0.0559847020, -0.2008730322, -0.0015287725, 0.0226672441, -0.2153982371, -0.1410232633, -0.0003775280, -0.1040569767, -0.1248341650, 0.2879278362, -0.1505693942, -0.2760058343, -0.0274253767, 0.1593443751, -0.0322311223, -0.1426510960, 0.0342663974, -0.3820872009, 0.1264341623, -0.2020376921, -0.1346526444, -0.0217269994, 0.1269238889, -0.1009697989, 0.0179061182, -0.0717186853, 0.1417990178, -0.0777972043, -0.0133313071, 0.2812919021, 0.3222317100, 0.0954443812, 0.0913688317, -0.2109029442, 0.0993715301, -0.0034303267, -0.0504743047, -0.2178554386, 0.0371892601, 0.1754895300, 0.0300115924, -0.0785353184, -0.0822754353, -0.0100462176, 0.1451826692, 0.1688463688, 0.0409427658, 0.2045270652, -0.1674763709, -0.0037485992, 0.0141095128, 0.3389036357, -0.1097598523, 0.0272036362, 0.0399989747, 0.0880230218, -0.0607188605, 0.2897462249, -0.0305436812, 0.0016002156, -0.0092165843, 0.0407171547, -0.1170226336, 0.3223448694, -0.1757708639, -0.1364267766, 0.2471231073, 0.2073097825, -0.1020151973, 0.1327797025, 0.1402784884, 0.1070367545, -0.3977660537, 0.0903008059, 0.0890142545, -0.0138197551, 0.0321601704, 0.0564999953, 0.1677010953, -0.0637797192, 0.0821345970, 0.1292119026, -0.2299956083, 0.0257086400, 0.0189079475, -0.2231310308, 0.1399392188, -0.0113422666, 0.0192475580, -0.1355496943, 0.1346256584, -0.0562282950, -0.2397317141, -0.0125368927, 0.0646697879, -0.1303879023, 0.0609457679, 0.2124915719, 0.1992244571, 0.0226829294, 0.0540358573, 0.2634162009, -0.1500390023, -0.1431266814, 0.0826404989, 0.0052483710, -0.0028636171, 0.1610037237, -0.1280111074, 0.1309844106, -0.2194278389, 0.1928922981, -0.0415762849, 0.1587554365, 0.0692783296, 0.2443753183, -0.0567659698, -0.2011815608, 0.0550878383, 0.1540176272, 0.0352408066, 0.0213559028, 0.1716339737, -0.0435971953, 0.1606433392, -0.0570768677, 0.0959001034, 0.1227343976, 0.1380686462, -0.1636572182, -0.0301878676, -0.1566330642, 0.0213707536, 0.2010159642, 0.3157738149, -0.2753447592, 0.0706546456, 0.0056174062, -0.0328073129, 0.1544963717, -0.2008000910, 0.0424674153, 0.1132302135, -0.1719727665, 0.0234646648, 0.1945606470, 0.1560624093, 0.0403290763, 0.1666077524, 0.1732690185, -0.0463434048, -0.0005309496, 0.0460288450, -0.1128004566, 0.4609053135, 0.0879211798, -0.1274214238, 0.1438199878, -0.0407183841, -0.1539078057, -0.1804217398, 0.0045320573, -0.2051421404, 0.1372570544, -0.1046406403, 0.1560155153, -0.0290382858, -0.0873281062, 0.0426354297, -0.0108748842, -0.0108507946, 0.2393866777, 0.2012389451, 0.0791870207, -0.0574898981, -0.0572067425, -0.0610103235, -0.1056674570, -0.0799433962, -0.1702673137, -0.0579575822, 0.1231899336, -0.0625147149, -0.1255828142, -0.0180156268, 0.2228155732, -0.0816401094, 0.1791421175, 0.1476217955, -0.3104999065, -0.1738059223, 0.1968584508, 0.0755107254, -0.0293213669, 0.2053330839, -0.0109538930, 0.0818176046, -0.0206328165, -0.0049698129, 0.0117397225, -0.0050114095, 0.0948909894, -0.1080397144, 0.0783385411, 0.1353761852, 0.1079735756, 0.3046383262, 0.1132664680, 0.3544098139, -0.0641736537, -0.0295502916, -0.0117574930, 0.0758742169, 0.0080435053, -0.0693694055, 0.1472825259, 0.0186890215, -0.0216023065, -0.0723641887, -0.3919284642, -0.0777411908, 0.0067249979, 0.1171867624, -0.0214774441, 0.1466778815, 0.0981893763, -0.2964636087, -0.1100094542, -0.0603380874, 0.0879981667, -0.3154559433, -0.1753800362, -0.4057701528, -0.1714865565, 0.1017777771, 0.0424261875, 0.1743229628, 0.1106253266, -0.1313825250, 0.3194951713, -0.1238442883, 0.1724110693, -0.1295689344, -0.0108693410, 0.0997350961, -0.1823922992, -0.0649667159, -0.0558877997, -0.0013219919, -0.0233212281, -0.1138296053, -0.1086588129, 0.0439132154, -0.0893822089, 0.0428252965, 0.1059930325, -0.0052246731, 0.1157711223, -0.0624997541, 0.0309937373, 0.1084227636, 0.1054950953, -0.1524032801, -0.0971669331, -0.1498262137, 0.2299387455, 0.0285614561, -0.0249094218, -0.4206720293, -0.0051464415, -0.0686369762, 0.1412736923, 0.0204267297, 0.1578839421, -0.1098765135, -0.0577570833, 0.0069714021, -0.0273270030, 0.0831271186, 0.0324254669, 0.0014946266, 0.2078710049, 0.0702483132, -0.0772092789, 0.0012286018, 0.0081331665, 0.1311739683, 0.2375686467, -0.0793586150, -0.0764404684, -0.3033345342, -0.0535854623, -0.1828664392, 0.1212069690, 0.2228968441, -0.0763885900, -0.3346354365, -0.0020946020, -0.0116831353, 0.2355486006, -0.1355618238, 0.1157497689, 0.1431979984, -0.1554508954, 0.1413916647, -0.0226199366, 0.0421748571, 0.0158579145, -0.0089975279, -0.1145381629, -0.0837090090, 0.0251626167, -0.0944946334, -0.1662575901, -0.0869405493, 0.0294601209, -0.0202825330, 0.0836584046, -0.1567257196, 0.0569868945, -0.0841042846, -0.1008861065, -0.0160305668, -0.1192014143, -0.0760876611, -0.0715591237, -0.1326694489, 0.0591996349, -0.0038980399, -0.0276662502, 0.0866795480, -0.1754716337, 0.0201142840, 0.0552651621, -0.1731103659, -0.2087153494, -0.0751342922, 0.0485367589, 0.0169243496, -0.1392301619, 0.2172326744, 0.0208011121, 0.2407805026, 0.0078690294, -0.0579105206, -0.1055316925, 0.0460133851, 0.0091003738, 0.0847608000, -0.0991652459, -0.0694341436, 0.1925823539, 0.1327555031, 0.0105398009, 0.1478741169, 0.0853380635, -0.2802506685, -0.5317180753, 0.1208224595, 0.1255483031, -0.1488310099, 0.1183264777, 0.1375976503, -0.2021482438, -0.0105967615, -0.0604567006, -0.0523868650, -0.3069884479, -0.1151658669, -0.0856459215, 0.0494292006, -0.3186395764, 0.1191697866, 0.0097767320, 0.1104176641, -0.0788649842, 0.0267005041, 0.1223354340, -0.1880280674, -0.2558959424, 0.1678605080, 0.1060148105, 0.0830229297, 0.1587490588, 0.0382310674, 0.0357858948, -0.1887975037, 0.1108907387, 0.1571295112, -0.0360564627, -0.0326932408, 0.0704605132, -0.2184126973, 0.0420845561, 0.3846158087, 0.3539891541, -0.1610630602, -0.1692724824, 0.1944399774, 0.0560742393, 0.0949816629, 0.0477206707, 0.1629181057, 0.2611576319, -0.2068125755, -0.0267856698, -0.1503600329, -0.0203192160, 0.0418896042, -0.1077470705, -0.1898578703, -0.0709189624, -0.0782644376, 0.0857393518, 0.0381288938, -0.1171372011, 0.0292572528, -0.2430866361, -0.2105114907, 0.0906887874, -0.0321304128, 0.0690015405, 0.0749799088, 0.2221164703, 0.1097895652, 0.0193446781, -0.1952218264, -0.2937926948, -0.0996461958, -0.0407459214, -0.0077764154, 0.0827720165, -0.1063992232, -0.0202386361, -0.0659295022, 0.0447505265, 0.0291620623, -0.0378662497, -0.0028547754, -0.1115105003, -0.1020961851, 0.0596751906, -0.2459093928, -0.1216640398, 0.1407871991, -0.1461576819, 0.0849522799, -0.0935974643, 0.0090644397, 0.0688002855, 0.1792605072, 0.0461139604, -0.0919034556, -0.1506633013, -0.0226708706, 0.0733738914, 0.0332072563, -0.0585221760, -0.0631095767, 0.0301507413, -0.0992693305, 0.1412099153, 0.2033059150, 0.0533626452, 0.0502207018, -0.0137383835, -0.0458036214, -0.0216203388, 0.1555271149, -0.1268737614, 0.2020430267, 0.0108582536, -0.1292646825, -0.0837609991, 0.0183773767, -0.1064810231, -0.0946679711, -0.1336807758, 0.2189244777, -0.1713814586, -0.1776519716, -0.0280273296, 0.2067747414, -0.1103977561, -0.0045394339, 0.0092249187, 0.0264611952, -0.1816667020, 0.1479253769, 0.1004320309, -0.0811818391, 0.0960401967, 0.1322241724, 0.2194866389, 0.0086788386, 0.0433332883, -0.0556490272, -0.2234109789, 0.0003942300, -0.2560408115, -0.0848473012, 0.0380470045, -0.1070528701, -0.0569956377, -0.0267006252, 0.2785474062, -0.1586176604, 0.1535214931, 0.1915015727, 0.1266044676, 0.0159884002, 0.4075033069, -0.1021567285, -0.0983953401, 0.0232531652, 0.1402244866, 0.1518451273, 0.0814745650, -0.0818832964, -0.0984914526, -0.1469593048, 0.1369983554, 0.0883920565, 0.0523157977, 0.1959669441, -0.1356879026, 0.0988071039, 0.3017631173, 0.1406148970, -0.0215419140, -0.1082531884, -0.0300605483, -0.0656078309, 0.0801812708, 0.1329349577, -0.1563624740, -0.2198939472, -0.1034481078, -0.1647187918, 0.0551935025, -0.0724617839, 0.0146425990, -0.0367326550, -0.2151041627, -0.0325362831, 0.0318876766, -0.1444127709, -0.2700961530, 0.1572390944, -0.0057717524, 0.1802440435, 0.1345237792, 0.1207091063, -0.2266832739, -0.3318556249, -0.0998928100, -0.0992471129, -0.0400726013, 0.0041719154, 0.2581577301, -0.0631673709, -0.0430323631, 0.1923354566, -0.3391309083, 0.0411275513, 0.1483360678, -0.0473844334, 0.0074500949, 0.1253501028, -0.0215354618, -0.0924143866, 0.0856662691, 0.2160032541, -0.1100301370, -0.0752646551, 0.0093659172, -0.0354520753, 0.0601248257, -0.2060473263, -0.2001051158, 0.0739355162, 0.0438188985, -0.0391418934, -0.2468873411, -0.0806407481, 0.0462877937, 0.0986214206, -0.1365155727, -0.2206944823, -0.0282079242, 0.1597291082, -0.0444563627, 0.2547007203, -0.0132855158, -0.0163025279, 0.2267061025, -0.0144348498, 0.1672339439, 0.1707306951, 0.1932275593, -0.0015093723, -0.0809207857, -0.0587794073, 0.0049105119, -0.1065395772, 0.2191532999, -0.0695894361, -0.2187810093, 0.0344614014, -0.3351111710, 0.1666106582, 0.1680053473, -0.0174059216, -0.1803060770, 0.2807242274, -0.1724653989, -0.0465168096, 0.0710610896, 0.0600125231, -0.1598205417, -0.2340583801, -0.0784885362, 0.1301911473, -0.1408616751, 0.0439395122, -0.5580843091, -0.0107023725, -0.3020092547, 0.1071383581, -0.0918258429, 0.1082356200, -0.1333303452, -0.0564625300, -0.0549984686, -0.2247231305, -0.0832110047, -0.0922375843, 0.0941504017, 0.0947465897, -0.2288249731, -0.0778662413, 0.0223006997, 0.0068755639, -0.1786497235, 0.0686490834, 0.0734188110, 0.0960603580, -0.1341848373, 0.0230889358, 0.0341426283, -0.1287632734, -0.2899807096, 0.2604056001, -0.0783609003, 0.1360743195, -0.0644881353, 0.0166824665, -0.0784551650, 0.1152411252, 0.0454189852, -0.0739651397, 0.0722470582, 0.1073985845, 0.0758317485, 0.0138243539, -0.0297070425, -0.2073847055, -0.1604195386, 0.1002586931, -0.0661303550, -0.0722404867, -0.0025673422, -0.0462163351, 0.1743810177, -0.0337400585, -0.0942805037, 0.0399406962, -0.0359452404, -0.0048271264, 0.0248214249, -0.1698553711, -0.1765194684, 0.0208063032, -0.1345858574, 0.0389924385, 0.0172712076, 0.1930994987, -0.0600206926, 0.1098131463, 0.1437375546, -0.1052057073, 0.0786980391, -0.0854815170, 0.0483726524, -0.0517146252, -0.1478955299, -0.0977478549, 0.1004197672, -0.1605641395, 0.0673817620, 0.0427630432, 0.3058090210, 0.1076672450, 0.1878807545, -0.0983334482, 0.0125338053, -0.0878939778, -0.0539487638, 0.0655899495, 0.1073866561, 0.1576145291, 0.2151899934, 0.0248541366, 0.0965385959, -0.0077676927, 0.0765136480, -0.0802707598, 0.0263206773, -0.0886746496, -0.2225618511, -0.1017914116, -0.0971504077, -0.1626544446, -0.2315713912, 0.0547050647, 0.0230525173, -0.0799385235, 0.3896655142, -0.0092145000, 0.0000504442, 0.0328941979, -0.1540268660, -0.0346722379, 0.1287461370, -0.1022367403, 0.0355450921, -0.0422647484, -0.1891856045, -0.0234681498, -0.0834507421, -0.1457485110, -0.0020591244, 0.0164986607, 0.0658800378, -0.0531952344, -0.2960462272, -0.0559428260, -0.1185994819, -0.0411629267, 0.0493569709, -0.1665379852, -0.1210067868, -0.1246821284, 0.1179134250, -0.0305410530, 0.1223483905, 0.0704569146, -0.0632202625, -0.0330989398, 0.1149161607, -0.1722054332, -0.1752400696, -0.1762340367, -0.0862973705, -0.1206921190, -0.1574792564, -0.1112537310, -0.0869315639, -0.1693060547, -0.1730514169, 0.0635817945, 0.0081815906, -0.1569315195, -0.0133636370, 0.1505893469, -0.0182907507, -0.0652956739, -0.2131781131, -0.0794608369, -0.1356241256, -0.1300690174, -0.0501943603, -0.1644520909, 0.1206693053, -0.0703825280, -0.0601620115, -0.0735317320, -0.2687697709, 0.0346073397, -0.0337561481, -0.0061600520, 0.0730902031, 0.3475169837, -0.0789144263, 0.0145528577, 0.1965549141, 0.0948131680, -0.1515247524, -0.1523961276, 0.4335887432, 0.0842995867, 0.0030973519, -0.0163091738, 0.0766993016, -0.0020988274, 0.0588683710, -0.0117227705, 0.1524307579, 0.0563971363, 0.1811987907, 0.0925204828, -0.1022042930, 0.1091893464, 0.1096166372, 0.1091037095, 0.0398090035, 0.2129741311, 0.2520680130, -0.2257086635, -0.0036028207, 0.1625953317, 0.0043012458, -0.0173793565, -0.0735552236, -0.1399050504, 0.1490814090, -0.2821272910, 0.0193369146, -0.0857441053, -0.2338060141, 0.0768462121, -0.2003134191, -0.0345063917, 0.1619937718, -0.0894557163, -0.0591547526, 0.0623380728, -0.0894371420, -0.1039042473, 0.0067698639, -0.0691683516, 0.1530490220, -0.0186096765, -0.1189958677, -0.0000719871, 0.0067163440, -0.0033872502, -0.1161351800, 0.0286837220, -0.0418352187, 0.0250473954, 0.0480487682, -0.0227473099, -0.0654837564, 0.0537039749, -0.0558689274, -0.0468894839, 0.1244241521, -0.2241458893, -0.0116831167, 0.0491711497, -0.0354891531, 0.2535254657, -0.3016758561, -0.0855311081, -0.0994100794, -0.0216050111, -0.2004338652, -0.1824813932, 0.0675007626, 0.0185584724, -0.1803912371, -0.1860566437, -0.1392563134, -0.0856160298, -0.0642693713, 0.0665130839, 0.0555361174, 0.1044500023, -0.2064941674, 0.0096094459, -0.0148138171, -0.0523938537, 0.1850922555, 0.0704530552, -0.1051438600, 0.1251775026, -0.0950015634, -0.1116783544, 0.0650300682, 0.0208209492, -0.0532927886, 0.1857512146, 0.0984170213, 0.0832886621, 0.0789595917, -0.0655967444, 0.1101504341, 0.0878886655, -0.0529318117, -0.0176509880, 0.1015265062, 0.2700389028, -0.1569262594, 0.0214006752, 0.1545820087, 0.0885127783, -0.0197358225, 0.1632806063, -0.0531717166, -0.0277856495, 0.0670087636, 0.0877942368, 0.0781407505, 0.1225519702, 0.0464594662, 0.1736381352, 0.0054160366, 0.1593766510, -0.0975072384, 0.0351410806, 0.0222971756, 0.0525616892, -0.1061258093, 0.1622987688, -0.1377282590, -0.0668644682, -0.1541877836, -0.0961091369, -0.0608807318, -0.0372838750, -0.1566020846, 0.1519561708, 0.0189706590, 0.0188785214, -0.2531360984, 0.0260964558, -0.0055336840, -0.0368700996, -0.0297588576, -0.1724679023, 0.1772079766, 0.0673012808, -0.0146901207, 0.0961858332, 0.1002364829, -0.0578359552, -0.1144204438, -0.1237052083, -0.0312499963, -0.0238782074, -0.1123182401, -0.1288852096, 0.0396486036, -0.1619439721, 0.0172507819, -0.1686281413, 0.1519441307, -0.1737384796, -0.1524300426, -0.0704430491, -0.1388529837, -0.1188931912, -0.0044760075, -0.1090545803, -0.2243124694, -0.2741985321, -0.0229136590, -0.0057554916, -0.0884140283, -0.0747997016, -0.1919352859, 0.0322232284, -0.0099983886, -0.1540759355, -0.1898889542, -0.2325642109, 0.1674675196, -0.0295328908, 0.1741318107, 0.0106246220, 0.0070430571, 0.2599869967, 0.0749969110, 0.0747317597, 0.1281250268, -0.0393989794, -0.0652650520, 0.1987203360, -0.0489017069, 0.0450539477, -0.1459705085, 0.1919180453, -0.0957697779, 0.1073180437, -0.0173737388, -0.0159315076, 0.2122584730, 0.1452408433, -0.0238160919, 0.0415771194, 0.0548452325, 0.0633348003, 0.1078812182, 0.1788053513, 0.1196608096, 0.2528883219, 0.0687397495, -0.0055530341, -0.0191761237, -0.0506401546, -0.0457704365, -0.0100505585, -0.0416215435, -0.0082657225, 0.1045007482, -0.0244837385, -0.1979262829, 0.3514564931, -0.2191173434, 0.0412120484, -0.0722630769, 0.0963731781, 0.1772586256, 0.1348042339, 0.0431164168, 0.0544700027, 0.1365753859, 0.0527814254, 0.0315595381, -0.2158597261, 0.0112714125, -0.3327364028, 0.0777265057, -0.0633976534, 0.0221375693, 0.0139501076, 0.0716883317, -0.0067674653, 0.2784230113, -0.2267502248, 0.3438626826, -0.1152725890, 0.0343289226, -0.0064805727, -0.0933300629, -0.0184775498, 0.0993744284, 0.0723245218, -0.0775277913, -0.1871730685, 0.1182386652, 0.0804641396, 0.1295929998, 0.1189760342, 0.0788388848, 0.1508620083, 0.1600677520, -0.0565913692, -0.1624364257, -0.0179999582, 0.0808761492, -0.2015081346, -0.2560223937, 0.0856308639, -0.1554580033, -0.0335295759, 0.1041211411, -0.1810064763, 0.0016842954, -0.0677529275, -0.1935448647, 0.1214328259, -0.1643660516, 0.1222131625, 0.0855550766, -0.1319404244, -0.0617113896, 0.0720602572, 0.0713171065, 0.0623208135, 0.2851847708, 0.1179602519, 0.0380637795, 0.3069750369, -0.1976973265, 0.1524696797, -0.3482948244, -0.0054871682, 0.0615867674, -0.2207342684, 0.2721996605, 0.0262011066, -0.0456795283, 0.1228142977, 0.1288491338, -0.0023531660, -0.1473834664, 0.0104914736, 0.0892413706, 0.1682101339, -0.1156805158, 0.2386257052, 0.0679309815, 0.3781246841, -0.0612776652, 0.1862555295, 0.0688633919, 0.1356781274, -0.0667202845, 0.1470877677, -0.1567436755, -0.0751020610, -0.0376743749, -0.2516075671, -0.0532711782, -0.0253641903, -0.1793460399, 0.0555217005, 0.1070399582, -0.0716044977, -0.1910640001, -0.0970430374, -0.1081757098, -0.0637404025, -0.0193229709, 0.0691496208, -0.0924510360, -0.2112372965, 0.0244436748, 0.0200115778, -0.0684057698, -0.3230047524, -0.0771713555, -0.0631949604, -0.0445447899, 0.0480872728, -0.1700124294, 0.0442108437, 0.1550463289, -0.1044564471, 0.1237330958, 0.1124292985, -0.0000995071, 0.0209138542, 0.0158184506, -0.2616103590, -0.0651567429, 0.1024310514, 0.1272944957, 0.0193336401, -0.0567084029, -0.1559105068, -0.1419491619, 0.1168954447, -0.0514329560, -0.0115380678, -0.0132439779, -0.0976167023, 0.0112829348, -0.0098511456, 0.1201046780, 0.0818087682, 0.0222725682, 0.1485694051, -0.0555782989, -0.0586869121, 0.1625156552, 0.2099722475, 0.1201327071, 0.0974372327, 0.1090524048, 0.0213027652, 0.0792115182, 0.0096816635, 0.2343402356, 0.1764662713, -0.1327433139, 0.2835046947, 0.0384867750, -0.1051877737, 0.0130207594, 0.0191024784, -0.2651313543, -0.1978754401, 0.0219212994, 0.0142381229, -0.0427601151, -0.0087470673, 0.0004212438, 0.0413394421, -0.0321206115, -0.0036457235, -0.1338211000, -0.0900193825, 0.0227546301, 0.2727385759, 0.0642652586, -0.2104789019, 0.0993507653, -0.1868490130, -0.1634847969, 0.0147613110, 0.0926305428, 0.1722084880, -0.0161581058, 0.1527028382, 0.1244887114, 0.1294931024, 0.3681072593, -0.0297671575, -0.0370430462, 0.2607325613, -0.2835821509, -0.1026613936, -0.0938311145, 0.0266107563, -0.0141027262, 0.2450887859, -0.0559219718, 0.0404850915, -0.0251514800, 0.1366407871, 0.1595461816, -0.1099454388, -0.0437184982, 0.0106684389, 0.0170732029, 0.1081500202, 0.1629073322, 0.1081881449, 0.0292074084, 0.1000541896, 0.1417215765, -0.0363822654, -0.0642717332, -0.2458978742, -0.0439316146, -0.3120447695, 0.0398476943, 0.0433348604, -0.1037537679, -0.0955596939, 0.0359762907, 0.1028442681, -0.0211900622, -0.0126285488, 0.0378094725, 0.0974822417, -0.2276382893, 0.1057367623, 0.1751096994, 0.2292692363, -0.1945333481, 0.0365247168, 0.1419902742, -0.0629844069, 0.0083055245, 0.0105794733, -0.1086814776, -0.2541644275, -0.0565634221, -0.0637022182, -0.0105073564, -0.0867405012, 0.1230939627, 0.3651046455, -0.3044801950, -0.0214915592, 0.1041094884, -0.1203755587, 0.1881971061, -0.0104240384, -0.0579797849, 0.0710434467, -0.1096969917, -0.1047339439, 0.2550001740, -0.0266525932, -0.0111389915, -0.1541413963, 0.0085194772, 0.1424608529, 0.0726796240, 0.1068859249, 0.1934259981, -0.1717277020, 0.0208837911, -0.2966875136, 0.0806784108, -0.0621318333, 0.0557098910, 0.0913213342, -0.0613651462, -0.0119164363, 0.0620887168, -0.0345157497, 0.0374408774, 0.0595097318, -0.0380312912, -0.4162590802, -0.0565088727, -0.0736539513, 0.0599565096, 0.0776787102, -0.1957599223, -0.2591989338, 0.1688475162, -0.1021379456, 0.2443356216, -0.1362289488, -0.2163111567, -0.2115857005, -0.1156953946, -0.1279177517, 0.0755472109, 0.1904706210, -0.1212236136, -0.2848232687, -0.1329700202, 0.2378038615, -0.0668497458, -0.0388013460, 0.0868994147, 0.1184378788, 0.0277471598, 0.0234031007, 0.2393764108, 0.2364352942, -0.1786525697, 0.3453622162, -0.1291336268, -0.0991219729, 0.0106173977, -0.1527833939, -0.0850763544, -0.0034779599, 0.0554621406, -0.1315838993, 0.0826249495, -0.0072082365, 0.0830668509, -0.0486691855, 0.1109570414, 0.2445584685, 0.0260691866, -0.2042449415, 0.0584715381, -0.0691145808, -0.0360660516, -0.1508289725, 0.1472653896, 0.0402984954, 0.0597847961, 0.0083607649, 0.0386308543, 0.0808229372, 0.0479513854, -0.0183891263, 0.1610266864, -0.0697603524, -0.0253418311, -0.0266621932, -0.0153506901, -0.1944808513, 0.2148301899, -0.0903739780, 0.0495025367, -0.1012839973, 0.0303438306, 0.2094805390, -0.0210360531, -0.1753492504, 0.2658099830, -0.0847817883, -0.3188096285, 0.1650912464, -0.1147235706, -0.2116434872, -0.1262486279, 0.0295728222, 0.0808006376, 0.0121723488, 0.2545877397, 0.2692312598, 0.0557043962, -0.2015862167, 0.1455883980, -0.1729875058, 0.0998515859, -0.0776476637, -0.0318576805, -0.0955586508, -0.1577914208, 0.0108260941, -0.2444697171, -0.3155052066, 0.1348123252, 0.0949806571, -0.0573869832, 0.0442522243, -0.1021061093, -0.1898089945, 0.0777812377, 0.0988672599, -0.0599627942, 0.1480341405, -0.1750551462, 0.0470161736, -0.1560126245, -0.1074736044, -0.0082930308, -0.1070543081, -0.1181984395, -0.1208239049, -0.1555098295, 0.1170655638, -0.3507177532, -0.0726751164, -0.1243365183, 0.0994174406, 0.0475737713, -0.0177690051, -0.1144902334, 0.2491192669, -0.0544138029, 0.0688909516, -0.0568345152, -0.1446503550, -0.0388733633, -0.0069684451, -0.1485874206, 0.1583375782, -0.0599056445, 0.0053163893, 0.1138437092, -0.0909214392, 0.0577173680, 0.1268338710, 0.0742946267, -0.0354240760, 0.0711802766, -0.0839841887, 0.1506477147, 0.0310054589, -0.1365999132, -0.1767178178, -0.0319358297, 0.0768964738, -0.1573296636, -0.0143138990, 0.3299338222, -0.1964754909, -0.0644791350, -0.1758668572, 0.0779485554, 0.0582350269, 0.0255881026, -0.0629930273, -0.0057755508, 0.0653786436, 0.1398336142, 0.0782669932, 0.1944555044, -0.0275236312, 0.2472110540, 0.0281270295, 0.1776892543, 0.1415974498, -0.2194541693, -0.2057559490, -0.2114149779, 0.1106184348, 0.0599882379, 0.1459441483, 0.0407140851, 0.0810207874, 0.0042115110, -0.1097600088, 0.1586334705, -0.0102517251, 0.0518616661, -0.0231620632, -0.0662037283, 0.0868109837, 0.0390971489, 0.2549105883, 0.1313119978, 0.1389999092, 0.0129796406, 0.1187526807, -0.3177989125, -0.0677697808, 0.0841662511, 0.0043626763, -0.0624447800, -0.1198609620, 0.0657575130, -0.1083457470, -0.2216151059, 0.0257742926, -0.0804587156, 0.3735116720, -0.0942475647, 0.0555287972, 0.0222121775, -0.0656876564, -0.1771335453, -0.1905574650, 0.1000007167, -0.0138739506, 0.0810999647, 0.0584087484, 0.1928482056, -0.0548120961, 0.1128062457, 0.0198697634, -0.0678807348, -0.0475179181, 0.1530194134, 0.0267189611, 