//Numpy array shape [3, 3, 32, 64]
//Min -0.538667380810
//Max 0.652191400528
//Number of zeros 0

#ifndef W16_H_
#define W16_H_

#ifndef __SYNTHESIS__
model_default_t w16[18432];
#else
model_default_t w16[18432] = {0.1380089968, -0.0980963558, 0.0135720046, -0.1340687275, -0.0766280666, 0.0022064494, 0.0139855118, -0.0706429556, -0.0823762417, 0.2700881362, -0.0618665554, 0.0953605622, 0.1059273630, -0.0014073232, 0.0801600069, -0.0257496219, 0.0052728904, -0.0101906890, -0.0537440404, -0.0123344734, 0.0015085851, -0.1498265713, 0.0286546759, 0.0569207780, 0.0831430554, 0.1243291274, -0.1056297272, -0.0758857131, -0.0293346830, 0.0739719272, -0.1739749908, 0.1470697224, -0.0079052784, 0.0662430301, 0.1445653439, -0.1033409908, 0.0987691060, 0.1654103696, 0.1654161811, -0.1034221053, -0.0282045007, -0.0947072878, -0.0599884167, -0.0596820153, -0.0381654091, -0.0839471743, 0.0999657884, 0.0444981456, 0.0948213935, 0.0152068045, 0.1271811873, -0.0405338667, 0.0061800387, -0.0621042252, 0.0214984771, 0.1517163068, 0.0710835531, 0.2901972532, 0.0125580635, 0.0379732512, -0.1145352423, -0.2598934770, 0.0085224798, -0.0148706017, 0.0414214954, -0.0578971766, 0.0103485417, -0.0242731143, 0.0753175616, -0.0131323775, 0.0914871320, 0.0071596447, -0.0935756937, 0.0214670282, 0.0599875003, 0.2207389623, 0.0707417428, -0.0185590014, 0.2279265970, 0.0711767077, -0.1621071249, 0.1993866861, 0.1595114917, 0.1593625396, 0.0588335879, 0.0306926928, -0.1712006032, -0.1159100085, -0.0008911629, 0.1572231501, 0.0083408197, -0.0534310043, -0.1285433024, 0.1414002925, 0.0131283877, -0.0659224689, -0.0152558386, 0.2678546607, -0.0665110052, -0.0398756452, 0.0752586946, 0.0809706822, 0.0403348356, 0.2420139462, 0.0563859493, -0.0685214549, -0.0887910798, -0.0998060852, 0.0197978485, 0.0574942939, 0.1528052241, -0.0593498126, 0.0377995707, 0.1332603693, 0.1433883160, 0.0722863153, -0.0543094687, -0.0159057006, 0.0645820796, 0.0543494299, -0.0213777497, -0.0042447187, 0.0102598649, -0.0916219950, -0.1633833647, 0.0924075842, 0.0216928497, 0.0195345264, 0.0928584188, -0.0583066829, -0.1176891774, 0.2608530223, 0.0793237835, -0.0558139905, -0.0184148066, -0.0044819051, -0.0685390234, 0.1500657648, 0.0622145236, 0.1237606034, 0.0585112721, 0.0433863103, -0.1113539860, 0.1699670851, -0.1078469977, -0.0078993076, -0.0880223215, -0.0205175932, 0.0925372615, -0.0812156573, -0.0934069231, 0.1246744990, 0.0870437026, 0.0743840188, 0.0275855567, -0.1781512648, -0.1547577828, 0.1120261252, 0.0231241044, 0.0693022832, -0.1375139505, 0.1649651974, 0.0544485673, -0.0104012666, 0.1842371523, 0.0407078899, -0.2124207020, 0.1448446810, 0.0078113144, 0.1293999255, -0.0402629003, 0.0137801217, 0.0198225863, -0.2667529583, 0.0865786970, -0.0906256363, 0.0627455041, 0.0668007359, 0.1368424594, -0.0444184467, 0.1193014309, -0.1054049805, 0.0159147605, 0.0624268651, -0.0343419276, -0.0970411897, 0.0270948987, 0.2108018696, -0.0141833965, -0.1469670236, 0.1164979115, 0.0842589810, 0.2015590072, -0.0076847747, 0.0329705924, 0.0557937548, 0.0866083354, -0.1675603241, 0.0741331130, -0.0826254636, -0.0487976409, 0.1782678664, -0.0742200091, 0.1957203001, -0.0174951870, -0.0305652302, 0.0872369483, -0.0554112010, 0.0261465684, 0.0240171887, -0.0179967172, 0.1405040622, -0.1225835755, 0.1029679179, -0.0121788606, 0.0464090817, -0.1951075643, -0.0834263861, -0.1935921013, 0.0993467495, -0.0850596800, -0.0506244190, 0.1059758812, 0.1613514721, 0.0981708840, 0.1568064243, 0.2661174238, 0.0454479754, 0.0342650898, 0.0010769704, 0.0634211823, 0.1216403842, 0.0355453864, 0.1094643325, 0.0037500816, -0.0150510734, 0.2021367848, -0.2530554235, -0.0400699675, 0.0128596108, 0.1653563678, 0.0209171064, -0.0833723918, -0.0271018166, 0.0464187376, 0.1244038343, 0.0200407989, 0.1098446921, 0.0669453517, -0.1037289053, 0.1368937343, 0.0969063491, -0.0012903425, 0.1843870133, 0.1165610701, -0.0918119699, 0.1194706187, -0.0021644614, -0.0170965474, -0.0217513349, 0.0200371575, -0.0935509577, 0.0092122769, 0.0704947710, -0.0654106811, 0.1373167336, -0.1713131368, -0.1572361887, -0.0597764365, -0.0315624364, 0.1051697209, 0.0289342757, -0.0845557228, -0.1861843318, -0.0703824833, 0.0146646164, 0.0080253482, 0.0272946805, 0.0014425978, 0.1886948198, -0.0451862253, -0.2344791889, -0.0048266700, -0.1659891903, -0.0274775513, 0.0255606826, -0.0078466684, -0.0178722236, 0.0562940128, -0.0667550415, -0.0028684982, 0.0039614807, 0.0634628013, 0.0374446400, 0.0739068016, 0.0733723715, -0.0310895573, -0.0690666884, 0.0988371670, 0.2356675267, 0.1635505557, 0.0126566831, 0.0239479933, 0.0134010389, 0.1414652765, 0.0286644977, -0.0391757376, 0.1326046288, -0.0412024483, -0.0511528663, -0.0329193436, 0.1121544689, -0.0482432470, -0.1047071069, -0.0497859791, 0.0886710361, -0.0293847769, -0.0060694930, -0.1979875565, -0.0733503327, -0.0094293850, 0.0889635235, 0.0189224966, 0.0418926515, -0.0202103332, -0.0087059326, 0.0849267393, -0.0119470973, 0.0186348557, 0.0566856638, -0.0699397400, -0.1359846443, -0.1244476661, -0.0465858951, -0.0402107239, -0.0885128751, 0.1292156279, -0.1132100224, 0.0553158484, 0.2277697772, -0.0523114838, 0.0091638686, 0.0183225013, 0.0550916456, 0.1044412702, -0.0418792926, -0.0821776763, 0.1809761524, -0.0746054202, -0.0452007540, 0.0613834523, 0.3410290480, 0.1072448567, -0.0288435165, 0.0824226812, -0.0286495145, 0.0682453811, -0.0844294727, -0.0400774628, -0.0768812820, -0.0816511214, -0.0129308114, -0.0294357743, 0.1330247968, -0.2211602479, -0.0115472591, -0.0909650177, -0.0909847990, 0.1435928643, 0.0114078578, -0.0583522692, 0.1474893689, 0.1864751577, 0.0143257091, 0.0107418504, 0.0968335718, -0.0667271242, 0.1294979155, -0.1094168797, -0.0475802757, -0.0486211590, -0.0534569323, 0.0543244071, 0.0281161126, 0.2076312006, 0.0704023987, -0.0414958671, -0.0388425216, 0.0650514290, -0.0092118960, 0.1425413191, -0.3413583934, 0.1378528923, -0.2271419466, -0.0711302906, -0.1072492674, -0.0641079023, 0.1740351021, 0.0218918938, 0.0777382627, -0.0064584813, -0.0113327419, 0.0233156849, 0.3356773555, 0.0255604573, 0.0795714781, 0.1949305832, 0.1297471225, -0.0429011397, -0.1096854210, 0.0319084302, 0.0512744896, -0.0211530197, 0.0453960039, -0.0634832233, -0.0729725286, 0.0928173140, -0.1190325543, -0.0446954966, -0.1546639949, 0.0496795662, -0.1915217340, 0.1327615231, 0.1414890736, 0.0317212977, -0.0641646683, -0.0328887366, -0.3478143811, 0.1545347124, -0.2209271193, 0.1592977494, -0.1433165073, 0.0995320231, 0.0433759727, -0.0233893543, 0.0519720092, -0.0078313900, 0.1384100318, 0.0563550629, 0.3199075460, -0.0521661788, -0.2016354352, 0.0674941838, 0.2713268697, -0.1446521133, 0.0046578730, 0.0236524735, -0.0188207310, -0.1251658052, -0.0086192293, 0.1094835773, 0.0666432902, 0.0789102390, -0.0520397723, 0.1649849117, 0.1727261245, 0.3740954101, 0.0532700159, 0.0448843949, -0.1144673005, 0.3196953535, -0.0053625954, -0.0466518365, -0.0181606412, 0.2529061735, 0.1667850614, 0.0401114933, 0.0952300429, 0.1799711883, -0.0510255322, 0.0102997841, 0.1274553984, 0.0925059393, 0.2418827862, 0.3154692352, -0.1079402938, 0.0047387597, 0.0602282956, 0.1267914474, -0.1062159538, 0.0596475005, -0.1144287512, -0.0459670350, 0.0408547707, -0.0458498932, 0.1691656113, 0.0943687111, 0.1481261998, 0.0341695324, 0.0227982886, 0.1644277573, 0.0024795032, -0.0259391498, -0.2137408853, -0.0795653909, 0.0441355221, 0.0852371976, 0.0987114310, -0.2619481385, -0.0456298590, -0.0881499350, 0.1037650481, -0.0352585688, -0.0456593484, -0.1258639693, -0.1861667186, -0.0534057319, -0.0137207098, -0.2161832303, -0.1754021347, 0.2051979154, 0.0374852940, -0.0870718062, -0.0514634326, 0.0160863921, 0.0639757961, 0.0395055376, -0.1267050803, 0.1387846321, 0.0687815621, 0.2526713610, -0.0496577248, -0.0686941147, -0.0910469368, -0.2157137543, 0.0119761797, 0.0916704908, -0.1070448607, -0.0093613248, -0.0093779396, 0.0507721230, 0.1068933457, -0.0024298804, 0.0162431747, 0.0413401313, 0.0036018076, 0.2123799920, -0.0866597295, -0.0445476547, -0.0292955227, -0.0204720199, 0.0167166255, -0.0517121255, 0.2121272236, 0.1096731648, 0.0209314600, -0.0324302055, 0.0014184277, 0.0914761052, 0.0734669417, -0.0437203646, 0.0877638683, -0.1271528006, 0.1291397512, 0.0282615032, 0.0439196937, -0.0446927436, 0.0248491541, -0.1507436484, 0.0185922123, 0.1832833439, 0.0607595146, 0.1591568738, 0.0971423984, 0.1273135990, -0.0689002424, -0.0619953722, -0.0455403328, 0.0777023956, 0.1419871449, -0.0836971626, -0.1247871444, 0.0962153524, 0.0200723708, -0.0257773697, -0.0581261553, -0.0789909735, 0.1127539575, 0.0178332254, -0.0339459032, -0.0057996837, 0.0946896151, -0.2746268511, -0.0573346056, 0.0174232218, 0.0504976660, -0.0216593854, -0.2180150747, 0.0184815433, -0.2381024659, -0.0930305272, -0.1580009162, -0.0345707424, 0.0524028987, -0.1124093682, -0.0466771424, 0.2024509907, 0.0187467989, -0.1137659624, 0.0179192778, -0.0265672766, -0.0894445553, 0.1433960199, 0.1092863008, 0.1450917423, -0.2470595092, -0.0398059934, -0.0122201536, -0.2059525549, -0.0583348721, -0.2618764043, 0.1008356214, -0.1528994292, 0.0033947194, -0.1214906573, -0.1275989413, -0.0189072173, -0.1413416117, -0.0888191834, -0.0043968176, -0.0404147543, 0.1229659468, -0.0211449787, 0.0663647056, -0.0270631127, 0.0181261636, 0.0378725603, -0.1513337195, -0.1754987687, 0.0393140540, -0.1334275007, 0.1699744910, -0.0768170133, -0.2056682259, 0.1067606360, 0.1332128942, 0.1122608557, 0.0283511616, -0.0923064053, -0.0194489099, -0.0187567901, -0.0015558819, -0.0046025361, 0.0040737172, 0.0382662080, 0.1025903597, -0.1342782974, -0.0870389864, -0.0615034476, 0.1076560467, 0.0377336070, 0.0471653081, -0.2156716585, 0.0691210404, -0.0095137879, -0.0354585312, 0.0075100148, 0.0059770118, 0.0168020651, -0.0739184991, -0.0204079710, 0.2136038691, -0.0007094995, -0.0945390314, 0.0180674940, -0.2646605074, -0.0505785495, -0.1612701714, -0.1331457645, 0.0919915512, 0.0100534866, -0.0581343807, -0.0312823802, -0.0533459038, -0.3271934390, 0.1066724434, 0.0686126351, 0.0393628515, -0.1441724896, -0.0231633894, -0.0033131973, -0.0361422151, 0.0327572599, 0.0204115231, 0.0797103271, 0.0886101872, -0.0259663630, 0.0410146192, -0.0359497517, 0.1658876538, 0.0226858519, -0.1162261441, -0.0645802468, 0.1664685756, -0.0455690287, 0.0926968530, -0.0569606312, -0.0418831222, -0.0451510772, -0.0656962767, -0.0450308062, -0.1227640882, 0.0805430561, -0.1096898615, 0.0109642241, -0.1389144212, 0.0811216161, 0.1801219136, -0.0278376900, -0.1433195770, -0.1332696527, 0.0922758654, -0.0111982152, 0.1827043891, 0.2872650027, -0.1617663354, -0.0246018115, 0.0070139742, -0.0134808328, -0.0688043460, 0.0200250801, 0.0485269129, -0.1576280296, -0.0281557683, 0.0780690089, 0.1909534931, -0.1331900358, -0.1079541594, -0.1202919558, 0.0332557075, 0.2632708251, 0.0540569946, 0.1008357480, 0.1454307437, -0.0279185344, -0.2249459326, 0.1095004305, 0.0810301378, -0.0554916114, 0.0326346494, -0.0960319489, -0.0570542775, 0.2341521084, 0.1739278138, 0.0755147412, -0.1422082186, -0.0967487246, 0.1598525047, 0.0311799217, 0.0008077698, -0.0192768127, 0.0336875133, 0.0230887514, 0.0309895258, -0.0520058274, -0.1322012991, -0.1078644469, 0.1958321035, 0.0980926603, 0.0042552142, -0.0085041383, 0.2034782022, -0.1398427635, -0.0142879533, -0.1388944238, -0.1718874276, -0.1787825078, -0.1140067950, 0.1474388540, -0.0316465124, 0.0772503540, 0.1813700050, 0.0299965367, -0.0836499631, -0.0495119356, 0.1464374512, -0.1032191068, 0.0202040412, -0.1141671091, 0.0581704639, 0.0655217692, -0.0502373166, 0.1241749004, -0.1446704566, -0.0604243055, -0.1080535427, 0.1147604287, 0.0149106067, 0.0256310347, -0.0697073266, -0.0225195345, -0.0811307430, -0.0483221747, 0.0488964543, -0.1340128928, 0.1938314438, 0.0205955654, -0.1113484055, 0.0595232323, 0.1746309847, 0.2793816924, 0.1427670121, 0.0885824561, -0.1545075923, 0.0174489431, 0.0441882350, 0.1259295195, -0.0645076111, -0.0313268080, 0.0831757709, -0.0620610230, -0.0261911917, -0.0516169928, 0.0490378216, -0.0776347816, 0.0915544480, 0.0035517681, 0.0073965313, 0.1517337412, 0.1559471339, 0.0660593435, -0.0048456779, 0.1929787993, 0.1729389429, 0.1206033826, -0.0547579676, -0.1228621304, -0.0180929489, -0.0069815991, -0.0829244852, -0.0298893936, -0.0461337604, 0.0192103200, -0.0310390685, -0.1439377666, -0.3286289275, -0.1049158350, -0.0726899430, -0.0503245704, -0.1333475262, 0.1621506810, -0.0372222327, -0.0159384757, -0.0106500890, 0.1175041273, 0.0892733186, -0.0573799349, 0.0126970951, -0.0232508909, -0.3104995191, -0.1538347751, 0.0156112984, 0.1229749471, -0.0703693926, 0.0912846848, 0.2104358524, 0.2403683215, 0.1343283951, -0.0540779233, -0.0724014789, -0.0841052085, -0.1714556515, 0.0439543724, -0.0240465198, -0.0785862803, -0.0171607677, -0.1362325698, -0.1074219197, 0.0665642172, -0.0797951892, -0.0355371572, 0.0200898610, -0.0287903361, -0.0249773115, 0.0809283108, -0.3343591094, -0.1042374671, 0.0353185050, -0.0131221153, 0.0546612628, 0.0388316065, -0.0307255667, 0.0270940010, 0.0367633700, 0.0003876384, -0.0991381109, -0.0002750437, -0.1220820025, -0.0606542639, 0.0618491396, -0.1138386652, 0.1853908449, 0.0938661247, -0.1231498271, 0.0052556181, -0.0152670024, -0.0134499632, 0.0122321844, -0.0525366068, -0.0452064089, 0.0863677114, -0.0344055258, -0.0018627016, 0.0848418623, 0.1470916718, -0.0483352318, 0.0578391999, -0.1687530875, -0.0375882871, -0.1992672980, -0.1070911288, 0.0971269906, 0.0668474510, 0.0220760219, 0.0751923546, -0.0657142177, -0.2897872329, 0.0771169364, 0.0995912999, 0.1155569777, 0.0124702603, -0.0371349193, -0.0513499789, 0.0679550692, 0.1220877022, -0.0037531483, 0.1185849011, 0.2357480675, -0.1080226898, -0.0143419690, -0.0708693415, 0.2706760466, 0.0052673779, -0.1162040532, -0.0572185405, 0.1233831048, 0.0117080407, 0.0082585383, 0.1523492336, -0.1140121743, 0.0501466617, -0.1335914135, 0.0333993658, -0.1925040185, -0.1368726045, -0.0788522959, 0.0145746013, 0.1841862500, 0.0865965933, 0.1980582029, 0.0857589394, -0.0012899474, 0.0166659802, -0.0928611681, 0.0181814954, 0.0349811837, 0.1796092540, 0.0051972964, 0.2432407588, 0.0521460734, -0.1172186956, -0.1068540812, 0.0253652055, -0.0211033486, 0.0531892143, -0.0099707088, -0.1225439906, 0.2068115175, 0.0788786858, 0.0300288573, -0.1114570126, 0.0367656536, 0.0139894448, -0.1154343784, 0.0712058097, -0.1911097020, -0.0241115298, 0.1412923038, -0.0645277724, 0.0954583585, -0.0128652817, 0.2383262664, -0.1538857371, -0.0151386810, -0.1183289737, 0.0446452647, -0.0034261118, -0.0023932573, 0.2264053524, 0.1345844418, -0.0701899752, -0.1075037345, -0.0703378320, 0.1029174402, 0.0188633464, 0.1775821000, -0.0727867931, 0.0556688122, 0.1851265281, -0.1624540538, -0.0536739752, -0.0555020310, -0.1100612506, -0.0582021587, 0.0343620144, -0.1779195368, 0.1507526636, -0.1133147180, 0.0845014155, 0.0263168160, -0.0541558601, -0.0190259535, -0.0012423728, 0.1257680506, 0.0207780264, 0.0941715389, 0.1529145241, 0.0832961053, 0.0930899978, 0.0703109279, -0.1420593262, -0.0047316435, -0.0359490626, -0.0902205259, 0.0599745139, 0.0004632925, -0.1195764095, 0.0115181617, 0.1449193507, -0.1445891112, 0.0539052896, 0.0243517496, 0.0453124307, 0.0339237563, -0.0903550014, -0.2086898386, 0.0805720091, -0.0468629971, 0.1226042435, -0.0466897599, -0.0947711468, -0.0127580613, 0.0180102400, 0.0553689972, 0.0337241255, -0.1571433991, -0.0919841379, 0.0207400154, 0.0536034890, -0.1208844557, -0.0183814690, -0.0228356123, -0.0695572048, -0.0786275938, -0.1099512205, 0.1199440137, 0.0382079594, -0.0739127696, 0.0312891155, -0.0004706907, 0.0565982163, 0.1356921047, -0.0795989409, 0.1481607407, -0.0661695972, -0.0341227055, 0.0018819500, -0.1204609722, -0.0297067109, -0.0189344045, 0.0561371371, -0.0692828521, 0.2218284756, 0.0342780054, 0.0215375274, 0.0819348693, 0.0224896073, -0.0458961986, -0.0424933247, 0.0277987197, 0.1107287779, -0.0005266406, -0.1150360182, -0.0080932779, 0.0338222571, -0.2252302915, -0.1049604863, -0.1006198153, -0.0898879170, 0.0723385587, -0.0018287977, 0.0376146026, 0.0267086215, -0.1296423376, -0.1679936200, 0.2089753747, -0.0610370748, 0.0439935215, -0.0601546280, -0.0446881466, 0.1115470752, 0.0682407916, 0.0369018093, -0.0229100585, -0.1393817812, -0.0520188026, -0.0703665167, -0.0421081781, 0.0658219382, 0.1846673042, -0.0511836335, -0.0284515787, -0.1000669301, 0.0723190978, -0.0616245754, 0.0400470346, -0.1012693197, -0.0840066522, 0.0543280505, 0.0468061641, 0.0391607583, 0.1503997594, 0.0509850308, -0.1306689382, -0.0131724840, -0.0198149998, -0.0575257242, 0.1183367223, 0.0313795954, -0.0243391655, -0.0247952025, 0.0076594814, 0.1116185188, -0.1139375493, 0.1412008256, 0.0009906117, 0.0063135796, -0.0837248638, 0.0722105131, 0.1052455530, 0.0467315242, -0.0777189583, 0.0844548866, 0.0750347972, 0.0815283731, -0.1072653532, -0.0703108013, -0.0642925352, -0.1427154094, -0.3857469261, -0.1369847059, -0.1339000016, -0.1395718902, -0.0055785934, 0.0839331225, -0.0055711293, -0.0037472260, -0.0556026176, -0.1591500938, 0.0511236340, 0.1104423031, -0.0157980286, 0.0622500069, 0.3241961002, -0.1236845404, 0.0421460085, -0.0930234939, 0.1185817420, -0.3562977016, 0.2217496634, 0.1949317604, -0.1121890917, 0.0790566877, -0.2178362161, 0.1842482537, -0.2586164176, 0.0893558860, -0.0438602939, -0.0249924585, -0.1150197834, 0.0323857442, 0.0655945912, -0.0604867488, -0.0605430230, -0.0401357487, -0.1078642756, -0.0613862015, 0.0897252336, 0.0125238393, 0.0241138339, -0.2069678605, -0.0740538687, -0.1092391387, 0.0274336301, 0.0660124272, -0.0810180157, 0.1089955941, 0.0365561172, 0.0188423991, 0.1270102710, 0.0820899084, 0.1331296414, 0.1181954741, 0.0157188792, 0.0286589172, -0.0984017327, -0.0594916567, -0.0258369148, 0.0700549036, 0.0355197191, 0.0552584752, 0.0222799014, -0.0463609174, 0.0417950377, 0.0950139090, -0.0737442598, -0.0647045523, -0.0133103319, 0.1113107651, -0.1831846386, -0.0506158397, -0.0729589313, 0.1649598032, -0.0381247550, -0.0586575940, 0.2275048047, 0.1563686132, 0.0854849443, 0.0823867694, -0.1968442202, -0.0665596947, -0.1501490474, 0.1170297191, -0.1757796705, 0.1058213040, 0.0334437191, 0.0533011034, 0.0091687320, -0.0938152745, -0.0680234954, 0.0643379390, -0.1245608404, 0.0377648585, -0.2591022551, 0.2070196569, -0.0408316478, -0.0432936810, 0.3129634261, 0.1276414990, -0.0402084626, 0.2010535598, 0.2181187570, 0.0333043449, -0.0540954284, -0.1353502870, 0.1175334528, -0.0860153735, 0.1205118522, -0.0346133746, -0.0146118626, -0.0748662353, 0.0747542828, 0.0005427414, -0.1180958077, -0.0362360850, -0.2106556147, -0.0199453533, -0.0766756907, 0.1318949759, 0.0202986840, -0.0687092096, 0.0987189263, 0.0505554080, 0.0587294362, 0.0564500540, 0.0870242640, 0.1228166148, 0.4625072479, 0.0900677219, 0.1091021597, 0.0574668795, 0.1090002656, -0.0615619086, -0.0233832616, 0.2551072240, -0.1128128842, -0.1152950227, 0.0112651410, -0.2644546926, -0.0018830569, 0.1190171093, -0.0361042432, -0.0279623903, -0.0700551271, -0.0687767267, 0.0008498165, 0.0660547093, 0.0029339599, -0.1460437179, -0.1223078445, 0.0199500956, -0.1068091691, -0.0394036956, 0.0211105347, 0.0512011163, 0.0748158097, 0.2241105586, 0.0627082288, -0.1387568414, -0.0876550972, 0.0188238155, 0.0088716587, 0.2925701737, -0.0907328352, 0.0347194485, -0.0113463532, -0.1003374010, -0.1343755573, 0.1359675527, -0.0964572579, -0.0347196013, -0.1549188346, 0.0937812626, -0.0816923752, 0.0929225385, -0.0606402978, -0.0114787985, -0.0120598767, -0.0313809998, -0.0017661761, -0.0952842236, 0.0076727411, 0.0898125842, -0.0192818381, 0.1456684172, 0.0466383435, -0.0298098829, -0.0399201736, 0.0256351586, 0.0109467832, -0.1295599192, 0.0219797567, 0.1687765121, -0.1631853878, 0.1692678928, -0.0948925987, 0.0496499836, 0.0641663149, 0.0110019436, -0.1400161535, 0.1755911857, 0.2797698677, 0.2642310560, 0.0261512697, 0.0198509358, -0.1301548332, -0.1942780465, -0.1572461426, 0.2056364268, -0.0345372781, 0.1347109675, 0.0673458204, -0.0940042436, 0.0222085416, 0.0757191628, 0.0256415177, -0.2000262588, 0.0897795409, -0.0791325122, -0.0008031646, -0.1117820889, 0.0516635627, 0.1468461305, 0.0130233634, -0.1146012247, 0.0062637595, 0.0612164177, 0.1826951802, 0.1553400606, -0.0482095219, 0.0558321290, -0.0413363874, 0.1194772571, 0.0717016608, 0.0749411434, -0.0036743807, 0.1361806542, 0.0765164420, 0.1882703751, -0.0375298336, 0.0236028563, -0.1259818822, 0.0105731227, -0.0424667187, 0.0003137093, 0.1142177805, -0.0428260602, 0.0369761586, -0.0070614326, 0.1818690002, 0.0026808828, 0.3370129168, -0.0475281924, -0.1366233677, -0.0824321508, 0.1045553759, 0.0001599827, -0.2007407844, 0.0416973941, 0.2347224802, -0.0313261598, -0.0621660016, 0.0068973731, -0.1031928286, -0.0230736267, 0.0677648112, -0.2181122601, 0.0670106560, -0.1765957028, -0.0609482862, -0.1176639944, -0.1655544043, 0.1151090264, -0.0193065926, -0.3563268781, 0.1030567363, 0.0524685830, -0.0567309931, 0.0880172402, 0.0524588153, -0.1375291497, 0.0750360563, 0.0195531491, -0.1398956627, -0.0257476177, 0.1102923825, 0.0995682627, 0.1146789566, -0.0617028847, 0.1760523766, -0.0412174463, 0.0619644448, 0.0440147184, 0.0570261888, -0.0418678112, 0.0906569809, -0.0451036543, -0.0416792929, -0.0214923844, -0.0228950735, 0.0607240833, 0.1488370001, -0.0129390517, 0.1296197474, 0.0938387737, -0.0491904914, -0.0740476772, 0.0185185205, 0.0681914911, 0.1186782420, -0.0331517383, -0.0074059027, 0.1385889053, 0.0786568448, -0.0191387534, 0.3115150630, -0.0380042382, -0.0039964276, 0.0610339791, -0.0128305731, 0.0713708401, 0.0130705303, 0.0978195220, -0.0517847128, 0.0622272231, -0.0075033875, 0.0132564669, -0.0183246136, -0.0945857465, -0.0843891129, -0.0369842276, -0.1732036024, -0.0310006831, 0.1284698099, 0.0232846886, 0.0107402736, -0.1577050090, -0.0928225592, 0.2972841561, -0.0724366307, -0.0754921064, 0.0067316499, -0.0404731669, 0.1179296300, 0.0942496806, -0.2192159593, -0.0673566759, 0.2178453207, 0.1066226065, 0.0365914851, -0.1166834533, 0.0475607663, 0.1045395061, -0.0258345790, -0.0721880049, -0.0094645526, -0.1856471449, -0.2037759870, -0.0111417174, -0.0177822467, -0.2307553291, 0.0020611503, -0.0706568211, 0.0791054145, 0.0614268705, -0.0060588596, -0.0345056877, 0.2738368809, 0.0213332046, 0.1224625036, 0.1549881399, 0.0125541417, 0.0668740049, -0.0936205387, 0.0136204129, 0.0030605427, 0.0186512992, -0.0411105752, -0.1114875227, -0.0834526345, 0.0401548296, -0.2108289003, -0.1306796074, -0.2369381338, 0.1859492362, -0.1733518094, -0.2274692506, -0.0762438104, -0.1501536071, -0.1643552780, 0.1605466157, -0.0048298575, 0.0628383756, -0.0798655152, -0.1936520189, 0.0680525899, -0.1048573703, 0.1689120382, 0.1226846948, -0.1315468401, 0.0095658125, -0.1305465251, 0.0976389274, 0.1857308894, 0.0228807945, -0.0429849066, 0.0370059833, -0.1917168945, -0.0406695791, 0.0652828068, 0.0356594883, 0.0538395941, 0.0100726094, -0.2380027324, 0.2741882801, -0.0011049749, 0.0361360312, -0.0938565433, -0.1540380120, 0.0353285447, 0.0313627869, -0.0222260617, 0.0289272554, 0.0652387142, 0.1618011147, -0.1145855412, -0.0625768825, 0.0249298476, -0.1088689193, -0.3071792722, -0.0377283134, 0.0712289140, 0.0188887957, -0.0031372150, -0.0462970361, 0.0942427516, -0.1148195565, 0.0460165888, -0.0105316453, -0.1351715028, -0.0291641857, 0.1710566878, -0.0545616075, 0.2134633660, -0.0399439931, -0.0203593094, -0.0921682492, -0.0027179765, 0.1391847879, 0.1690594852, -0.0238938052, -0.1464551687, 0.0995780304, 0.1165896058, -0.1711062193, -0.0150228329, -0.0284859519, 0.1298002005, 0.1686978638, -0.0067572594, -0.0067131319, -0.0845457166, 0.0160663165, 0.0746845081, 0.1958176643, 0.0148284547, 0.1855226904, 0.1501777172, 0.1021509469, -0.0324265212, 0.0518718697, -0.0689542443, -0.0885127634, -0.0187960174, 0.0785342678, 0.0302529018, -0.1840310246, -0.0733089745, 0.0622050054, 0.1400287598, 0.0285243075, 0.1159144714, 0.0962465480, 0.0574401170, -0.0227940436, -0.0342944898, 0.1327302903, -0.1862029135, -0.0448136367, 0.0103568071, -0.0399425775, 0.1110670492, 0.1462178826, 0.0535122231, 0.0356605649, -0.1936230958, 0.0627317950, -0.1710339040, -0.0763393864, 0.0438994169, 0.0963242576, 0.2041593790, 0.0427703224, -0.1160564199, -0.1201542839, 0.0381506160, -0.0088850129, -0.1426501721, -0.0315300785, 0.1033106670, -0.0474727377, 0.0405603349, -0.0345756710, 0.0587257259, 0.1533607692, -0.0934694856, 0.1664539576, 0.1778527498, -0.0090527963, -0.0782127157, 0.1528000236, -0.0535202473, -0.0113728875, 0.0713607147, 0.0056202332, -0.0632092878, -0.1510376930, -0.0776814818, 0.0763102099, 0.0851200148, 0.1135706753, 0.1860186458, 0.0568496287, 0.0697318614, 0.0667904168, -0.0268640779, 0.0478596725, -0.1274442077, 0.0540307648, -0.0972326174, 0.0348355360, 0.0240236595, -0.0415597148, 0.0803207457, 0.1188216433, 0.1151066497, 0.0117895436, -0.0303273257, -0.1032403037, -0.1730135977, 0.0535214171, -0.0847545043, -0.0592720881, 0.0105997557, -0.0471938290, 0.0875160918, -0.0670447126, 0.0416031033, -0.0408093221, -0.0411288179, -0.0411033519, -0.0475406274, 0.1834390908, 0.0038461087, 0.0782242939, 0.1727396399, 0.1457415074, -0.0180291291, 0.0640538186, -0.1034255624, 0.0400785953, 0.0175418630, -0.0423405915, 0.0263855029, -0.0989329889, -0.1438165754, -0.0373271443, 0.1422308087, -0.0974873155, 0.0650180653, -0.1631259471, -0.1817160547, -0.1364295483, 0.0422578380, -0.1956096143, -0.2104806453, 0.1791336238, -0.1353816390, -0.0232120771, -0.1341947466, 0.0430771559, -0.0258074719, -0.2901207507, -0.1528279185, 0.0686788186, -0.0592973232, 0.0305312816, 0.0327771120, 0.0048350040, 0.0231209490, -0.0790790766, -0.0362545773, -0.0634322912, -0.0591685213, -0.1325771064, 0.0741533414, -0.0012878955, 0.0447192825, -0.0169199575, 0.0477222502, 0.0507883728, 0.1071533561, -0.0346744806, -0.0008208070, -0.0424842425, -0.0195386037, 0.0477493815, -0.2165621966, -0.0649327412, -0.0543873608, 0.0121461283, -0.0368119627, -0.2550841272, 0.1914730966, -0.0472505577, -0.0480496958, 0.1374564618, -0.0138378190, -0.1208527088, -0.0092966156, -0.0423295014, -0.0766359866, 0.0042513399, -0.1871217042, -0.2082796693, -0.1662603617, 0.1759185046, -0.0776451901, -0.1169620305, 0.0692097023, -0.0157236531, -0.1290283799, 0.1181286797, -0.0732130483, 0.0337870456, 0.1685395241, 0.0094059203, -0.1044250131, 0.0220351424, 0.0782334134, 0.0893550813, 0.0670433342, 0.0272490550, -0.0962400883, -0.1870555133, -0.0623019449, 0.1951083392, -0.0874178559, -0.0092834895, 0.1012107655, 0.1677888632, 0.0319942050, 0.1673084199, -0.0320827253, -0.0937341452, 0.1888239980, 0.1081130430, 0.1099300086, 0.0272288620, -0.0291440617, -0.0463533849, -0.0752205029, 0.0028846320, 0.0882550180, 0.1064071581, -0.0730148628, -0.1758677065, -0.1378630102, 0.1346201152, 0.0578873865, -0.0711069107, -0.0226487983, -0.0387166440, -0.0032426408, 0.0029712778, 0.2255375385, 0.1956969947, 0.1138830855, -0.0927634612, 0.0552180409, 0.1337933093, -0.1231413633, -0.0436775945, 0.1620212942, 0.0478850529, 0.1326327026, -0.0470990874, -0.0332454145, 0.0552161299, 0.1882119179, -0.0390676893, -0.0031717594, -0.0986144468, -0.1584587842, -0.0743577853, -0.0095493766, 0.0974277854, 0.1192186475, -0.0499534048, -0.1932115108, 0.0022997421, -0.0464633852, -0.3709728122, -0.0176240727, 0.0229985546, -0.0019699114, -0.2376633286, -0.0267424602, -0.0135055128, -0.1744714081, -0.2848524749, -0.2080915868, 0.2434949726, -0.1697022021, 0.0139319012, 0.0413872786, -0.1946869493, 0.0777638033, 0.1126197502, 0.1539455056, -0.1494212598, -0.1972540170, -0.0731122866, 0.0769978315, -0.0524198487, 0.1112323552, 0.1661008298, 0.3390171528, 0.0908247977, 0.1098244712, 0.0199376494, 0.2462968975, 0.0607211627, -0.0569888726, 0.0459924228, -0.0517768823, 0.0905844420, -0.0369888954, 0.2494550943, -0.1821643263, -0.1659721732, 0.0137151284, 0.0438052155, 0.2367692292, 0.0605903454, -0.1672746837, 0.0580554642, -0.0325804837, -0.0147267208, -0.1298221797, -0.0153814089, 0.1532973349, -0.1065434515, -0.0360811949, -0.0801018849, -0.0862239450, -0.0152909318, -0.0425515287, -0.1274504066, -0.0361067727, 0.1194095686, -0.0003996953, -0.0916734263, -0.1616601497, -0.1057079732, -0.0626959577, 0.2266621441, -0.0158375148, -0.1516425908, 0.0525736213, 0.0736265406, 0.2141665071, -0.1098057702, 0.0366991125, 0.0739255026, 0.1100025252, -0.2850854397, -0.1107602268, -0.0299682338, 0.1516692787, -0.0075371745, -0.2595565915, 0.0363717936, -0.1392130256, 0.1005615741, -0.0802094787, -0.0134684108, -0.0746973827, -0.1056999415, -0.1543688774, -0.0351033174, 0.0423958711, -0.1057737172, 0.0626033321, -0.1028110906, -0.0803678483, -0.0608249679, -0.0566139929, -0.0785023272, -0.0431297794, 0.0713834390, 0.0591690205, 0.0932598189, -0.1470209509, -0.2026644796, -0.0751393512, 0.1059396267, -0.0505148098, 0.0787838176, -0.0789292231, 0.0160611793, 0.0344202071, -0.0149637302, -0.0676091462, -0.1366671622, 0.0300475620, 0.0487705134, 0.0437445380, 0.0521893688, 0.1633747667, -0.0483318977, -0.0065382523, -0.0937769711, 0.0042076237, 0.0175622404, -0.0733715370, -0.0997553915, 0.0566752255, 0.0458029024, 0.0346950740, -0.0987176299, 0.0170620643, -0.1189285666, -0.0369969197, 0.0816933364, -0.0353481956, 0.0604840256, -0.1028690413, -0.0879614428, -0.0206531547, -0.0680222139, 0.1329411715, -0.2735740542, -0.0943440124, 0.0620796643, 0.2303891033, 0.0120404679, 0.0408702344, -0.0358229578, 0.3303527236, 0.0904237628, 0.0239790417, -0.0547006764, 0.0710762143, 0.1014697701, -0.1823598444, -0.1265313029, -0.1135897636, -0.0723123252, 0.1212586761, 0.0202390961, 0.0646903217, 0.0440045744, -0.0413130857, 0.0984921753, -0.0969952568, -0.0012732329, 0.0108614061, -0.0552655980, -0.1937018782, 0.0253908355, -0.0178827867, -0.1172800884, -0.0624477193, -0.1907663047, -0.1565795392, -0.0014740904, 0.1549855918, -0.0360932872, 0.0151209328, -0.0637909472, -0.0299248695, 0.1108546630, 0.0712211877, -0.1021503061, -0.1865756661, -0.0845282748, -0.0155748837, 0.1395265013, -0.0333791971, 0.0777145401, -0.1152010411, -0.0069820010, 0.0056004003, -0.1868017763, -0.0056004999, -0.0141426688, 0.0662333518, -0.0805862918, 0.0211303737, 0.1082555726, 0.1299104691, 0.1422699541, -0.1869822294, -0.0161113162, -0.0063947928, -0.1012954935, -0.0791275650, -0.0083853109, 0.0053933458, 0.1229672432, -0.0025180976, -0.0196062457, -0.0001797790, -0.0283771362, 0.0313288532, -0.1439673454, 0.1151651740, -0.2125240564, 0.0456357896, 0.0490969457, -0.0451103672, -0.0381340049, -0.0158714373, 0.0898349956, 0.0241085272, 0.2675426602, -0.0530291423, -0.0887328237, 0.0279185008, 0.0408313721, -0.0287842304, -0.0167476777, -0.1217049584, 0.0567437112, 0.1685083658, 0.0846015885, 0.1354420781, 0.1326176226, 0.1526511014, -0.0402345620, 0.0366327725, 0.0809879377, 0.0395910405, 0.0076547069, 0.4183750153, -0.0670687407, -0.0648697764, -0.0836604908, 0.0172898434, -0.1856171042, 0.0382520892, 0.0096337637, -0.0005575638, 0.0352537856, 0.0081708748, -0.0040557198, -0.0622446947, 0.0019030189, -0.0348871984, 0.0613126308, -0.1585658938, 0.1275881082, 0.1578742415, 0.0182106122, -0.0546745025, 0.2473174036, 0.1065687910, -0.0809469298, 0.1751923561, 0.0515912920, 0.1222082078, 0.0908672214, 0.1463021338, -0.0605634935, -0.0546541438, 0.0299511030, 0.0129543860, -0.0582595840, 0.0025458089, -0.0511855595, -0.0941919163, 0.0841884986, 0.0036393565, 0.0178054161, 0.2402385771, 0.2361755371, 0.1064572185, 0.0864533111, -0.0004886901, 0.0297513604, 0.0524609424, -0.0122293662, -0.0362982787, -0.1712418944, -0.0368838347, -0.0633302256, 0.0728630796, 0.0641082227, -0.1121020988, 0.1074872017, 0.1375922412, -0.0295843557, 0.1307817101, -0.0633495972, 0.1628347784, 0.0913748294, 0.1398292929, 0.0686218962, -0.0730938315, -0.0340891518, -0.0851833820, 0.0457128994, 0.1468750685, -0.0814445168, -0.1512330025, 0.1395815760, -0.1025768220, -0.0342239253, 0.2662336826, -0.1349049062, -0.1220841035, -0.1662010700, 0.0249475818, -0.0264891814, -0.0667451695, 0.2161699831, 0.4627875686, 0.0394506194, -0.0690443888, -0.0216144156, -0.1310510933, 0.1699134409, 0.1120280549, 0.0016952616, 0.0515987463, -0.0436577052, -0.0123145469, 0.0971971303, -0.2397428900, 0.0669198334, 0.1761620194, -0.1331719607, -0.1115450487, -0.1411359161, 0.0749878660, 0.0173564143, -0.0310635809, -0.1213302091, -0.0296883490, 0.0705718920, 0.0572652407, 0.0548935458, 0.0367770009, -0.0716397911, -0.1523451805, 0.0154613750, 0.0471467972, 0.0691666678, 0.0174831431, 0.0374851376, 0.0919331089, 0.1563926786, -0.1029285416, 0.1818826944, 0.0984358042, -0.1010050401, -0.0403014123, -0.0184910148, -0.0051080566, 0.0397950672, -0.1105601862, -0.0229425989, 0.0116994409, 0.1081170142, -0.1099428982, 0.0631175637, 0.0989575312, 0.1250443161, 0.1097969860, 0.0181305632, -0.2130038142, 0.0653356388, 0.0645336732, 0.0633081868, -0.1280551106, -0.0666496605, 0.0346811786, 0.0571430475, 0.0253260639, 0.0642190650, 0.1350771487, -0.0638892278, 0.2258364409, -0.0182871111, -0.1023555472, -0.2532681823, 0.0616309084, -0.0103853354, 0.0465266444, 0.0098162694, 0.0486546271, -0.0380778983, -0.0658234358, -0.2402059585, -0.1100359857, 0.0457294285, 0.0527358092, 0.0997131765, 0.0724950880, -0.0134017020, -0.1354372799, 0.0422762930, -0.1169580445, -0.1303312778, 0.0904755369, -0.0203368478, 0.0374517441, 0.0578391850, 0.0450444594, 0.0058105169, -0.0349622443, 0.0595840029, 0.0951030776, 0.1914681792, -0.3062363267, -0.0978334770, -0.1586203873, 0.0464140214, -0.0025765027, 0.0081975022, -0.0722767860, -0.0255537685, 0.0447873250, -0.0513895229, -0.1215839610, -0.0410617478, -0.1817266047, -0.0921690613, 0.1582755148, -0.0264571104, 0.0776843131, -0.0754292086, -0.2211239338, 0.1291520894, -0.0351887532, 0.1003067568, 0.0834238082, 0.1175524741, 0.0184363201, -0.1832341254, 0.1699435413, -0.1334917247, -0.0856882557, -0.0007335739, -0.1130178049, -0.1012437195, 0.0680149496, -0.1426631808, -0.0626187474, -0.1624752879, -0.1868390441, -0.0754492655, -0.0543181822, 0.0700184479, -0.0365447029, 0.0629808232, 0.0310798585, -0.0063088457, -0.1698815078, 0.0843020007, -0.0055389600, -0.0139199886, 0.1388877034, -0.1077969670, -0.0633423477, -0.2049892545, -0.1285372376, -0.0310254581, 0.1550648361, 0.1083165780, -0.0687438995, 0.0740777552, -0.0706258714, -0.0123187788, -0.0646610856, 0.0738366023, 0.0285158698, 0.0759869069, 0.2584411502, -0.0131090116, 0.0605860353, 0.0700398386, 0.0769811198, -0.0594057739, 0.1179981902, 0.0901197195, 0.0126118064, -0.0236096531, 0.1045855656, -0.1139169559, -0.0410764441, 0.0758042410, -0.0124288686, 0.0094207991, 0.0087983189, -0.1426798254, -0.0167613178, -0.0386390872, 0.0617800653, 0.0451442860, -0.0082002906, 0.0313755907, -0.0495726503, 0.1180473566, -0.2559252083, 0.0070252731, -0.1118687764, -0.0758131668, -0.0345016196, -0.0796807259, -0.0497761518, -0.0819660649, 0.0182876848, 0.0611024238, 0.0240343772, 0.1004930362, 0.0480040126, -0.0588612594, -0.0650083125, 0.0305303186, 0.0400988087, -0.0634797662, -0.0575733446, 0.1157548353, -0.0602971315, -0.2653256953, 0.0092849918, -0.0687121972, 0.1204264984, -0.0014458837, -0.0362075903, -0.0249058902, 0.0798478723, -0.0120192701, -0.0039433893, -0.0462583490, 0.0720897168, -0.0461204499, 0.1319850385, 0.0667270347, 0.0202478301, 0.0097013656, -0.1217759922, -0.1697939783, -0.0460998751, -0.0655302107, 0.0489794016, -0.0022750718, 0.0781893209, 0.0711717978, -0.0262757447, -0.0271966085, 0.0500561632, 0.0570403561, -0.0676977411, -0.0791015774, -0.0947117060, -0.0731928349, -0.0860266685, 0.0061971061, 0.0095657436, 0.0998676866, 0.0801752135, -0.0801843256, 0.2292391360, 0.1083330438, -0.1028163135, 0.0327147096, 0.2001513839, 0.0123605439, -0.1116548330, -0.1691957265, 0.0576074049, -0.1635086685, -0.1501007825, 0.1667287648, -0.0422430560, 0.2708074152, -0.1121406853, 0.0361508504, 0.2434270233, 0.0099288598, 0.1128058061, 0.0873072147, 0.0607150681, 0.0867533907, -0.0098812217, -0.0588179603, -0.0791514292, -0.1316872537, 0.1003739834, 0.0067717917, -0.0769060850, 0.0474523827, -0.0823512524, -0.1036887318, 0.0246093720, -0.0020069394, -0.1781515777, 0.0920020044, -0.1283292770, -0.0040591373, -0.0846624300, -0.0719023943, 0.1017314270, 0.1929246932, 0.0511382446, 0.1056084931, -0.0019246462, -0.0721192360, -0.1304201335, -0.1121473387, 0.0685173050, 0.0403436571, 0.0413792171, -0.0130230030, 0.1931906343, -0.1036789045, -0.0551099293, -0.0078998683, 0.0416394547, 0.1688095629, -0.1739378572, 0.1214148030, 0.0469055772, -0.0203581285, 0.0575844906, 0.1187822968, 0.1395221353, -0.0218456145, -0.1356297731, 0.1092400551, 0.1065250412, -0.0364396349, 0.0778525323, -0.0042854324, 0.0108512444, -0.0196872801, -0.0705093592, -0.1243726686, -0.0086484142, -0.1457082927, 0.0714562386, -0.1119567230, -0.0098347981, 0.0679808334, -0.2576713562, 0.1761249453, -0.0275129806, 0.0025067923, 0.1897570640, -0.0411433950, -0.0510893352, 0.0241181497, 0.0203024875, 0.2222445011, -0.2439631522, -0.1715300828, -0.1139987558, -0.0553381927, 0.0274338704, 0.0774606690, -0.1153925508, 0.0265915040, -0.2215009481, 0.1096847132, -0.0742155313, 0.0920150802, 0.0654993877, -0.1171126515, -0.2209500521, 0.1027405038, -0.1153530031, 0.0573320240, -0.1377110928, -0.0658815950, -0.0119636152, -0.1034901962, -0.1115126833, -0.1054648235, 0.0319095850, -0.0403599776, -0.1291917562, -0.1333436370, 0.1487421095, 0.0023220305, -0.0679597557, 0.1315422207, 0.0312232524, -0.1220254749, 0.0654583946, 0.1271154881, -0.0605743825, 0.0004957402, -0.1411196738, -0.0107909609, 0.0651833490, 0.0006473365, -0.0348905586, -0.0451563261, -0.0494101308, -0.0984185711, -0.0805393308, -0.0763777196, -0.0592314340, -0.1656319201, -0.0632492080, -0.0201808624, 0.0709128529, 0.1762355268, -0.0478264093, -0.0778384134, -0.0910129175, 0.0247586221, -0.0849491209, 0.0975893065, -0.1805556267, 0.0748276934, 0.0997229293, -0.0569767915, 0.0975898653, 0.0766893029, 0.1321881711, 0.0310336892, -0.0914565921, 0.1001757830, -0.0202928782, -0.1015444845, 0.0125293694, -0.0586282201, 0.1601761431, 0.0627839416, 0.1939278096, 0.0123713668, 0.1404650360, -0.0473016463, 0.0069167088, 0.0002858213, -0.0383003429, 0.0283722412, 0.2057177275, 0.1022678986, 0.1191410422, 0.0458626524, 0.0022884484, -0.1192190200, -0.0067290138, -0.0135821691, -0.0541765802, 0.0255587045, 0.0724380538, -0.0196956228, 0.0226629358, -0.2179272175, 0.0879358500, -0.2461646348, -0.0173210166, -0.0926817060, -0.0379552953, -0.2579587996, -0.1730474532, 0.0306659732, 0.1007751003, 0.0241236016, -0.4299441874, 0.2157323360, -0.0497806780, -0.0567707792, -0.1181183085, -0.0721341446, 0.0283860955, -0.0799859017, -0.0674418807, 0.1750060022, 0.0890546963, 0.0860049054, -0.2181990445, -0.0172440615, -0.0435258709, 0.0995037556, 0.0053638667, 0.1374706477, -0.1286219507, 0.0193724483, -0.0935052708, -0.0852366090, 0.0029437030, -0.3518189490, 0.0605878085, -0.1292070001, -0.0361980051, -0.0519678555, -0.1908098459, -0.0317610987, -0.1594209820, -0.1085647270, -0.2140868157, -0.1618574262, -0.0674811155, 0.0314131565, -0.0252305344, 0.0672831014, 0.1491030902, 0.0766480491, -0.1188024357, -0.0378645249, 0.0727031603, -0.0298430640, 0.1076256037, -0.1356292665, -0.4027550220, 0.0492910594, 0.1364020705, 0.1158662587, 0.0087693464, -0.0484041087, 0.1525767595, -0.0401717052, 0.0737118497, -0.0007163979, 0.0227054488, 0.0587334670, -0.0339518711, 0.1433597356, -0.1316722184, -0.0545424558, 0.1460243613, 0.0979807675, -0.1973681599, -0.0645116493, 0.1548076421, -0.1410122216, 0.1471139938, 0.1005056277, -0.1436419636, 0.0136891771, -0.0200698413, 0.0379215516, 0.1503584832, -0.1379226595, 0.0178838298, 0.0462057516, -0.0559779666, 0.0528042093, -0.2151304334, -0.0611904040, -0.0584296584, 0.1270596087, 0.0694543198, -0.1017505005, 0.0842097551, -0.1335221380, 0.0851997063, -0.0793071389, -0.0124384239, -0.1325967014, 0.1928882003, -0.0466215648, -0.0060680485, -0.0373231880, -0.1989631057, 0.2954790294, 0.0303433891, -0.0650937185, -0.0437059626, -0.0813094154, 0.4491535425, 0.0777741298, -0.0750710666, 0.0761942565, 0.1892970800, -0.0883702487, 0.1063157171, 0.0285370629, -0.2512436211, 0.0602202788, -0.1123280227, -0.1429492682, 0.0071544116, 0.0696345791, -0.1250794232, 0.1485371888, -0.0552575961, -0.0683842227, 0.1327489465, -0.1748991907, -0.1252633780, 0.1846380979, -0.1543247253, -0.1271485984, -0.0023035572, -0.0477086417, -0.0761416405, -0.2014928162, -0.1213803664, -0.0594748482, 0.0773807243, -0.0709789395, 0.1767786741, -0.0032493584, -0.0833353177, -0.0115315560, 0.0989532247, 0.0785468742, -0.1264721751, -0.0813551918, -0.1351063550, -0.0492396429, 0.0951106474, -0.1081555039, -0.0412505791, -0.0280377585, -0.1141211912, 0.2243071795, 0.0712550804, -0.0365640968, -0.0755986944, -0.0695102736, -0.0956744477, 0.0557101257, 0.0828246698, -0.0159535073, -0.0737043098, -0.1315909177, -0.0140629802, 0.2115040421, 0.2515436411, -0.0887347683, 0.0228777714, -0.0298765153, -0.0955461711, -0.0917713419, -0.0799010545, -0.0303197168, 0.1224594563, 0.1402401179, 0.0280093960, 0.2077934444, 0.2562469542, -0.1550186276, -0.0883469731, -0.1852111071, 0.1469463110, -0.1034097373, -0.0586415865, 0.0013133974, 0.0215147268, 0.0020899996, 0.0819279477, 0.0268042833, -0.0456016101, -0.0378559045, 0.0677971095, -0.0286489930, 0.1194466352, -0.0895936191, 0.0587715879, 0.1193122193, 0.0224474743, 0.2416105270, -0.0987963080, -0.1671800017, -0.1440428644, -0.0089019807, 0.0159770139, 0.0529633872, -0.0499881394, 0.0125258919, 0.0154492613, 0.0776418447, -0.0261030067, -0.0576703139, 0.0518965498, 0.0326943696, 0.0443318412, -0.0332791358, 0.0726842880, 0.1089707538, 0.1072656736, 0.0501642786, -0.1588739455, 0.1137798354, 0.0804321542, 0.0652911291, 0.0765338466, 0.0267489515, 0.0930887610, -0.0589575171, -0.0526050888, -0.0460118949, 0.0832652301, -0.0264413264, 0.0222834591, 0.0780323893, 0.0376268849, -0.0411762781, 0.0534382872, -0.0962802097, 0.1849707663, 0.0370023921, 0.1090983376, 0.0896165892, 0.0155706536, -0.1479457468, -0.0947578698, 0.1255204678, 0.1255118996, -0.0674620569, -0.1197723970, -0.0026343130, -0.0207802523, -0.1506075710, -0.1575118154, -0.0998861566, -0.0662232637, -0.4129603803, 0.1024373546, 0.3312793970, -0.0922886655, 0.0878997520, 0.1064140424, 0.1121421382, 0.0232610255, -0.2457272112, 0.0542137213, -0.0745050535, -0.1942890882, -0.1280753762, 0.1202768013, 0.1538966447, -0.1726113409, 0.1054001823, 0.1382480562, 0.0988729075, 0.1517708451, 0.0499063507, -0.1708079576, -0.1366439164, -0.1496501267, -0.1036269218, 0.0451703183, -0.0126236230, -0.0382328220, -0.1614422947, 0.0383635312, 0.1292827576, -0.0180050209, 0.0616372265, -0.2139908969, 0.0245578513, -0.0015153789, 0.0842034146, -0.1246810555, -0.0458758809, 0.1350251436, -0.0614077896, 0.1256844848, 0.0821514726, 0.1294620186, -0.0389463305, 0.0214190166, -0.0217040721, 0.0257272907, 0.0493846759, -0.0839437693, -0.1784697473, 0.0687935874, -0.0156010082, -0.1218396947, 0.0660413057, -0.2432311326, 0.0426769108, 0.1819231659, 0.1223746762, 0.2072889656, 0.0354238860, -0.0510650501, -0.0850691423, 0.0193950739, -0.0274238046, -0.0455581769, 0.0391944535, -0.0214684717, 0.2076241076, -0.1172136366, 0.0166860987, 0.0384913236, -0.2360450327, -0.0420576446, -0.0421185493, 0.0514520146, -0.0091250055, -0.1023343876, -0.3226477504, -0.0616507530, 0.0680383518, 0.1263936758, -0.0871950686, -0.1216665283, 0.0840853155, -0.0631319135, -0.1491477340, 0.1251178086, 0.0374843404, -0.0183809698, -0.0477449298, -0.2297311872, -0.0407248810, 0.3735818267, -0.0590545312, -0.0939258412, -0.1102436930, 0.1832224727, 0.0906111673, -0.0303087495, 0.1453658193, 0.1083114594, -0.0498877577, 0.1976690292, -0.0615570620, -0.2432590574, -0.0838233903, 0.0229723398, -0.0056435019, 0.0761078075, -0.0705730394, 0.0831243694, -0.1107000783, -0.0535528921, 0.0024045452, -0.0432365201, -0.0993149877, -0.1490885019, -0.0429132693, 0.2065969408, 0.1379832476, -0.0342983939, 0.0984951332, -0.0448222198, 0.0618220493, -0.0166706480, -0.0086650811, 0.0635339171, -0.0890420452, 0.1152740344, 0.1105978861, 0.1512201279, -0.0841638297, -0.0754286274, 0.0935930908, -0.1829388589, 0.0850881711, -0.1303598583, -0.0051431865, 0.3708493412, 0.1408997178, -0.2525879145, 0.1365105659, 0.1991237253, 0.0112104462, 0.0506428964, -0.0637635514, -0.1024716944, -0.1759495735, -0.0094071031, 0.2427285612, 0.0234991368, -0.1810702533, -0.0186862126, -0.2032740265, -0.0280308388, 0.1402473450, 0.1913710684, -0.1201553494, 0.0368605070, -0.0715045780, 0.0671658739, 0.1570656449, -0.1087232381, -0.0075239660, -0.0444541387, 0.1289907843, -0.0528403185, 0.1977733523, -0.1974034011, -0.1664662957, -0.0219253078, -0.0690654367, 0.0012118671, -0.0299475919, 0.1077901423, -0.1232102960, 0.1266638190, 0.0669712201, 0.0654915646, -0.0124562075, -0.0380584598, 0.0249761194, -0.1194273978, 0.0574529767, -0.0964647830, 0.0088233901, 0.0843867585, -0.0408500731, -0.0386266150, 0.0676599592, -0.1227340102, 0.0067269686, 0.0540174656, -0.1667507291, -0.1283489764, -0.0280912388, 0.0612316988, 0.0976836756, 0.0135452747, 0.0556612723, -0.2128365040, -0.0971107557, 0.1437929720, -0.0083575100, -0.0923693180, 0.1190148816, 0.0327622667, -0.1070103943, -0.0784091353, 0.0703838989, -0.1229771525, 0.1132905036, 0.1332880110, 0.1101195142, 0.0159637872, -0.1557727307, -0.0978656039, 0.1221027151, -0.0059233466, -0.0398629718, 0.0927088633, 0.1043437198, 0.0142617887, 0.0070373788, -0.0230233166, -0.1573908180, 0.0230449121, -0.0674968809, -0.0498862378, -0.0411674939, 0.0307084955, -0.0807257220, -0.0249461234, 0.2345744818, 0.0530701429, -0.0831424221, -0.0734203160, -0.1132052541, 0.0208105333, -0.0141091058, -0.0892943814, 0.0572720282, -0.0564970337, 0.0929782242, -0.1617293060, 0.0148918591, -0.2909798622, -0.0552939400, -0.1753179431, -0.1627814025, 0.1403347850, -0.0729368180, 0.1625892371, -0.0448068604, -0.0176814310, -0.1797203273, 0.0070486949, -0.0146831144, -0.0761876777, -0.0057342411, 0.0806094706, 0.1766732484, -0.1125802100, 0.1016399413, 0.0265342407, -0.2842971087, 0.0497637503, -0.0134977512, -0.1042421237, -0.0600400679, -0.1811038852, -0.1011765897, -0.2295712680, -0.1564534754, -0.0598407239, -0.0697737187, -0.2456061840, -0.0267028436, 0.0374360159, 0.0011680772, -0.0592156611, 0.1143209264, 0.1891464591, -0.0865035653, -0.0098610893, -0.0590409115, -0.1348484308, -0.0518942662, 0.0571355037, 0.0237279627, 0.0193092935, -0.0065067983, -0.1024346203, 0.0782638043, -0.3439158499, -0.0162672214, 0.0993935838, -0.1464454085, -0.1582671106, 0.0626967251, 0.0065709492, 0.0870957151, -0.0508834161, -0.0015000500, 0.0855635852, 0.1054228544, 0.0044339020, 0.0599077269, -0.0714096949, -0.0659882054, -0.0243513919, -0.1822563857, -0.0314173214, -0.1223677546, 0.0498358868, 0.0771743879, 0.0306303594, -0.0323276930, 0.0377882197, -0.0006060817, 0.0174128190, 0.0419613682, -0.0201368388, -0.1187844351, 0.2536080778, -0.1715869159, -0.0974931270, -0.0109434966, 0.2701730728, -0.3923634291, 0.2220600843, 0.0154294791, -0.1285688281, 0.0962509662, -0.0284726284, -0.0190753173, -0.2645617723, 0.0722480938, 0.2136868685, 0.0156616550, -0.0582090542, -0.0461522788, 0.0131923016, -0.0732007995, -0.2065712214, -0.1739445031, 0.0426368043, -0.3053765595, -0.0936080813, -0.0284267180, -0.0243873037, 0.0790318251, -0.0332151875, -0.0853496492, -0.0046328055, -0.0261436030, -0.0421089269, 0.0434085019, -0.0003714172, 0.1072617099, 0.0302352719, -0.0164427869, 0.0575930253, 0.1036504582, -0.1326689422, 0.0113763716, -0.0928298980, 0.0204909462, -0.0272201896, -0.0693751872, -0.1477102041, -0.0790190399, 0.0059534754, -0.0851858854, -0.0051683262, -0.0342972688, 0.0428973250, -0.1981081814, -0.0962973386, -0.0813870654, -0.0529278107, 0.1115024164, 0.1324298829, -0.0390807949, 0.0789486021, -0.2227093279, 0.2260536700, 0.0296455864, -0.2233721912, 0.2953473032, -0.0483969040, -0.0878164172, 0.0393892489, -0.2156101018, -0.0804738700, 0.0228733458, -0.0508595854, -0.1775932163, 0.0235930327, -0.1409887224, -0.0478380695, -0.0687336177, 0.1061820686, 0.2560760677, 0.0506455749, 0.1971982569, -0.2280150056, -0.0149229299, 0.0617323443, 0.2117133290, -0.1155963689, -0.2510479987, -0.0786245242, 0.0814401209, 0.0031109517, 0.0305237025, 0.0565691292, 0.0293877963, -0.0412466154, 0.0535378680, 0.0650969222, 0.0908183530, 0.0749143660, 0.0758679435, -0.0731130838, -0.0163054746, -0.1425663233, 0.0250376947, 0.0728183910, 0.0254189074, -0.0368389376, 0.1581935883, -0.0416254587, 0.0875188634, 0.0339870155, -0.0365171731, 0.1665818393, 0.0740529448, 0.3387162387, 0.1214752346, 0.0436258540, -0.0794317126, -0.0052235536, -0.1140362844, -0.0380317718, 0.0940667689, -0.0365362540, -0.0677741840, -0.1261387616, -0.1376366913, -0.0266091377, 0.1328626275, 0.1933163702, -0.1999868602, -0.2527451515, -0.0763127953, 0.0481449626, 0.0838897899, 0.1614813805, 0.0259173848, -0.1400268227, -0.0804094374, -0.2582127452, 0.0868757889, -0.0187926255, -0.0878972784, -0.1269356310, 0.0818052143, -0.1084305868, -0.1646943688, -0.0622133426, -0.0924393833, 0.0817177892, 0.1834820211, -0.0931007192, 0.0528325140, 0.1262309700, 0.0781418383, 0.0141230421, 0.1720847636, 0.0099304970, -0.1264399886, -0.0881029218, 0.0334952846, 0.0220596530, 0.0767002255, -0.0336017795, -0.0306748580, -0.0215211306, -0.0298756454, -0.0464644320, 0.1585059315, 0.0447805636, -0.1533074230, -0.0400346108, 0.0776296780, -0.0626740605, 0.0065376614, -0.0079571018, 0.0264418963, -0.1075878665, -0.0765829310, 0.0638957694, 0.1745511293, -0.1144546494, 0.0756905898, 0.0219588708, -0.0401407219, 0.0256524161, -0.1069791317, -0.0718595013, -0.0320574008, 0.2331462204, -0.0106106550, -0.0373519883, 0.1552688032, -0.0034905551, -0.2254112065, -0.1600371152, 0.0445235260, -0.0736190975, -0.0488297790, 0.2064290494, -0.0569430925, 0.0320696235, 0.0186188277, 0.0324981585, 0.0033874374, -0.0450848229, 0.0394024886, 0.0579934753, -0.0007731147, 0.0932556242, 0.1065635309, 0.1402108073, 0.0007564693, -0.0451223478, -0.1331237406, 0.1120591164, 0.0283057746, 0.0643540323, -0.0000023899, -0.1831179857, 0.1574314982, -0.0614738241, 0.1095860004, -0.0773022771, 0.0265713483, 0.0231965892, 0.3369452953, -0.0461528264, 0.0030943328, -0.1488532871, -0.0247063730, -0.0115513708, -0.1088596135, 0.0864790678, -0.0216676611, 0.0619824417, 0.0107874675, 0.0568866841, -0.1015535370, 0.2595403194, -0.0223226361, -0.0856961980, 0.0484879613, -0.0020598939, -0.0338951051, -0.2552130222, -0.0047675869, -0.0073608551, -0.0692446679, -0.1496036351, -0.1196622401, -0.1010839343, -0.1537856311, -0.1636580676, -0.0197574142, -0.0398983620, -0.0569568239, 0.1019047126, -0.0249253828, -0.0848763809, 0.1273514777, -0.0797193870, -0.1411573440, 0.0422953665, -0.0466114171, 0.0002990895, 0.1143267900, 0.1437523812, -0.0246633179, -0.0433235690, -0.0193979647, -0.0283336360, 0.1562821567, -0.0084729940, 0.0079874219, 0.0364540443, -0.0480148047, 0.0758622810, -0.0102640716, -0.0440343693, -0.0245296676, 0.2012548596, 0.0373149291, 0.0229652040, 0.0838288739, -0.0171361119, -0.0420032702, -0.0705040917, -0.1046323553, 0.1804934144, -0.0223900191, 0.1773203462, -0.0171901081, -0.0301848184, 0.0922926143, 0.0668607205, -0.0280810203, 0.1082702726, 0.0078160539, 0.1511246562, 0.0579378791, 0.0541731715, 0.0816079825, 0.3100968301, -0.0185212810, -0.1044588834, 0.0045432304, 0.0517649688, -0.0842867494, -0.1188156009, 0.1398136616, 0.0943931043, 0.1132706329, -0.0955739990, 0.0822195485, 0.0104690082, 0.2573407292, -0.1511005014, -0.0372504480, 0.0304497890, -0.0443997011, 0.0748089552, 0.0665246472, -0.0675640032, -0.0928459838, -0.0304740667, 0.0045411335, 0.2027730495, -0.0204022042, -0.0771922767, -0.0783307701, -0.0927421004, -0.1226446182, 0.1746088415, -0.0639274195, -0.0190369673, -0.0128063681, -0.1794427037, -0.1934020817, -0.0100685880, 0.0437162928, -0.0652184859, -0.0840497166, -0.1178360805, -0.0053820764, 0.0151534434, -0.0687849149, -0.0077879406, -0.1713865548, -0.0207259394, -0.1090757102, -0.0030354706, -0.0654648691, -0.0492411591, 0.0089902524, 0.0159736946, 0.0123240976, 0.0023818824, 0.0910597295, -0.1273976266, -0.0084145209, -0.0085595176, 0.0537481382, -0.1027585492, -0.0656481087, -0.0164197795, 0.0132941678, -0.1669256240, 0.1385569870, -0.1849893481, -0.1243725047, -0.0293922201, 0.1059118211, 0.0297505315, -0.0023676592, 0.0487747490, 0.0486106649, 0.1519129872, 0.0033981113, 0.0175120719, -0.1475802809, 0.0502943955, 0.1871859282, -0.1470981985, 0.0840022713, 0.1538848132, 0.1918491870, -0.1174750552, 0.0025985257, -0.1887265146, 0.1431783736, 0.0498527512, 0.0532587357, 0.0286731925, -0.1271871924, 0.0180621669, 0.0046087592, 0.0092550386, 0.0023724686, 0.1482670158, -0.1389443278, -0.1070895344, 0.0589002445, 0.0157422777, 0.1438281983, -0.0381448604, -0.2036467642, -0.0102266837, -0.0066969017, 0.0590783469, 0.0813978091, -0.0334412567, 0.0446082950, -0.2052042484, -0.0058461479, 0.1259606481, -0.0077611962, -0.1466526985, 0.0603321791, -0.0124613140, -0.0642813966, -0.0118682804, -0.1846444458, -0.0031341542, 0.0129304845, -0.0285707396, -0.0118138036, 0.0215473510, -0.0110610286, 0.1819821000, -0.0445229635, 0.2313454002, 0.0536333807, -0.1448547393, 0.0998900011, -0.0644208640, 0.2685339749, -0.0166147742, 0.0267397165, -0.0135528976, 0.0057569058, 0.1155218929, -0.0977357328, -0.0205525998, -0.1045300514, 0.1973901540, -0.0034702031, -0.0622243956, 0.0592098869, 0.0831085593, -0.0115666101, 0.0089136092, 0.0593669266, -0.0012830894, 0.0883944929, -0.0720276609, -0.0386609733, 0.0919645205, -0.1263523400, -0.1430582255, -0.1342697591, 0.1057853177, 0.0497604087, 0.0392497107, 0.0736058205, -0.0432573296, -0.0780113488, 0.0399803780, 0.0126653966, 0.0119367568, -0.0787673816, 0.0201207679, -0.0232172832, 0.0010621492, 0.0745691881, -0.0329756476, -0.0332234725, -0.0268815253, 0.0595613047, -0.0116601214, 0.0642413199, -0.0269655678, 0.0333775468, -0.1593321711, 0.0086622071, -0.1154156923, -0.1085058600, 0.0873118639, 0.0327000804, 0.0191636644, 0.0469013341, 0.1136332154, 0.0472700372, -0.0089819338, 0.0257331282, -0.0216232799, -0.0938426256, -0.0429964103, 0.0531342290, 0.0615269803, -0.0242832191, 0.1457901150, 0.0085547958, 0.0421515070, 0.0394781604, 0.0732050464, 0.1206494793, -0.0969033241, 0.1186514273, 0.0440867580, -0.0179475490, -0.2421815544, -0.0216412172, 0.0594247691, -0.0592851341, -0.0065261088, -0.1398001164, -0.0239532180, 0.0824166313, 0.0796900913, 0.0934678838, 0.0277110804, -0.0391268730, 0.0114912996, 0.0193218645, -0.0922136977, 0.0640533790, -0.1120437682, 0.0172801595, -0.0753761008, -0.0155553157, 0.0701848641, -0.0175959282, 0.0218409467, -0.0137777561, 0.0340825282, 0.0331762396, -0.0335775241, 0.0647556186, -0.0780764818, -0.1085105762, -0.0237427931, -0.0116177145, 0.1962698102, -0.1697833538, 0.0301786941, -0.1790252626, 0.1019711122, 0.0190663934, -0.0418331251, -0.0652600676, 0.0371011347, 0.0298449639, 0.1103684381, 0.0583430380, -0.0376097858, 0.0686205104, -0.0969917253, 0.1080942452, -0.0669018328, -0.0338268727, -0.0703170002, -0.0247415360, -0.0215859413, -0.0849512964, 0.0256996732, -0.0851215348, 0.0806302056, -0.1203535274, -0.0677542612, 0.0375359692, -0.0223383717, 0.2019732147, -0.2210298032, 0.2608634233, 0.0716213956, -0.1515694410, -0.1195986569, 0.0858757794, 0.0547362268, -0.2227476835, 0.0084789526, -0.0018907654, -0.1205780879, -0.0294607338, 0.0428481996, 0.1278487593, -0.0632394776, 0.0952159166, -0.2380542457, 0.0160698034, -0.1585330516, -0.0190996397, 0.0494356863, -0.0697226077, 0.1258434206, 0.0771898255, 0.1316192448, 0.0200460721, 0.2196006477, -0.1518936604, -0.0361361988, 0.0035193197, -0.0141898310, -0.1496509165, 0.0995930955, -0.0582840778, 0.0470060222, -0.0766240433, -0.1641373187, -0.1850585490, -0.0344246142, 0.0004888058, 0.0189029574, -0.0047202874, 0.0336246826, 0.0215664469, -0.0154259391, 0.0417779051, -0.0981530398, -0.0605097748, -0.1662437022, -0.1986332387, 0.0413995460, 0.1544980556, 0.0005747766, -0.1267701238, -0.0842571855, 0.0697457492, -0.0903200060, -0.0495642833, -0.1141169891, -0.0433566533, 0.0566778071, 0.2331136614, -0.0066341166, -0.0245364644, -0.0325111263, 0.0288876984, -0.0837477222, 0.0880861729, 0.0829415023, -0.0173323061, -0.0763764083, 0.2673962116, -0.1118801162, -0.0727703944, 0.0056556053, 0.0163302291, 0.1360454559, 0.1409664452, 0.0397147350, -0.0276161656, -0.1024933606, 0.0925920010, -0.0983496830, 0.0239399057, 0.0088993609, 0.0384495594, -0.0964621976, -0.0052118725, -0.0639317930, 0.1981210262, 0.0129203284, 0.0777790397, -0.0031242387, 0.1164927930, 0.0579147711, -0.1413110048, -0.0408917516, -0.1092248484, 0.2151246220, -0.0660019368, 0.1779357940, 0.0506877601, -0.0407015979, -0.0519266017, -0.0301271640, -0.0144042792, 0.0578545555, -0.0201620664, 0.0118388822, 0.0017977381, 0.0770767927, 0.0728893727, 0.0260870587, -0.1059151962, 0.0404219292, -0.0968029052, 0.0196820162, -0.0978785977, 0.1925945133, -0.0531859547, -0.0606469512, -0.0887549371, 0.0514645539, -0.1882199347, 0.0340552106, 0.0786812156, -0.0509835184, 0.1565251350, -0.2349108309, 0.0634817332, 0.1609465480, -0.1279758811, 0.1238235012, -0.0709527433, 0.0512257479, -0.3112847805, -0.1174495816, 0.0367526375, -0.3097904623, -0.0979436859, -0.0939846262, 0.1334028989, -0.2947624028, 0.1401027739, 0.1048499271, 0.0056211841, -0.0647948682, -0.0215168837, -0.2869502902, 0.0709085688, 0.0199231319, 0.0091516394, 0.2678429782, 0.1031705663, -0.0636129901, -0.1321917623, 0.0510847829, -0.0869723782, -0.0214156136, -0.1273809671, 0.1826630980, 0.0815603584, -0.1189713851, -0.0437192768, -0.2093358189, 0.0988005176, -0.0987115577, -0.0359738879, 0.1411598921, -0.0206023399, -0.0729517117, 0.0019648622, 0.0149830850, -0.1327026337, -0.1710690707, -0.1484912932, -0.0083074318, -0.0657926053, -0.1847447306, -0.1012536734, 0.0622250997, -0.0369735919, 0.0944828764, -0.1065554917, 0.1132214591, 0.0607904717, 0.0983408317, -0.1071124524, 0.0453610308, -0.0036034451, 0.0384507999, 0.0799627230, 0.0211018585, -0.0655049980, 0.0625547245, 0.1651103348, 0.2288452685, -0.0145063456, 0.0318182334, -0.0854920447, -0.0644393787, -0.1446390599, -0.1900469214, 0.0372273214, 0.0841834769, 0.0096990671, -0.1049518958, 0.0343484543, 0.0338939279, 0.1182427928, -0.0226288103, 0.0726904571, -0.1484310031, -0.2809105217, 0.0042042234, -0.0196394380, 0.0565472096, -0.1371845603, 0.1387149841, -0.1745443046, -0.0174426250, -0.0363511220, -0.1841020584, 0.0292896386, -0.1665776521, 0.0175283123, 0.1605590284, 0.0951336846, -0.2214304507, -0.1563177258, -0.0708036944, 0.0744886100, -0.0158197843, 0.0219708923, -0.0382879078, 0.0156316031, 0.0233746860, 0.0086616678, 0.0048672827, -0.1037335545, -0.0507853515, -0.0873310119, 0.0793184265, 0.1572135687, -0.2020453513, -0.1461466253, 0.0038403175, -0.0473147817, -0.0775412768, -0.1710341126, 0.0032763835, 0.1155336127, 0.0806927010, -0.1927782446, -0.1041663885, -0.1188939139, 0.0808673948, -0.0532286540, -0.1767019778, 0.0786838084, -0.0322249457, -0.0562618710, -0.1400690973, -0.0279895589, 0.0195228811, -0.0269058384, 0.1874636710, 0.0650559887, -0.0139349075, -0.1955356598, 0.0629542992, 0.0469595492, -0.0137074497, 0.0791769177, -0.0714090243, -0.1328516603, 0.1229947656, 0.0332560912, -0.0607034713, 0.0827154145, -0.0066026603, -0.0318753161, 0.0630328134, -0.0256941747, -0.0585571900, 0.0072157611, 0.0492372811, -0.0352059044, -0.0550892726, 0.0980882719, -0.1310424358, -0.0413515344, -0.0360589214, -0.1103563830, -0.0704843551, 0.1572315395, -0.0039788689, -0.1370838434, 0.1140553281, -0.1289518625, -0.1181174964, -0.0499925911, 0.1316670775, -0.1250012070, 0.0889686495, 0.0652628541, -0.0894123092, 0.0148574840, -0.0005511090, -0.1105094030, -0.0825155750, 0.0613962337, -0.0557978638, -0.0695816204, -0.0149604706, -0.0129480707, -0.1818172187, -0.1737023294, 0.0530165769, -0.1401180774, -0.3410086632, 0.1028673500, 0.0164261945, 0.0410334542, -0.0221532080, -0.0122882482, 0.2276244760, 0.0771786794, -0.2564086914, 0.1047862694, 0.0927817971, -0.0379817113, -0.1687170714, 0.0205388293, -0.0181847904, 0.2026951760, -0.0913005620, -0.0752590522, 0.0344447084, 0.1778806597, 0.0012289014, -0.1370351464, 0.0105233323, -0.2152383029, 0.1210235059, -0.0018850169, -0.0133412033, -0.2860186994, -0.1147981137, 0.1197814271, 0.0651570186, 0.0293457787, 0.0724375919, 0.1099898145, -0.0673449785, -0.0710521340, -0.2430943400, 0.1433980316, -0.0915738121, -0.0357615091, 0.0511728786, 0.1308866888, -0.1113566756, 0.0587010831, 0.1238800213, 0.1438206732, 0.0871827304, 0.0320371240, 0.1342264265, 0.0715740621, 0.1158993617, -0.1044931933, 0.0869274139, -0.2398884594, -0.1808073819, 0.0574728921, 0.0595725477, 0.0975481868, -0.1389745921, 0.0132798022, -0.1718672961, -0.1445531845, -0.0687366650, -0.0369473957, -0.0691571236, 0.0028591382, -0.1112502217, -0.0548681840, 0.2010158598, -0.0303349067, -0.0397550017, 0.0896970183, 0.0644277558, -0.0785640255, 0.1859350502, 0.2060637921, -0.0375679806, -0.0803062096, 0.2434534580, -0.1485734433, 0.1175778583, 0.0343620256, -0.0215451177, -0.0685209483, -0.0198380891, -0.0066093788, -0.0434349291, -0.0222140476, -0.0517051481, -0.0350796208, 0.0603057742, 0.0480675101, -0.0677085370, 0.0106757144, 0.0360911898, -0.0759732798, 0.1432132423, -0.0236587748, 0.0240142345, -0.0249500889, 0.0910336450, -0.0748357177, -0.0168042853, -0.0942305848, 0.0858790204, -0.1264007092, -0.0320713185, 0.0736629516, 0.0353594236, -0.0389817022, 0.2249846905, 0.0848904327, 0.2177094072, 0.1306981146, 0.0190938078, -0.0639505759, -0.1019594520, -0.0510067008, -0.0330585837, -0.0580653474, -0.1795468479, 0.1093144119, -0.0581122711, -0.0095171034, 0.0768197551, -0.1005885899, 0.0036611999, -0.3380890787, -0.0133626265, -0.1985830963, 0.0238712635, 0.0809723735, 0.0496995188, -0.1826946586, -0.0339875259, -0.0289215129, -0.0336681753, 0.1360491663, 0.0821617320, 0.0400609970, -0.0818862990, -0.1353128552, 0.2779547870, 0.0191852674, -0.1199852154, 0.0133130224, 0.0872827619, -0.1108537167, 0.0288904216, -0.1657732576, -0.0020027892, -0.0160335340, 0.0923509151, -0.1138085201, 0.1073410213, 0.0410617292, -0.0373086631, 0.0555878542, -0.1594512016, -0.1107356176, -0.0068439352, -0.0533984303, 0.1150818765, 0.0393571518, 0.0135919014, 0.0578925759, -0.0966006145, 0.0741919577, 0.0089865811, -0.0160332173, -0.1107245609, -0.0588325672, 0.0012138255, 0.2113208175, 0.0292375553, 0.0353241116, 0.0382284708, -0.0641379356, -0.1700066626, 0.0224316660, -0.1156862304, 0.0591498315, -0.0997537896, 0.3227004111, 0.1584319472, -0.1147862822, -0.1835732460, -0.0103469053, 0.1111930683, 0.1547951549, 0.0301603768, -0.4993945956, 0.0155711267, -0.2251395136, -0.0989894271, -0.0282516200, 0.0133984033, 0.0910641626, 0.2805652320, -0.1619761884, 0.0393776447, 0.0248297509, -0.0428436771, -0.0426169373, -0.0209085643, -0.0263306405, -0.0063417787, 0.1992179900, -0.0389674455, -0.0746151060, 0.0286095329, -0.0983211696, -0.0356479026, 0.1788103431, 0.1273474395, 0.0718449801, -0.1233493760, 0.1578511745, -0.2311583161, -0.0756395832, -0.0702182800, -0.0352967195, 0.1296011060, 0.0434618741, -0.1391471475, -0.0901150256, 0.0636277422, -0.0777776465, -0.0648828894, -0.0255988520, -0.1435399055, -0.0368682332, -0.0687602609, 0.1245582700, -0.1881890595, -0.0548828393, -0.0067224922, -0.0395204313, 0.3001212180, 0.0322300047, -0.0891996548, -0.0424379334, -0.2164754272, 0.0214636121, 0.1193517596, 0.0187268574, -0.2233624160, -0.0916949287, -0.0394101180, 0.0134901144, 0.1467032880, 0.0163469389, 0.0094427448, 0.2001612037, 0.0594189167, 0.0665697232, 0.0823402032, -0.0158638302, -0.1594165415, -0.1125152931, 0.0335798599, -0.0616174452, 0.1827706397, 0.1513220221, 0.0686781555, 0.0756104589, -0.3909406364, 0.1229667813, -0.1146502122, -0.1033717170, -0.2088761628, 0.0722865537, -0.0563291907, 0.0713723972, -0.0174045973, 0.0676142797, 0.1388972700, 0.0543777086, 0.1078941971, -0.1442823857, -0.0055762613, -0.0761352256, 0.0509592369, -0.1131257191, 0.0689850897, 0.1761410683, 0.0417370461, 0.0701632649, 0.0460955091, 0.0970042273, 0.0256753340, -0.0013846876, -0.2465520501, 0.0012855933, 0.2469754517, 0.0647431388, 0.0796008259, -0.0833383352, -0.0297235325, -0.0775621235, -0.0781572387, 0.0497671925, -0.0062350663, 0.1005861610, 0.1696654558, -0.0333355255, 0.0335241929, 0.1449410766, 0.1460752785, -0.0657393634, 0.0343023799, 0.0029804124, 0.0796329826, 0.0654597580, 0.1041611955, 0.0296024308, -0.1323240548, 0.0332945958, 0.0031919435, 0.3618002236, -0.0580652766, 0.1119783595, -0.0650625527, 0.1334751844, 0.0946429893, 0.1176135540, 0.0536787212, -0.0325947292, 0.1467254758, 0.1082000881, -0.0142413359, 0.1987595558, 0.1747826636, -0.0628993288, -0.0069945129, 0.0694495142, -0.0104915807, 0.0417199843, -0.1523002088, -0.0231495127, 0.0661416948, -0.0353995971, 0.0009395020, 0.0823005661, 0.0946056023, 0.0850083902, -0.1126948372, -0.0834626779, 0.1321222186, 0.1239360347, -0.1438873261, -0.1069508642, 0.0165356752, 0.0063445563, 0.1258309335, -0.0220690854, -0.0562022477, 0.0490659587, -0.0337933078, -0.1591073126, 0.0345003195, -0.0764893740, -0.0589272603, -0.1181794032, -0.0425046533, 0.1857820451, 0.0178709067, 0.0707600713, 0.0472528189, 0.0619848929, -0.1099879965, 0.0794382691, -0.1047019064, 0.0118846940, 0.0004060286, 0.0324140973, -0.0540447459, 0.1619540155, -0.0112406434, -0.0846687257, -0.0148018869, 0.1644472480, -0.0229290184, 0.0291877873, 0.0187892076, -0.1032669321, -0.1515254080, -0.4283175766, 0.1216677949, -0.1601285189, 0.0189819038, 0.3103491366, 0.1189634800, 0.1038793698, -0.1712420732, 0.0902999416, -0.1477448642, 0.0556529686, -0.1933424920, 0.0405809619, -0.1991819441, 0.1889982373, -0.0760318860, -0.0723411590, 0.1102536023, -0.0528589971, -0.1435616910, -0.0281743910, -0.0895745382, 0.0736245587, 0.0313846618, -0.2397969961, 0.0403904654, 0.1218487769, 0.0117614772, 0.2612825930, 0.0168252252, -0.0843823031, -0.0453216918, -0.0214077458, 0.1135706529, -0.0175609626, 0.3982482851, -0.0397163704, 0.0577972606, -0.0577954240, 0.0046221227, -0.0861023590, 0.1877072901, -0.0238753129, -0.2210629880, 0.0090766875, 0.1783985943, -0.1233940348, -0.1704227477, -0.1160729378, 0.0059190793, -0.0536805540, -0.1711442024, -0.1335145086, 0.0597231612, 0.0328631885, 0.0560166836, -0.0086570214, -0.0887817368, -0.0275657717, 0.0186451897, 0.2127196938, 0.2068684697, 0.0336024016, 0.0176913794, -0.2231718600, -0.0632482320, 0.3553375900, 0.1226964295, 0.0058222516, 0.1203825921, 0.0086083198, 0.1413322091, 0.0768886656, -0.0950772613, 0.0902595669, -0.0182740837, -0.0940233693, -0.0882672817, 0.1377398074, 0.0757329091, -0.0331278332, -0.0516576134, -0.0256938227, -0.2256623358, 0.1848769039, 0.0058010053, 0.0590301156, 0.0911494941, -0.0047970456, 0.0193049144, -0.0582600310, -0.0764627680, -0.2182282656, -0.3096137643, 0.0673055053, 0.0100124991, -0.0458425768, 0.1812099963, -0.0885023177, 0.0353237279, -0.0422246866, -0.1717842668, -0.1823599637, -0.0814760998, -0.0538507402, -0.1692512929, -0.0376013853, -0.1628875285, 0.0958456695, 0.1170664206, -0.0652470365, -0.2963793874, -0.0462371074, -0.0185277835, 0.0626742616, 0.1311036497, 0.0326742232, 0.0796572044, -0.0518292375, -0.0182156637, 0.1047833338, -0.1962579489, 0.0085966447, 0.0887078941, 0.1448643655, -0.0292112716, 0.1196302027, -0.1753881872, -0.0975760594, -0.0323604271, -0.0364981629, 0.0179088563, 0.0851635635, 0.0497506075, -0.1889850199, 0.0310573131, 0.2120207697, 0.0107252682, 0.0000940063, -0.0399413817, 0.0716203675, -0.2148993909, 0.2017714083, -0.0351123847, 0.1095399037, -0.0824282542, -0.0324620344, 0.0261382870, -0.0362389348, 0.1442704052, 0.0835811496, 0.0136571098, 0.0743584260, -0.0524662286, 0.1495903432, -0.0159962792, -0.1975779682, -0.0067190183, -0.0224631578, 0.1866355985, -0.0211326797, -0.0535782762, -0.0484578423, 0.1135436222, -0.1290696710, -0.0618241765, -0.1071171686, -0.0788153410, 0.0235185139, 0.1834029704, 0.2631379962, 0.1852369606, 0.0886979252, 0.0382926017, 0.1782959551, -0.0809043869, -0.0709209442, -0.0534872897, 0.0134888729, 0.0759350583, 0.0164931267, 0.1194687337, -0.1538463086, 0.0805292055, -0.1711345911, 0.0133857951, -0.1148937270, -0.1243304014, -0.0541486181, -0.1146083027, 0.0674631894, 0.2327555269, 0.0076293000, -0.2153437585, -0.0140996529, -0.2820286155, -0.0301101282, -0.3095640242, -0.1887019128, -0.0841908455, -0.1454806775, 0.0641177967, 0.1726375818, 0.0249493346, 0.0833352879, 0.0406323969, -0.0613535345, 0.0343825333, 0.0519810207, -0.1785807312, 0.2497223318, -0.0065468317, 0.1390920430, -0.0711252019, -0.1376608610, -0.0617309771, -0.0828470960, 0.1149970964, -0.1229406297, 0.0007955261, -0.0234705489, 0.0078738593, 0.0337692313, -0.1127154008, -0.1528750360, -0.0424446017, 0.0095591098, -0.1035606861, -0.0306176301, 0.1572096944, 0.1242930293, 0.1015682071, 0.0350191109, -0.1802345067, -0.1361067295, -0.0142326076, -0.1264548004, 0.0659959391, -0.2522896528, -0.3208755255, 0.0146968942, 0.0853139609, 0.1037642062, -0.0864179730, 0.1785236299, 0.0019904024, 0.0555115752, 0.1221971214, -0.0169928353, 0.1071632728, 0.0843819827, 0.1336818933, 0.0346567892, -0.0634744912, -0.1920141578, 0.2692860067, 0.1337203532, -0.0367114209, -0.0340160429, -0.0425345972, -0.0319641382, 0.2375598401, 0.0994336531, 0.0679908469, -0.1380457580, 0.0488425270, 0.1229895204, 0.0682717934, 0.1112516671, 0.0482173674, -0.0169954058, -0.0631645769, 0.0005960481, -0.3441148102, -0.0927177444, 0.1102588773, 0.0931131542, -0.0617644452, -0.0698718503, -0.1031968445, -0.1674573421, 0.0859698877, -0.0298732519, 0.0793134496, 0.0766240582, 0.0079907048, -0.0796715394, -0.0139978696, -0.0399069190, -0.2315312773, 0.1987678111, -0.0674649626, -0.1235121861, -0.0257073380, 0.0775132850, 0.1504671127, 0.0749915689, -0.0725208074, 0.0693202317, 0.0909582227, 0.0094064632, -0.0958505422, -0.0886770636, 0.0072628176, -0.0200899336, 0.0227168184, -0.0161347557, -0.2607556581, 0.1415992081, 0.0389908440, 0.1448626518, 0.0857784674, 0.0709385425, -0.0568340011, 0.0040649893, -0.0342016444, 0.0465669185, 0.0930018947, 0.0786217526, -0.0610430129, 0.1496103704, -0.1715286970, 0.1963220090, 0.0476852879, 0.0908852890, 0.2332236916, -0.0325761698, 0.0462389886, -0.0042474214, 0.1448781490, -0.0492164008, -0.0635716841, 0.0971191153, -0.1268320680, 0.0466534272, -0.0616372190, 0.1975307912, 0.3847853243, 0.0041733533, -0.0874082968, 0.0174005777, 0.0525941588, 0.1465030462, 0.0570452996, -0.0236323904, -0.0419821329, -0.0174452998, 0.1217720360, 0.0384764001, -0.0521309189, 0.0230452567, 0.0009384505, -0.0126573406, -0.0188510362, -0.1116655022, 0.3570307791, 0.0972740129, -0.0344926640, 0.0238461960, -0.0076383050, -0.0334554538, 0.0021758147, -0.0156018967, 0.1791195720, 0.0737283826, 0.0467594936, 0.1687930971, 0.0655366927, -0.0794032514, -0.2383338809, -0.1833433062, 0.0230515823, -0.1656322181, -0.0015616806, -0.0789877847, -0.0770904943, 0.0028981746, -0.0480219275, 0.1771726012, 0.1534583718, 0.0410944633, -0.0531628653, 0.0461251065, -0.1255506277, 0.0017246376, 0.0109289056, 0.2096993029, 0.1029877216, -0.0305722002, -0.1616085023, -0.1338320673, -0.0104961293, 0.1147569716, 0.0499320328, 0.0626207888, 0.2661058009, -0.0377838537, -0.1818192154, 0.0636321232, -0.0452583060, -0.0352090150, 0.1603455693, 0.0514596812, 0.0236822050, -0.1640589833, 0.0147800175, 0.1656532139, -0.0133426497, 0.0232896451, -0.0691165701, 0.0819233134, 0.1014099717, -0.0298228003, 0.0779561102, 0.0365071483, -0.0877416208, -0.1003146097, -0.0885316730, -0.1383869648, 0.1092777178, -0.0572779439, 0.0336620025, 0.0063888063, 0.0720194578, 0.0796113759, 0.0393798202, 0.0629192963, 0.1748557687, 0.0346652865, 0.2376674116, 0.0651299208, -0.0941042006, 0.0057424768, -0.0809265897, 0.2198182940, -0.1327460408, -0.0621847920, 0.0327846110, 0.0713772103, 0.0953400284, -0.0941395983, -0.1023354605, -0.0820582435, 0.0240896232, -0.1743867248, -0.3409402072, 0.1559587717, 0.0708787143, -0.1625021249, -0.1082908288, 0.0194159783, 0.1613014489, -0.1462891996, 0.0466487333, 0.0135520259, -0.1548068672, -0.0192945208, 0.0323302485, 0.0414750427, -0.0866061375, -0.0249461476, -0.1081232503, 0.1037745401, 0.0783958510, 0.1054908931, -0.2555941939, -0.1898431033, -0.0336299315, 0.0396107771, 0.1271516383, -0.0678207129, -0.0783269480, -0.0050646863, 0.1116486639, 0.1464554816, -0.0950664282, 0.0951849297, -0.0564544313, 0.0128958188, 0.0257939436, 0.1058957875, -0.3666344881, 0.0030033072, -0.0047634528, -0.1580721140, 0.0072743101, 0.0279148445, 0.0288238619, -0.0458049029, 0.0193976723, 0.0737848878, -0.1642072201, 0.0036032794, 0.0314103290, -0.0467016175, -0.1626035273, -0.2008575648, 0.1030614078, -0.1467990726, 0.0994518921, 0.1487466544, 0.2383115739, 0.0935559869, 0.1369254142, 0.0072328290, -0.0224166717, -0.1389862448, 0.0253627338, 0.0065877903, -0.0705629662, 0.0614774227, -0.0342456177, 0.3656824827, 0.1177658066, -0.2600840032, 0.2340170145, -0.0371453874, 0.0952530429, 0.0888418481, -0.0800437927, -0.0251674168, -0.1111461669, -0.1348895431, -0.0265108999, -0.1148010865, 0.1225715801, 0.0158635080, -0.0503880605, -0.0018522188, 0.1377277076, -0.0735555813, 0.0108557660, 0.0078957081, 0.0812472925, -0.0443971865, -0.0686581358, -0.1601771265, 0.2263775468, -0.0454535633, -0.2015758604, -0.0154577130, -0.1947699636, 0.2074449062, -0.0507967137, -0.0513968840, 0.0134620583, -0.0373537429, -0.0190905891, 0.0406960882, 0.0161361881, -0.1742532104, 0.1292444021, -0.0454339013, 0.1180981994, -0.0177234728, 0.0910889506, -0.0389550328, 0.0568410121, 0.0726439580, -0.2348251343, -0.1772351563, -0.1020174250, 0.1743146926, 0.1240823120, 0.1464808583, 0.0870268866, -0.0234220140, 0.0157341883, -0.0283101257, 0.2466708571, 0.0126123531, 0.0214109123, -0.4243507087, 0.3916037977, 0.0342775807, 0.0287277084, -0.0576816797, 0.0194212068, -0.0377161503, -0.1428084522, 0.1783380508, -0.1157917008, 0.0543795340, 0.2613821030, -0.0565849617, -0.1314622611, -0.0766991228, 0.0647980571, 0.0073883478, 0.3316121399, 0.0073682927, 0.1282422841, -0.1261264831, 0.1223484650, 0.3548262119, -0.0625553653, -0.0070814225, -0.1100912243, -0.0774810836, -0.1555719376, 0.1337289214, 0.0186337400, -0.0289508943, 0.2456813455, -0.0174418818, -0.0903789625, 0.1015157774, 0.0858043805, -0.0347548500, 0.0906241909, 0.1589868665, -0.0669984818, 0.2944580615, -0.0857074261, -0.0437314883, -0.0114113810, -0.0652560070, 0.0027360755, -0.0230752267, 0.1073711142, -0.1799937934, -0.0662978068, 0.1143137515, -0.0306484513, 0.0590993799, 0.1042436883, -0.0288302228, -0.2226366401, -0.0306725297, -0.1073980182, 0.0803305432, 0.0769524500, 0.0938199237, -0.1542164236, 0.1050214246, -0.0026168784, 0.1615746915, 0.0516365580, 0.0222152174, -0.0847615302, -0.0683915392, -0.1044596285, 0.0339057036, 0.0716903731, 0.1458141059, 0.0331380405, -0.0692184865, 0.1673538536, 0.0059549389, -0.0374069288, -0.1171878502, 0.0189343244, -0.1464550197, -0.1640239656, 0.1747177094, 0.0119555648, 0.0627148747, 0.1545443833, -0.0585417710, -0.0543451272, -0.1541856080, -0.0037103049, 0.1845433265, 0.0554728545, -0.0122154998, -0.0490223989, 0.1598498821, 0.0307622105, -0.0035349606, 0.1562720835, -0.0776256993, 0.1060409099, 0.0012507564, 0.0078713158, 0.0084431404, -0.0923863947, 0.0588241257, -0.0525111966, -0.0653835088, 0.0626559258, -0.0279056951, 0.0206311699, 0.0440807119, -0.0257272702, -0.0488896482, -0.0174679551, 0.0382957384, -0.0411671326, 0.0664178133, -0.0731931627, 0.1031331867, -0.2225892097, 0.0379954241, -0.0575022399, -0.0946409777, 0.1078298688, -0.0236378983, 0.0092339525, -0.0806776732, 0.0762929469, -0.3398766518, -0.2034961283, 0.2679105103, -0.1572777927, 0.1237550452, 0.1557486951, 0.1884311289, -0.0240288712, 0.1433854848, 0.0581486374, -0.0395104438, 0.1801812351, 0.0255949572, -0.1123288795, -0.2148355842, -0.1748656034, -0.0501105264, -0.0733431503, 0.0101165529, -0.0327950716, -0.0152662322, -0.0720123202, 0.0665314272, -0.0872125253, -0.0105215693, 0.0336456224, 0.0941930190, 0.0335320160, -0.1366521120, -0.1024910882, -0.1233411506, 0.0747594312, -0.0480375774, -0.0555925220, -0.0529431812, 0.0210548397, -0.0412128828, -0.0848106295, -0.1417419314, -0.1438578218, -0.0059421104, 0.1037825346, -0.3519629240, -0.0260579251, -0.0322890691, 0.1175969616, 0.1212501824, 0.0219230559, 0.1063781232, 0.0085099405, 0.1331196576, -0.1703468263, 0.2093137205, -0.0541180745, 0.0304930750, -0.1489696503, -0.0045564012, 0.0895045772, -0.0529062562, -0.0305762775, 0.0006227480, 0.0058495193, 0.0644443333, -0.0289696287, -0.2887388468, -0.0986549631, 0.0497324876, -0.0884285718, 0.0027531087, 0.1031365395, -0.1441558897, 0.0103299245, 0.0520182624, -0.0054495721, -0.2343171984, -0.0745696500, -0.0498065650, -0.2130810916, -0.0821817964, 0.0821302459, -0.1602872759, -0.1308960617, 0.0341157019, 0.0910352394, -0.0290473700, -0.0681208968, -0.0068217805, 0.1498230249, -0.1502189040, -0.1766826957, -0.1138441786, -0.0082077589, -0.2235365063, -0.1178851798, -0.0276212040, 0.1102869213, -0.0918088555, 0.0156794116, 0.0801097304, 0.0476602279, -0.0324667767, -0.1342183352, -0.0427412167, -0.0669611841, -0.1346227378, -0.0595905930, -0.0289759282, -0.0083281454, 0.0984713808, 0.0442002863, 0.0365873538, -0.0675331801, 0.0003405646, -0.0264824294, -0.0443579145, 0.0400444716, 0.0763755664, 0.0544334240, 0.0035240536, 0.2148721516, 0.0639714450, -0.0179060418, 0.0597253889, 0.0864147320, -0.0340512767, -0.1866098195, -0.0339176022, 0.1075324044, -0.1474904716, 0.0206282325, -0.2185279578, -0.0163365901, -0.0557677187, 0.0349859297, 0.2643725276, 0.0761367306, -0.0956708491, 0.1282208860, -0.1913609058, 0.1226898208, -0.1786055565, 0.0498502664, -0.0713100731, 0.0845806152, -0.1004292965, -0.0233066119, -0.2089297324, -0.0268280748, 0.0673965961, 0.0464581922, 0.2459942251, -0.1249866933, -0.1172303408, 0.0941473693, 0.0795251802, -0.2436302006, -0.0455897190, -0.0547066405, -0.0542374775, 0.0745607838, 0.1037053242, 0.0884042308, -0.0099545326, -0.1731998175, -0.1850322783, 0.2641068697, 0.1730382144, 0.0080311308, 0.0554097407, -0.1824308932, 0.1972611845, -0.0816141814, 0.0062424042, 0.0896381363, -0.0007379925, 0.1821157932, -0.0116690304, -0.0478081740, -0.0619485155, -0.1307760030, -0.0767123476, -0.0835422501, -0.0386351123, 0.0356689543, 0.0104587153, 0.0218138117, -0.0195816904, -0.0052598682, -0.1179772988, -0.0568007939, 0.0206818692, 0.0572013780, 0.0072358139, -0.2301708609, 0.0625582114, 0.1857975125, 0.1552221179, -0.1007274091, -0.1338453740, -0.0268222839, -0.0603126511, -0.1093377098, 0.0108264368, -0.0499602929, 0.0651782528, -0.0095111625, -0.2656878829, -0.2104497552, -0.0053662797, -0.1034596264, -0.0665076301, 0.0123908203, -0.2352969050, -0.0573418476, -0.1022252664, -0.0557813123, -0.1270755827, 0.1238741428, 0.1550429314, 0.0358009599, -0.3206884265, 0.1801230609, 0.0005954435, -0.1249144524, 0.0326828472, 0.0268126093, -0.2100132704, 0.0083249258, -0.0946155488, 0.0553509481, -0.0264704190, 0.0004630609, 0.0744475797, 0.0670134202, -0.0825929940, 0.1510085016, 0.1276938617, 0.0885163695, 0.0648831129, 0.0258408636, 0.1297535151, -0.0071091140, 0.0325280391, -0.0854589716, -0.2025548667, -0.2364884019, -0.0155484788, 0.2180373818, 0.1618766338, -0.0154826967, -0.0745820850, 0.0338401757, -0.0717359781, -0.0106495200, 0.0189428907, 0.1705487967, 0.0024211667, 0.1570182145, 0.1602731049, -0.1287855953, 0.0406866595, 0.0215931684, -0.2063452899, 0.0315534510, 0.0843821764, 0.2581382096, -0.0245984960, -0.0740873218, 0.0355408527, -0.0941341296, 0.0880190954, 0.0433281064, 0.0365440696, -0.0842286423, 0.0402559452, 0.0509106219, 0.0167176593, 0.1611677557, 0.1145645753, -0.0006809780, 0.0846665651, 0.0036146152, -0.1647829562, 0.1080167368, 0.0412043370, -0.0322843716, 0.0279322397, 0.0143948542, 0.1746969968, -0.1350554973, 0.0543242022, 0.0669021234, 0.0664900169, 0.1561028212, 0.0824898258, -0.0992981866, 0.0337567776, 0.1495455503, -0.1130116880, -0.0246680491, -0.1406038553, 0.1059660092, -0.0397321694, 0.0629642010, 0.0584610812, 0.0283872746, -0.0305567607, 0.0951316506, 0.0587872341, -0.0470092408, 0.1088841632, 0.1244595423, -0.0179925449, -0.1919069886, 0.0066802232, 0.0673845485, 0.0787951574, -0.2216242552, 0.0458496995, 0.0811318979, -0.0229476579, -0.1014736742, 0.0564328954, -0.1044401303, -0.0125557706, 0.1367070675, 0.1517611891, 0.1990640461, 0.1512612551, -0.0941111296, -0.1551488191, 0.1716827005, 0.0670108870, -0.0286041386, -0.0730766952, 0.0658348128, -0.0327881202, 0.1704190075, -0.0251519643, 0.0285486635, -0.0320526101, 0.1581998169, -0.0911435857, 0.0456168503, 0.0173837431, 0.0721320659, -0.0053440370, -0.2581814229, -0.0271447822, 0.1658588350, 0.0245647617, -0.1359217018, 0.0953010470, 0.1054520234, 0.0432661511, -0.0112961549, -0.0544851832, -0.0179682225, 0.0502584316, 0.1718611866, -0.1008282378, 0.0627832264, -0.1383049786, 0.0781495497, 0.0963619575, 0.1116803735, -0.0270326007, 0.1222491264, 0.1694965959, 0.1441216618, 0.0946173146, 0.2952919304, 0.1021710485, -0.0666840225, 0.0116697354, 0.1335223615, 0.1223358065, 0.1957445443, 0.0881848782, 0.0812540501, 0.0619306117, 0.0561221503, 0.0875278786, 0.0221491307, 0.2771674395, -0.2364706397, -0.2160878778, 0.0783249065, 0.0358413160, 0.0979843363, 0.0579006113, 0.0018776878, -0.1349062622, 0.1121631265, 0.0245763473, -0.0889692903, 0.0438723564, 0.1123159900, -0.0310086031, -0.0894239694, 0.0391738601, 0.0527263209, 0.0771447048, 0.1051439494, 0.0338286310, 0.0996527746, -0.1682968885, -0.2122364491, 0.0822060704, -0.0241458174, 0.0445377417, -0.0800307393, -0.1688647568, 0.0958484486, 0.0033986741, 0.0578223541, -0.1546324939, -0.1279269606, -0.1922894716, -0.0756208152, -0.0911877379, -0.1091297492, 0.0084004989, 0.0580448695, 0.0827256292, 0.0142644970, 0.0188629944, -0.0653054938, -0.0701071620, -0.0636454150, 0.0065422938, -0.1032436863, -0.1200554296, 0.0764397904, -0.0693638697, -0.2710213959, 0.0279163569, -0.4462724924, -0.0732699633, -0.3511028588, 0.0190723985, 0.0657326430, -0.2314416617, 0.0374527425, -0.1174214259, 0.0893426687, -0.0599164218, -0.0891812742, -0.2091608942, 0.1035674289, 0.1142241284, -0.0532170869, -0.0811786950, 0.1547866911, -0.2995809615, -0.1460220069, 0.1090969890, -0.0835057870, -0.0271564573, 0.1427047849, -0.0802179798, -0.0442687571, -0.1973606497, 0.1517909616, -0.0183047540, -0.0843733177, -0.0097722625, 0.0974770933, -0.2411861718, -0.1602050066, 0.0031260112, -0.0051551471, 0.1641224623, -0.1770199388, -0.1860189587, 0.0458455645, 0.0339868292, -0.0327477492, -0.0811459124, 0.0654937997, 0.1297890842, 0.0035352274, 0.1268186718, -0.0027740481, -0.0285196286, -0.0947375521, 0.1346160471, 0.2912391722, -0.0463330522, 0.2469166219, 0.0619265102, -0.0706884712, 0.0281703137, 0.0766395628, 0.0403304957, -0.0748273209, -0.0516601093, 0.3670157790, -0.0626046583, -0.0307238679, -0.0890159011, -0.1167129800, 0.0344417393, 0.0074130441, 0.1393236071, 0.0007681163, -0.1573528349, 0.0048439391, -0.0581361316, 0.1351374835, -0.0350581296, 0.0507537872, -0.0292255878, -0.0245544557, 0.0740142986, -0.1586578935, 0.1128250286, 0.0042337542, -0.0366356857, -0.1057170555, 0.1153077856, -0.1644028574, 0.1054996401, -0.0598271228, -0.0872226506, -0.1669788212, 0.0739168078, -0.0070889448, -0.0314162821, 0.1612262279, -0.0808955655, -0.0182136185, 0.0672987476, -0.0385579318, -0.0070630666, 0.0747760162, 0.0375090428, 0.0334692113, -0.1098684147, 0.0946835876, 0.0811988860, -0.1955816001, 0.1661761254, -0.0909486562, -0.0445229635, -0.0677891150, -0.0194733646, -0.0238944236, -0.0320083946, -0.1099495143, -0.1244355813, -0.3466725647, -0.0150686260, 0.0371028148, -0.1302003413, 0.0243010018, -0.0735781193, -0.0399279781, 0.0277629755, -0.0002731919, -0.0329239666, -0.0683635846, 0.0280074310, -0.0904404223, 0.0297577996, -0.0431220643, -0.0254559126, -0.0258326922, 0.0983592123, 0.0772514567, -0.0763096660, 0.0006565992, 0.1961721927, -0.0611992590, 0.0566644929, -0.0191004779, 0.1156524122, -0.0578564778, 0.0915058255, -0.1579002589, -0.1135276407, 0.1198286340, -0.0678620934, -0.0002435583, -0.0204144008, 0.1122713611, -0.0369639248, 0.0281988345, 0.2092589885, -0.0731558502, -0.0265972670, 0.0144485058, 0.0042846659, -0.0786892846, 0.2442644536, -0.1068301052, -0.0140851550, -0.0523498245, -0.1732405275, -0.0569245145, -0.0330512822, 0.0200722963, 0.1232622191, 0.0247798562, -0.0070623774, -0.0679803193, 0.1259817779, -0.0947183967, -0.0995988101, 0.0656531379, -0.1649021655, 0.0536783971, -0.0507206172, -0.0360854454, -0.1029532477, 0.0464089327, -0.0381519794, -0.0367418118, -0.3137830496, -0.2189801335, 0.0257404279, 0.1258617043, 0.1836910397, 0.0891400948, 0.0871020928, -0.0322165973, 0.1440775245, -0.0783932433, 0.0874313265, -0.1236221865, -0.1189509854, -0.0575290285, 0.0998583585, -0.0812509581, -0.1604854316, 0.0043953820, -0.1793993115, 0.2414412051, -0.0941676199, -0.0772488266, 0.0826270878, -0.4089951813, -0.0430648364, 0.0730442852, 0.0314777233, -0.0458212458, -0.1722142249, 0.1054615080, -0.1662576497, -0.0315680243, -0.0748759210, -0.2809395194, 0.0289142672, -0.0574015789, 0.0355692320, -0.1391263306, -0.0138365058, -0.2129483968, 0.0197239071, -0.1091563329, 0.0194864664, -0.0803805366, -0.1657327563, -0.0359114185, -0.0103537058, -0.0715912953, -0.0401103236, -0.0738925561, -0.1924852282, 0.0717852041, -0.0574986525, 0.0566398054, -0.1129233465, -0.0384135656, -0.1113034114, 0.1062845290, 0.1146353707, -0.2012275755, -0.0359498598, 0.0997929648, -0.0997243002, 0.0018128387, 0.2900175750, 0.1183707491, -0.0085334117, -0.1258888096, -0.0222536512, -0.1939468235, 0.0049815248, -0.0884850100, -0.1487485170, -0.0797836334, -0.0348529592, -0.2562476993, -0.0310514253, -0.0847555324, 0.1215393767, -0.0337807611, 0.0335129574, 0.0157552790, 0.0387304612, -0.1457217634, 0.0481507704, 0.1008289158, 0.0336349681, 0.0040451591, 0.0840651765, -0.0957465693, 0.0727926940, -0.1365103126, 0.0159363877, 0.0816429481, 0.0728273913, -0.0540113971, -0.0429463312, -0.0739527568, 0.0794129074, 0.0767506659, -0.0437926538, -0.0024846541, -0.0154936165, -0.1802147031, 0.0749929547, 0.0273021273, 0.1408712417, -0.0470273420, -0.0289448444, -0.1130647063, -0.2171792090, 0.0894962475, 0.1001767814, -0.0161962621, -0.0060812174, -0.0160700679, 0.0912920460, -0.0328896567, -0.0841986313, 0.1612530947, -0.2301109433, 0.1808250248, -0.1142489240, -0.0926256925, -0.0284219291, -0.0137790432, 0.0315793604, 0.0056612757, -0.2696366906, -0.1197908670, -0.1367557347, 0.0575567856, 0.1236110032, 0.1244257838, 0.0600305386, 0.0646932498, 0.0726456940, -0.0006589370, 0.0177439917, -0.0132301245, -0.0685188770, 0.0221703444, 0.2137634009, -0.1157092154, 0.1830900759, 0.1809500605, 0.0210464764, 0.2229688168, 0.0023091857, 0.1010134518, 0.1532786936, -0.2595615089, -0.1161380336, 0.1303088963, 0.0872526467, 0.1337446868, 0.1810442805, 0.2073976696, -0.1225602776, 0.2125684321, 0.0628993511, 0.0052331635, -0.0211520568, 0.1859001666, 0.0803990737, -0.2610653341, 0.1134679243, -0.0646285564, 0.0995799899, -0.0410198048, 0.1174453944, 0.3059653044, -0.0871264189, -0.1816040426, -0.0141549977, 0.1736797541, 0.0490428209, -0.1462824792, -0.1604702473, -0.0697836280, 0.2048842311, 0.0484844185, -0.1458113045, 0.0309574604, 0.0098112971, 0.1274165958, -0.1251347810, -0.3879309297, -0.0771095678, -0.0005213886, -0.1176484376, 0.1070138291, -0.0404424891, 0.0640449002, -0.0955313444, -0.0008377217, 0.0353917032, -0.1071218476, 0.0262228642, 0.1228449866, -0.0548973009, -0.2833170593, 0.0867242441, -0.1501215845, 0.3386929035, -0.1011406481, -0.0252237525, 0.1310483664, 0.0224568825, 0.1283684969, 0.0120548885, -0.0583544746, 0.0349093750, 0.0001277616, 0.2166069299, 0.0928270668, 0.0215067696, -0.0622534528, 0.0522852652, 0.0753766447, 0.0842513144, 0.1047768742, -0.1244372502, 0.1269623041, 0.0375581831, -0.2322247773, 0.0738289133, -0.0919780880, -0.0259240661, -0.0756867677, -0.0462085418, 0.0920153484, 0.1337282509, 0.0154099958, -0.0131359063, -0.1878735870, -0.1533664167, 0.0361658782, 0.0059782919, -0.0620663203, -0.1732014567, 0.0858916342, -0.0845636725, -0.1136169136, 0.0698839873, -0.0689708143, -0.0346863791, 0.1041024774, 0.0783389807, 0.0197241772, 0.0392309874, -0.2229865938, -0.3843374848, -0.0918556303, 0.0957324728, -0.0513446741, 0.0771628991, 0.0369979851, 0.1022538617, -0.1619355381, 0.1243955195, -0.1482468098, 0.1027247086, 0.1738029718, 0.1098566428, 0.0676034093, 0.0476322919, -0.0345456935, -0.2013240606, 0.0919683576, -0.0147832679, 0.0563025586, 0.0449279584, 0.0916712880, 0.0882866904, -0.0042420449, -0.1046409234, -0.1028543487, -0.0333474949, 0.0494792014, 0.0831801519, 0.1724760681, 0.0147190960, -0.1472674012, -0.1455463320, -0.0179362185, 0.0305228271, -0.1437097639, -0.0983013660, 0.1047465801, -0.0227320660, -0.0845377520, -0.1325647086, 0.1001266167, 0.0361067690, 0.1028905064, 0.0423313603, 0.1350646168, -0.0500747487, 0.0141076138, 0.0789671093, -0.1380273402, 0.0549304895, -0.1709188223, 0.0053280820, 0.1109288484, 0.3316431344, 0.0904933289, -0.0354255252, 0.0732267126, 0.1570453793, 0.0614393279, 0.1285323352, 0.0150175039, -0.1117294207, 0.0750236437, 0.0047949329, -0.0008778074, 0.1660261601, 0.0719146878, 0.0069693229, 0.1577910781, -0.1101606563, -0.1228181645, 0.1341128200, 0.0795207843, 0.0971683040, 0.0551714711, -0.0577590577, -0.1518396735, -0.0124434456, -0.0617320053, -0.0877195820, -0.0800446197, -0.1270629019, -0.0915398896, 0.0497492254, -0.0719402358, 0.0415437929, 0.1506372243, 0.0591612309, 0.0477038510, 0.0555879921, -0.1410803050, 0.0902835727, 0.1375640333, 0.0629322082, 0.1201954857, -0.0200684741, 0.1079393327, -0.0148369223, -0.0726181865, 0.0254549142, 0.0722329691, 0.0730233788, 0.0600850321, -0.0282678436, -0.0544449426, 0.3206023872, 0.0237787869, -0.0326628126, -0.0210575163, -0.0216149632, -0.1000941843, -0.2112683058, -0.1086504310, 0.0079686483, 0.1512965858, -0.1663026363, -0.0743226632, -0.1024211124, -0.1303828508, -0.0703892633, 0.0323112421, -0.0709967986, -0.0119776661, -0.0269123074, 0.0514727682, 0.0088486755, -0.1080174968, 0.1196917892, 0.0283875391, 0.0319734700, -0.1898183674, 0.1152892858, 0.0783685297, 0.0454541221, -0.0468948707, 0.2087904066, -0.0489783585, 0.1084786206, -0.0764675438, -0.0147218788, 0.2164549232, 0.0637537614, -0.0329484865, 0.0425093621, 0.1225260869, 0.0081347246, -0.1149091199, -0.0135238087, 0.0678457767, 0.0885978639, 0.1682090163, -0.1441736519, 0.0161226597, -0.2251598686, -0.0907188803, -0.0424885154, 0.0202300735, -0.0864887610, -0.1532050520, 0.0178001467, -0.0308534950, -0.0551648922, -0.0044975076, -0.2081549466, 0.2441185266, -0.0219848529, 0.1734402627, -0.0048633358, -0.0797486082, -0.0782183856, -0.0975248814, 0.0391248502, -0.0149501730, -0.1272421181, -0.1739376336, -0.0217353217, 0.1173611581, -0.0481855981, -0.0062582809, -0.0324529819, -0.0369656868, -0.1493220329, 0.0525435619, -0.0729258806, 0.1344507486, -0.0378317945, 0.1438804716, -0.0514765382, 0.0373882055, -0.1532489508, -0.1321089566, 0.0506504066, 0.1541712284, -0.1901357323, -0.0510722138, 0.0427412204, 0.0699976906, 0.0447408371, 0.1119837090, -0.0807894841, 0.0151908034, 0.1357088089, 0.1753201038, -0.0863997489, -0.1801847667, 0.0351091847, 0.1397324204, 0.1878456920, 0.0681074411, 0.0628289133, -0.1398608387, -0.3346014023, 0.0235566236, -0.0301461462, 0.1397380680, -0.0374327451, -0.0079679145, -0.2099922597, -0.0659536198, 0.2206792384, -0.0966247991, -0.2638586462, 0.0416283421, -0.0590648130, 0.0500599407, 0.1116690189, 0.0113631105, 0.0194553621, -0.0662972257, 0.0879265741, -0.1295596957, 0.0073146415, -0.0798805803, -0.1602483690, -0.0357251875, 0.0080617238, 0.2379329503, 0.1047054455, -0.1264458001, -0.0539325736, -0.1402982324, -0.1148520261, -0.1283816248, -0.1018051878, 0.0535928272, -0.2139103115, -0.0970408916, 0.1094709113, -0.0051528150, -0.0958703086, -0.0044057360, 0.0916987881, 0.0743852556, -0.1018251479, -0.1387975812, 0.3340331018, 0.0573300123, 0.0347721986, 0.2914280891, -0.0680480376, 0.0482216440, -0.0659095272, 0.1135225222, -0.0051882132, 0.0115684662, 0.0181002840, -0.0599247999, 0.0165601950, 0.0419712104, -0.0249351729, 0.1762920618, 0.0908156708, 0.0354267024, 0.1052396223, -0.0763782337, 0.3401389718, -0.0971155614, -0.0016269867, 0.0737720430, 0.0279086102, -0.1779877543, 0.2008952349, -0.1451203078, -0.1427238584, 0.1503378600, 0.1043174043, 0.0296409409, -0.1963150352, -0.0911761597, -0.0967428163, 0.0058395257, -0.0269302446, 0.0361185931, 0.0940037221, 0.1060928330, 0.0195299163, 0.1320781410, -0.0016707351, -0.0368015058, -0.1552213877, 0.0924944505, -0.0149013093, 0.0808920339, 0.1986208111, -0.0296887234, -0.1480865777, 0.1159966812, -0.0093015330, 0.0254264511, 0.1351610124, -0.1186172143, 0.0987109169, -0.0117349662, 0.1182673350, 0.1298253834, -0.1880303323, 0.0532148145, -0.0637197718, 0.0866276026, 0.0103384014, 0.0100383963, -0.2219543457, 0.1346269101, 0.1093483493, -0.0166521557, 0.2028241009, 0.0332365632, -0.0008447577, -0.0597607717, 0.0931297466, -0.1489743739, 0.2003676295, 0.0417587273, -0.0756538808, -0.0203287881, 0.1684372276, 0.1614493728, -0.0800093785, 0.0919096246, -0.0351683125, -0.1259623021, -0.1363988817, 0.0431991294, -0.0686203986, -0.0295840874, 0.0289278496, 0.1867449880, -0.1449590772, -0.1506663412, 0.1101450175, -0.1307309717, -0.1352614164, 0.0460634679, 0.1901659369, 0.0193031132, 0.1345535517, 0.2990377843, 0.0911360905, -0.0216829721, -0.0347080566, 0.1129337549, -0.1725720018, -0.1126924306, 0.0160167050, -0.0768462121, -0.0514028966, 0.1186168864, 0.0527125299, -0.0112300692, 0.0390496477, -0.1243329868, -0.0719663575, 0.0581532866, -0.0956422091, 0.1180044860, 0.0543990880, 0.0769906044, -0.1104655415, 0.0814198479, 0.0188441854, -0.0860581696, -0.0018729663, -0.0644065738, 0.0027644781, -0.1875686795, 0.1162808314, 0.0685007870, 0.0692357868, -0.1597743928, 0.1297730505, 0.0770862922, -0.0100404182, -0.1767573059, -0.0954971239, -0.0528288968, 0.0441810675, -0.2769218087, -0.0975505859, -0.0379812010, -0.0555425845, -0.1897486448, 0.2051848918, -0.1267344058, 0.0362908170, -0.0307064392, 0.2033789307, -0.0328373797, 0.0601481721, -0.1171076596, 0.0921925157, -0.1593685299, -0.2222347260, -0.0008085132, 0.0081626726, -0.0080077881, -0.1752704084, -0.0943305343, -0.0110555617, 0.0057872180, 0.1795816272, -0.0922503471, 0.2596253753, 0.1074000821, -0.1092366278, 0.1836221814, 0.0942704156, 0.0765409619, 0.0166831333, -0.0461386256, -0.0754972547, 0.0603339374, -0.0034160200, 0.0180368517, 0.0267534982, 0.2987439632, 0.1160440221, -0.0645139217, -0.0229707770, 0.0085738422, 0.1107067689, -0.0378353223, -0.1839796156, -0.0173529889, -0.0893957540, 0.2143720984, -0.0139237093, -0.0669418350, -0.1948243082, 0.2961530983, -0.0091475761, 0.0527998023, 0.1203272343, -0.0077613317, 0.1429620236, 0.2068533152, 0.0664525777, 0.0539208576, -0.0659679472, 0.0834429935, 0.0031062558, -0.1995694786, -0.2020387948, 0.0525784567, -0.1451746076, -0.0078689177, -0.0941595435, -0.0026578284, 0.1389672756, 0.1268506795, 0.0204530116, -0.1204514951, 0.0253698267, -0.1384443045, 0.0416211709, -0.0617255606, 0.0893751979, -0.0888261870, -0.0651669800, -0.1092523783, -0.0906233937, -0.1192641705, 0.0064891931, 0.0996240005, 0.0374925733, -0.0372184440, 0.0501469411, -0.1708130538, -0.0605718084, -0.1056112126, -0.2729502916, -0.1175389141, 0.0813554749, 0.1302415580, -0.0885025933, -0.1329624206, 0.0884459466, 0.0483208485, 0.1001639441, -0.1703620255, 0.0276864041, -0.0064788447, 0.1527688652, 0.0018346159, -0.0013505482, 0.0141425421, -0.0927652866, -0.0393490270, -0.1211757362, 0.0448553264, -0.0530353077, -0.1471835077, -0.1799131930, -0.0229147151, 0.1182292476, -0.1378467083, 0.0988380760, 0.1105822548, -0.1871904582, 0.0552131310, -0.1462833285, -0.1707640439, -0.0166655481, -0.1493505090, -0.1345071644, -0.0800909251, 0.0442827195, 0.0595072731, 0.0548070893, -0.0185652450, -0.0448595136, -0.0431311093, 0.0875807032, 0.0100312335, 0.0137556167, 0.0536922626, 0.0075381119, 0.0021156755, -0.0892367512, -0.1174160093, 0.1763013452, -0.0336457193, -0.0116241546, 0.0128354197, -0.0434504114, -0.0740851387, 0.0265208744, -0.0510719195, -0.1271023601, -0.1153425723, -0.0311415363, 0.1771719754, 0.1502586156, 0.1713792682, -0.2439844161, -0.1517372131, 0.0838221982, 0.3289791644, -0.0059351912, 0.0378520228, -0.0090739839, -0.0337505043, -0.0552506372, -0.1059264243, 0.0382400714, 0.0227096789, -0.2573636770, -0.0989249647, -0.0214744955, 0.1335925758, -0.1030119583, -0.0848856568, 0.0053627514, 0.0850777701, 0.0084116617, -0.0055748806, -0.2966478765, 0.1911274791, -0.1290419847, 0.1111794785, 0.0123105571, 0.0278830621, -0.1076126769, -0.0855691954, -0.1211825609, 0.1516109854, 0.0245174374, 0.1578030884, -0.1763236970, 0.2501235008, -0.1031456813, -0.1179191843, -0.0652355254, 0.0572326891, -0.1849193573, -0.1471466422, 0.0123303877, -0.0075101499, 0.2533809245, -0.1051502079, -0.0218034852, 0.0316330232, 0.0313756913, -0.0414591692, -0.2093191445, 0.1382130235, -0.0868861377, -0.1257852167, 0.0402500406, 0.0266108066, 0.0089363810, -0.0819479972, -0.0807834119, 0.1447656900, 0.1645073593, 0.1479281932, -0.1023383364, 0.0644743666, -0.0323268399, -0.0934228748, 0.0580195263, -0.1222566664, -0.0699563548, 0.1260689199, -0.0343837142, 0.0827969834, 0.0517089367, 0.0464543924, 0.0854590163, -0.0400615931, -0.0238032937, -0.0939294025, 0.0930280164, -0.0379751474, -0.0831731930, -0.0248137470, -0.0007071061, 0.2039332092, -0.0142598599, -0.0351020433, -0.1095779911, 0.1239595935, -0.0650151446, -0.0721871033, -0.0672455058, -0.1029385477, 0.1852140427, 0.1291594803, 0.2673932016, -0.0468624458, -0.0026420197, -0.0265079327, 0.1712233722, -0.0670149550, -0.1038301289, -0.1574122757, 0.0227984767, -0.1017021909, 0.0496328734, 0.1053045616, -0.0600782745, -0.0487002358, -0.1097095236, 0.0443950295, -0.1228745505, -0.0655909032, 0.0395655595, 0.1209539026, -0.0663776472, -0.1574396342, -0.1122485772, -0.0081627732, -0.2410621941, -0.0596747883, -0.1018810496, -0.2515104711, -0.0213725995, -0.0059322827, -0.0688452721, 0.2189687490, 0.1738848984, 0.0433422662, -0.0291414056, -0.0113602085, 0.1471842378, -0.0378214084, 0.0381124020, 0.0316833146, -0.0306529887, -0.1297365874, -0.2027663141, 0.0239851605, -0.0640507936, 0.0746608227, 0.0452148579, -0.1541248411, -0.0399804898, 0.0410647616, -0.1900526136, 0.0411154702, -0.0757825971, -0.1160361245, -0.3248613179, 0.0487036221, -0.0103062000, 0.2120219469, -0.0136287659, -0.1017551571, 0.0096567376, -0.0459360518, -0.1281153411, -0.0235121306, -0.0498941652, -0.0556121171, -0.0490597114, 0.1143339127, -0.1989949495, 0.0837444365, 0.0126529457, 0.0351799950, 0.0078141876, 0.0291316081, -0.0423954055, -0.0291271657, 0.0040483731, -0.0770256892, -0.1046847031, 0.0967359841, 0.0732019097, 0.0226616357, -0.0387631208, -0.0855324119, 0.0140339192, 0.0974949151, -0.1377011687, 0.0070425053, -0.1071837768, -0.0287678670, 0.0481413454, 0.0100900782, 0.0361001305, 0.1093644202, -0.1111488119, 0.0118037714, -0.0453895740, -0.1117376834, -0.0774502829, -0.0651288778, 0.0708027557, -0.2616290450, -0.1173635125, -0.0378099196, -0.0713258386, 0.0041708276, -0.0257084761, -0.0719207525, -0.0159343369, -0.0913180113, 0.0351473130, -0.1885697246, -0.0851870328, 0.0997664183, -0.1033286750, -0.0176897310, -0.0546815991, -0.0592778847, 0.0571566746, -0.0647250414, -0.1010518000, 0.0795694143, -0.0914655700, -0.0825073645, -0.0398429781, 0.0442926250, -0.0935256034, 0.0391871966, -0.1197681800, -0.0262698345, -0.0728253871, -0.1513181925, -0.1362317950, -0.1942924112, -0.0136691034, 0.0890659615, 0.0890370384, 0.1450185180, -0.0055209324, -0.0520717278, 0.0466656946, 0.1790072322, -0.0510602966, 0.3290910423, -0.1071847752, -0.0129604070, 0.1298960745, -0.1855368167, -0.3426485062, 0.1426728964, 0.1450259238, -0.1238262504, -0.0563650690, 0.0300330352, -0.1027864069, -0.3208813667, 0.0846069902, 0.1061402410, -0.2547819018, -0.0284211058, 0.1233242750, 0.0362244695, -0.1042225584, 0.1227195784, -0.1267190129, 0.0878188014, 0.0303236153, 0.0277730599, 