//Numpy array shape [3, 3, 64, 64]
//Min -0.465746492147
//Max 0.454881012440
//Number of zeros 0

#ifndef W20_H_
#define W20_H_

#ifndef __SYNTHESIS__
model_default_t w20[36864];
#else
model_default_t w20[36864] = {-0.0460694656, -0.0809296072, 0.1018825248, 0.0733482689, 0.0082319509, -0.0861619785, -0.0370069779, 0.1325866878, -0.1355680078, 0.0099726534, 0.0222252328, -0.0487393811, 0.0468447953, -0.0227142423, -0.0281975362, 0.0147617878, -0.0266716368, -0.0606141724, -0.1277662218, 0.0820322558, -0.0031821006, 0.0767956078, -0.1348616928, -0.1054282561, 0.0358623713, 0.0363292731, -0.0041714841, 0.0562777184, 0.0175329950, -0.0894867927, 0.0757643133, 0.0268230587, 0.0850934908, 0.0128844082, -0.0019319657, 0.1605738997, -0.0737844184, 0.1794344187, 0.1307628453, 0.0626997650, 0.0534819476, 0.0464513078, -0.0462448411, -0.0611229055, -0.1116843820, 0.0181752890, -0.0148247452, 0.0597140305, 0.1002436131, 0.0460041538, -0.0041369507, 0.0759350657, 0.0444795750, 0.1377163529, 0.1562044621, 0.0847078040, 0.0830251798, 0.0813167095, -0.0578961857, 0.1528098285, 0.0214573760, -0.0467099361, 0.0917557776, -0.0007915578, -0.0208784733, -0.0757336169, -0.0596287027, 0.0095804175, -0.0686236769, 0.0284127872, -0.0418315865, -0.0146097997, 0.0269425884, -0.0455466472, -0.0804184973, -0.0693785846, 0.0332480185, -0.0164531861, 0.0410228372, -0.0439824089, -0.0560811237, -0.0800998062, 0.0288306121, -0.0238980148, -0.0842457712, -0.0202242322, -0.0049121613, -0.1453630775, -0.0001480358, -0.0218712222, -0.0623515733, -0.0032638058, -0.0419081897, -0.0535242334, 0.0952678919, -0.0758586079, -0.1200547367, 0.1711191386, 0.0143961115, -0.0184804108, 0.0798135251, -0.0148427961, 0.0000981342, -0.0731733590, -0.0241555963, -0.0531527102, -0.0665416792, 0.0539475679, -0.1101608425, 0.0581834950, -0.0269059539, -0.0190940220, -0.1369029135, -0.0078626489, 0.0222241785, -0.1177107319, -0.0392092019, 0.0101735834, -0.0837860182, -0.0006585416, 0.0642127767, 0.0291327685, 0.0202374347, -0.0137337055, -0.0249619205, 0.0792064667, -0.0080921082, -0.0264894571, -0.0104799541, 0.0591737889, 0.0602488518, 0.0084941462, 0.0159946457, -0.0422412418, -0.1566908807, -0.0542818457, -0.1049507186, -0.0003418516, 0.0237263851, 0.0864574835, -0.0115963984, -0.0541309156, -0.0522542372, -0.0179195683, 0.0157239400, 0.1115497574, -0.0148538668, 0.0132679818, -0.0448472276, -0.0362601355, -0.0574709103, 0.0215420257, 0.0574440584, -0.0956933647, 0.0241432618, 0.0669995323, -0.0573882796, -0.1065552831, -0.1136422008, -0.0487997085, 0.0368511453, -0.1935152709, 0.0700359792, -0.0530290976, -0.0413884930, -0.0500560626, -0.0273144543, 0.0398378111, -0.0732122138, -0.1136838794, -0.1188434213, 0.0843152180, 0.0176818594, 0.0478639528, -0.1824896336, 0.1115883440, 0.0358245596, -0.0500358604, 0.0783316344, -0.0070712673, 0.0563287772, -0.0308598317, -0.0995888114, 0.0586133115, 0.0811515898, -0.0127384486, 0.0090387044, -0.0073684440, 0.0482535660, 0.0111344848, -0.0356145278, 0.0238302145, -0.0318756588, 0.1170664355, -0.0181253795, 0.0795763582, -0.1153044999, 0.0575149804, -0.0731256828, 0.0449241810, -0.2148116529, -0.0245441534, 0.0461684167, 0.0366786420, -0.0772328526, -0.0183499120, -0.0362629928, -0.0327135660, -0.1661062241, -0.0042900355, -0.0383711010, -0.1014007255, -0.0241356660, -0.1194360107, 0.0071688951, -0.0905533135, -0.0973829702, -0.0688188300, 0.0424443372, 0.1323812306, -0.0592409782, 0.0964336991, 0.0084190154, 0.0021081977, -0.0711732805, -0.0802650899, -0.1667045206, 0.0756136850, -0.0748444647, -0.0132894004, 0.1192727536, 0.0250878278, -0.2514152825, 0.0540739708, 0.0850403160, -0.1737969071, 0.0175781641, 0.0486088134, 0.0833143666, -0.0356298573, -0.0348016806, 0.0905158147, 0.0590160154, -0.0041099638, 0.0250200517, 0.1442970037, 0.1216301769, -0.0149201611, 0.1461342722, 0.1342463195, 0.0509448238, 0.0989145860, 0.1994944513, 0.1248716861, 0.0318200588, -0.0371102281, -0.0949640721, 0.1268695593, -0.0933969542, 0.0968278870, -0.0625766516, -0.1650884748, -0.0518656820, -0.1170505509, 0.0496818088, 0.0015176628, -0.0611772910, 0.0150423665, 0.1082817465, -0.0494371094, 0.0131188342, 0.1043079272, -0.0562310070, -0.0566559210, -0.1737900972, -0.1962281913, 0.0107660647, -0.1011734083, 0.0783055350, -0.0301031154, 0.0885936543, -0.0084095616, -0.0244695172, 0.0663358867, 0.0705725029, -0.0790420771, -0.0246635862, -0.0563287884, 0.0356652141, 0.0424717516, 0.1329872906, 0.0022372371, -0.0348108746, -0.2246207744, -0.0008285096, -0.1334958225, -0.0573359691, 0.1230684593, 0.0156107424, 0.0229603518, -0.0227136668, -0.0956319422, -0.0738259777, 0.0474293940, 0.1218810901, -0.0865193307, 0.1338031292, 0.0642072037, 0.0656186044, 0.1736633033, -0.0523288772, 0.0323385596, -0.1719186306, -0.1822764277, -0.0168990567, -0.0798155740, -0.0327103250, -0.0814732090, -0.1093838662, -0.0575007945, 0.0229733959, -0.0361752175, -0.0382577591, -0.0665611550, -0.0948681161, -0.1310838312, -0.0937473178, -0.1309520900, -0.2018900961, -0.0972579196, -0.1492012143, -0.0330056548, -0.0635365322, -0.0586675666, -0.0050241137, -0.0111813974, -0.1038140357, 0.0380209200, -0.0399347283, -0.1725183874, -0.0145044373, -0.0685383007, 0.0262565948, -0.0346299224, -0.0580449067, -0.0118139442, -0.0994087011, -0.0561764799, -0.0746774599, -0.2360209823, 0.0340906344, 0.0121549265, -0.0043209307, -0.0514154695, -0.1494525969, 0.0051369029, -0.0555074960, -0.0461013131, 0.0746080875, -0.1080742925, -0.1018930897, 0.0048045553, -0.0540065020, -0.0639774874, 0.1200912818, 0.0448906757, -0.0383305252, 0.0275515355, -0.0636555851, 0.0210236441, -0.0510336347, -0.1225737557, -0.0192715786, -0.0979821682, 0.0499650799, -0.0239217281, 0.0346846841, -0.0145277185, -0.0596372038, -0.0147408806, -0.0601656325, -0.0511807688, 0.0182209238, -0.0396463834, -0.1474984586, 0.0154362759, -0.0532277226, 0.0012906283, -0.0447386391, 0.0145152360, -0.1005770713, 0.0664948374, 0.1373631507, -0.1283493936, -0.0739361867, 0.0401114970, -0.0692413300, -0.0749593899, -0.0778575093, 0.0879183784, 0.1181067452, -0.1435175240, -0.0721132010, 0.1836230159, -0.0110588949, -0.0806563124, -0.0271567330, -0.0979608372, -0.0107030543, 0.1114354134, 0.0304095354, -0.1232586727, 0.0813300684, -0.1526933163, -0.1178697869, 0.0492750816, -0.1254764348, -0.1121951267, -0.0789623410, -0.0593848377, 0.0007865596, -0.0064966530, 0.0286039207, 0.0850663856, 0.1803802252, 0.1980255842, 0.0459432825, -0.0964122862, -0.2039244175, 0.0114550795, 0.0622431338, 0.0444825590, -0.0055000507, 0.0978007391, -0.0916019902, 0.1373759061, -0.0403094627, -0.0283203032, -0.0038876736, 0.0676097497, 0.0726917163, -0.0562078804, -0.1588083208, -0.1464509964, -0.0198222268, -0.1540885270, -0.0407725051, -0.0583463050, 0.0083179083, -0.0720253810, -0.0374020040, -0.0242145453, -0.1783540100, 0.0026554354, -0.1998995394, 0.0475819632, 0.1108833477, 0.0480067618, 0.0181130357, -0.0593105778, 0.0772923902, -0.1849322170, 0.1447200030, 0.1108061075, -0.1749999672, -0.0866697952, 0.1187320426, 0.1469973177, 0.0230799690, 0.0701964721, 0.0930328593, -0.0774839446, 0.0811902955, 0.0513460375, -0.0691870824, 0.0111504290, -0.1035664529, 0.0272071175, 0.2828035355, 0.0726738274, 0.0884207562, -0.0499880686, 0.0001761828, -0.0899882168, 0.0509918928, 0.1158623397, 0.2089469731, -0.0312480908, 0.0255559497, 0.0555834062, -0.0831646696, 0.0173058566, -0.0320544168, -0.1249025390, -0.0268523116, 0.0051483032, 0.0764469057, -0.0996828154, 0.0732758939, -0.0333084650, 0.0352326557, -0.0821443573, -0.0915588811, -0.0434217378, -0.1127917096, -0.1035661995, -0.0000836696, 0.0832671225, -0.0833556950, -0.0156071885, -0.0104949828, -0.0338422917, 0.0022958999, 0.0171792917, 0.0293677095, -0.0558180138, -0.1363769621, 0.0989311635, 0.0650502816, -0.0300173815, 0.0446149707, -0.1947403699, -0.0779124871, -0.0010297647, -0.0121313818, -0.0163674504, -0.0055440720, -0.1176696420, 0.0301199723, -0.0672488883, -0.1558250487, -0.0215500481, 0.0630181357, -0.1636528075, -0.0679564700, 0.1714301258, 0.0024120377, -0.0618624948, -0.0825366825, 0.0109732514, -0.0731155276, 0.2168636471, -0.3052547872, -0.0446114764, -0.3345125020, -0.0083520077, -0.0075985850, -0.0772577003, -0.0963177383, 0.0540582351, -0.0104982201, 0.0490066931, 0.3044299781, -0.0059392117, 0.0111798309, 0.0817454606, -0.2012300044, -0.0428096429, -0.0064157858, 0.0549593009, 0.2679338753, 0.0444839410, 0.0292805899, 0.1096442342, 0.0024928774, -0.0668585151, 0.3748327196, 0.0157052055, 0.0610786453, 0.0218592137, 0.0114375660, 0.0955350995, -0.0275211893, -0.0810395926, 0.0976095870, 0.0461240709, 0.0621752143, -0.0259206668, -0.0136613967, -0.0578204654, 0.0911831781, -0.0779888034, 0.1602261066, 0.0151009960, -0.1625015289, -0.1116375849, 0.0494807847, 0.0038956623, -0.0694411844, 0.0412548035, 0.0430640280, 0.2268265635, -0.1088011637, 0.0245126281, -0.0250621829, -0.0429824702, -0.1141491160, -0.1559057683, -0.0627254397, -0.0455477498, 0.0147193875, 0.0271004960, -0.0791487619, 0.1249401718, 0.1612254530, -0.1528844237, 0.0190056786, -0.0026253730, -0.0564077422, -0.0016253375, -0.0399448462, 0.0850794911, -0.0260594320, -0.0070660277, 0.0244736243, 0.0538200326, 0.0742898807, -0.0025300926, 0.0457317606, 0.0027033580, -0.0183861312, 0.1372855604, 0.1515377909, 0.0072439485, -0.0502747633, 0.0775186568, 0.1389936507, 0.0344362631, -0.0922309980, -0.0632248819, 0.0028702314, -0.0183804072, 0.0214739330, -0.0804904103, -0.0949319527, 0.1153885797, 0.1576428264, -0.1582443118, 0.0150661254, 0.0020821618, -0.1491546333, -0.1151319891, -0.0105335293, -0.1063743979, 0.1059432551, -0.0482757427, -0.1611556262, -0.0752410889, 0.0821241513, 0.0348175019, 0.0113971420, -0.0016136116, -0.1383490562, -0.0012020415, -0.0853477120, -0.0919094905, 0.0892762765, -0.0636935309, -0.0920259953, 0.0004848857, -0.0521874391, 0.0276902653, 0.1259050369, 0.0873532072, 0.0429363176, -0.0368577167, -0.0850896910, 0.0514242575, -0.0607301220, -0.0075695720, -0.1327323169, -0.1102610752, -0.0242358092, 0.2339196652, 0.0943789780, -0.0381938629, -0.1515703648, 0.0579081178, -0.0989161655, 0.0806003138, -0.0175260976, -0.0671482980, -0.0329071544, -0.0321542025, 0.0301340912, 0.0869974196, -0.0159894153, -0.0111575685, -0.0262849536, -0.0957269818, 0.0718170628, 0.0190040730, 0.0710842684, 0.0269907564, 0.1092458293, -0.0813984349, 0.1015223935, -0.1157303825, 0.0204267167, -0.0203848295, -0.0622844249, 0.0725212842, -0.1327502429, -0.1006661505, 0.0121794650, -0.0185354296, -0.0202383175, 0.0383273251, 0.0906410962, 0.0102058593, 0.0638304204, -0.1108212397, -0.1677751690, 0.0772183165, 0.0518510714, 0.0333676413, 0.0770315379, -0.0003908299, 0.0847006440, 0.1222477034, 0.0358246639, -0.1129896194, -0.0357221179, 0.0108014494, -0.0296493936, -0.0073147002, 0.0494874530, -0.0564410537, -0.0131588737, 0.0066069933, 0.0555767007, -0.0236037932, 0.0013930076, 0.0080653019, -0.0354995579, -0.0757796392, 0.0527600497, -0.2560645938, 0.0326062031, 0.1093868166, -0.0348857716, 0.0900245607, -0.0298467092, 0.0071058748, -0.1764191538, -0.0526049361, -0.0612056069, 0.1168871298, -0.0884674266, 0.0426021256, 0.0405417234, 0.1396179497, 0.1121874452, -0.0227226298, -0.0984275714, 0.1218575016, 0.0418856554, 0.1499648988, 0.1270449311, -0.0682484284, -0.0432855077, 0.1102409437, -0.1010118052, 0.1287281960, -0.0380433165, -0.1636245847, 0.1027881354, -0.1112646088, 0.1926213801, 0.0717333704, 0.0716991872, -0.0343151651, -0.0367229544, 0.1439152658, 0.0813203231, 0.0201297663, -0.0815708190, -0.0070937923, -0.0024753800, 0.0280428380, -0.1082043126, -0.0434251614, -0.0698726475, 0.0226467382, -0.0574867912, -0.0720719472, -0.0158781148, -0.0857351795, 0.0630427077, 0.0364720561, 0.2127799690, -0.1019136682, 0.2043119520, -0.0307467710, -0.0920853168, -0.0288617332, -0.0267732479, -0.1301221550, -0.0126783233, -0.0927687064, 0.0022450332, -0.2018694133, -0.1155163273, -0.0739813745, -0.0346693806, -0.0757864937, -0.0892713070, -0.0719351619, -0.0019301596, -0.0658611730, 0.1082265377, 0.0267334990, -0.0956306979, 0.0401873216, 0.0473531596, 0.0377662443, 0.0385787562, 0.0074086157, 0.0348920897, -0.0138773173, 0.0252004452, -0.0295051094, -0.0189828146, 0.0458052419, -0.1422864497, 0.0633994341, -0.1146357730, 0.2013527006, -0.0801047161, -0.0088919150, -0.0706251189, -0.0661118403, -0.0092025176, 0.0926051885, 0.0726963654, -0.0733146295, -0.0453135408, -0.0526982807, 0.0824128315, 0.0690075755, -0.0968798921, -0.0071539520, 0.0656752586, -0.0019970634, -0.0721640214, -0.0632744804, -0.0952262729, -0.0197202191, -0.0007783988, -0.0320338644, -0.0049264710, -0.0094177676, 0.0960398689, -0.0051320405, -0.0301784668, 0.0156587213, -0.0559530258, -0.0145463552, -0.1535818875, 0.0181206577, -0.0576468073, -0.1338178366, 0.0850832388, -0.0734600946, 0.0146299042, 0.1242523417, -0.0886638537, -0.0298741627, 0.0097396737, 0.0380181782, -0.0569755770, 0.1019620374, -0.0179535467, 0.1255268455, 0.0247038901, -0.1265098900, -0.1234584451, 0.1216415763, 0.1048242897, -0.1316972971, 0.0593400188, -0.1365544051, 0.1192541793, -0.0147199519, -0.0386205651, 0.0292446930, 0.0065558222, -0.0226864479, -0.0811672881, -0.1130625978, 0.0702828914, -0.0030741463, -0.0320236869, -0.0504132882, -0.1318577081, 0.0496325009, -0.0920425430, -0.0756361410, 0.0350515805, 0.0436807871, -0.0471831933, -0.1067866236, -0.1271607727, -0.0962832943, 0.1182565615, 0.0367889293, 0.1013317630, 0.0442832336, 0.0781959742, 0.0553887486, 0.0192118175, -0.0732206181, -0.1050934345, 0.0126274936, 0.0198533051, -0.0515801236, 0.0678889006, -0.0463681184, 0.0581230409, 0.0230580065, 0.0231173709, -0.0426030383, -0.0047809328, -0.0240234453, 0.0335642844, 0.0973570421, 0.1243927628, -0.0728402585, -0.1587465256, -0.0099134436, -0.0297089741, -0.0157917682, 0.0041723694, -0.1134899706, 0.0535045825, 0.0698500797, 0.0029843315, 0.0897807106, 0.0182655379, 0.0326324813, 0.0009266328, 0.0441694558, -0.1636689454, 0.0150260767, 0.0154365534, 0.0226731673, -0.0007623043, 0.0335261635, 0.0985280201, 0.0440003946, -0.0463024080, 0.0829630643, 0.0808084980, -0.0598901398, -0.0529760793, -0.0174769945, 0.0134793287, 0.0352018923, 0.0099444985, 0.0504724421, -0.1557341516, -0.0530591533, -0.1141809672, -0.1062413752, -0.0354446620, -0.0203643329, -0.0966504142, -0.0175650530, 0.0468446985, -0.0285380334, -0.0049842857, -0.1492597312, 0.0174411517, -0.0803778395, 0.0157564469, 0.1987823844, 0.0137164081, -0.0006786223, -0.0316963717, 0.0196571611, 0.0678574368, -0.0149782086, -0.0535329245, 0.0724727139, -0.0396254808, -0.0773327798, -0.0501638651, 0.0362623259, -0.0547486581, 0.0208375789, 0.0598450787, 0.0849250406, -0.0781194642, -0.2058341950, 0.0230321661, -0.0915211812, -0.0546083264, 0.0859364644, -0.0817237273, 0.0009619122, -0.0019378916, -0.0502072610, -0.0315619633, 0.0766670480, 0.0063998611, 0.0148714380, -0.1054741070, -0.0051839943, -0.0366420038, -0.1233119667, 0.0428060442, 0.0352804177, 0.0531506278, 0.0136126801, -0.0648340732, -0.0269656349, -0.0254126843, -0.1100816727, 0.0712711886, 0.0801563114, -0.0702493638, 0.1088814363, -0.0545685366, -0.0354987048, -0.0726255253, -0.1009237692, -0.0292156208, -0.2280096114, -0.1395957172, 0.0971136540, 0.0748825222, -0.1213531494, -0.2583141327, -0.0297204591, 0.0821533054, 0.0031986916, 0.0304227583, -0.0694653541, -0.0485171378, 0.1947268546, 0.0889846236, -0.0224033538, 0.0369975083, 0.1389994621, 0.1007837057, 0.0049864906, -0.0109842168, -0.0910380557, 0.1123108044, -0.0962138921, 0.0686220974, 0.0158756003, -0.0506064780, -0.0192363169, -0.0307189859, 0.1332740188, -0.0679171458, 0.0827003494, -0.0715153962, -0.0806031302, -0.0587511472, 0.0621209368, 0.0682151988, -0.1204029620, -0.0473388806, 0.0656922162, -0.1010457724, -0.0777859315, -0.1939051151, -0.0302474070, 0.1979336441, 0.0243753325, -0.0201880652, 0.1286984384, -0.0602084175, 0.0912967175, 0.0462696478, -0.1070949361, -0.0588583685, 0.0426452644, -0.2606984079, 0.0461096466, -0.0525146537, 0.0351761580, 0.0284132846, -0.0897860304, -0.0218899250, 0.0028591370, -0.0525779203, -0.0465408750, 0.0068129310, -0.1672453433, 0.1071100980, 0.0280491598, -0.2088661194, -0.0997317508, 0.1882003844, 0.0437181965, 0.0351543799, -0.0147055201, -0.0014356009, 0.0442416444, 0.0234868452, -0.0633965582, -0.0902755931, -0.0031486310, 0.1396327317, -0.1627100557, 0.0412343293, -0.0547216721, -0.0730645284, -0.0698797330, -0.1726984829, 0.2076563537, -0.2567698658, -0.0129671739, -0.0779809132, 0.0628945529, 0.0066974801, 0.0501582734, -0.1143122911, -0.0988937765, 0.0035286862, -0.1994589716, 0.1602897942, 0.2258111238, -0.0658920258, 0.0392117128, 0.0100130774, -0.0112842247, -0.0298679173, 0.2060648799, -0.1286623180, -0.1114209220, -0.0761505440, -0.0507226288, -0.0004198938, 0.1604434848, -0.0490990132, -0.0792369172, 0.0393350795, -0.1349209100, -0.0908901989, -0.0331514589, 0.0378767103, -0.1573028117, -0.0246344693, -0.2126812190, -0.0993704125, -0.0983270705, -0.1705992371, 0.0271148104, 0.0563728437, 0.0499204025, 0.0326944031, -0.0574362166, -0.0192204956, -0.0064784344, 0.0026506155, 0.0147957029, -0.0355186053, 0.0742735118, 0.0647910163, 0.1443906426, 0.0267713200, -0.0395033136, -0.0783965439, 0.0042673349, 0.0110062063, 0.0692215562, 0.0402348042, 0.1251078695, -0.0085443584, 0.0004233424, 0.0654609650, 0.0092039201, 0.0395729840, 0.0156943221, 0.0536994785, 0.0966159105, -0.0222476441, 0.0529519431, -0.0737126991, 0.0262728296, 0.0253880583, -0.1647347063, -0.0019800602, -0.0994567871, 0.0006068528, 0.0015517145, 0.0899268538, 0.0961216465, 0.0642342865, 0.0085802944, -0.0875804722, 0.0782118216, -0.0519728139, -0.0031524263, -0.1137704328, 0.1466129571, 0.0257150158, -0.0662283674, 0.0489182770, 0.0471321307, 0.0448194891, -0.0513604395, -0.0087892143, -0.0249733720, -0.0220349487, 0.0368011408, -0.0068115308, -0.1086795703, 0.0636937693, 0.0276419614, 0.0405493528, -0.0378018133, 0.1704564095, -0.0187182613, -0.0537626855, 0.0678703487, 0.0153267598, -0.0586960129, 0.0876687318, -0.0206055902, -0.2032720596, 0.0745275691, 0.1029348448, -0.0454676300, 0.0806475207, 0.0241965353, -0.1097652242, 0.2115208805, -0.1320184767, 0.0024823505, 0.0631240085, 0.0559236147, 0.0158261787, 0.0388328284, -0.0587836057, -0.1133220792, 0.0900495350, 0.0364160389, 0.1794146597, 0.0295685548, -0.1452948451, -0.0549081303, -0.0038203553, 0.0171973109, 0.1644376516, -0.0507651009, -0.1185548827, -0.0549396165, -0.1005783230, 0.0146008078, 0.1613660753, 0.0790825337, 0.1225629300, -0.0337996446, 0.0262685549, -0.1224120557, 0.0082222670, -0.1043794006, -0.0057336781, 0.0089869229, 0.0864435956, 0.0229591858, 0.0553832054, 0.0728101805, -0.0632632449, 0.0365702286, -0.0774092972, 0.0322927795, 0.0355633348, 0.0626097247, 0.1133840084, 0.0673726872, -0.0072930828, 0.0175568499, 0.0598101579, -0.0045700553, 0.0378101096, 0.0206693076, 0.0096036429, -0.1021738276, -0.0264318902, -0.0479459465, -0.0149537697, 0.0725984797, -0.2740880847, 0.0124206292, 0.0694695041, -0.1604020745, -0.1076757163, -0.0686684102, -0.0460770205, -0.0534879342, -0.0954863429, -0.0892501250, 0.0247879308, 0.0152266901, -0.0582905822, 0.0051058107, -0.1254989952, 0.0975036249, -0.0229304228, -0.1065514982, -0.0730553120, -0.1234844700, -0.0304882172, -0.0115195317, -0.0560151897, -0.0000473495, 0.0415259562, -0.1840621829, 0.0477015898, 0.0382707044, -0.0406213440, 0.1927196234, 0.0915951207, -0.0221800599, 0.0922676995, 0.1334392726, -0.0239157006, 0.0817955881, -0.0290051755, -0.0330629982, -0.0539646521, -0.0343480892, -0.0147529906, -0.0464957245, -0.0261150207, -0.0647573918, 0.0519439541, -0.1793354154, 0.0702059940, -0.1201891229, -0.1046789512, -0.1153194085, -0.0048671891, 0.1052775234, -0.0987091064, -0.0911439136, -0.0062060514, 0.0016413680, -0.0338431634, -0.0891665593, 0.0583218895, -0.1821821630, -0.0370383486, -0.2076486647, 0.0065038786, -0.0370399170, -0.0839167386, 0.0776822567, 0.0126964347, -0.0154712908, 0.0856938735, 0.0986968055, -0.0689889565, -0.0732033104, -0.0892577320, -0.0332926139, 0.0627581254, -0.1520586312, -0.0312118419, 0.0104821129, 0.0588211194, 0.0118169952, 0.0343194976, -0.0078725200, 0.0838526711, 0.0008480706, -0.1008091792, -0.0989128575, -0.0110880919, 0.1084659100, -0.0921507180, 0.1638546288, 0.0314431787, -0.0207916796, 0.0046057468, -0.0784493908, -0.0366286635, -0.1252476126, -0.0529677905, -0.0083106104, -0.1123116389, -0.2551990449, -0.0544861108, 0.0458928049, -0.0928026214, -0.0228968002, -0.0085153310, -0.1048288047, 0.0301322471, -0.0343700163, -0.0825969949, 0.1111290753, 0.0196840279, 0.1146858335, 0.0958951786, -0.1245362386, -0.0188058876, -0.1936542541, 0.1337497532, -0.0851166919, -0.1282764375, -0.0697054267, 0.0010826827, 0.0692391619, -0.0163867790, 0.0529345870, -0.0366810858, 0.0496425256, 0.1515642107, -0.0840046778, -0.1152479425, 0.0369691812, 0.2221153527, 0.1054873466, -0.0482398830, -0.0426065736, -0.1619794667, -0.0567282885, 0.0512914099, 0.0587013103, 0.0040708892, 0.1672190577, 0.1020458862, 0.1194182262, -0.0453715511, 0.0244242698, -0.1090849489, 0.0623020157, 0.1248811856, 0.0598713756, -0.0096720634, 0.1506093889, 0.0521938391, 0.0579988360, 0.0089507494, -0.1369974464, 0.0742464960, 0.0356437564, 0.0492485426, -0.1785166264, -0.0121864667, 0.0979358926, 0.0722823963, 0.0425802581, -0.0364129208, -0.0548191592, -0.0344542861, 0.0513863713, 0.0647826269, 0.0004457804, -0.1144951209, 0.1690132469, 0.0434657522, 0.1083222777, 0.0666967630, 0.0195309594, 0.0580062903, 0.0795292035, 0.0486350097, 0.1451755017, -0.0919470787, -0.0672421083, 0.1435872167, 0.0690857768, 0.0102366675, 0.0265824441, 0.0168218147, -0.1358762234, -0.0749836341, -0.2246413380, -0.1184044480, 0.0324402452, -0.0664806738, 0.0421146043, -0.0495951287, -0.1512757093, -0.1135765687, -0.0934416130, -0.0109175630, -0.0670752004, 0.0400899835, -0.0073504085, -0.0752919242, -0.0690943077, 0.0047255759, -0.2663526833, 0.0378030390, -0.0000652502, -0.1283494979, -0.0895104781, -0.0781256855, -0.0736734420, -0.1028245986, -0.1390203983, 0.1267803013, -0.0240171067, 0.0215000771, -0.1337119490, -0.0153987324, -0.0861124322, -0.0907958522, -0.0494842604, -0.0250958223, -0.2378064692, -0.0293445960, 0.0245440416, 0.0665419623, -0.1210335121, -0.0397478938, -0.1180421561, -0.2176405787, -0.0528885834, -0.0405780599, -0.2676413953, -0.1272580326, -0.1294512153, 0.0042746500, -0.1662926823, -0.0397895835, -0.1003285423, -0.0480029806, 0.0825105086, -0.1082428172, -0.1415040195, 0.1617512554, -0.1494705230, -0.2160172313, -0.2245704532, 0.1248226315, -0.1314691454, 0.0898267552, -0.0204258543, -0.0003493552, 0.0075981892, -0.0525236130, -0.0981115997, 0.0275382921, -0.0021979206, -0.0350574106, 0.0418483466, 0.0861392766, -0.0452794395, 0.1894167811, -0.0522614829, 0.0467668027, 0.0600465015, -0.0227438044, -0.0273431558, 0.0630165860, 0.0772110373, 0.0144606037, -0.0524818487, 0.1318273395, -0.0119030075, -0.1000628769, 0.0410242938, -0.0133568682, -0.0422794670, 0.0227688272, 0.0131941801, -0.0272644553, -0.2429789603, 0.0375478975, 0.0384595133, -0.0146663217, 0.0405213200, -0.0028279291, -0.0049645198, 0.1671799272, 0.0146872271, -0.0240779407, 0.0685226992, -0.0210539438, 0.0174956527, -0.0607334152, -0.0291985162, -0.0100103058, 0.0476586074, 0.1535412371, -0.1401455253, -0.0800025985, 0.1446186304, 0.1244708672, 0.0212786943, 0.0619831681, -0.0151453204, 0.0072693550, -0.0316318907, 0.0521103032, -0.0212862808, -0.0991710201, -0.1167198718, -0.0195585024, -0.0700852051, 0.0035103834, -0.0347991362, -0.0077710277, 0.2067746371, -0.0620445274, 0.1761921644, 0.0512872338, 0.0800924003, -0.0599126481, -0.0312449932, -0.0285341181, 0.0099050403, -0.1015054658, -0.0421241969, 0.0738245845, 0.0030048904, -0.0725706890, -0.0745702535, 0.0185333714, -0.1289922744, -0.1063135564, 0.0796887353, -0.0401071720, 0.1205586568, -0.0875332430, -0.0845339075, -0.0048269895, 0.0762961805, -0.1154706776, 0.1145032421, 0.0548733771, 0.1558724046, 0.0113220373, -0.0772814080, 0.1476595998, -0.0877813101, -0.0806597099, 0.0497613326, -0.1283954829, -0.0681587160, -0.1450608671, -0.0657990575, 0.1473947316, -0.0482260622, 0.0689080060, 0.0478608496, 0.1436183751, -0.1161943004, 0.0662587956, 0.0997785032, 0.0002658748, -0.1526104510, 0.0294439346, -0.1020337269, -0.1721839905, -0.1511751413, -0.0210227165, -0.0602860004, -0.0653956309, 0.0302153174, -0.0077899108, -0.1376624703, 0.0054606660, 0.0059923683, 0.0632316470, -0.0283246487, 0.0228805915, 0.0511664376, -0.0529700145, 0.0248022396, 0.0367005877, 0.0006498711, -0.1595770866, -0.0082741855, -0.0462614633, -0.0605151206, -0.0355549008, 0.0009854237, 0.2023521513, 0.0058122659, 0.0096749645, -0.0955352932, -0.1286940724, -0.1209490448, -0.0384786315, 0.0965086967, 0.0138686243, 0.1362934262, 0.0765702501, 0.0549892895, -0.2213838696, -0.0423163585, 0.1054206640, -0.0362129807, -0.0093907956, -0.0613124557, 0.1328393519, 0.0290549658, 0.0996254236, 0.0078582158, -0.1219314113, 0.0954541937, -0.0319297165, 0.0559018627, 0.2309390306, 0.0776134059, 0.0367722735, -0.0353711098, -0.0842041150, 0.1071340218, 0.0198111366, -0.0681552291, -0.0841274634, 0.0354527235, -0.0604307950, -0.0670184344, -0.0219024345, 0.0280250814, 0.0410429165, -0.0280664023, -0.0957864597, -0.0705816597, 0.1007054895, 0.1432138830, -0.0502057150, -0.0411676168, -0.0964666456, 0.0033032724, 0.0752433613, 0.0303857177, 0.0468903407, 0.0441075079, -0.1314488649, -0.0463659205, -0.0156743228, 0.1102624238, -0.0225950051, -0.0216047317, 0.0273104180, 0.0082045635, -0.0063734432, 0.1146097481, 0.0748545304, 0.1660877913, -0.0132139772, -0.1016808376, 0.0570426174, 0.2407707870, -0.1624179631, 0.0344145112, -0.1010233834, 0.0921864212, -0.0445401967, -0.0588238463, -0.2800045013, 0.0476075336, -0.0144686904, -0.0616074800, -0.0521742776, 0.2334059328, 0.1231587976, 0.0458520763, 0.0227239858, 0.0789032951, -0.0839889124, -0.0671878681, 0.0198313445, 0.0539833345, 0.1698241234, -0.0575988740, 0.1335276067, -0.0921103582, 0.0324784555, 0.1560131758, 0.1638624072, 0.0721311346, -0.1852182597, 0.0375415012, -0.0501568690, -0.0121534308, 0.1129022613, 0.1255575120, 0.0452990383, 0.1040690169, 0.0225416757, 0.0491376296, 0.0219497066, -0.0285268314, 0.0351445675, 0.1050567254, 0.0055778325, 0.0319302939, 0.1040394455, 0.0529710464, 0.0128465826, -0.0320821144, -0.0783081576, -0.0463525765, 0.1203102767, 0.1704251766, -0.0586770400, -0.0997811407, -0.0377810299, -0.0832346901, 0.0956272259, 0.0038874331, 0.2068280429, 0.1999103874, -0.1024279818, 0.1051679775, -0.0020724046, 0.0134281665, -0.0190439802, -0.0152214570, -0.1307356209, 0.1783344150, 0.1753482223, 0.0537075512, 0.1291092932, 0.1115154848, 0.2820148766, 0.0900644362, 0.0122892894, -0.2568939030, 0.1409453452, -0.0591346845, 0.0847289041, 0.0523815528, -0.0786410570, -0.1453821808, 0.1013033614, -0.0696858764, 0.0215059444, -0.0231577363, -0.0458660685, 0.1374756098, 0.0235445946, -0.0026250342, -0.1273498535, 0.0147988787, 0.0936221406, 0.0422148965, -0.0165585447, 0.0261286385, -0.0220488440, -0.0712586045, -0.0034066355, 0.0130350841, -0.1231561527, 0.0761739761, -0.0550087541, -0.0014923230, 0.0536039174, -0.0630003661, 0.0800127462, -0.0104084993, 0.0104560275, 0.0781665742, -0.0728835166, -0.0047402121, 0.1239872277, 0.0961331278, -0.0664675832, 0.0301621836, -0.1085057035, -0.0554249249, 0.1037427112, 0.1482014656, -0.0179258846, -0.0684028938, 0.0012086155, 0.1164984778, 0.0439022332, -0.0404008403, -0.1339308619, -0.0974423736, 0.0198924989, -0.0775920600, -0.0485235564, -0.0442429073, -0.1057951078, 0.1446721405, -0.0236064792, -0.0008542602, -0.1130484119, 0.1363868564, -0.0154627981, -0.0607476458, -0.0024869428, 0.0846319497, 0.0040948051, -0.1136616543, 0.1439147294, 0.0026252586, -0.0031599915, 0.0972142294, -0.1302602440, -0.0787497461, 0.0347940587, 0.0090236031, -0.0388191901, 0.0201501884, 0.0900327191, 0.0220351908, -0.0636451095, -0.0899221823, 0.0200713295, 0.1064520478, 0.0026036545, -0.0581115820, -0.0632345974, -0.0582875572, -0.0302164368, -0.0283877552, 0.0787044987, 0.0284894686, -0.0540621728, -0.1475601643, 0.0381780975, 0.1813025326, -0.0667441189, -0.0488394573, 0.0126553094, -0.1240366176, -0.0159321800, 0.1850783825, -0.1400046796, 0.1467045546, 0.0375732221, -0.0460531451, -0.0249229837, 0.0644103587, -0.0040157060, -0.0695034787, 0.0507547334, 0.0419657454, -0.0178816207, -0.1083337367, 0.0855223015, -0.1164449826, -0.0070652082, -0.0128917107, 0.1185622364, -0.0542802326, 0.0109995706, -0.0599752739, -0.1330488622, 0.0009047635, -0.0885117576, -0.0171654038, 0.0389420912, 0.1197620109, -0.0422024466, -0.1171088815, -0.1185813323, -0.0462902859, -0.0420552939, 0.0101261912, 0.0543899573, -0.0172284823, -0.0723072365, -0.0330621861, 0.0721946657, -0.0336862542, -0.0290880967, -0.0606984943, -0.0462368950, 0.0175639652, -0.1358053982, -0.0276469067, -0.0204355512, -0.0635814145, 0.0874351859, 0.1735749841, -0.0035931123, 0.0038909244, 0.1405767798, 0.0846031979, 0.0306876712, 0.2293366045, -0.0421097465, -0.0818252712, -0.0741239116, -0.0607801564, 0.0380063094, 0.0060718488, -0.0741820931, 0.1343895495, -0.0432278924, 0.2315845191, 0.0464129895, -0.0843608305, 0.0586523414, 0.0000172200, 0.0908898711, 0.2119439840, 0.1899030954, -0.0570193380, -0.1188430116, -0.0429864004, 0.1325192899, -0.0445872061, 0.1157467142, 0.2244072258, 0.1020702869, 0.0610154308, 0.0426936299, -0.0009106985, 0.0532812551, 0.1093197912, -0.0806089342, -0.0954474211, 0.0443146601, 0.0392051935, 0.0033171002, 0.0442895815, 0.0666654408, 0.0647400990, -0.0127494484, -0.0247620922, 0.0015025681, -0.0056862426, 0.0707357004, 0.1881650239, 0.1150789708, -0.0293970909, 0.0354638621, -0.0403023958, -0.0097588059, 0.0338344947, 0.0395372808, 0.0081582889, -0.1061614603, 0.1140024066, 0.0700020120, 0.1817583591, 0.1870243549, 0.0864129141, -0.1711067110, 0.0438901000, 0.0927542597, 0.0462516993, -0.0339482017, 0.0297646895, 0.0530261807, 0.0679404810, 0.0609229021, 0.0516282320, 0.1022971496, 0.0337584615, 0.0636975169, -0.0656492785, 0.0632750392, -0.1515249759, 0.0531617291, -0.0200178325, -0.0562908277, -0.0147897415, 0.0538602211, -0.0242748410, 0.0610440560, 0.0091619724, -0.0496051796, 0.0255176090, -0.0024193071, 0.0395471677, 0.0327223353, 0.0530535467, -0.0016861329, -0.1215812862, 0.0506382473, -0.0719840229, -0.0253522210, 0.0947896987, -0.0393304862, -0.0609804690, 0.0428988226, -0.0500499718, -0.0140355714, -0.0990599319, 0.0631580427, -0.0146463672, 0.0037527971, 0.0086304303, -0.0486210510, -0.0074647679, -0.1261055768, 0.1092842966, 0.0599447340, 0.0743399933, -0.0254988503, -0.0256535634, 0.1071342006, -0.0699158460, -0.0292624086, -0.0331637450, -0.0129250530, -0.0657464862, -0.0016889357, 0.0287575275, -0.0055921576, 0.0156419557, -0.0342947878, 0.0598575138, 0.1359415948, -0.2039940059, 0.0472092852, -0.0057061827, 0.0701062903, 0.0385327898, 0.1194808707, -0.0411560573, 0.0464437604, 0.0535446033, 0.0508497208, -0.0044939802, 0.1284220368, -0.0638451651, -0.1550317407, 0.0333329514, -0.0701766014, 0.0036832374, 0.0180835389, -0.0130686695, 0.1217849255, 0.0278055202, -0.0316027738, 0.1436121166, -0.0957820341, -0.0022085246, -0.0677940249, -0.1311246753, -0.0195451137, -0.0753110722, 0.0544696152, 0.0874820352, 0.0046232976, 0.0558648482, 0.0336129889, -0.1315937042, -0.0835252330, -0.1285468936, 0.1030995995, 0.1345994025, -0.1508390456, -0.0420902856, 0.0027846347, 0.0115830582, -0.0302769300, -0.0924765021, -0.0285603628, 0.0910258889, -0.0613433830, 0.0062233629, -0.0339500271, -0.0187398940, 0.0093331849, -0.0567917079, -0.0048980219, 0.0553078353, -0.0598490946, 0.0956913754, -0.0337004848, 0.0742254928, 0.0478877537, -0.0424328037, 0.0868434086, 0.0338875875, -0.0188371353, -0.0758820847, -0.1916973144, -0.0671403036, 0.0086248694, -0.1551160067, 0.0619212836, -0.0281958543, 0.0663477480, -0.0396695100, 0.0896739587, -0.2178937346, 0.1947672069, -0.0894497409, -0.0015270620, 0.0013237270, 0.1277149767, 0.0192624070, 0.0441741571, -0.0330921449, -0.1596058458, 0.0157471858, -0.0479818732, -0.0702877045, 0.1263303161, -0.1084090024, -0.0902214646, -0.0817979425, 0.0102939904, -0.1032293737, 0.0417893380, 0.0306029785, 0.1035070270, 0.0671173930, 0.0358498283, 0.0497478247, 0.0164224114, -0.0178284589, -0.0065383930, -0.1087246835, 0.0667101890, 0.0006640204, 0.0455712229, -0.0515971221, -0.0083338218, -0.2447256744, -0.0332361124, 0.0261517689, 0.0824094862, 0.1041021720, 0.0236109532, -0.0928072780, 0.1648246795, -0.1085356250, -0.0810830519, 0.1871439070, 0.0433426425, -0.0165534671, 0.0208628215, 0.1156246513, 0.1157052889, -0.2118399888, 0.1121359542, 0.0825070515, 0.0965215191, -0.0172348879, 0.0530065000, -0.1665472090, 0.0046186130, -0.1197781414, -0.0336004868, -0.1624294668, 0.0137788681, -0.0448345989, 0.1455528140, 0.0142506259, -0.0607237965, -0.0158945620, -0.0318632498, 0.0545765385, 0.0049008122, -0.0278580394, -0.0527449511, -0.1038828343, -0.1203860939, -0.1069128215, -0.0130871255, -0.0642895401, -0.0633438081, -0.0718816370, -0.0731275454, -0.1738158315, -0.0137817757, -0.0293486807, 0.0485649742, 0.0494328998, -0.0263824854, -0.1441188604, -0.1515194029, -0.0911051333, 0.1659947187, -0.0147613334, 0.1124628708, -0.0504695028, 0.0850303024, 0.0980872363, -0.0504723154, 0.0592751019, 0.1381000429, -0.0097188158, -0.0713655800, -0.0696393251, 0.1643726975, -0.0798169449, 0.0394674018, -0.0259427242, -0.0665675774, 0.0776470080, 0.1627170295, 0.0242352672, -0.0113634570, -0.0556155406, 0.1167688966, -0.0918145329, 0.0154665858, 0.0453240573, 0.0190162938, 0.0711507872, 0.0671185851, 0.1247714907, 0.2090633512, 0.1519283652, -0.0147301396, -0.0396909192, 0.0311157517, -0.0671125799, 0.0537185371, 0.0283471011, -0.0372733027, 0.0454162955, 0.0514127687, -0.0170240793, 0.0105491215, -0.0593548715, -0.0229084119, 0.0339803398, 0.1456966847, 0.1003570482, -0.0705763698, -0.0742649585, -0.0345141925, 0.0803133100, 0.0875812992, -0.0519495793, 0.0248733833, 0.1167127714, 0.0480195656, 0.0495766960, -0.0336159505, -0.0992894843, 0.0019025353, 0.0234055445, -0.0532331429, 0.0068852659, 0.0442913957, 0.0640969351, -0.0858775377, -0.0330955908, 0.0698904097, 0.0511117280, 0.0569808818, -0.0732427761, -0.0326174498, -0.0313326567, 0.0307372212, 0.1837163866, -0.0299056191, -0.0064980523, -0.0039091329, -0.0483028628, -0.1050337702, -0.0362215228, -0.1160099879, 0.0639843643, 0.0038498258, 0.0344595462, 0.0349310525, 0.0870817676, 0.0489327647, 0.0152236903, -0.0866052657, 0.0067760823, -0.0246704351, -0.0537767336, 0.0342414118, -0.0518912673, 0.0010821174, -0.0115894405, -0.0534356646, -0.0178962536, -0.0665535256, 0.0057947123, -0.0013278264, -0.1015644595, -0.1207975447, -0.0102816001, -0.1022037342, -0.1987755001, -0.0376942419, -0.0974546224, -0.0792980418, 0.0196465217, -0.1478670239, -0.0105683524, -0.1099932268, 0.0751028582, 0.0379811712, 0.0661472380, -0.0333334319, 0.0075908503, -0.0217160769, -0.0099793496, -0.0330550894, -0.0121789332, 0.0305909514, 0.0212556887, -0.0167754218, -0.0719668642, -0.0387154743, -0.0113071082, -0.0059379437, -0.0504996814, 0.0065772617, 0.1338908672, -0.0311710741, -0.1157501563, -0.0653139725, 0.0196940750, 0.0477940701, 0.0199755672, -0.0782296434, -0.0074344217, 0.0107633304, 0.0634363666, -0.0197209548, -0.0557954758, -0.1374110430, -0.0426197350, 0.0058412454, -0.1805019230, 0.1283990592, -0.0220617373, 0.0013017514, -0.0337520167, -0.0393930003, -0.0331254005, 0.0210968591, -0.0049040173, -0.0410069339, 0.0333106779, 0.0191699956, -0.1107265130, 0.0024367953, -0.0102982903, 0.0914186612, 0.0175024476, 0.0077794511, -0.0362281278, -0.0955338255, -0.0023205134, 0.0437783450, 0.0767151415, -0.1216501817, 0.0449046120, 0.0453579798, 0.0578106791, 0.0230818987, 0.0411191583, -0.0084957117, 0.0569385365, -0.1227846593, -0.0472115614, -0.0452964157, 0.1507650912, -0.0155767789, -0.0071890983, -0.0902857259, 0.1519974470, 0.0423405580, -0.1324071288, -0.0303889513, -0.0566649735, -0.0243193265, 0.0232013352, -0.0057434244, 0.1530629843, 0.1439669728, 0.0028653780, 0.0189059358, -0.0496677905, -0.0381604061, 0.1039939448, 0.1482689679, -0.0870054513, -0.2254032940, -0.1752448678, -0.0562870950, 0.0120234946, 0.0329745747, 0.0335530303, -0.0398812555, -0.0689077005, 0.0559227765, 0.1003693938, 0.0196549054, -0.0697933137, -0.0255604703, 0.0206574444, 0.0100887883, 0.0303740390, 0.0074169440, -0.1459879875, -0.0131896427, 0.0715856403, -0.0148566933, -0.0612669289, 0.0072779348, 0.0288258214, -0.0367356353, -0.0511421114, -0.0287081860, -0.1250206679, -0.1510036141, -0.0097958660, 0.0566244274, -0.1765498966, -0.0079125641, -0.0698392540, -0.0645372793, -0.0406211838, -0.1451549828, -0.0750400424, -0.1049746796, 0.1554046720, 0.0273820106, -0.0085820695, -0.0429912806, -0.0565285347, -0.1234185696, -0.0539719500, -0.0632837415, -0.0154148210, 0.0695123523, 0.1062632203, -0.0590459220, -0.0872629434, 0.0284528695, -0.0693929195, 0.1570336521, -0.1765744388, 0.0020169551, 0.1622247845, 0.0359838456, 0.0250733010, -0.0117570786, -0.0904436260, -0.0019149927, 0.0484030806, 0.0433981009, 0.1490796357, -0.0690029040, -0.0933179185, 0.0435151085, 0.0705399588, -0.0633687973, -0.1308369935, -0.1084607020, -0.0741049573, 0.0118423095, 0.0045238994, -0.0206523240, 0.0196428262, -0.0433277488, -0.0410259515, -0.0262551717, -0.1545065790, -0.0345453955, 0.0398248136, -0.0390987173, -0.0060206507, -0.0565835461, -0.0880537927, 0.0022207676, -0.0873502046, 0.0333898291, -0.0686890632, -0.0625046864, -0.0388968587, -0.0541297644, -0.0349092036, -0.1889202893, 0.0138002522, -0.0651936978, -0.0906125084, 0.0366609842, 0.0025403546, 0.0187403914, 0.0966053754, -0.0955729261, -0.0884092674, 0.0288188718, -0.1285899431, -0.1041922197, 0.0492209569, 0.0660262480, -0.0144412033, -0.1256228238, -0.0420781560, -0.1157971695, -0.1038437560, -0.0536761656, 0.0622441694, -0.0234881639, 0.0443581901, -0.0305159837, 0.0549153835, 0.0058642770, 0.0929672495, 0.0603810735, -0.0576475710, 0.1317722201, -0.0546196923, -0.0302138012, -0.0702023134, 0.0178977065, 0.0282156207, -0.0755245015, -0.0188727975, -0.0088014891, -0.0635580495, -0.0761701614, -0.0252885949, -0.0166680459, -0.1439305544, -0.0836079791, -0.1030345187, -0.0711715743, -0.0654845312, 0.0342904218, 0.1140605807, 0.0230855513, -0.0330538563, -0.1225848943, -0.1732225120, -0.0911782384, 0.0372866653, -0.0179611649, 0.0332914442, 0.0384645574, -0.0648459867, 0.0903161317, 0.0374500193, -0.0600623116, -0.0480930209, 0.0349618904, 0.1129834056, 0.2182080299, 0.1103565246, 0.0385231562, -0.0092200991, -0.0660332963, 0.0589277819, 0.1468151659, -0.0308517646, 0.1262757331, 0.0306339022, 0.1309332103, 0.0677411109, 0.0546625368, -0.1001756862, -0.0666462630, -0.0072144270, 0.0100980727, -0.0230880696, 0.0688043237, 0.0083007384, 0.0105896667, 0.0507089607, 0.1131123453, 0.0857194066, 0.0393915251, -0.0295167640, -0.0991314575, 0.0322363116, 0.0488631502, 0.0458428115, -0.0337278396, -0.0255765356, -0.1045922115, -0.0001620718, -0.0410311706, -0.0285068676, -0.1129225045, 0.1358441561, 0.0008876370, 0.0447471663, 0.0932997093, 0.0940072834, 0.0650483221, -0.0567769036, -0.0617773235, 0.0108159920, -0.0468962155, -0.1390785426, 0.0716866404, -0.0647414252, -0.0632374212, 0.0165892690, 0.0148462066, -0.0296062008, -0.0228803456, -0.0371913202, -0.0858848989, -0.0714747906, -0.0269735903, -0.0047366251, -0.0616037063, -0.0718156248, -0.0689193010, -0.0784233809, -0.0102174133, 0.0136071518, 0.0930760577, -0.0604142174, -0.0890083835, 0.0502582155, -0.0714025572, -0.0460034497, 0.1242872328, 0.0153993396, -0.0263100024, 0.0080940695, -0.0122251185, 0.0324779488, -0.0668329000, -0.1030279994, -0.0201834384, -0.0461674742, -0.0332356952, 0.0145577658, 0.0740859434, 0.1255366504, -0.0716843084, 0.0600752719, 0.0367870554, -0.0208626445, 0.0682983249, -0.0896851346, 0.0058745998, -0.0235424321, 0.0775779039, -0.0436422750, 0.0284543764, -0.0921343267, -0.0275717732, -0.0107592428, 0.0723838359, -0.0536813512, 0.0169798024, -0.0205322783, 0.0787010714, 0.0777634382, 0.1280865520, 0.1163106114, -0.1145107672, 0.0175151099, -0.0666929856, 0.1602135152, 0.1224073917, 0.1416809857, 0.0458932295, 0.0891526118, -0.1103408337, 0.1542447656, -0.1373174191, -0.0159771796, 0.2466030568, -0.0810974315, -0.1492062807, 0.0507818460, -0.1305805743, -0.0839258060, -0.0796098113, 0.0484086499, 0.0230095126, -0.0676513091, -0.0267345477, 0.1252096146, 0.1475967765, 0.0132464617, -0.0573314540, 0.1277954578, -0.0131099056, -0.0234208833, 0.0884044692, 0.1870546192, 0.2150166482, 0.1632440239, 0.0008157774, 0.1030128151, 0.0477404632, 0.0549880005, 0.0208981428, -0.0578077361, 0.0383024029, -0.0074823047, -0.1058736816, -0.1757422984, 0.0545080788, 0.0716332495, -0.1124516055, 0.0444329567, 0.0275214128, 0.1064260975, 0.0152059235, 0.0269933622, 0.0862566680, -0.0641156882, 0.2348110825, -0.0597475916, -0.0793093890, 0.0748454481, 0.1028038636, 0.1266480684, 0.0174916480, 0.0451279990, 0.0153851602, -0.0235532839, -0.0146006858, 0.0835402608, -0.0640947223, 0.0226121638, -0.0259307846, -0.1282840967, -0.0511956811, -0.0702262223, -0.0592471957, 0.0226905663, -0.1028980166, 0.0890585929, 0.0120968977, 0.0178155228, 0.0423332714, 0.0057468941, 0.1728865653, -0.0614177585, 0.1341519803, -0.0490111820, 0.0371020474, 0.0683926791, -0.0949578807, 0.1199491620, -0.0666313320, -0.0619930290, -0.0120519483, 0.1432327628, -0.0846695527, -0.2410812080, 0.0073190238, 0.0080618858, -0.1074957699, -0.0482617877, -0.0526814237, 0.2035513222, -0.0630348250, 0.1241267622, -0.0231615454, 0.0002035541, 0.1428416818, 0.0217748247, -0.0362339616, 0.0304778498, -0.0603350922, -0.1553856879, 0.0031502796, 0.0096431654, -0.0585915223, 0.0033719079, -0.0081114564, 0.0570330881, -0.0125454376, -0.1382285953, -0.0227684602, -0.1030225828, 0.0892908052, 0.0463696606, -0.0243944433, -0.0470583141, -0.1181161553, 0.0404470414, 0.0909699276, 0.0119906515, -0.0138129676, 0.1021397337, 0.0069539025, -0.1184410453, -0.0431321040, -0.0471799634, 0.0194629077, -0.1352262348, -0.0930787772, -0.0308886822, -0.0959634036, -0.0625697076, 0.0668856204, 0.1240239888, 0.0055002002, 0.0390359983, -0.0227325428, -0.0189016499, -0.0494912006, 0.0824247152, -0.0249246694, -0.0155856591, 0.0776351765, 0.0637162477, 0.0308151711, -0.0169115588, 0.0507839546, -0.0277660303, 0.0059247282, 0.0810271204, 0.0163086224, 0.1613140404, 0.1925378740, 0.0515615754, -0.0499788076, -0.0689800158, -0.2074967772, -0.0238894615, 0.0147732003, 0.0587518699, 0.1413325965, 0.0981074423, 0.0954965353, -0.0585859083, -0.1260423958, -0.0702331662, 0.0088177463, 0.1439900398, 0.1713605672, -0.0188099444, 0.0134739988, 0.0213064440, -0.1156549752, 0.0288615692, -0.2183716893, 0.1349208504, -0.0878577232, 0.1159669980, 0.0313604064, 0.0825140476, -0.0210472122, -0.0244952869, 0.0371389575, -0.1172329038, -0.0545229428, 0.0024001044, -0.0875971615, 0.0687747970, 0.0172481500, 0.0320561454, -0.0257784463, 0.0486087762, 0.0616478473, 0.2080093324, 0.0666463152, -0.1031832322, -0.0830889568, -0.0985751823, 0.0378194414, -0.0016304430, -0.0834308788, 0.0518108457, -0.0604446940, 0.1993585974, -0.0683001131, -0.0721424147, -0.1243879572, -0.0772801936, 0.0811878443, 0.0204706602, -0.0221843310, -0.0767477825, 0.0680600628, -0.0586078689, 0.0251798145, -0.0457852706, -0.0366874635, -0.0060220049, 0.0756726190, 0.0163917709, -0.0455398448, -0.0839100182, -0.0585131012, -0.0531391129, -0.1209599227, -0.0358194970, -0.1112488136, 0.0417724103, -0.0061308010, -0.0826069042, 0.0583169423, -0.3114866018, 0.0141758053, 0.0194412023, -0.0845732540, 0.0115304021, 0.0049482919, 0.1235645786, 0.1621937156, -0.0516300462, 0.0529153384, 0.0196984615, 0.0747541115, -0.0447757579, 0.0249310452, -0.1071639806, -0.0278735030, -0.0193744507, -0.0458799303, 0.0492746644, 0.1327592432, 0.0623043254, -0.1198884323, 0.1175467074, -0.0810181573, -0.0406421758, -0.0601905808, -0.0768185630, 0.0834494457, -0.0551789366, 0.0016757973, -0.0208684113, 0.0726464465, -0.0475162342, 0.1632732153, 0.0696012452, 0.0734466612, -0.0560267307, -0.0638999119, 0.0077683153, 0.0068609202, -0.0410633273, 0.1346891820, 0.1883410662, -0.0415385291, -0.0610095486, -0.1213363484, -0.0943910927, -0.1250413060, -0.0000380072, -0.0011159470, 0.0376155637, 0.0140517261, -0.0602385588, 0.0746795312, 0.1146718040, 0.0806568712, 0.0499548875, -0.0044356892, -0.0472534038, -0.0665035471, 0.0255429707, -0.1921872199, 0.1507478505, -0.0667272657, 0.0448290370, -0.0356284194, 0.0323546231, 0.0982849151, -0.1224285290, 0.0973496586, -0.1637199521, -0.1257684678, 0.0118162856, 0.0843604058, -0.0233634356, 0.1151906550, 0.0799967796, 0.1229822487, -0.0782955289, -0.1527272165, -0.1418536007, 0.0728672966, -0.0966756344, 0.0715675056, -0.0291650910, 0.0305394996, -0.0379321016, 0.1366118342, 0.0024594604, -0.0161558427, 0.0418569818, -0.0868678167, 0.0263011232, -0.0753873959, 0.0979988202, 0.0264133494, -0.0491378568, 0.0838370249, 0.0239306018, -0.0696631521, -0.0695241913, 0.0125237769, 0.0241800118, 0.0854236856, -0.0416336395, -0.0406744927, 0.0663659647, 0.0562517531, 0.0323256403, 0.0104772151, -0.0196217690, -0.0489666946, 0.0785957873, -0.0860112011, -0.0655839592, -0.0585305579, -0.0426240079, 0.1270093173, 0.0341325067, 0.0657862872, 0.0130720017, -0.0649126023, -0.0190836769, 0.0636095181, 0.0155163491, 0.0145758130, -0.0032463057, 0.0241528433, 0.1380968690, 0.0919917524, 0.0190854184, 0.0557943135, -0.0109064085, 0.0087142512, 0.0279163308, 0.0707108378, -0.0276227165, 0.0935294703, -0.0558149144, 0.0297064465, -0.0247628391, 0.0243101045, 0.0812425986, -0.0689734593, 0.0241980664, -0.0694838762, -0.0503974184, -0.0277612489, 0.1228910908, -0.0739989728, 0.1618611366, 0.0506996810, -0.1197249964, 0.0631912500, -0.0432257093, 0.0001144180, -0.0644070581, -0.0251464266, 0.0979012921, 0.0811693519, 0.0996569172, -0.1498578042, -0.1690725386, 0.0271575153, 0.0435060821, -0.0408945754, 0.0274790023, -0.0079100318, -0.0060282042, 0.0213786233, -0.0113265514, 0.0106381094, -0.0234048497, -0.0673952624, -0.2468114495, 0.0552852079, -0.1000471413, -0.1471129954, -0.0242508557, 0.0358373523, -0.0687682405, -0.0239967201, -0.0253281947, 0.0318403766, 0.1266642660, -0.0249369219, -0.0828637108, -0.0769835189, 0.0299393814, 0.0264503732, -0.0784018934, 0.0643976554, -0.0838361233, 0.0212423280, 0.0172864795, 0.0437293500, 0.0876364633, -0.0239398386, 0.0499036424, -0.0722017437, 0.0527778417, -0.0637817830, -0.0966695547, -0.0336264484, -0.1043609232, -0.0391424969, -0.0851044506, -0.0242603719, -0.1061681286, 0.0490648597, 0.0015812221, 0.0433822609, -0.0552047752, 0.1504422277, 0.0917722732, 0.0367615186, -0.1615004390, -0.1483890712, 0.0144686447, -0.0074861585, 0.0822428390, 0.0879269764, 0.0957905948, 0.0132076303, 0.0898064524, -0.0130210938, -0.0792394951, 0.1248873696, 0.1456720382, 0.1424614489, 0.1774614453, -0.0197218023, 0.0335459039, 0.0626058578, -0.1497606635, 0.2123310715, 0.2738191783, -0.0015075845, -0.0655714571, 0.0550139137, 0.0756756589, -0.0154979294, 0.0858504176, 0.0464754179, 0.1683915704, 0.0977534428, 0.0663417056, 0.0726801977, 0.0306982566, -0.0392629057, -0.0270538926, -0.0908127204, -0.0076063871, 0.0182277150, 0.1234916374, 0.0378218628, 0.0930129588, 0.1369627863, 0.1063098684, 0.0177974105, 0.0795198083, -0.0297034290, 0.0496780612, 0.1843180805, 0.0478903875, -0.1230181456, 0.0790523216, 0.1043541282, 0.0201403461, 0.1358847916, 0.1689554751, 0.0175557025, -0.0071508242, -0.0551287755, 0.2086515576, -0.1251629889, 0.0104489382, 0.1081611440, -0.0670004040, 0.1058948115, 0.0635440126, 0.0385643318, 0.0382273756, -0.0254541617, 0.1671789140, 0.0250034016, 0.0811243057, -0.0140583813, 0.1134729385, -0.0218085889, -0.0903562233, 0.0375231318, 0.0740943924, 0.2234290987, 0.1450553536, 0.0620573387, -0.0313184150, -0.0398479514, 0.0651080534, 0.0819929540, -0.0120977936, 0.0172777455, 0.0644822493, 0.0997379795, 0.1184881777, -0.0548976064, -0.0082035372, 0.0263931602, 0.0882034823, 0.0176543128, 0.0348907225, -0.1149517521, 0.0571368933, 0.0093748914, 0.0358796529, 0.0035664940, 0.0606955625, 0.0078612184, -0.0995531902, 0.0178024136, 0.0360356122, 0.0931621417, 0.1677902192, 0.1374435276, -0.0146272369, -0.1391170919, 0.0422806218, 0.0521224588, -0.0217292514, -0.1038422734, 0.0783105046, -0.0153569020, 0.0146417059, 0.0524000041, 0.1000838280, 0.1212380975, -0.0196276270, -0.0727893785, -0.0103544937, -0.0424276628, -0.0813103616, -0.0206006877, -0.0755122155, -0.0195168685, 0.0188791789, -0.0175513830, -0.0369129926, 0.0396363176, 0.0466395542, 0.0084220497, 0.0236543585, -0.1134569645, 0.1065874100, 0.0098113483, 0.0102131739, -0.0251573808, 0.0642283708, 0.1337552220, 0.0413693562, 0.0066708946, -0.0324995108, -0.0138431247, -0.0021532301, 0.1174998879, 0.0567188151, 0.0755843073, 0.0650960952, 0.1536099762, 0.0092309993, 0.1121535078, -0.0045187422, -0.0383629799, 0.0486325137, -0.0152956164, -0.0242631249, -0.0655883998, 0.0156313963, -0.0618703738, -0.0455696657, -0.0282923561, 0.0324215889, 0.0085761882, -0.0259849615, -0.0666038841, -0.0172871500, -0.0315629542, 0.0538010597, 0.0250639841, -0.0046671438, -0.0570197776, 0.0192236956, 0.0458293483, -0.0507706814, -0.0703161657, 0.0380291641, -0.0469612107, -0.0671344548, 0.0065542776, 0.0726691037, 0.0563690662, -0.0045376834, -0.2447380424, 0.0297748800, 0.0394774862, -0.0283994600, 0.0742534623, -0.2118495554, -0.0289069042, 0.1050636247, -0.0133460891, -0.0330418311, -0.0106537519, 0.0683390200, 0.0807159469, 0.0812538862, -0.0224154200, -0.1254137456, -0.0487637930, -0.0498499982, -0.1689478606, 0.0420438983, -0.0332424939, -0.0173994973, 0.0199306831, 0.1267244667, -0.0255543273, -0.0551390611, -0.0305393338, 0.1581217051, -0.2164757699, -0.2026366591, -0.0477525145, -0.1851443648, -0.0339809619, 0.1566749066, 0.0198935848, -0.0828878284, -0.0201002900, 0.0956476256, 0.0648275688, -0.0924103484, -0.0506703332, -0.0782460496, -0.0899477527, 0.0002389683, -0.0091094589, -0.0065258709, -0.0873826668, 0.0912996233, 0.0955782607, -0.0551168323, -0.0809795335, 0.0480163656, -0.0136550199, 0.0056648678, 0.1020385101, 0.1098789349, 0.0451617688, -0.0072307736, -0.0635869056, -0.1619087160, 0.0355990045, -0.0341371223, -0.0190883540, 0.1087311208, -0.0715700909, 0.0725659057, 0.0158557910, 0.0809594765, 0.1036055088, 0.0431255288, 0.0356616899, 0.0026326613, -0.0938066021, 0.0542836636, 0.0450159535, 0.0612656511, -0.0461509973, 0.0200253744, -0.0113325119, -0.0977619961, -0.0330402926, -0.0232510902, -0.0052668131, 0.0145695899, 0.1298436522, 0.0929505229, -0.0203906726, -0.1041975692, -0.0758837089, 0.0672157481, -0.0530279689, 0.0855605900, 0.0335182846, 0.0184723102, 0.0446556769, -0.0887703672, -0.0721857250, 0.0374249890, 0.0386338122, 0.0363801047, 0.0392419249, -0.0126846600, -0.0286108069, 0.0392196700, -0.0680856928, -0.1262530237, -0.0331262685, -0.0705923364, -0.0363579877, 0.0172449742, 0.0077402950, -0.1002333984, 0.0225527305, 0.0316468850, -0.0319885947, 0.0212587733, -0.0439850725, -0.0670875534, -0.0086783618, 0.0042867786, -0.0046182508, 0.0543398894, 0.0580015816, -0.0088150417, -0.0212769024, 0.0154901370, 0.0156223122, -0.0126547655, -0.0447287448, 0.0315089412, 0.0586525351, -0.0394389927, 0.1121268421, -0.0872002617, 0.0195549261, -0.0059504104, 0.0019129500, -0.0653481185, 0.1340376884, 0.0204967968, 0.0508571491, 0.0791612118, 0.0273468867, -0.0455532707, 0.2313016206, 0.0820098966, -0.1177997813, 0.0209626276, 0.0292431042, -0.1318276972, 0.1499776691, -0.0650682524, 0.0770815387, 0.0591053851, -0.1026169658, -0.0026710390, 0.0527875349, 0.1778247803, -0.0976041406, 0.0532619953, -0.0634994954, -0.0588449799, 0.1849218756, -0.0416898690, -0.0977715030, 0.0736857280, 0.1251011044, 0.0130135976, 0.0754097998, 0.1148583218, 0.2184432596, 0.0017059797, -0.0725347102, 0.0958344340, -0.1080132276, -0.0257864818, 0.0695940629, 0.0818580166, 0.0124283126, -0.0965957269, 0.0948620737, -0.1397070587, -0.0417367183, 0.1009904444, -0.0460860282, 0.0003618644, -0.1273854077, 0.0024140386, -0.0628687367, -0.0839537531, 0.0432018004, 0.1968248785, 0.0306947995, 0.0154879168, 0.1064286679, 0.0835634023, 0.0729574189, 0.0579121336, -0.0548029952, -0.1068261340, 0.0717288628, -0.0505454019, -0.0313807949, 0.1777549386, 0.0742413849, 0.0034185429, 0.0206597261, -0.0476614945, 0.0031434086, -0.0434676409, 0.0344221704, 0.0692365319, 0.0597078949, 0.1146513447, -0.0583644807, 0.0964680389, -0.0253486764, 0.0457638465, 0.1216148809, 0.0796104372, -0.0415078960, 0.0225844365, 0.0257140920, 0.0891321152, 0.0843983516, -0.0387264043, 0.0010493292, 0.0976392776, -0.1142305955, 0.1409497857, -0.0190859251, -0.0473732091, -0.0091729900, 0.0644137561, -0.0486314371, -0.0444686338, 0.0355678722, -0.0157449413, 0.0981164500, 0.1357563436, -0.2170040905, 0.1915062517, 0.0343716107, 0.0010993831, -0.0413044542, 0.0532079339, 0.0688808486, -0.0101667987, 0.0093409531, 0.1095887348, -0.0181133319, -0.0101229912, -0.0026563080, 0.0666285977, 0.1103136465, -0.0768606588, -0.0919466391, 0.0358259901, -0.0614443682, 0.0254122633, -0.0573005788, -0.1990771145, 0.0710669458, 0.0100446092, -0.0286171455, 0.1621662378, 0.0039599673, -0.1915004998, 0.0546164811, -0.1123361290, 0.0028309161, -0.1246765405, 0.0769985393, 0.0244985595, -0.1578400731, -0.0827766508, 0.0267689023, 0.2306767702, 0.0139922127, 0.1031426415, -0.1748438030, -0.3445128202, 0.0387095474, -0.0291313678, -0.2414466143, -0.0705433935, -0.0510270298, 0.1424777508, -0.0973474085, 0.0598049536, -0.1094080955, 0.0252085980, 0.0260236189, -0.0522170365, 0.0679408535, 0.1479019821, 0.2685787380, -0.3320263624, -0.0195199009, -0.0192752797, 0.0326852836, 0.0153077599, -0.0550046265, -0.1680485606, -0.0544189997, -0.0631343424, 0.0234538242, 0.0309971347, -0.0638170913, 0.0285564736, -0.1573583931, 0.1570260376, 0.0167405866, 0.0704793930, 0.1368589848, -0.0235971007, -0.1840468645, 0.0332483649, 0.0184041131, -0.0179003458, 0.0380542018, 0.2123443633, 0.4408405721, -0.0010333883, -0.0649053007, 0.1398690194, -0.0769404918, -0.0335288756, -0.1928285658, -0.1029271707, 0.0276174527, -0.0950661525, -0.0287592579, 0.0782729983, -0.1859306246, -0.0565252416, -0.0662723705, -0.1623732150, 0.0790972039, 0.0031883186, -0.0193876699, -0.1135142222, -0.0778755546, -0.0197565872, 0.1014375836, 0.0989934430, -0.0045070155, -0.0418030471, 0.0176939853, -0.0460508429, -0.0882475078, -0.0234656557, -0.0298965797, -0.1194251031, -0.0607536137, -0.1277860999, -0.1052922159, -0.0414990671, -0.0015509854, 0.0026743077, 0.0212759767, 0.0106833102, -0.0943937004, 0.0773663670, -0.0001290253, -0.1113128960, 0.0481198616, 0.0575952083, 0.0620952472, -0.0292984582, -0.0079931598, 0.0054436564, -0.0859631673, 0.0185731668, -0.0312459990, -0.0642901883, -0.0304584540, -0.0857507735, 0.1805953830, -0.0257666353, -0.0815220177, -0.0717454925, -0.0080629326, 0.1157801673, -0.0119580235, 0.0381229632, 0.0596667379, 0.0417573527, 0.0087699061, -0.0201814622, -0.0674819723, -0.0691791326, -0.0406727344, -0.0822327137, 0.1836490035, 0.0057299654, -0.0784012377, -0.2004853040, -0.0344796106, 0.0473914146, 0.0537003540, -0.0826973468, -0.0587575138, -0.0329809748, 0.0561779290, -0.0596386418, 0.0153280925, 0.0689471737, 0.0606247298, 0.1706045717, 0.0187222529, 0.0950379670, 0.0413800888, 0.0475404039, 0.0171458963, -0.1011268571, -0.1282133907, 0.0363164917, 0.0030405470, -0.0639038607, -0.1002263501, 0.0331732146, -0.1406289637, 0.1242753714, 0.0089357356, -0.0167567842, 0.1491255015, -0.0076793274, -0.0741296262, 0.0179213118, 0.0774351805, -0.1508530378, 0.1128223091, 0.0043074591, 0.0139839742, -0.0203139465, -0.0036408457, -0.0902621597, 0.0357664078, 0.0228590984, -0.0359249972, -0.0988322422, -0.0406562239, 0.0810118467, 0.0240737926, -0.0055531543, 0.0480321608, -0.1137419567, -0.1073618010, -0.0447062589, -0.2281095237, 0.0371077210, -0.1092156321, 0.1508359313, -0.0035533654, 0.0902633145, -0.0581751950, -0.0672157332, 0.1800442934, 0.1033089533, 0.0911319330, -0.0067273136, 0.0019180605, -0.0485151112, -0.0587135330, -0.0467947349, -0.0557252020, -0.0669272020, 0.1817967147, -0.0279259644, 0.0422914438, 0.0351805761, -0.0494168699, -0.0693109930, -0.0459762961, -0.0286584906, 0.1429828852, 0.0495361909, 0.0435560793, 0.0026230526, 0.1127407029, 0.1380539834, -0.0138431638, -0.0042085443, -0.0393714234, -0.0484201051, 0.0374680720, 0.1726872027, 0.0180223454, -0.0047757723, -0.0106802676, -0.0306679644, 0.1147937402, -0.0561583303, -0.0679131895, -0.2330706716, -0.0343652628, 0.0286586583, -0.0161267966, -0.1465202421, 0.0431427509, 0.1168494523, -0.1173296124, 0.0229913834, -0.0664358959, 0.1291968077, -0.0237294827, 0.0329112485, 0.0594836175, 0.0306794234, 0.0189899523, 0.0498513430, -0.0325248130, 0.0275632311, 0.0566556007, -0.0335393511, 0.0549617521, 0.1027529240, 0.0633555353, -0.0743350387, 0.1313904524, 0.0345440470, -0.0202796105, -0.0757456422, -0.1253172010, -0.0029635525, -0.0088951793, -0.0630659685, -0.0200671349, 0.0533577800, 0.0064698393, -0.0026294072, 0.1035026759, -0.1467179656, 0.0071009379, 0.0103580281, -0.0846673027, -0.1251174212, 0.0013387281, -0.0445543379, -0.0139449416, -0.0324199609, 0.0441639647, -0.1473134160, -0.0720068738, 0.0024071010, 0.0377130583, 0.1027531177, 0.0521055721, 0.0151139218, -0.0450940281, 0.0952202976, -0.1097854450, 0.0114793498, 0.1652964056, 0.1778655946, -0.1132602692, 0.0533809401, -0.0201378651, 0.0020547668, -0.1351065636, 0.0484057963, 0.1126148477, -0.0159983262, -0.0379879437, -0.1461119503, -0.1438458115, -0.0175125878, -0.0025731295, -0.0234530922, 0.1511445194, 0.2110981792, 0.1257437766, 0.0688156411, 0.0708808377, 0.0968290791, 0.0579942204, 0.0110619590, -0.0243198127, -0.0545553155, -0.1097320691, 0.1930217743, -0.0419678874, -0.0744547471, -0.0644706860, -0.0049431976, 0.0321434885, 0.0525940880, 0.0597127937, -0.0024973915, 0.0447711088, -0.0532749966, -0.0795994848, 0.0170131531, -0.2091642767, -0.0727753714, -0.0229937453, 0.0974167436, -0.0331539586, 0.0349172652, -0.0337235592, -0.1809382141, -0.0703702420, 0.0350661576, 0.0615645647, -0.1840655953, 0.0498597100, -0.0915334672, -0.0960276946, 0.0428745858, 0.0166981574, -0.0025751027, -0.0226706043, 0.0802052394, -0.2714802623, 0.0694398433, 0.0099537726, -0.0494020879, -0.0706083551, 0.0241957251, 0.0575781241, -0.0904202461, -0.0690420046, -0.1104935184, 0.0114209345, 0.0547145344, 0.1465677321, 0.0143065099, 0.0534173138, -0.0249811113, -0.2089411318, -0.0702619329, -0.0667698085, 0.0625146925, -0.0028147446, 0.1343678683, -0.0440421440, 0.0163928960, 0.0161079578, -0.0209173709, 0.0282593425, 0.0288596265, -0.1097301245, -0.0828140974, 0.0979065448, 0.0913941413, 0.0822523534, 0.0122750895, -0.1049079895, -0.0647456571, -0.1141451150, 0.0401414670, 0.0210208744, 0.0502324663, -0.1004622951, 0.1218474880, 0.0916509703, 0.0738451034, -0.2164045870, -0.0687719956, 0.0481205210, 0.1001840755, -0.0714530721, -0.0617191866, -0.0291246921, 0.0307769887, 0.0072378409, 0.0552891903, 0.0215284694, 0.0349080414, -0.0071091391, 0.1007758752, 0.0031354232, 0.0572685115, 0.0023124004, -0.0618204698, -0.1147848740, -0.0221654493, 0.0638143644, 0.0050391499, 0.0134136099, -0.0217651632, 0.0089637525, -0.0102302898, 0.1074803993, 0.0453373268, 0.0171956699, 0.0370981470, -0.0853862688, 0.0203557909, 0.0155735351, -0.0546952970, -0.0518912710, 0.0301295333, 0.0051394021, -0.0130473450, -0.0702774152, -0.0106430380, -0.0557072759, 0.0790221766, 0.0449744724, -0.0139079830, 0.0542227887, 0.0776161999, -0.0050959224, -0.0055477559, -0.1663707346, 0.0355766639, -0.1352678686, 0.0081342794, -0.0667929277, 0.0393275581, 0.0321075805, -0.0154332519, 0.0233066361, -0.0528286248, 0.0155448448, 0.0803894773, 0.0082758609, -0.0839755088, 0.0840132684, 0.1340990663, -0.1447221935, 0.0386353992, 0.1135206521, 0.0050978507, 0.1419476271, 0.0476368628, -0.0137523068, 0.1880593598, -0.0131167714, -0.0481985025, -0.0427524000, 0.1524239928, -0.0641924366, 0.0614917986, -0.0364450254, 0.0588846020, 0.0246208943, -0.0053378409, -0.0484497957, 0.0497281253, -0.0179942679, -0.0691686124, -0.1265089363, -0.0490446314, -0.0273772236, -0.0171694066, 0.0148233017, -0.0188434534, 0.0535673089, 0.0206656251, 0.2276866585, -0.0282907691, 0.0993133858, -0.1255469769, 0.0335348137, -0.1286891699, -0.0028877135, -0.0255270321, 0.0839825049, 0.1728006899, -0.0050356821, 0.0300722625, 0.0225116052, -0.0185930654, -0.0406310968, 0.1681790054, 0.0072411597, 0.0483713113, -0.0486743376, 0.1440533996, -0.0725770816, -0.0253061708, 0.0052092173, -0.1164653823, -0.1334828287, -0.0090148272, 0.0327650532, -0.1117562801, -0.0258111265, 0.0883857459, 0.0061527696, 0.0909438133, 0.0066138436, 0.1047854871, -0.1288463771, 0.0201517213, -0.1114582568, -0.0990348160, 0.0276509225, 0.0395488031, 0.0950474590, -0.0901237652, -0.0147725325, -0.0134573495, -0.0230980199, -0.1766456366, 0.0195136033, -0.0112948334, 0.1688165516, -0.0084024007, -0.0283701569, -0.1153178811, 0.0886807740, -0.0328821130, 0.0466492809, 0.0301691480, 0.0859485269, -0.1552519053, 0.0484050512, 0.0571042672, 0.0276150610, 0.0993384123, 0.0779464692, -0.0539619513, -0.0369333550, -0.0289969407, 0.0609935746, 0.0484136045, 0.0884233490, -0.0457518436, 0.0314188823, 0.0600707904, -0.1103184819, -0.0970450789, -0.1449570805, -0.0162737686, -0.0336567797, -0.0354584679, -0.0280833542, -0.1043145582, -0.0292457696, -0.0520930365, -0.0133165931, -0.0445820503, 0.1257858276, 0.0089675756, -0.0153678777, 0.0660997704, 0.0811819285, 0.1066351756, -0.0344733186, 0.0759064928, 0.0978865176, -0.0011499020, -0.0770763904, -0.0937697887, -0.0786853433, -0.0182881951, -0.0351232998, -0.1093805060, 0.0864505395, 0.0594466515, -0.0880241543, -0.0601884611, -0.0578959621, -0.0135594234, 0.0279218387, 0.0756239146, 0.0007158344, 0.0761911869, 0.0036006232, 0.0581071638, -0.0154375508, -0.1006642953, 0.0070079737, 0.0420578234, -0.0451061428, 0.1098281741, 0.0182080772, 0.0525008403, 0.0025178089, -0.0139877778, 0.0242400188, -0.1038250029, -0.0865365192, -0.0695697069, -0.0917726010, -0.1589105427, -0.0365253165, 0.0411840081, -0.0274875481, 0.0029692643, 0.0200263634, -0.0044581946, 0.0881362781, -0.0284356903, -0.0555859357, 0.0607308932, -0.0603195354, -0.0563425943, 0.0744426027, -0.0463425741, 0.0412536636, -0.1086324006, 0.0190642644, 0.0513747297, -0.0760340169, 0.0686409324, -0.0789492279, -0.0325304382, 0.0254154038, -0.0024363277, -0.0107708499, -0.0535969660, -0.0427659750, -0.0060233213, -0.0262372419, 0.1792387813, 0.0181656405, -0.0231424607, -0.0330536813, -0.0331531689, -0.1852087677, -0.0880452543, 0.0386601686, 0.0369233936, 0.0607543699, 0.0211065970, -0.0099279238, 0.0691478997, -0.0285093393, -0.0407040305, -0.0263264067, 0.0712693706, 0.0387872010, -0.1114489809, -0.0019240871, -0.0778600648, -0.0559272878, -0.1856185198, 0.1411595196, 0.1522732675, 0.2023869157, 0.1092851311, -0.1236564219, 0.0922297090, 0.1283816546, 0.1301553249, 0.1151159778, -0.0660508201, -0.2113883048, -0.0262988787, 0.0645150617, -0.0964463577, 0.0026266698, 0.0428485535, -0.1224102601, -0.0565576814, -0.0107657146, -0.0801286325, -0.0779914558, -0.0464746989, -0.2653046548, 0.1588587463, 0.0429587364, 0.0112339277, 0.0676063746, -0.1177411452, 0.1112947986, -0.1010362357, -0.0267024748, 0.1381643414, -0.1195696592, 0.0401249193, -0.0219989493, 0.0483545735, 0.1360559314, -0.0725006759, -0.1675334275, 0.0959664658, 0.0378867611, -0.0230750311, 0.0307968855, -0.0690144822, -0.1370241344, -0.1154942662, -0.0118310936, -0.0040882095, -0.0555510707, -0.1368952692, -0.0813634545, -0.1092768237, 0.0631204769, 0.0026865038, -0.0482828692, 0.0355398282, 0.0966461226, 0.0193181951, 0.1019887999, -0.0641553178, 0.0024827668, -0.0231512096, 0.0007655255, -0.0601211861, -0.0073895338, -0.0048928615, -0.0177479554, -0.0462072268, -0.0890531689, -0.1451252997, 0.1732331365, 0.0625943542, 0.1261087358, -0.0493964851, 0.0685112476, -0.1069868952, -0.0516917855, 0.0185144171, 0.0286704246, 0.0089881280, -0.0548962578, 0.0299480259, -0.0341925882, 0.0696561933, 0.0277825613, -0.0571821705, 0.1124266833, -0.0628001317, 0.0580588654, 0.0121064438, 0.0013692976, -0.0555439889, 0.0050176345, -0.0093592480, -0.2902878523, -0.1640662253, -0.0374231152, 0.0826304182, -0.0049142465, -0.0114056496, -0.0904069096, -0.0328577049, -0.0512833893, 0.0255236458, 0.0584997460, -0.0278016720, -0.1484387964, -0.1563225091, -0.0024096719, 0.1110651642, -0.1725639552, -0.0827615038, -0.1311838776, -0.0517227352, -0.0618856028, -0.0469177440, 0.0678917393, 0.1748890579, 0.0165818017, 0.0247352272, -0.0460079312, -0.1478414088, 0.0534549393, -0.0426011458, -0.0259457659, 0.0314215571, -0.0777644441, -0.0219868179, -0.0815874189, -0.0987871513, -0.0701877996, -0.0567076541, 0.0090206768, -0.0571214482, 0.0214404427, -0.0282939449, -0.0340553299, 0.0792249292, -0.1222622320, -0.0384808108, 0.1107223332, -0.0802516863, -0.0506809428, 0.1007692888, 0.0347009264, 0.0558355749, 0.0464248285, 0.0289484486, 0.0378480665, 0.0067877858, -0.1096198410, -0.0156526305, 0.0206895340, 0.0784488022, -0.0826310292, -0.0596716516, -0.0399612151, 0.2302844971, -0.0049730213, 0.0783850923, -0.1123636514, 0.0133828167, 0.0757142529, 0.0288364291, 0.0041012852, 0.0335471332, -0.0268179085, -0.0655796602, -0.0366477035, 0.0367601514, -0.1444451809, 0.1002902165, -0.0909737349, -0.0551829711, -0.0036043804, -0.1037678570, 0.1080001369, 0.0741119757, -0.0296052620, -0.0691939071, 0.0971282274, 0.2523465753, -0.0847165510, -0.0345373936, -0.0219902769, 0.2536907494, -0.0633044988, -0.0441803038, 0.1857902259, -0.0255388226, -0.1064368486, -0.0574605875, -0.0120534478, -0.1523659378, -0.1371658146, -0.1736664474, 0.2424051464, -0.0434791259, 0.2039536089, -0.0829029083, -0.1736172736, -0.2709929049, -0.0084191468, 0.1434647441, 0.1125097200, 0.0383016989, -0.1266247183, -0.0559348352, 0.0247111265, 0.0416645855, -0.2734352648, 0.1164113656, 0.0996499583, 0.0475732610, 0.1767734736, -0.1296910048, 0.0586221889, 0.0487110950, -0.0204570368, 0.0856593251, 0.1136548817, 0.0511008725, -0.1343384087, -0.0435878336, 0.0482371561, -0.1401024908, -0.2112896740, 0.0813732818, 0.1212346107, -0.0848194882, 0.0131016141, -0.0360860787, 0.0342427790, 0.0848204195, 0.0404104330, -0.0309739411, -0.0115285926, 0.1810752898, 0.0686121583, 0.0230968911, 0.1196623519, -0.0780176818, 0.0751864538, -0.0875686109, -0.1290375292, -0.1043164209, -0.1241212711, -0.0520640835, 0.0313123241, -0.0646141842, 0.0841299146, 0.0594018586, -0.0218444243, 0.0006012653, -0.0304191839, -0.0230351985, -0.0054974183, -0.0116609503, 0.0862748623, 0.0419279337, -0.1042717919, -0.1887270957, 0.1155087501, -0.0723792091, 0.0251793619, -0.2261597216, 0.0176322795, -0.0588226989, 0.0232233237, -0.0076577915, 0.1540267766, -0.0782031491, -0.0468256325, 0.0155600505, 0.0842785463, 0.0981447399, -0.0442369170, -0.0737232789, -0.0066143707, -0.0614951365, -0.0661702901, -0.0520870797, 0.0918506533, -0.1236491427, -0.0317805968, -0.0834524035, 0.1600093544, 0.0495938063, -0.1416560858, 0.2848036289, -0.0015844335, 0.1544646919, -0.0531153567, 0.0340341367, -0.0363382474, -0.0054322248, 0.0402315706, -0.0978306532, -0.1092523262, 0.0176120345, 0.1423343122, 0.0335923694, 0.0976995826, -0.1570113450, 0.0507391691, -0.0098093450, 0.0544402339, 0.0206823237, -0.0587873124, -0.0650904924, 0.0023117748, -0.1121993437, -0.0505369082, -0.1358015984, 0.0138454447, -0.1838298291, 0.0426013991, 0.1457476765, -0.1108159721, -0.1268267483, 0.0060450896, -0.0401652344, -0.1367283463, 0.2309452295, -0.1680484712, 0.0036604167, -0.2315016836, -0.1043106616, -0.0735070482, -0.0962456837, 0.0498813391, 0.0365577862, 0.0849019215, 0.0501712486, 0.2808548808, 0.0469931178, 0.1181145608, 0.0227723308, -0.1304810196, -0.0202064291, 0.0335976593, 0.0286755674, 0.0651655793, -0.0466612130, 0.2628779411, -0.0719535053, 0.0655801296, -0.0691627413, -0.0627493113, -0.0925540552, 0.2622225881, 0.0271056127, -0.1440437734, 0.1092426255, -0.0341003276, 0.0083316080, 0.1078356430, -0.0089145107, 0.0363445804, 0.0059686122, -0.0247688089, 0.0113502480, 0.0138793215, -0.0356252417, -0.0107087428, 0.0726156160, -0.1213937253, -0.0583648458, 0.0198183525, 0.0209970456, -0.1063684821, 0.0344630666, -0.0064980052, 0.1002936363, -0.0806229264, 0.0376909636, -0.2348491549, 0.0717652738, -0.0531240851, -0.0114345495, 0.0866188630, -0.1269982308, 0.0458474010, -0.1284136921, -0.1200997382, 0.0889330432, 0.0680534616, -0.1203866601, -0.0552284792, 0.1163124815, 0.1225423664, -0.0668949932, -0.1686061770, 0.0110561373, -0.0543719158, 0.1322381794, -0.0070296102, -0.0738802329, -0.0340989232, -0.1336053163, 0.0226283055, 0.0487801470, 0.1036789045, 0.0685124397, 0.1647623926, -0.0176911689, -0.0371297225, -0.1144182757, 0.0648762733, -0.0184654891, -0.0570269115, -0.0485666171, 0.0464806445, -0.0563915595, 0.1338182390, 0.0774235502, 0.0687235668, 0.1001625285, 0.0560110398, -0.0744061321, -0.0965453833, 0.0707543269, 0.0096388254, -0.0552186184, 0.0206724945, -0.1811373383, -0.0497144088, 0.0182672553, 0.0275858007, 0.1026982740, 0.0498414375, -0.0148858568, -0.0337148160, -0.0809032395, -0.0662375540, 0.1548224837, -0.0848129019, -0.0883480087, 0.0490202084, 0.0026606750, 0.0272961576, 0.0327354744, -0.0528892204, -0.0035541852, -0.0842414275, 0.0898355544, -0.0524006300, -0.0277594067, 0.2333970070, 0.0445421860, -0.0455785990, 0.0405434966, -0.0683208108, -0.0221836492, 0.0053776572, -0.0053899055, -0.1397359520, 0.1249150485, -0.1103756875, -0.0475610457, -0.0749633536, 0.0487331040, -0.0602814332, 0.0937725157, 0.0830414370, -0.0070286696, 0.1348412931, 0.0407261066, 0.0053675873, -0.0301476605, -0.0956450030, 0.1041238680, 0.0241705216, 0.0729957968, 0.0111595644, -0.0106573701, 0.0743678361, -0.1441963911, -0.0915294141, 0.0810612664, -0.0273947492, -0.0861547142, -0.0354062989, 0.0005933816, -0.0414810181, -0.0440273657, -0.0848509744, 0.0377702713, -0.0563377365, 0.0631141216, -0.0028000157, 0.0244500414, 0.1296228170, 0.0244414993, -0.0405685939, 0.0059811268, 0.0065078815, 0.0637910515, -0.0270910989, 0.0628671795, 0.0251384079, -0.0689896345, 0.0890784860, -0.1457541138, -0.0143796662, -0.2350227237, 0.0448467322, 0.0740409791, 0.0547449887, 0.1743931472, 0.0125714773, 0.0294696596, 0.1696850061, 0.0397814885, 0.1201320067, -0.0822292119, 0.0096001001, -0.0200440828, -0.0360241309, -0.0413866341, 0.1961878091, -0.0033001935, 0.0166120864, 0.0168452822, -0.1431488693, 0.1634711325, -0.1211820915, -0.0202914588, -0.0232006237, -0.0048374357, 0.0582980476, 0.0178915691, 0.0217070468, 0.1339183599, 0.0303621106, -0.0189122465, -0.0986120105, 0.0105904471, 0.0449264422, -0.0561521202, 0.1786708236, -0.1414517760, 0.1115335226, 0.0072883251, 0.0528569184, -0.1185284182, -0.1006623730, 0.1070497334, -0.0551640652, -0.0371815078, 0.1092444584, 0.0421036705, 0.0498014055, -0.1297231764, -0.1103893965, 0.1710244119, 0.0013422482, -0.0227436312, -0.0249443334, 0.0441136472, 0.1385268569, 0.0167563166, -0.0040865052, 0.0583720058, 0.0034424393, -0.0304801315, -0.0337735899, -0.1122886539, 0.1500772387, 0.0904744938, -0.1091484427, 0.0244959295, 0.0312368479, -0.1218988523, 0.0767692998, 0.0470127724, -0.0755912811, -0.0724870637, -0.0654231459, -0.0299285166, 0.0628144145, -0.2177157104, 0.0702058300, -0.0714783520, -0.0664215386, -0.1694419384, 0.0387595221, 0.0376399420, 0.0533498414, -0.0071950764, -0.0218933038, -0.0825430155, 0.0248751640, 0.0560631491, -0.1289314926, 0.0097307926, 0.0755204335, -0.0015031336, 0.0351380333, -0.0434490927, 0.0506122857, -0.0825973600, 0.0346959718, -0.1095568985, -0.1429460943, 0.0841294527, -0.0190021824, -0.1950602978, -0.1184153557, -0.1007144153, -0.0173193440, 0.0233864598, 0.0020113478, -0.0803280398, -0.0356102884, -0.0411822312, 0.0301925093, -0.0190964825, -0.0344668664, -0.1272486448, -0.0182064325, -0.1009440944, -0.0498151705, 0.0113992169, 0.0704687610, 0.0502976477, 0.0812820047, -0.0410509408, -0.0802501962, 0.1675524712, 0.0503471382, -0.0046155015, 0.0095876083, 0.0261450820, -0.0448664874, -0.0301169939, -0.0669101998, 0.1526301503, 0.0685698465, -0.0489285216, 0.0915588215, -0.0808028355, -0.1404388547, -0.1281450391, -0.0503464565, -0.0152054634, -0.0054613575, -0.0202033501, -0.0291045438, -0.0838409141, 0.0396102630, -0.0649910867, 0.2069460005, 0.0098638283, -0.0077594444, 0.1244557723, -0.0441210978, -0.1885430068, -0.0051196977, 0.0539788753, 0.1134379134, -0.0217019878, 0.0222709645, 0.0074084499, 0.0263266657, 0.0157367252, 0.0430264696, 0.0782632604, 0.0004722911, -0.0631252974, -0.1026183665, 0.0694650561, -0.0509180017, -0.1484584808, -0.0156959798, 0.1101157665, -0.1242123768, -0.0619786978, -0.0281108227, 0.0641010851, 0.0350504369, -0.0056276992, 0.0017358619, 0.0178997088, -0.1086975932, -0.0241486859, 0.0481042638, -0.0356066525, 0.0902260020, -0.0723585933, 0.0558929220, 0.0953084230, -0.0125506818, -0.0020799597, -0.0117480811, -0.0403139293, 0.0514824316, -0.1575497240, 0.0258978345, 0.0055826604, 0.0328249410, 0.0412376039, -0.0781342164, 0.0388644598, 0.0564257652, -0.0588930473, 0.0396496579, 0.0593570732, 0.0956695229, -0.1422940642, -0.0495120548, -0.0050652777, -0.0188779067, -0.0072395829, 0.0840273872, -0.1887948960, 0.0919392928, -0.0276276842, -0.0298370607, 0.0007069783, -0.0178151354, 0.0198368020, 0.0064478377, -0.0242447332, -0.1023736596, -0.0309529267, 0.1008093655, -0.1184178963, -0.1176776588, -0.0092195524, 0.0672107413, 0.0067929849, -0.0198524278, 0.0581724830, 0.1903540790, -0.1220228225, -0.0081651891, -0.0960266367, -0.0209596809, -0.0456312969, -0.0492238961, -0.0407051742, -0.1656388491, -0.0405457467, -0.0127974199, -0.0570623316, 0.1895487010, 0.0051839431, -0.1264101714, 0.0223634522, 0.0747489259, -0.0351625569, -0.0144683234, 0.0048911609, 0.0273713209, -0.0712913945, 0.0726350248, 0.1845125854, 0.0052839802, 0.0251700599, -0.1118281633, -0.0140495040, -0.0351467729, -0.0700729936, 0.0163261779, 0.0835161731, -0.0383349694, 0.0357646607, 0.0193035416, -0.0690673590, -0.0575492382, 0.0426103026, 0.0079144882, -0.0513750426, -0.0801619142, -0.1955692023, 0.0084995572, -0.0442553759, -0.0405486226, -0.0784347877, -0.0312827043, -0.0400341116, -0.0277195685, -0.0642646849, 0.0852835774, 0.0818460584, -0.1564507782, 0.0639495850, -0.0302676279, -0.0371830575, 0.0687586889, -0.0490090363, -0.0215334203, -0.0007050367, 0.0483394340, -0.0461719744, 0.0183005780, -0.0913817063, -0.1284585893, 0.0221374407, 0.0692765787, 0.0318393335, -0.0098798228, 0.0205144454, -0.2416427284, 0.0497234911, -0.0274953283, 0.0190136563, 0.0442023873, -0.0151376864, 0.0111115053, 0.0287212376, 0.0554344021, -0.1108886302, -0.2087356299, -0.0656510219, -0.0771071166, 0.0926079452, -0.0210596714, -0.0672779009, -0.0297113843, 0.1351458132, -0.0210821368, -0.1602398902, 0.1464787722, 0.0630817413, 0.1082848087, 0.0915607959, -0.0970985889, -0.0278044380, 0.0672736689, -0.0392409451, 0.0334076285, 0.0290864967, 0.0343384258, 0.0400467403, 0.0209101792, 0.1113065705, -0.0368296355, -0.0933554843, 0.0003884917, -0.0724707097, -0.1588684469, -0.2100929618, -0.1274320781, 0.0513859093, 0.1026554182, 0.0065237759, -0.0367327109, 0.0491994210, -0.1300523877, 0.0633529052, 0.1771208644, 0.1075237915, 0.0087947417, 0.1826979667, -0.0500158034, 0.0902659148, 0.0797285065, -0.1635080129, -0.0129086869, -0.1521115154, -0.1229467094, 0.0929402262, -0.1871030778, 0.0684771985, -0.0575721115, 0.0653350055, -0.2273927778, 0.0561384894, -0.0778378174, -0.0134114604, -0.0306147505, -0.1738200486, -0.0534653664, -0.0131566515, -0.2744543254, -0.1767796427, 0.0279757027, 0.1085604206, -0.0246789362, -0.0777877793, -0.1142691746, 0.1549604088, 0.0087797558, -0.0118138855, -0.1319177300, -0.0622589886, 0.0551990233, -0.3758878410, 0.1088915169, -0.1361495405, 0.0633704141, 0.0282164235, 0.0255845655, 0.1297346354, -0.0771713629, -0.0591282174, -0.2162230611, -0.0155008137, -0.1035323367, -0.0283883736, -0.0779058114, 0.2830228209, -0.0496222898, -0.0778776854, -0.1115182564, -0.2143424153, -0.2010815591, 0.0253579915, -0.0623014309, -0.1367733628, 0.0217305273, -0.0049841614, -0.0290217604, 0.0191661101, -0.0182376001, 0.0461706370, -0.0943450928, -0.0556668453, -0.0915782154, -0.0861621946, 0.0788451955, -0.1588200778, -0.0054982230, -0.0080602001, 0.1079974249, -0.2066646069, -0.0229936969, -0.1391278803, 0.0195580069, 0.1552533805, 0.1514538825, -0.1599409729, -0.0144863594, 0.1430081576, 0.0684131458, 0.0066779354, -0.0682547390, -0.0707453117, -0.0278384425, -0.0581175722, -0.0240705591, 0.0481933802, 0.1158616170, 0.0140542081, -0.0619779006, -0.0427508466, 0.0072474061, -0.0121762389, 0.0250336677, 0.1161841154, 0.0088396417, 0.1049024835, 0.0141887944, 0.1390728354, -0.0299597643, -0.0758027881, 0.0730320811, -0.0402931236, 0.1089964211, -0.0356829390, 0.1436125338, 0.0225443151, 0.0334713012, 0.0835486948, 0.0312803052, -0.1083940119, -0.0343788303, -0.0579414926, -0.0334930345, -0.0378622636, -0.0069128601, 0.0579681024, -0.0407081693, 0.0241410341, -0.0533148833, -0.0614694804, -0.1100986376, -0.0082378769, -0.0833962560, 0.0639640763, -0.0923955962, -0.0413515903, 0.0796385929, 0.1296475679, 0.0021997453, -0.0231870487, -0.0169616565, -0.0170782134, -0.0103738811, -0.1010461524, -0.1481467932, -0.0574218370, -0.0542429611, 0.0481664315, 0.1781466305, -0.0935033858, -0.0150148543, -0.0221020132, -0.0177082401, -0.0444141626, -0.1116909310, -0.1028375626, 0.1420046091, -0.0132942991, -0.1836368442, -0.0026265786, 0.0962796435, -0.0676782727, 0.0507723242, -0.0055619273, -0.0893143192, -0.0312946811, -0.0060865781, -0.1133283004, -0.0175343454, -0.0166800506, 0.0536419339, -0.0074933255, 0.0108988890, 0.0784719661, 0.0756388754, -0.0497835875, 0.1333911419, -0.0398936942, -0.0872743577, 0.0180705301, 0.0314422920, -0.0272700638, 0.1510248333, 0.0107492264, -0.1619625390, 0.0246567931, -0.0444181859, -0.0436291285, 0.0914545730, -0.0180085413, 0.0139783993, 0.0014217143, 0.0819307938, 0.0920183361, -0.0491097942, -0.0886371434, 0.0929501951, -0.0212076101, 0.0548508503, -0.0518778227, -0.0295575187, 0.0177458674, -0.0463963002, 0.0341310874, -0.0563682504, -0.0519055650, -0.0926076844, 0.0276161470, 0.1662961096, -0.0088904183, 0.0604870170, 0.0562050641, -0.0835202113, -0.0303327274, 0.1988181472, 0.0455212444, -0.0074596740, -0.0754708126, 0.0245463066, -0.0040524402, 0.0078091607, 0.1715638191, -0.0967390388, 0.0495792516, 0.1052154005, -0.1290177256, -0.1065140739, -0.0177896991, 0.0417732298, -0.0670431778, -0.0129129672, -0.0633685142, 0.0693412200, -0.0290736780, -0.0875473917, -0.0429420583, -0.2482431233, 0.0531824604, 0.0550225154, 0.0282618795, -0.0942405239, 0.0178817995, 0.0157646239, 0.1169600934, -0.0060494058, -0.0475435853, 0.0563064478, -0.0947060809, 0.1048621312, 0.0484696291, 0.0115997661, -0.0820982456, 0.1429979354, 0.0369457230, 0.1410098076, -0.0481085293, -0.0155846719, 0.0031019917, -0.2333672792, -0.0593236126, -0.0884302333, 0.0435469262, 0.1136681288, 0.0612589382, -0.1063838750, -0.0290148593, -0.0021705141, -0.1106513888, 0.1045921370, 0.1858074516, -0.0525582805, -0.0665007755, -0.0596083812, 0.0396756008, -0.0126789678, 0.0189863276, -0.0137549816, -0.1096640080, 0.0870888829, 0.0570752397, -0.0688634366, -0.1449124962, -0.0868580788, 0.0322877020, -0.0118386457, -0.0993760750, -0.0161870923, 0.0146547044, -0.1607489139, -0.1206831336, -0.0455758758, -0.0692167580, -0.1042402983, -0.1489257067, -0.0165548045, 0.0307435226, 0.0265011285, -0.2390187532, 0.0312196203, -0.0385287441, 0.1190669537, -0.0569973178, -0.0011906500, 0.1457005888, 0.1078726202, 0.0201439615, 0.0322122090, -0.0409876667, 0.2229094654, 0.0205216929, -0.0462600365, -0.0147716785, -0.0437248461, -0.0834442228, -0.0869598314, 0.0316228792, 0.0836502686, -0.0495130681, -0.0397813246, -0.0918981656, -0.0631920919, -0.1881789565, -0.1601596475, 0.0434761606, -0.0535182394, 0.0420788601, -0.1872987300, -0.1303330064, 0.0138635403, -0.0115895933, -0.0047619604, -0.0025710920, 0.0458565913, 0.0675013140, -0.0165335741, -0.1090841815, 0.0142496340, -0.0157262459, 0.0276159365, -0.0613365695, -0.0715709627, -0.0910672992, 0.1041358262, 0.0100667002, 0.0139157241, 0.0415802561, -0.1120493039, -0.1535381526, -0.0948763713, 0.0893165246, -0.0499051809, 0.0292826556, 0.0263845697, 0.0587536506, -0.0561087392, -0.0343335904, 0.0335059389, 0.0219558068, 0.0585780703, 0.0262737833, -0.0911084414, 0.0401764177, 0.1263737231, 0.0259210020, -0.0675134584, -0.0810759515, -0.0225975923, -0.0277675055, 0.1014252007, 0.0792903155, 0.0218816604, -0.0049562640, 0.0893291458, 0.2481729835, 0.0276234560, -0.0644165054, 0.0685625821, -0.0067266515, -0.0029124108, -0.2003671825, 0.0362152383, 0.1224985123, -0.0930890888, -0.0926291570, 0.0596258007, 0.0584447831, -0.0171646122, -0.0412502065, -0.0442447104, 0.0378934816, -0.1373914480, -0.1028963700, -0.0429685153, -0.0105488123, 0.0503540896, 0.0128543163, 0.0179849975, -0.0900970474, 0.0295719560, 0.0311718285, 0.0072187390, 0.0823039785, -0.0173319709, 0.0876536146, -0.1031292826, -0.0333416685, 0.0978140309, -0.0013388650, -0.1850338876, -0.1020620838, -0.0861101151, -0.0107875243, -0.2175692022, 0.0535597838, -0.0468202680, -0.1038867980, -0.0361127369, -0.0691103861, -0.1085358858, -0.0893091857, -0.2127400041, -0.0388898700, 0.0876850039, 0.0137591390, -0.2371954173, -0.0207942631, 0.0297792610, 0.1071481109, -0.0089170951, -0.1202575341, -0.0552465543, 0.0437048860, -0.1592535079, 0.0547289215, 0.0753398687, -0.0259006992, -0.0460049808, -0.0048889127, 0.0374498405, 0.0571117140, -0.1006989777, -0.1058005467, -0.0628153458, 0.0714317933, -0.1555656642, -0.0561303012, 0.2513508797, -0.2399779856, 0.0102236746, 0.1175780520, -0.0799697116, -0.0265694391, -0.1492547691, 0.0382017568, -0.0110332854, -0.1282328665, 0.0543172583, -0.0165934507, -0.0440750867, -0.0865506902, -0.0532715917, 0.0793023631, -0.0104992650, 0.0901227519, -0.1011217460, 0.0178140346, -0.0084422659, -0.0016840991, -0.1664739847, -0.1097487658, 0.0184743125, -0.0079675261, -0.0929498225, 0.0440965109, 0.0691722929, -0.0150479125, 0.0138886767, -0.0075273388, 0.0684696212, 0.0022850088, 0.1466403008, -0.0123069780, 0.1379450709, -0.0934593007, 0.0209516101, 0.0849643201, -0.0453678668, -0.1272430271, 0.1001897603, -0.0101215169, 0.0281431433, -0.0011317468, -0.0624618791, 0.0914074332, -0.0562597290, -0.0100516891, 0.0493346490, -0.0481380150, -0.0030433789, 0.0346873775, 0.0381873772, -0.2105350345, 0.0620061494, 0.0963803306, 0.0066036046, -0.0578824319, 0.0502937846, -0.1350418180, 0.1714852005, 0.1989275962, -0.1027233824, 0.0470747389, -0.0800250843, 0.0125158411, 0.0825035274, 0.0747560710, 0.0181638971, -0.0007558417, 0.0854806304, -0.0547872111, -0.0151414685, 0.1391400695, 0.0534249209, 0.0014954079, 0.1241060346, 0.0816082880, -0.1554638594, 0.0118494462, 0.0504425615, -0.0418897904, -0.0627607703, 0.1012786552, -0.0345323607, -0.0704127103, 0.0417603143, -0.0989969298, 0.0181732569, 0.1121142581, -0.0033493151, 0.0638243034, -0.0114773549, -0.0863227248, -0.0396889821, 0.0235052258, 0.0525705144, -0.0970579907, -0.1944213361, 0.1368619949, 0.0938867033, -0.1497076601, 0.1202767938, 0.0364001244, -0.0040842672, 0.0402424410, 0.0503822453, 0.0655210242, -0.0648401678, 0.0640063435, -0.0440333337, -0.0899642408, 0.1112540141, 0.0470593460, -0.1372855604, 0.1313622445, -0.0087053552, 0.2334484160, -0.0703322664, -0.1124159172, 0.1393626928, 0.0298170187, -0.1509147584, -0.0411766768, -0.1387078017, 0.0736055002, -0.0080158124, -0.0746551156, 0.1265980303, -0.0958360657, -0.0760840699, -0.0932285860, 0.0952577218, 0.0129542816, -0.0260306168, 0.0761828348, -0.0530387796, -0.0517226346, -0.0615654364, 0.0062084333, -0.0254981127, -0.0712321550, 0.1092659757, -0.2439521551, -0.0618257709, -0.0194118414, -0.0583793148, -0.1946884543, -0.0018830081, 0.0264157560, 0.0487400144, 0.0248919204, -0.0454106517, -0.0065125283, 0.1170633063, -0.0204142127, -0.0175273176, -0.0394749120, 0.0481903553, -0.0126486998, 0.0038061999, -0.0516026057, -0.0774293467, -0.0023777899, 0.0886304006, 0.0748534799, -0.0266352724, -0.0184439681, 0.0243706536, 0.1192139462, -0.0676002875, -0.0384496041, -0.0865480453, 0.0596105978, 0.1060642228, -0.0945666954, -0.1031239405, -0.1355682313, 0.0448932387, -0.0985158980, -0.0659646019, -0.0368625931, 0.0595881119, 0.0194311347, 0.1223638281, 0.0378839001, 0.0954088420, 0.0405320637, 0.1084017158, 0.0405416340, 0.2041381747, -0.0035637862, -0.0332646184, -0.0897879079, -0.1262448430, 0.0288107526, 0.1176473722, -0.0736549199, -0.0340567380, 0.0267084651, -0.0358897597, -0.0505844653, -0.0086937705, -0.0235903114, 0.0956805497, 0.1331890374, -0.1089265496, 0.0708476380, -0.0656552911, -0.1141448766, 0.0316533074, 0.0436119847, -0.1216628328, -0.0939565599, 0.0296172295, 0.1119908094, -0.0166141149, -0.0045737592, 0.0667622909, -0.1341399252, 0.0009098381, 0.0173465181, 0.0527461581, -0.0582183599, -0.0084389877, 0.0432400852, -0.0598300397, -0.0442234129, -0.0849982798, 0.0459261313, 0.1350279599, -0.1567017734, -0.0302192587, 0.0739524886, -0.0162999723, 0.0563788377, -0.1112589315, 0.1323516667, -0.0347562842, 0.1236080304, 0.0980067626, 0.0098332632, -0.0519766472, 0.0449158177, -0.1283354461, -0.0657697096, 0.0547936298, 0.0459765121, 0.1533986330, -0.1338693798, 0.0928728133, -0.0537449308, 0.0563340299, -0.0022265182, -0.0755232349, -0.1312341541, -0.0250018239, 0.0276793428, 0.0460119508, 0.1298199743, 0.1444767118, 0.0862691700, -0.1131388620, -0.0976763815, 0.0796108842, 0.0224698614, 0.1165674329, -0.0514497757, 0.0814908147, -0.0549535863, -0.0255794898, -0.0938876718, -0.1815556884, -0.0372085907, -0.0268708840, 0.2060326785, -0.0993216857, 0.1322065443, -0.0756012723, 0.0232252013, 0.0818694234, 0.0293541923, -0.0861248076, -0.2355029583, -0.0170931704, 0.1531267911, 0.0825275481, -0.0272840131, 0.0044465638, 0.0709599108, 0.0127035333, 0.1503354907, 0.1234941110, 0.1372177750, -0.0881268233, 0.0849402696, 0.1003485024, -0.0953760892, -0.0229404066, -0.0453471020, -0.1053902209, 0.0213414114, 0.0267852228, 0.0301361643, -0.0001833290, 0.0734509453, -0.0234739538, 0.0743210688, 0.0475386828, -0.1421481073, 0.1447716951, 0.0829721168, 0.1688774228, 0.0791677013, 0.0019949796, -0.2791762054, -0.0299648382, 0.0070094527, 0.0250034295, -0.1131553873, -0.0415402427, 0.1727286428, -0.0022466232, -0.0054815672, -0.1348991692, -0.0828239396, -0.0639821962, 0.0672617257, 0.0327964388, 0.0750387982, 0.0891728923, -0.1248699948, 0.0811346695, 0.0109410556, 0.0409114622, 0.0804616287, -0.2035398483, 0.0858953074, 0.1092305034, -0.0351585485, 0.0316050313, -0.0788880736, -0.0101135019, 0.0205360167, -0.0184941217, -0.1596463621, -0.0406307094, 0.0683305860, 0.0287016612, 0.0129210912, -0.0368620008, -0.0778946579, 0.1331336945, -0.0377526321, 0.0468846485, -0.0978474841, -0.0430401489, 0.0516715273, -0.0959168002, -0.2520250976, -0.1381357610, -0.0916908011, 0.0133073572, -0.1374170631, -0.0773953050, 0.0266507436, -0.0729524791, -0.0723642707, 0.1170757785, -0.0528282300, -0.0131688574, 0.0313941576, -0.0072141387, -0.1180505380, 0.0332620069, 0.0522034727, -0.0316043198, -0.0678810924, 0.0374501646, -0.0700543001, -0.0554747172, 0.0208630878, -0.0773379505, -0.1918287724, -0.0687104762, 0.0043260315, -0.0957569182, -0.0980003923, -0.0618048422, -0.0714770779, -0.0412388891, 0.0262925662, -0.0998781994, -0.0546804741, 0.0101585183, -0.0433182120, -0.1362379193, -0.2217718512, 0.1609980315, -0.1079081893, -0.0333152227, 0.0101839937, -0.0085777864, 0.0391298831, -0.1167552397, -0.1091480777, 0.0319220871, -0.0800719187, -0.0167449862, -0.1663175225, -0.0969258696, 0.1774394214, -0.0815701932, 0.0294763464, -0.0756701529, 0.0275633223, 0.0376837514, 0.0238689296, 0.0545101985, 0.0750574470, 0.0376993902, 0.0340971686, -0.0690437779, -0.0837478563, 0.0472317562, -0.0100695500, 0.0056313281, 0.0967992395, 0.0247822832, -0.1291469634, 0.0316239819, -0.0298811439, 0.0820522830, -0.0058324253, 0.1669704765, 0.0573777892, 0.0129900770, 0.0731614381, 0.0642263740, -0.0864428207, 0.0092110904, -0.0452633351, -0.0220738389, 0.0391471535, 0.0879668891, -0.0287032817, -0.1678983569, 0.0447052382, -0.0641484857, 0.0458866768, -0.1970704049, 0.0172038432, -0.1045907587, 0.0736661330, -0.0769182667, -0.1137801483, 0.0230703764, 0.0506277680, -0.0160119627, 0.1132031456, 0.1089662313, -0.0314874835, 0.0079910522, -0.0074547292, 0.0321471803, 0.0979366675, -0.0102736866, 0.0130418772, -0.0392354727, 0.0297413897, 0.0559150204, 0.0267866477, -0.0544941761, -0.0058153006, -0.0925661698, 0.0793759823, 0.1815134436, -0.0843293443, 0.0172342379, -0.0227523148, 0.0793737397, 0.0977993309, -0.0517615117, -0.0690695047, -0.0674928427, -0.0077781244, 0.0844381526, -0.0618746951, 0.0415074974, 0.0939347595, 0.0903104693, 0.0825276747, 0.0173428040, 0.0181484856, 0.0349551775, 0.0226295311, -0.0517221652, -0.0232669991, 0.0046600285, 0.0356112570, 0.0016654942, -0.0911708772, 0.0753300712, 0.0308410674, 0.0081545198, -0.0296199024, -0.0266020242, 0.0366992094, -0.1221856922, 0.1148461998, 0.0780890360, -0.1175617725, -0.0292558521, -0.0018670443, 0.0425458848, 0.1685034037, 0.0347330607, -0.0258261114, -0.1348600090, 0.0609067008, 0.0980032235, 0.1652615070, 0.0547147654, 0.0573528036, -0.0847072005, -0.0143042486, -0.0066020968, -0.0438854583, 0.0799444914, -0.0525296926, -0.1931465566, -0.0044039148, -0.0460279956, -0.0481262095, 0.0598701276, 0.0561865754, 0.0387508944, 0.0029366119, -0.0663109198, -0.2074535489, 0.0762750134, -0.0116491867, -0.0840778053, 0.0427804403, 0.0109947678, 0.0273262672, 0.0085089831, 0.0111615593, -0.1225441620, -0.0595624596, 0.0882484168, -0.0031334050, -0.0863595605, -0.0731291175, 0.0401244909, -0.0304979682, 0.0425048023, -0.1518269926, -0.0061003570, 0.1302928776, -0.1074479744, -0.0500292443, 0.0980751365, 0.0124239586, 0.0438202955, -0.2599275708, -0.0243772622, 0.0272973832, -0.0506226160, -0.0124328360, -0.0743370950, 0.0222511776, -0.0404635556, 0.0281796511, -0.0531264469, 0.0366296172, -0.0094797993, -0.0294938646, 0.1333293617, -0.0732821599, -0.0497057252, -0.0222258829, 0.0212338734, -0.0496540256, -0.0343170017, 0.0989046618, 0.0714517012, 0.0547292456, 0.0326376893, 0.1459793597, 0.0250092261, -0.1598994136, -0.0837509036, -0.0852557197, -0.0507572554, -0.0951668844, -0.0245003793, -0.1135482267, 0.0573842973, -0.0066695916, -0.0395455137, -0.0288059581, 0.0220131651, -0.0264360979, 0.0670525357, -0.0286926981, 0.0691440776, 0.0360346660, 0.0211692173, -0.0464855656, -0.0462472588, 0.0274894927, 0.0724917874, 0.1024624258, -0.0483466238, 0.0396923311, 0.0161428973, -0.1258978248, 0.0200010352, -0.0000214059, 0.1142420545, 0.1424647570, -0.0259436965, 0.0211779866, -0.0809747204, -0.1236334369, 0.0579252839, -0.0620255694, 0.1554775685, -0.1321563125, -0.0275235754, -0.0687709451, -0.0016837362, -0.0659874678, -0.0410623699, 0.1470938325, -0.0946855918, 0.0179817490, 0.0153513765, -0.0716879964, 0.0346584357, -0.1540469229, 0.0706065074, 0.0360534228, 0.0745915100, 0.0705166012, 0.1125421673, 0.1512449384, -0.0233978443, 0.0211228132, 0.0262919851, -0.0647851154, 0.0409943871, 0.1294824779, -0.1602337360, -0.0914368853, -0.0375238545, 0.0767353922, -0.1425189227, -0.2463209778, 0.1405990720, -0.0467130169, -0.1082864180, -0.0872370973, -0.0111105628, -0.0960862264, -0.0714119673, -0.0127745960, 0.0117453495, 0.0010038236, 0.0870688036, -0.0034122460, -0.0623379163, 0.0554880463, -0.0132461935, 0.0860504210, -0.1307200938, 0.0691014454, -0.0281400308, 0.0861985087, 0.0563926622, -0.1689723879, -0.1186204031, 0.0285532456, -0.0653414801, 0.1962445080, 0.1415933669, 0.0285805631, -0.2742118835, -0.0330409482, -0.0481402576, -0.2409419566, -0.2350303531, -0.0719778985, -0.1124532744, 0.0250721667, -0.1759506017, -0.1445840746, -0.0723264441, 0.3332219124, -0.1097880378, 0.0166874975, -0.0977742448, -0.0336887389, 0.0057683270, -0.0537870340, -0.1793144494, 0.0437353626, 0.1834710091, -0.0215715393, 0.1812767982, 0.0090025226, 0.0925916359, 0.1097989604, 0.0283710118, 0.0189690515, -0.0044762203, 0.0348260738, 0.1044731438, -0.1294091642, -0.1279355884, 0.0068693431, -0.0410449244, -0.3441435397, 0.0688623860, 0.0816074237, 0.0031274639, 0.0069210255, 0.0816471726, 0.0277563874, -0.0339254849, 0.0501578115, -0.0311594997, 0.0467598960, 0.2064989209, 0.0264437329, -0.0985678285, -0.0797739998, -0.0367004089, -0.0073957155, 0.0413961820, -0.1054386199, -0.0752547234, 0.0337339006, -0.0588277653, -0.1045100018, -0.0165627487, -0.1114709824, 0.0935137719, -0.0132957818, 0.0473679453, 0.0057360847, -0.0242071114, 0.0486132242, 0.2827958763, 0.0571367145, 0.1160483435, -0.0363457352, 0.1662331372, 0.1554302722, 0.0597508289, 0.0676294193, -0.0101289283, -0.0768092796, 0.0305931810, 0.0219924524, 0.0901588500, 0.0938720107, 0.0733411536, 0.0011518184, 0.0195766408, -0.0601053014, 0.0081564356, -0.0872209817, -0.1123641282, -0.0239843577, 0.0182592496, -0.0699735358, 0.0579517111, 0.1293684095, -0.0041839229, 0.0344837271, 0.1902599931, 0.1097331420, 0.0992756784, -0.0386639163, -0.0367770828, 0.0373170897, 0.0602952465, -0.0382186547, 0.0205294862, 0.0810088366, -0.0178993940, 0.0399577767, 0.0679379329, 0.1395340711, -0.0223772265, -0.0312267579, -0.0291389674, 0.0576736256, 0.0802729875, 0.0467042252, -0.0346965045, -0.0341533236, 0.0280013643, 0.0953751132, 0.0467177704, -0.0627389401, -0.0188521426, 0.0440022722, -0.0012916080, 0.0858615339, -0.0085109174, -0.0599542148, 0.1031870022, -0.0414816588, 0.0099029373, -0.0955598056, -0.0450307615, 0.0650067106, 0.0354113989, -0.1258674860, 0.0951461345, 0.0627581254, -0.0516312048, -0.0333072580, 0.0018060106, -0.0885237902, 0.0245790407, 0.1631292701, 0.0854138583, -0.0365761295, 0.0084131779, -0.0239243563, -0.0400441960, 0.0044830795, 0.0400947519, -0.0420540459, -0.0418514200, 0.0301600248, 0.0515464209, 0.1422937661, 0.0559233278, -0.0049735354, -0.0140527487, -0.0090281451, -0.0355319753, 0.0372020043, 0.0706103519, -0.0225712247, -0.0720712319, 0.0210852493, -0.0844522044, -0.0423188508, 0.0599252246, -0.0358097181, 0.0573933832, -0.0393501408, 0.0151513051, -0.0235612467, -0.1184118837, -0.0778438002, -0.0127828959, 0.0215364024, -0.0982349962, 0.0634435564, -0.1537758559, 0.0067543043, -0.0381317846, 0.0366996266, -0.0442253724, 0.1595560908, -0.0105668483, -0.0375223383, -0.0313542634, -0.0102524720, 0.0609132759, -0.1214009300, 0.0233662017, 0.0514409132, 0.0129962591, 0.0341121703, 0.0300606731, 0.0491535887, -0.0197152235, -0.0996116921, -0.0289246012, 0.0230236948, 0.0952128768, 0.0937259197, 0.0430100858, -0.0475167260, -0.0258169137, -0.0067523448, -0.1391146630, -0.0624912158, -0.0695671067, 0.0445273034, -0.0063825115, 0.0037171070, -0.0448263064, -0.0409559384, -0.0064367782, -0.0175156444, 0.2015758753, -0.0632588491, -0.0688039660, 0.0983143076, -0.0674076378, -0.0033756003, 0.2023089081, -0.0520715080, -0.0776252970, 0.0027950383, -0.0172714777, -0.0975613892, 0.0822960064, -0.0614940412, 0.0090135457, -0.0472274236, 0.0012979418, 0.0328024663, -0.0707102865, -0.0358102173, 0.0343350843, 0.1248165742, -0.0438596644, -0.0163577758, -0.0737586319, -0.0178662613, 0.0271261279, 0.0913850516, -0.0042171027, 0.0302434601, 0.0694968700, -0.0274215955, 0.0455588810, 0.0866892710, 0.0817788690, 0.0256827176, -0.0413347296, 0.0922674984, -0.0435125567, 0.0161631051, 0.0016502981, 0.0312567949, -0.1114566699, -0.0495397486, -0.0375527218, 0.0661210865, 0.1211442649, -0.0345670581, -0.0189154800, 0.0993362889, 0.0518293120, 0.0380237177, 0.0079240687, 0.0537340976, -0.0483798012, 0.0424379967, -0.0078745708, -0.0289325360, -0.0317412689, 0.0642052889, -0.0478770696, -0.1128249541, 0.0274803340, 0.0779964924, -0.0807317719, -0.0919277519, -0.0170752686, -0.0638353899, 0.1435747445, 0.0537364446, 0.1270297468, -0.1360040456, 0.0103840902, 0.1015232727, -0.0263889749, -0.1178758889, 0.0242151991, -0.0512363464, 0.0147903832, -0.0221299715, 0.0764024481, -0.0529803932, -0.0760637373, 0.0189287364, -0.0080437409, 0.0203372948, 0.0292923916, 0.0055713891, 0.1006779820, -0.1295135468, 0.0727937222, 0.0216619782, -0.0267526451, 0.1488676965, 0.0468454547, 0.0272365045, -0.0018703545, -0.0337904394, 0.0252958536, 0.0641381666, 0.0326994695, -0.1849185228, -0.0139410682, 0.0616309568, -0.0501846038, -0.0468324199, -0.0712971166, 0.0182588808, 0.1191965863, -0.0440145247, 0.0241128057, -0.0780496448, -0.0739335865, -0.1495984644, 0.0055030999, 0.1021064892, 0.0242193341, 0.0254606865, 0.1483426392, 0.0128302528, -0.0087929228, -0.0154951848, 0.0194672942, 0.0607614368, -0.0027796095, -0.0214294847, -0.0453180224, -0.0383315310, 0.0311030839, 0.0429019257, -0.1080235615, -0.0020720074, 0.0763207376, -0.0146907149, -0.1730330139, -0.0263974741, 0.2292724848, 0.1002373397, -0.0079540359, -0.0723072886, 0.0185306687, 0.0651176125, 0.0050504413, -0.0402327031, 0.0271081440, 0.0946848169, 0.0471193902, -0.0399944633, -0.0856986418, 0.0539295189, -0.1184116751, -0.0727267042, 0.0141505888, -0.0110133877, 0.0199077278, -0.0562224574, -0.0682720393, -0.0186486878, -0.0799593851, -0.0677335039, 0.0730588883, -0.0673011690, -0.0473357774, -0.0969603136, 0.0169384517, -0.0770651773, -0.0286068600, 0.1044499278, -0.0152709531, -0.0016149972, -0.0318604521, 0.1347236335, -0.0437192209, -0.0712489858, 0.0460425392, -0.0083937794, 0.0875623897, -0.0405534282, -0.0454147868, 0.0203240551, 0.0412341915, -0.0886534005, -0.0753888339, -0.0012863673, -0.0594700575, -0.0635416359, -0.0044377544, -0.0084331390, -0.0083546797, 0.0283398312, -0.1247060448, -0.0574663617, 0.0052262060, -0.1035149395, 0.0028334383, -0.0453989059, -0.0391193219, -0.0049737068, 0.0772274435, -0.0045156572, 0.0213103313, -0.0028972281, -0.0010722307, -0.0901788101, 0.0286561213, 0.0111241415, 0.0231084358, 0.0394070819, 0.0992021859, -0.0315461121, 0.0162880253, 0.0447250418, -0.0926315337, -0.0483163223, 0.0571237355, -0.0261253845, 0.0521977395, 0.0568857193, -0.0503476933, -0.0269586649, -0.0538877919, 0.0479240716, 0.0645524934, -0.1296657473, 0.0542000085, 0.0184344817, 0.0785773769, 0.0484259650, -0.1053416952, -0.0771409348, 0.0976087898, 0.0274846293, 0.1500422955, 0.0048963223, -0.0198689532, 0.0189854261, -0.0174630564, -0.0251145698, 0.0240876433, 0.0922690183, 0.0022214269, 0.0027880424, -0.1184294671, -0.1478091627, 0.0109215230, 0.0528275706, -0.0188029371, -0.0346185006, -0.1238020733, 0.0222347882, -0.0784498155, -0.0082028750, -0.1315492094, 0.0191714261, -0.0271203853, 0.0649078265, -0.0230949782, 0.1024398878, 0.0732457861, 0.0694180205, -0.0882233381, 0.0758749098, -0.0857359096, -0.0998993739, 0.0566579476, -0.0752397478, -0.1115385741, 0.0007323831, 0.0566528328, -0.0320934840, -0.0013457286, -0.0416459627, -0.0285619851, 0.0919979215, -0.0252259467, -0.0364289246, -0.0605515316, -0.0909581184, -0.1310693771, -0.0407157131, -0.0010110685, -0.0341619179, 0.1348700374, 0.0559120551, -0.0904814005, -0.0240558162, -0.0733659863, -0.0753276572, -0.0582410209, 0.0865944847, -0.0252273101, -0.0562846400, -0.0165905133, -0.1633561850, -0.0975143760, -0.0412068926, -0.0207247138, -0.0403926149, 0.0192190036, -0.0462903194, -0.0206431411, 0.1179709658, -0.0319878981, 0.0917127728, -0.0640470460, -0.0750046223, 0.0799225867, -0.0021808518, -0.0083716009, -0.0296532512, 0.1057703942, 0.0093478523, -0.1261135042, -0.0288857222, -0.0280636121, 0.0468555093, 0.0621542074, -0.0599249043, 0.0908321589, -0.0538284630, 0.0300117601, -0.0816731751, 0.0456935577, 0.0239218324, -0.0650407374, 0.0281149130, -0.0690847933, 0.0203167573, 0.1091623530, 0.1139937714, 0.0464936867, 0.0639208630, 0.0868492424, 0.0698926300, -0.1050570086, 0.0293060355, 0.2364755124, -0.0653773472, -0.0339633599, -0.1275449246, -0.1524814665, -0.1821247190, -0.0623435490, 0.0132482341, -0.1325727403, -0.0242060348, -0.0604617335, 0.2088132650, -0.0610346459, 0.2030276060, -0.1281447858, 0.0894072950, -0.0169709083, -0.2645676732, 0.1223578006, 0.0541906171, 