//Numpy array shape [3, 3, 128, 128]
//Min -0.996644914150
//Max 0.757057785988
//Number of zeros 0

#ifndef W29_H_
#define W29_H_

#ifndef __SYNTHESIS__
model_default_t w29[147456];
#else
model_default_t w29[147456] = {-0.0241895802, 0.0067223366, 0.0735302344, -0.0203841757, -0.0200264603, 0.0391948633, -0.0467049591, -0.0591015555, 0.0032613871, -0.0257911794, -0.0147655513, -0.0447735749, -0.0047790315, 0.0012227683, 0.0090618702, -0.0294497572, 0.0038098735, -0.0576085895, 0.0636513457, 0.0167057998, 0.0043750708, -0.0113869607, -0.0287732463, -0.0051916903, -0.0636125877, -0.0161439795, -0.0074630501, 0.0551596656, -0.0868025944, -0.0641783178, 0.0384573936, -0.0527242981, 0.0858587846, -0.0494827330, -0.0059517710, 0.0091480939, 0.0377962776, -0.0307779480, -0.0139200436, 0.0035584124, 0.0043442301, 0.0189996343, 0.0118166665, -0.0743024647, -0.0421128683, 0.0105016055, -0.0169784743, -0.0370472297, -0.0221992508, -0.0124819539, -0.0457125530, -0.0857735276, 0.0324843116, -0.0205099918, -0.0263564996, -0.0471800864, 0.0205769837, -0.0119089307, 0.0110058533, 0.0099413916, 0.0121825244, 0.0111882184, 0.0158505160, 0.0258499235, 0.0254244357, 0.0239718519, -0.0406486690, -0.0097554168, -0.0221506041, 0.1097556576, 0.0330726206, -0.0344945230, -0.0525260381, 0.0706110075, -0.0902855173, -0.0643179342, -0.0674017519, -0.0661398172, -0.0670240074, 0.0517266467, 0.0517446175, -0.0161110703, -0.0074409456, -0.0221961085, -0.0058895904, -0.0001825599, -0.0354437530, 0.0696272105, 0.0289842803, -0.0118708694, -0.0305193942, -0.0057158666, 0.0828526840, -0.0018577279, -0.0205988791, -0.0030080532, 0.0173458420, -0.0450071469, 0.0147503829, 0.0720842406, -0.0527123660, 0.0541897044, 0.0347913355, -0.0311567411, -0.0202314183, 0.0188751146, -0.0383114107, 0.0275677871, 0.0561028607, -0.0321291015, -0.0338521525, 0.0309986826, 0.0074484372, 0.0363665856, 0.0084563280, 0.0010591135, 0.0546145327, 0.0175490826, -0.0698181167, -0.0833893046, -0.0074065141, 0.0331839845, 0.0236981101, -0.0055214181, 0.0658079311, -0.0781173110, 0.0208948702, -0.0698881596, 0.0514623225, 0.0031704169, 0.0031205048, 0.0401742086, -0.0386754125, 0.0436677337, 0.0353624038, 0.0504798479, -0.0658961013, 0.0167495925, -0.0536828563, -0.0721539035, 0.0059904587, 0.0231674965, -0.0285911169, 0.0021045022, -0.0566015206, 0.0310139023, -0.0226742793, 0.0132478680, -0.0277713574, 0.0628114268, -0.0235129334, -0.0121761290, 0.0148308603, 0.0044174548, 0.0091532860, 0.0367280990, -0.0739471763, -0.0073651439, -0.0044764527, -0.0112092076, -0.0092717791, -0.0271093603, -0.0613134652, 0.0471145883, 0.0497341566, 0.0107404003, 0.0236507189, 0.0171214435, -0.0158520024, -0.0056125950, 0.0173807126, -0.0783267319, -0.0853524804, 0.0407592319, -0.0535822958, -0.0217475519, -0.0937856585, 0.0026342124, 0.0381434523, -0.0127805108, 0.0640110224, 0.0197234061, 0.0329819843, -0.0352447219, 0.0320383050, 0.0752206221, 0.0211482700, 0.0218554009, 0.0783035159, 0.0096587082, -0.0276478566, 0.0464589819, 0.0411620513, 0.0630123168, 0.0194438212, 0.0508166291, -0.0409443192, -0.0400263183, 0.0966609269, 0.0143904276, 0.0399683304, 0.0368979722, -0.0456485823, 0.0150989918, -0.0640459284, -0.0177755747, -0.0079959854, 0.0285946690, 0.0079794079, 0.0346757546, -0.0196564049, -0.0119459191, -0.0260411277, 0.0295577496, -0.0791656598, -0.0051669301, -0.0250106808, -0.0178122967, 0.0228889473, 0.0070441794, -0.0047708726, -0.0651198253, 0.0036602803, -0.0051919646, -0.0020951014, 0.0299921203, 0.0151936673, 0.0648667365, -0.0273862910, -0.0428588539, 0.0066179954, -0.0187795963, 0.0258742198, 0.0312275924, 0.0422040597, -0.0421291776, 0.0366097614, 0.0313806497, -0.0775293559, 0.0365160443, 0.0248878952, -0.0310294721, 0.0148204891, 0.0037561234, -0.0036048403, -0.0195399337, -0.0625541434, -0.0809730962, 0.0275687352, 0.0144724855, 0.0680243298, -0.0056914771, 0.0006859097, -0.0662282631, 0.0182713158, -0.0641647652, 0.0023975449, 0.0087973615, 0.0163666885, -0.0466594212, 0.0073316069, 0.0360889547, 0.0286924466, 0.0797680616, 0.0130015630, -0.0757269338, -0.0100417435, -0.0071502156, -0.0231438577, -0.0561424121, 0.0426109619, 0.0090726241, 0.0325955972, 0.0304449704, 0.0385325402, -0.0440309159, 0.0337681286, 0.0522246845, -0.0830653459, -0.0626397058, 0.1075578481, 0.0215943120, 0.0239716992, -0.0224885345, -0.0237540416, -0.0080705872, -0.1298000962, -0.0051839659, 0.0207346287, -0.0389353819, 0.0422172211, -0.0437967926, -0.0075441208, -0.0415879153, -0.0324498191, 0.0382503644, -0.0797435716, -0.0303736087, 0.0860222653, -0.0347874574, -0.0475132167, -0.0132229999, -0.0108627956, -0.0123769259, 0.0076311175, 0.1159958094, 0.0136770839, 0.0293860435, 0.1173640862, -0.0584765784, 0.0045552994, -0.0647783950, -0.0775201395, 0.0035376893, 0.0357548185, 0.0096533420, -0.0781044364, 0.0988315418, 0.1396681964, 0.1012924910, 0.0031408016, 0.0499425083, 0.0243920591, -0.0269380920, 0.0038016809, -0.0144495256, -0.0200298894, 0.0499576069, -0.0419646278, -0.0313361697, 0.0452450290, -0.0862499997, 0.0038602969, 0.0569632798, -0.0973174348, 0.0775603577, 0.0341054946, 0.0267029610, 0.0407169089, -0.0662068874, 0.0274959281, 0.0301196445, 0.0194414258, -0.0197171625, 0.0383214913, 0.0422558971, -0.0596477650, -0.0466567352, -0.0214071628, -0.0333190449, 0.0331105031, -0.0815419033, -0.0368855223, -0.0170977972, 0.0344548933, 0.0114022642, -0.0175604448, -0.1207815930, -0.0497677475, -0.0141503261, 0.0498976856, -0.0492731817, -0.0096597914, -0.0253756698, -0.0079567526, -0.0143364742, 0.0305132680, -0.0221487861, 0.0040806974, 0.0638306886, -0.0300399419, -0.0513553470, 0.0067836107, -0.0144135635, -0.0674565881, 0.0097370073, 0.0495279655, 0.0599461459, -0.0435230806, 0.0017073591, 0.0557874925, 0.0116749527, -0.0330648422, -0.0220176280, -0.0111661209, -0.0106743751, 0.0285229757, 0.0103114173, 0.0266822781, -0.0343103670, -0.0563508943, -0.0537552051, -0.0214937758, -0.0629116520, -0.0535207726, -0.0435966402, -0.0534599349, -0.0483739004, -0.0368946269, -0.0275512598, 0.0834535435, 0.0004491193, -0.0214319006, 0.0117052551, -0.0348372236, -0.0916012079, -0.0744735897, -0.0866438895, 0.0087952949, 0.0083270110, 0.0645452589, -0.0681375191, -0.0336210467, -0.0276488736, 0.0085195294, -0.0062266793, -0.0452300273, 0.0827741325, -0.0638309345, -0.0691999272, -0.0119719869, -0.0118351933, -0.0425170660, -0.0068608536, 0.0383958817, -0.0035351044, -0.1255258471, 0.0348892994, -0.0312314034, -0.1330575645, -0.0189946461, 0.0095066652, 0.0038630120, -0.0668540895, 0.0147178536, -0.0086067058, -0.0936815366, -0.0583006255, -0.0553105213, 0.0314651988, 0.0932159200, 0.0063174944, -0.0330949388, -0.0842233747, -0.0469063893, -0.0821532831, 0.0000344480, -0.1094884723, 0.0505234487, -0.0436678715, -0.0471882857, 0.0128464336, -0.0379684679, -0.0303955115, -0.0021090538, -0.0480691902, 0.0092290137, -0.0282048378, 0.0250396561, -0.1236783415, -0.0328874104, -0.0341175199, -0.0834404677, 0.0253934711, 0.1696485579, 0.0132400673, 0.0422142111, 0.0292948689, -0.0383969806, -0.0559253618, -0.0475164726, 0.0158987101, -0.0380430780, 0.0614028350, 0.0057693697, 0.0260363966, -0.0487557873, 0.0516381525, 0.0160110462, 0.0276499316, 0.0563289039, 0.0278010909, -0.0166141782, -0.0721547082, -0.0096496865, -0.0434409864, -0.0492261089, 0.0816585198, 0.0254815500, 0.0149004199, -0.0663216487, -0.0548340119, 0.0258896910, -0.0566780195, -0.0212817173, -0.0686265528, 0.0556426048, -0.0085661877, -0.0752406269, -0.0019912645, 0.0633124113, -0.0665082857, -0.0046675145, -0.0095858276, 0.0192696750, 0.0344970971, -0.0477237143, -0.0364388116, 0.0608132519, 0.0170433000, 0.0888694674, 0.0084126713, -0.0877374932, -0.0599482022, 0.0098567726, -0.0596625879, -0.0376078747, 0.0772283822, 0.1315705776, 0.0331820697, 0.0153868729, 0.0986862779, 0.0170695819, 0.0038733266, 0.0064404788, 0.0920898691, 0.1679771543, -0.0322476178, 0.0952287465, -0.0658202544, 0.0559562556, 0.0082625765, -0.0161684118, -0.0225335564, -0.0183040723, 0.0216390584, 0.0929311141, 0.0015861212, 0.0177316442, -0.0266000573, -0.0492003486, -0.0113472100, -0.0444034636, 0.0327723734, -0.0002599739, 0.1499237567, -0.0035184000, 0.0054735220, -0.0483490564, 0.0031548212, 0.0791843534, 0.1060182229, -0.0267332252, -0.0070908535, -0.1123566031, 0.0434742197, -0.0338399485, 0.0088872714, -0.0131601607, 0.0323868580, 0.1819601059, -0.0790895149, 0.1030071452, -0.0474530160, -0.0258080289, 0.0533272028, -0.0170501061, 0.1366097033, -0.0789449364, -0.0833974630, -0.0227302443, -0.0203601867, 0.1594386995, 0.0442915373, 0.1271074414, -0.0330377892, 0.1798375547, 0.0338883400, 0.1169505119, -0.0534560308, 0.1502072215, 0.0313958712, 0.0451579876, 0.0441780053, 0.1315579563, -0.0428244174, 0.0116354749, -0.0044844993, 0.0401671492, 0.0460198559, -0.0532587990, -0.0491855629, -0.4101575315, 0.0138214165, 0.0313041955, -0.0264514703, -0.0949050710, -0.0615715832, 0.0339708999, -0.0519143380, 0.0223444290, 0.0251297131, 0.0238399245, 0.0119101014, -0.0539310984, -0.0034621104, 0.0915503949, -0.0628508776, 0.0435622782, 0.0444931313, -0.0627435222, -0.0053343689, -0.0541684479, -0.0677402988, 0.1130876392, -0.0852666423, -0.0027762842, -0.0017036294, 0.0247194991, -0.0569598339, 0.0503399260, 0.0037937185, -0.0560040548, -0.0506767482, -0.0003347614, -0.0121644493, -0.0249690991, 0.0454653762, -0.0224239994, 0.1050291136, -0.0310066845, -0.0273359213, 0.0369473025, 0.0229721218, -0.0288252421, -0.0902777538, -0.0181598775, 0.0752872676, -0.0225479510, 0.0289836619, -0.0745983347, -0.0070055644, 0.0103361942, -0.0926339924, -0.0724922717, -0.0037541799, -0.1249791011, -0.0208438877, -0.0193875656, -0.0746150985, 0.0150497090, -0.0325957946, -0.0019187232, -0.0517431498, -0.0036286607, 0.0367204882, -0.1493960917, 0.0022722003, 0.0046995641, 0.0259662531, 0.0756388083, -0.0279099382, -0.0349061191, 0.0191640593, -0.0096865762, -0.0221425649, -0.0400954783, 0.0115335081, 0.0092319213, 0.0087399371, 0.0719210505, -0.0657091364, -0.0453476012, -0.0524344519, -0.0026994073, 0.0708313957, 0.0443262458, 0.0158727448, 0.0129759395, 0.0303887613, 0.0109287845, -0.0810225531, -0.0397509374, -0.0156680066, 0.0640908331, 0.0090188067, -0.0189484060, 0.0248868354, 0.0184726343, -0.0136953657, -0.0400934815, -0.0722510740, -0.0100908754, 0.0649563000, -0.0548590720, 0.0542207323, -0.1028610021, 0.0038188873, 0.0362896360, 0.0366631150, -0.0326870866, 0.0262406748, 0.0208285321, -0.0122907162, -0.0514413677, -0.0111631062, 0.0213758778, 0.0378050730, -0.0419743881, -0.0638784170, 0.0420333967, 0.0145014133, -0.0864432231, -0.0013758438, 0.0126650063, -0.0678471252, -0.0174104702, -0.0169953443, 0.0288440268, -0.0821835697, -0.0213157739, -0.0147323105, -0.0281999093, -0.0098124268, -0.0219281055, -0.0437542610, -0.0068647149, 0.0304223653, 0.0308934338, -0.0096636182, -0.0277908836, -0.0335727818, 0.0076990789, -0.1349385381, -0.0503607765, 0.0977580100, -0.0000798753, -0.0448672250, 0.0520887971, -0.0053162393, -0.0366812870, 0.0003427356, -0.0663596690, 0.0292390492, -0.0213301275, -0.0353072248, -0.0157318339, 0.0435324982, -0.0217583328, -0.0076568713, -0.0280119237, 0.0340136886, 0.0484431684, 0.0200048294, -0.0397285670, -0.0904666483, -0.0818080008, 0.0406011641, -0.0143507579, 0.0331693701, 0.0087946868, -0.0082341321, -0.0298161581, -0.0906523243, 0.0678607598, -0.0755800530, 0.0020857316, 0.0260126125, -0.0424343720, 0.0082301712, 0.0236341003, 0.0193899032, 0.0170318577, -0.0078548621, 0.0267300773, 0.0467796735, -0.0215680189, 0.0868131593, 0.0886822194, 0.0237924047, 0.0224412270, 0.0746889040, -0.0324382894, -0.0245321542, -0.0410450548, 0.0133016687, -0.0062069790, 0.0210749973, 0.0035258159, 0.0944180042, -0.0061852988, -0.0222572945, 0.0018412480, 0.0857702345, -0.0152308634, -0.0031218561, 0.0376121067, -0.0717542768, 0.0463259108, -0.0227361359, 0.0239205100, 0.0892429948, -0.0036072095, 0.0633858368, -0.0103523294, -0.0176725872, 0.0454296954, 0.0035938430, -0.0456769988, 0.0733265132, 0.0348117910, -0.0095688282, -0.0473102666, 0.0609050505, 0.0617783964, 0.0817155689, -0.0765353292, -0.0051239640, 0.0208716094, -0.0645302013, 0.0539270900, 0.0546025150, -0.0115591846, -0.1197859272, 0.0117018837, 0.0268070158, 0.0166125447, -0.0024900713, -0.0376100391, 0.0033092303, 0.0310545433, 0.0294180252, 0.0174436867, -0.0620008521, -0.0079528186, -0.0021417441, -0.0673712343, 0.0032342137, 0.0074756485, -0.0353016853, -0.0113154454, -0.0150934933, 0.0317987539, -0.0066442708, -0.0076439348, -0.0012554936, 0.0007314360, -0.0362610966, -0.0027510992, 0.0243064389, -0.0262400359, -0.0545956865, -0.0215609074, 0.0017540650, -0.0139660453, 0.0036856378, -0.0254613943, 0.0261956323, 0.0004731943, -0.0110630766, -0.0370949581, -0.0805687308, -0.0107699614, -0.0800706521, 0.1029930338, -0.0918797255, 0.0017073458, 0.0582812317, -0.0209214147, -0.0864515081, -0.0420091227, 0.0547287874, 0.0072016576, 0.0386015214, -0.0694488585, 0.0038994881, -0.0560802445, -0.0122312978, -0.0021513547, 0.0036859617, 0.0315594077, -0.0765831470, 0.0053636245, -0.0053754812, -0.0261636376, -0.0690024048, -0.0135557270, 0.0377970673, -0.0150087653, -0.0904479995, -0.0029098233, -0.0163138006, 0.0207820926, 0.0946680084, -0.0196241383, -0.0072979662, -0.0890886188, -0.0020940169, -0.0274520665, 0.0425404720, -0.0463155508, -0.0773683190, 0.0594661981, 0.0377318859, -0.0453352742, -0.0137632145, 0.0202777684, 0.0321044996, 0.0230448805, -0.0315070823, -0.0551137999, -0.0105562825, -0.0019406267, -0.0243344456, 0.1330310404, 0.0143649783, -0.0580479689, -0.1270845681, 0.0472248197, 0.0794473067, 0.0462625064, 0.0019452621, -0.0021863454, 0.0715828091, 0.0059898896, 0.0166700240, 0.1079066917, -0.0433170274, 0.0143104922, 0.0300731380, 0.0625493079, -0.0194212031, 0.0251325890, -0.0847500116, -0.0782650635, 0.0048654168, -0.0406075418, -0.0287748799, -0.0490454249, -0.0118247541, 0.0002292839, 0.0184679646, -0.0157864876, -0.1157748923, 0.0164701100, 0.0115727289, -0.0638781264, 0.0243070833, -0.0237882473, 0.0665296838, -0.0025994291, 0.0215390865, -0.0270663779, -0.0565268211, 0.0174561217, 0.0040679532, -0.0725229681, -0.0007162676, -0.0081008067, 0.0568021126, 0.0167668518, -0.0356331244, -0.0218078420, -0.0212770347, -0.0990869179, -0.0016553036, -0.0468036272, -0.0241686683, -0.0368800797, -0.0145223411, -0.0670723468, -0.0211876202, -0.0013757552, -0.0793960392, 0.1297455877, 0.0084380368, 0.0708946213, -0.0354360826, 0.0694289804, -0.0728976056, 0.0576841049, 0.0178415924, 0.0301078390, -0.0072606178, -0.0415252931, 0.0271213241, -0.0860808566, 0.0416224077, 0.0256448388, 0.0189708639, 0.0286307484, -0.1296898574, -0.1538091600, -0.0335301645, -0.0139853377, -0.0671697184, -0.0356774777, -0.0349150226, -0.0062468960, 0.0024861800, 0.0282800030, -0.0047588283, -0.0599963106, -0.0137708625, -0.0220754035, -0.0480525829, 0.0594512895, 0.0314733051, -0.0428604446, 0.0055914866, 0.0146236680, -0.0438097380, -0.0177774355, 0.0677068457, 0.0364646912, 0.0455200560, -0.0284963045, -0.0093467124, 0.0089840209, 0.0535813496, 0.0295202509, -0.0078262677, 0.0105008194, -0.0470237210, -0.0796750486, -0.0385460518, -0.0242729504, 0.0224703867, -0.0389079936, -0.0184929390, -0.0777625069, -0.0428145304, -0.0923212394, -0.0129975919, 0.0572714806, 0.0177373216, -0.0940569267, 0.0983973220, -0.0108996434, -0.0552163534, -0.0617118925, -0.0360245928, -0.0102629559, -0.0025509247, 0.0307208579, 0.0233395323, -0.0894350782, -0.0394620113, 0.0102940314, -0.0190619156, -0.0441360809, -0.0927486122, 0.0319702066, 0.0531318001, -0.0373687334, 0.0449367464, -0.0223502778, 0.0182054248, -0.0616381094, 0.0203098431, -0.0191680845, 0.0194195267, -0.0702611431, 0.0065268888, 0.0253032148, 0.0052911867, -0.0397628583, 0.0209689457, 0.0123610664, -0.0924722776, -0.0051699304, 0.0538713522, -0.0485706739, -0.0238439143, -0.0099007376, 0.0189923327, -0.0324654058, -0.0227213763, -0.0812224001, 0.0212958455, 0.0405367836, 0.0346761867, 0.0180800911, 0.0029568984, 0.1088457406, -0.0349397846, -0.0966587663, -0.0039880266, -0.0003984003, -0.2042041421, -0.0035985287, -0.0213119648, -0.0201122612, 0.0049441806, 0.0450699329, -0.0074821878, -0.0419827700, -0.0612886511, -0.0079709236, 0.0538356416, 0.0587935261, 0.0636894703, -0.0896976143, -0.0693665668, -0.0092060538, 0.0220074039, -0.0682374015, 0.0181930736, -0.0527939014, 0.0191927403, -0.0580208376, 0.0558772944, -0.0163511690, 0.0257988572, -0.0568895862, 0.0072475062, -0.0243637618, -0.0499578193, -0.0312037822, 0.1101793572, -0.0242486652, 0.0074213906, 0.0015544917, -0.0509313345, -0.0093462868, 0.0366588570, -0.0427432656, -0.0139256660, -0.0223181490, -0.0578213595, -0.0420204252, 0.0338585116, -0.0214428194, 0.0320330113, -0.0571334437, 0.0581286736, 0.0700195208, -0.0524277128, -0.0446926281, -0.0304988213, -0.1162875369, 0.0597739480, 0.0948774740, -0.0381887183, -0.0355052426, 0.0655320361, -0.0230442304, -0.0683795586, -0.0016071313, -0.0426821299, -0.0143473614, 0.1061308533, -0.0388566032, -0.0744456351, -0.0111551872, -0.0105455527, -0.0352466181, 0.0122873476, 0.0097706895, -0.0044826134, 0.0390952788, -0.0398775600, 0.0234356299, 0.0190365724, -0.0149103450, 0.0421099141, -0.0115251439, 0.0281722546, -0.0360171720, -0.0445287414, 0.0663969442, 0.0062951054, 0.0676640198, -0.0596252009, -0.0472384691, -0.0249943025, 0.0630257502, -0.0315998681, 0.0569883846, -0.1313454211, 0.0082760612, -0.0340310521, -0.0807807222, 0.0151541578, -0.0499091223, 0.0320834704, -0.0431498848, -0.0346656665, -0.0360600427, -0.0302603450, 0.0239111613, -0.0503916740, 0.0740103871, -0.0309816971, -0.1204788685, -0.0670144781, -0.0373293012, -0.1225345433, 0.0211176481, -0.0354779772, 0.0283263735, 0.0097458707, -0.1066182479, 0.0007910961, -0.1045164317, -0.0313207991, -0.0169346370, -0.0163198635, 0.0020907540, -0.0465880223, -0.0394462422, -0.0711956844, 0.0423240587, -0.0269857403, -0.0013913310, -0.0122147677, 0.0447355062, -0.0987737924, -0.0387991332, -0.0067384359, -0.0526430048, -0.0692265555, -0.0523327030, -0.0079588890, 0.0218880046, -0.0496175475, 0.0326257199, -0.0079332404, -0.0449811220, 0.0287226103, -0.1700525582, 0.0101129003, 0.0509400368, -0.0830578580, -0.0806495547, 0.0052529746, -0.0636774302, 0.0097305756, -0.0324869826, -0.0599147193, 0.0417274423, 0.0061535020, -0.0712186098, 0.0062903231, -0.0143761467, -0.0672263205, 0.0586180463, -0.0175478626, -0.0039017149, -0.0392477624, -0.0084748343, -0.0105964374, 0.0738167092, 0.0361567661, -0.0433675200, -0.0376968905, -0.1085354164, -0.0299906321, 0.0634040013, -0.0250301063, -0.0091314493, 0.0672196001, -0.0676011890, -0.0000568109, -0.0093639856, 0.0133559052, -0.0267500170, -0.0002181439, -0.0009446341, 0.0410880856, -0.0212403145, -0.0309913587, -0.0205797087, -0.0668937266, -0.0287113842, -0.0534440950, 0.0242354441, -0.0249880794, 0.0478129573, 0.0597217418, -0.1012550741, 0.0210133512, -0.1186451837, -0.0408747531, -0.0525207818, 0.0416665711, 0.0626809299, -0.0759350806, -0.0049230587, 0.0111107407, 0.0455833785, -0.0340567008, 0.0419171527, 0.0803382173, -0.0258477516, -0.0286130421, 0.0684134588, -0.0003492114, -0.0066845682, 0.0026933504, 0.0249286462, 0.0342473686, 0.0963335708, -0.0573824383, 0.0662188306, 0.0175595619, -0.0540798716, -0.0534361713, 0.0709114596, 0.1364518702, 0.0036657401, -0.0287180599, -0.0131360730, 0.0439544916, 0.0473888069, -0.0187546536, -0.0999789909, -0.1018378362, 0.1394596845, 0.0492873117, -0.0119177895, -0.0486679897, 0.0019605362, 0.0393105522, 0.0092352182, -0.0130550405, -0.0353868343, 0.0306061003, 0.0363873951, -0.0341881812, -0.0329325758, -0.0271380600, -0.0520407483, -0.0289441328, 0.0222777091, 0.1272392869, -0.0681894124, -0.0090723298, 0.0126354648, -0.0369857736, 0.0401452072, -0.0436331704, -0.0066181780, -0.0116848238, -0.0089521063, -0.0451860428, -0.0714563727, -0.0040914789, -0.1035895944, 0.0200120192, -0.0311733447, -0.0437323041, -0.0630275533, -0.0469015539, 0.0265865270, 0.0474610291, -0.0194854122, 0.0248083305, -0.1040770262, -0.0160451476, -0.0510288700, -0.0073068775, 0.0139582958, -0.0721665397, -0.0108636944, -0.0578465462, -0.0164031666, -0.0817000046, -0.0739199519, 0.0423526801, -0.0071581122, -0.0133181233, -0.0200652331, -0.0092878882, 0.0022214409, -0.0301830228, 0.0197242945, -0.0554341860, -0.0264643915, -0.0146479057, 0.0293693952, -0.0761665553, 0.1046014056, 0.0534655266, -0.0457860269, -0.0704968870, -0.0381772183, 0.0147548560, 0.0049129813, -0.0246283542, 0.0102583859, 0.0096013481, 0.0298237428, -0.0082434081, 0.0301883835, 0.0102915782, -0.0212446433, 0.0184206143, 0.1043302789, 0.0307443980, 0.0042207423, 0.0229356177, 0.0508407094, -0.0274272542, 0.0809798166, 0.0481093079, 0.0325542875, -0.0386679545, -0.0241037477, 0.0194356181, -0.0633760095, 0.0620779358, -0.0124041205, -0.0495272055, -0.0366086960, -0.0570239834, -0.0142498724, 0.0024584078, 0.0950214341, 0.0286999922, 0.0395168141, 0.1733621806, 0.0988495722, 0.0396424644, -0.1925208718, 0.0159736127, 0.0274917614, 0.0696104392, 0.0819287375, -0.0596434139, -0.0602241233, 0.0255557466, 0.1277823597, -0.0273872204, 0.0520746633, -0.0587804019, 0.0094743744, -0.0485741906, 0.0452772677, 0.0143525638, -0.0355193689, 0.0840004832, -0.0098621193, 0.0757879242, 0.0790596902, -0.0320785418, -0.0659696907, 0.0023704078, 0.0367078632, 0.0347824544, 0.0554235727, 0.0182891265, -0.0692506209, -0.0532894842, -0.0724997073, -0.0304454733, 0.1492782831, -0.0596215054, -0.0030205108, 0.0460432507, -0.0384494513, 0.0147255398, -0.0340540484, -0.0567302555, 0.0156407617, 0.1599529535, 0.0924743265, 0.0108769434, 0.0387525223, -0.1709768921, 0.1186049134, 0.0161874443, 0.0044147451, 0.0026839911, -0.0691968948, 0.0839788541, -0.1135657206, -0.0453575179, -0.0052669877, -0.0419236049, -0.0235100072, 0.0424253792, -0.1384300590, -0.0346184522, 0.0494243763, -0.0753261521, 0.0589212030, -0.0492180064, -0.1236844733, 0.0019410505, -0.0140782483, -0.0339340568, 0.0532138981, -0.0353032276, -0.0963373780, -0.0382261127, 0.0570604466, 0.0014837637, 0.0863677338, 0.0896911323, -0.0141171459, -0.0713947713, 0.0174433216, -0.0499741100, 0.0329116397, -0.0209470019, 0.0273533873, 0.0287166070, 0.0987415984, -0.0170558095, 0.0831115097, -0.0484226160, 0.0108575420, 0.0199810360, -0.0105787367, 0.0248010736, -0.0608707815, -0.0259946324, 0.1009945571, 0.0297978148, -0.0131377904, -0.0168369897, 0.0181696545, 0.0967995971, -0.0213308185, -0.0216859430, 0.1012535915, -0.0271001384, -0.0188790169, -0.0385888480, -0.0256249551, 0.0369616747, -0.0388193242, 0.0265444070, -0.0147617906, -0.0562507175, -0.0085735861, -0.0891209245, 0.0292876884, 0.0098447632, -0.0019100711, 0.0732599944, -0.0699603781, 0.0234166943, -0.0265141707, 0.0008381329, -0.0141065056, -0.0035033252, -0.0409454219, -0.0004687390, -0.0044681826, -0.0002000415, -0.0651949421, 0.0101998663, 0.1116265878, 0.0262349620, 0.0088764746, 0.1425707340, -0.0988933071, -0.0550060049, -0.0402261950, -0.0776142329, 0.0472091958, 0.0953484997, -0.0380394682, 0.0230031982, 0.0204618704, -0.0969594344, 0.0154001815, -0.0657407045, 0.0414549597, 0.0715481639, -0.0318319499, -0.0151241133, -0.0388294309, 0.0594549514, 0.0895795003, 0.0117946146, 0.0457082540, -0.0010296919, -0.0190458130, 0.0410874151, -0.0282638390, 0.0490426682, -0.0438741520, -0.0705671608, -0.0566590242, 0.0188984498, 0.0254146848, -0.0113232546, -0.0032820238, -0.0760894716, -0.0032968316, -0.0689915791, 0.0885743499, 0.0329589099, -0.0037801024, -0.0300072376, 0.0210282467, 0.0628763214, -0.0152486712, 0.0584398881, -0.0091192350, -0.0192290880, 0.0113766454, 0.0964668840, 0.0248835534, -0.0180690009, 0.0349448398, 0.0734038204, 0.0358421206, 0.0377640873, 0.0135435360, -0.0272633042, -0.0109905163, 0.0171576682, -0.0379717052, 0.0464524813, 0.0078876093, -0.0187821127, -0.0446989574, 0.0097170910, -0.0011012221, -0.0078654056, 0.0124261165, -0.0130576380, -0.0147507749, 0.0782606229, -0.0631534606, -0.0305315796, -0.0117429309, -0.0729366913, 0.0052017518, 0.0167929400, -0.0309873186, 0.0634287149, 0.0421497747, -0.0262565035, -0.0209466685, 0.0222759843, 0.0158340763, 0.0195704233, -0.0018645942, -0.0212156810, -0.0257498324, -0.0206414871, -0.0069145784, 0.0148992334, -0.0733182505, -0.0383234136, -0.0106097655, 0.0465010330, 0.0017453268, -0.1602595896, 0.0350821167, -0.1008910388, 0.0444435850, -0.0088957185, 0.0254872870, 0.0725357607, 0.0440970212, -0.0032669515, 0.0336626619, -0.0881044418, -0.0315512642, -0.0180579927, -0.0556468815, -0.0514252745, 0.0348492749, 0.1058375537, -0.0047205095, -0.0304780863, -0.0421391763, -0.0525683649, -0.0196313430, -0.0393722318, -0.1265435666, -0.0255895071, -0.0032177784, -0.0927121863, -0.0844240636, -0.0044710352, 0.0840463415, 0.0526525080, 0.0439850204, -0.0990929976, -0.0119364625, -0.0801237375, -0.0198908690, 0.0172719359, -0.0635721758, 0.0185506120, 0.0221153051, 0.0231830869, 0.0832472742, 0.0376389623, -0.0134524563, 0.0635629445, -0.0269423518, -0.0011192934, -0.0287704319, -0.0992420167, 0.2163944840, -0.0555408634, 0.1592853367, 0.0059849839, -0.0149827367, 0.0073607438, 0.1544573754, 0.0382824168, 0.0364471227, -0.0493233204, 0.1706429571, -0.0204645358, 0.0268582404, -0.0302722845, -0.0358255208, -0.1904784888, 0.0365157314, -0.1435549110, -0.0814777836, 0.1388213038, -0.0654234812, -0.0265137628, 0.0851626545, -0.1642046124, -0.1223964319, -0.0076518655, -0.0813801438, -0.0782719776, 0.0199815929, -0.0057764780, -0.1336344928, -0.0554812029, 0.0598981567, 0.0114050629, 0.1260968894, -0.0217590258, -0.0069886278, -0.2125124931, 0.0834892765, -0.0496872179, -0.0264587086, 0.0096559236, 0.7475485206, -0.1021714434, -0.0604446940, -0.0136851175, -0.0565478615, -0.0247250330, 0.0150952805, -0.0424474142, -0.0398150161, -0.0515078604, 0.0337993614, -0.0320205204, -0.0229192022, -0.0382528305, 0.0217839163, -0.0319282375, 0.1184003204, 0.1381401718, -0.0348190665, 0.0363374874, -0.0949311107, 0.0556486882, -0.0735278204, 0.0589355193, -0.0587574393, -0.0271511022, 0.0640822798, 0.0272077192, -0.0662874132, 0.0146342283, 0.0287799016, 0.0086682979, 0.0605379231, -0.1065051258, -0.0074773459, 0.0341948345, -0.0813906118, 0.1559239924, -0.0379442982, 0.0045371419, -0.0246796422, -0.0322237313, -0.0267178398, -0.0953271464, 0.0329784974, -0.0344701111, -0.0686268359, 0.0808122009, 0.0018424658, 0.0129769407, -0.0293171816, -0.0081690922, 0.0055587706, -0.0264343880, 0.0250052195, 0.0872574747, -0.0509038754, -0.0141042219, -0.0172603410, -0.0014109166, -0.0169769395, -0.0188542269, -0.0133693349, 0.0009042405, -0.0428212024, -0.0311738234, 0.0470584556, 0.0604415797, -0.0460550226, -0.0880900398, -0.0330878198, -0.0097933346, -0.0133426562, 0.0289385132, -0.0075600827, -0.0110687250, -0.0525093153, -0.0182693731, 0.0690110624, 0.0383687206, -0.0796935558, 0.0346151330, -0.0490240939, -0.0908534303, -0.0208684094, 0.0899349898, 0.0063039302, -0.0345613360, -0.0643446296, -0.0331099257, -0.0248266328, -0.0080690840, -0.0228519998, -0.0255121589, -0.0328520127, -0.0884087756, -0.0015684956, 0.0269565489, -0.0302761365, 0.0613791309, -0.0947275385, 0.0278978441, 0.0359336995, 0.0306673143, -0.0096196635, 0.0611815564, 0.0213171709, 0.0048914636, 0.0710172579, -0.0228969362, -0.0054893992, 0.0054212045, -0.0356245376, -0.0508329533, 0.0243653189, 0.0433267057, 0.0390252136, -0.0214968380, 0.0619176999, 0.0422665067, 0.1106562093, -0.0970969275, -0.0569572262, -0.0263814423, 0.0768442824, -0.0431871489, 0.0152143547, -0.0024102640, 0.0095271589, -0.0446970165, -0.0107053248, -0.0797787011, -0.0157858189, 0.0435106717, -0.0996280089, -0.0114636701, -0.0331189968, -0.0812044144, -0.0580264702, -0.0167934876, 0.0034635963, -0.0514895394, 0.0125085944, -0.0082834195, -0.0241963416, 0.0508039184, 0.0211910121, 0.0509589501, -0.0850640759, -0.0554568172, -0.1342195123, -0.0006401349, 0.0334681906, 0.0114156697, 0.0090872990, -0.0340249017, -0.0019354115, 0.0177215077, 0.0654761568, -0.0189750735, -0.0300029628, -0.0363063477, 0.0190441553, 0.0235266089, 0.0057413224, 0.0335864425, -0.0715251118, -0.0897947028, 0.0532726087, 0.0847364888, 0.0004429129, 0.0374554321, -0.0714933276, -0.0586954057, 0.0259390883, -0.0649508312, -0.0639540926, -0.0535457991, -0.0834429637, -0.0631515011, -0.0349995121, -0.0032959343, -0.0066541703, -0.0941141918, -0.0175235961, 0.0029237892, -0.1036207899, 0.0019926412, 0.0224421099, 0.0330353640, -0.0040715928, -0.0897143260, -0.0857756436, 0.0467874296, 0.0785308182, 0.0166694485, 0.0350128822, 0.0771769583, 0.0368959382, 0.0277373586, -0.1144500673, -0.0883529708, -0.0773296580, 0.0812373608, -0.0090306085, 0.0552651063, -0.0502825044, -0.0032324791, -0.0211603232, -0.0067504621, 0.0244343765, 0.1063983589, -0.0334034599, -0.0178587716, 0.0138561279, 0.0808531865, 0.0086567178, 0.0084327161, -0.0024992614, 0.0274400152, 0.0505710654, 0.0611173697, 0.0455505364, 0.0441398472, -0.0986322910, -0.0762771890, -0.0204669442, -0.0176356938, 0.0512098745, 0.1205632165, -0.0453836396, 0.0574882701, 0.0885851830, 0.0589972027, -0.0349484831, 0.0438375138, 0.0137134194, 0.0351334214, 0.0000487548, -0.0305031557, -0.0445004515, -0.0518256687, -0.0347644128, -0.0287646782, -0.0260445047, 0.0122561790, -0.0282489061, 0.0163418204, -0.0890561640, -0.0240148902, 0.0301212166, 0.0380217135, -0.0047429032, -0.0063136080, -0.0748532638, -0.0944590345, 0.1600238979, 0.0179889426, -0.0350445323, 0.0095256865, 0.0560454652, -0.0946476758, 0.0356249921, -0.0389383063, -0.0065072761, -0.0134044541, 0.0196604487, 0.0412117988, -0.0582222305, 0.1374685615, 0.0080759404, -0.0775992945, -0.0363153480, -0.0141337756, -0.0315080509, 0.0126185892, 0.0260424670, 0.0500344150, 0.0002193757, 0.0637957081, 0.0561284237, -0.0590286963, -0.0771358162, -0.0532731153, 0.0270135682, -0.0532769188, -0.0154119907, -0.0023153243, 0.0558431447, 0.0063609411, -0.0511248782, 0.0370595157, -0.0780120939, 0.0227204040, -0.0154262483, 0.0517562032, -0.0100702792, -0.0345314555, -0.0156750269, 0.0775769353, -0.0690821707, -0.0247565918, 0.1382043213, 0.0212290082, -0.0476001911, -0.0520286262, -0.0419165306, -0.0074497182, 0.0204808153, 0.0634260997, -0.0293461122, 0.0195269827, 0.0156350676, -0.0835682377, 0.0068755546, -0.0942105204, -0.0435651951, 0.0248043109, 0.0902573541, -0.0571452640, -0.0789703950, 0.0257097688, 0.0290724020, 0.0316210426, 0.0188118815, -0.0149977887, 0.0857835859, -0.0537660196, -0.0032523354, 0.0501762815, -0.0483583696, -0.0810049549, -0.0087834001, 0.0857245177, -0.0907214507, 0.0319123976, -0.0265977494, 0.1091672480, -0.0607942455, 0.0199423917, -0.0485027134, 0.0307457391, 0.1429345906, -0.0181555767, 0.0185689554, -0.0253527928, -0.0489207469, 0.0097986227, 0.0311022177, 0.0064440579, -0.0069725900, 0.0864873752, -0.0776205435, -0.0188504253, 0.0213753730, -0.0070752660, -0.0223318748, 0.2037059218, 0.0414105654, 0.0269228723, 0.0234102998, 0.0028325322, -0.0083549004, 0.0027328185, 0.0632157624, -0.0543656573, 0.0195235703, -0.0584663376, 0.0819406733, -0.0765551776, 0.0940405056, -0.0069117285, 0.0969959423, -0.0168982558, -0.0048054401, 0.0704829097, -0.0187721495, 0.0230158530, 0.0775231719, -0.0251477025, -0.0353505909, 0.0605785698, -0.0422984883, -0.0427215621, -0.1974095404, -0.0442736335, -0.0758166686, -0.0106230900, -0.0590775982, 0.0209970903, 0.0248448215, -0.0133087197, -0.0443685427, 0.0930730253, 0.0006548086, 0.0319067761, -0.0525232293, 0.0160041787, 0.0386294909, 0.0155913271, -0.0231355038, 0.0324691646, -0.0404870473, -0.0811888129, -0.0386868231, 0.0371495746, 0.0213473924, 0.1205512434, -0.0288027246, 0.0231749900, -0.0365546755, -0.0505344085, -0.0460958891, -0.0381928384, -0.0308403410, 0.0079920013, 0.0155379027, 0.0347496979, 0.0224461425, 0.1052555963, -0.0217904449, 0.0033316615, -0.0004327364, 0.0692334250, 0.0172267929, -0.0278054327, -0.0286528841, -0.0367484018, -0.0575669892, 0.0068790438, -0.0331126526, 0.0865378082, -0.1172182709, 0.0047617131, 0.0095818024, -0.0270817820, -0.0347611792, 0.0531662703, 0.0125723742, -0.0523452498, 0.0304936208, -0.0069297254, 0.0185513217, -0.0058903368, -0.0453864411, -0.0079819662, -0.0392715931, -0.0197686926, -0.0584315732, -0.0743666962, 0.0628106296, -0.0300007723, 0.0007288210, 0.0125576090, -0.0865860879, -0.0184727963, -0.0290777627, -0.0024650458, 0.0076028649, -0.1346887350, -0.0049007875, -0.0077169044, -0.1039689854, 0.0095817624, -0.0971001089, -0.0191709306, -0.0625448972, 0.0333720744, -0.0347379148, -0.0058202846, -0.0326526463, -0.0590699464, -0.0307334531, -0.0294772536, -0.1123686954, 0.0566243120, 0.0493906774, -0.1012234688, 0.0516511574, -0.0279838610, -0.0802935660, -0.0493949465, -0.0466099791, 0.0079057999, -0.1373010278, 0.0103931725, -0.0857478008, 0.0619295500, 0.0644187331, 0.0721021369, 0.0043433476, -0.0739843324, 0.0386530273, -0.0086737769, -0.0557597689, -0.0341097750, 0.0117911408, -0.2037261575, 0.0119107822, -0.0223876741, -0.0039856955, -0.0184841845, -0.0213912278, 0.0674353391, -0.0568174534, -0.0886430964, -0.0034827634, 0.0224490985, 0.0101651400, 0.0455729477, -0.1570062488, -0.0269270036, 0.0400884412, -0.0040038261, -0.0620601438, 0.0887630507, -0.0417560339, -0.0210345238, 0.0299505033, -0.0297521874, -0.0563373417, 0.0256333668, -0.0863298699, -0.0806434155, -0.0300733075, -0.0919383317, 0.0462784246, 0.0659356415, 0.0886539444, 0.0274854116, 0.0157625098, -0.0200824384, 0.0125618987, 0.0827476755, -0.0083686737, -0.0454827473, -0.0396084599, -0.0605676621, -0.0727052242, -0.0515799932, 0.0112578161, 0.0308074448, -0.0631662756, 0.0304149538, -0.0295816846, 0.0573504716, -0.0417474471, 0.0198823567, -0.0115240254, 0.0323712640, -0.0104871998, 0.0358044431, -0.0266677067, 0.0099680247, -0.0029741405, -0.0230959356, 0.0114929387, -0.0329217464, 0.0180585813, 0.0695925727, -0.0579496436, -0.0299424827, -0.0195468497, 0.0218856875, -0.0174463615, 0.0187660176, -0.0257168002, 0.0625147969, -0.0608182475, -0.0448082499, 0.0258891564, -0.0270054732, -0.0186760537, -0.0350357033, 0.1001734063, -0.0150222639, 0.0009068048, 0.0119569479, -0.0387461074, 0.0312045347, -0.0490250140, -0.0276474543, 0.0188929811, 0.0357023031, -0.0312288981, 0.0395453349, -0.0096374536, -0.0474189892, -0.0143390847, -0.0008653717, -0.0732638463, -0.0042906296, -0.0383998528, -0.0466237664, -0.0120626502, -0.0091589475, 0.0305881966, -0.0063105961, 0.0011290101, 0.0107823210, 0.0050514303, -0.0499984808, 0.0148173077, -0.0534640737, -0.0907200873, 0.0384595729, -0.0445873216, -0.0222061854, 0.0707571357, -0.0605935007, 0.0096998317, 0.0379838310, -0.0253389888, 0.0895038098, -0.0457837544, 0.0378070734, -0.0243101232, -0.0468592644, -0.0300183389, 0.0484375805, -0.0530423112, -0.0158263296, -0.0283061564, 0.0169949718, 0.0143969161, -0.0530894473, 0.0814170167, 0.0459752940, 0.0205417275, -0.0508667193, -0.0358337089, -0.0853397325, 0.0307726245, -0.0049125771, -0.0917213485, -0.0023167902, -0.0333253592, -0.0762070194, -0.0603961721, 0.1014617532, -0.0071299640, 0.0040941602, 0.0505240709, -0.0555052422, 0.0527446233, 0.0126942350, 0.0483161658, -0.0094154133, -0.0477025025, 0.0292678215, 0.0176489186, 0.0083752591, 0.0037179876, 0.0712235942, -0.0132589070, -0.0205641314, -0.0001809403, 0.0166899413, -0.0492640324, 0.0189415291, -0.0133754350, 0.0664442778, 0.0972093865, -0.0704984739, -0.0265926067, -0.0346459448, 0.0557905957, -0.0411976427, 0.0265447441, -0.0360649675, -0.0371561572, -0.0051008514, -0.0172603521, -0.0033101488, 0.0292336792, 0.0320535712, 0.0134913391, 0.0187425185, 0.0373362564, -0.0159035027, -0.0216528177, 0.0236430597, -0.0176595561, -0.0325200632, 0.0369592458, -0.0337579437, -0.0199274570, -0.0705934018, -0.0129523501, 0.0599998944, -0.0137602817, 0.0664410219, -0.1238854900, 0.0153534096, 0.0098654591, -0.0128740082, 0.0302060861, -0.0355774611, 0.0340557136, -0.0911987573, -0.0023011847, -0.0160747617, -0.0141916974, 0.0537616983, 0.1408945769, -0.0295880269, 0.0164909493, -0.0734512806, -0.0564353094, 0.1068822369, 0.0685165673, 0.0024448906, -0.0949372500, -0.0470865406, -0.0581522733, -0.0570258349, -0.0306177437, 0.1354277730, 0.0438071750, 0.0798897669, -0.0572391115, -0.0825169832, 0.0486047193, -0.0094083510, 0.0182520300, 0.0172657222, 0.1994855404, 0.0363511629, 0.1048580781, -0.0595266446, -0.0711801499, -0.0361372158, 0.0777159408, 0.0183015224, 0.0239349231, 0.0038890396, -0.1125192195, -0.0761441588, 0.0019632839, 0.0371344164, -0.0626761764, -0.0379529335, -0.0407125168, -0.1648365110, 0.0069684014, 0.1224699616, -0.0540352799, -0.0762359574, 0.0770719126, -0.0166991409, -0.0765450671, 0.0570698157, 0.0209370311, -0.0673885122, 0.0130967898, 0.1231149212, 0.1552730650, -0.0191388261, -0.0752456561, 0.1067412645, 0.0238900017, -0.1207726672, 0.0159731489, -0.1828155965, -0.0079495125, 0.0979058072, -0.0735233799, -0.0052931099, -0.0018713485, 0.0872512758, -0.0128673716, -0.0101585379, -0.0381938182, -0.0893491805, 0.0101349782, -0.0210814998, -0.0846012905, 0.1669799685, -0.0426097177, 0.0172604211, 0.1042381302, 0.0336111449, -0.0210073423, -0.0861713514, -0.0159390531, 0.0497499406, -0.0895944983, 0.0598915592, 0.0591883920, -0.0259122420, 0.1054762974, 0.0225172341, -0.0202945713, 0.0172572713, -0.0954841226, 0.0302582476, -0.0330869704, -0.0399039127, 0.0551720075, -0.0006384723, 0.0021216713, -0.0808027387, -0.0045175031, 0.0767208710, 0.0421848036, 0.0154538564, 0.0182183702, 0.0402563959, 0.0217610169, 0.0071688625, -0.0810005292, -0.0013892358, 0.0339959636, -0.0195585415, -0.0045643607, 0.0047500110, 0.0373763219, 0.0055192546, 0.0334854648, 0.0682628900, -0.0343271866, -0.0224648789, -0.0063231252, 0.0085721631, -0.0270672906, 0.0217200257, -0.0065348907, -0.0445917882, -0.0097719664, 0.0322587825, -0.0335164517, -0.0400115103, -0.0515126698, -0.0068852948, -0.0214509033, -0.0142831616, 0.0142322434, 0.0601362847, -0.0185324475, -0.0389620550, 0.0144207496, -0.0365038067, 0.0089632757, 0.1132334471, -0.1407735944, 0.0209416468, 0.0679472461, -0.0401478484, 0.0824001282, -0.0463966504, -0.0585174710, 0.0774978772, 0.0430870354, -0.0020182161, 0.0187050048, -0.0145483250, 0.0223981217, 0.0509184524, 0.0370139256, -0.0795571581, -0.0708302110, 0.0270487852, -0.0788533837, 0.0232453160, 0.0219297037, -0.0868054628, -0.0076135579, -0.0173732284, 0.0382163264, -0.0132847335, -0.0403064117, -0.0006999564, 0.0155271040, -0.0136268735, 0.0166218411, 0.0738649890, 0.0041221902, 0.0203827359, 0.0237466898, 0.0351093821, 0.0594275147, 0.1156271771, -0.0338035598, 0.0312916972, -0.0787168369, -0.0106094740, 0.0321694650, 0.0035463409, -0.0439531095, 0.0201565307, -0.0458907485, 0.0053634192, -0.0644077733, -0.0121607985, -0.0509861894, -0.0099991756, -0.0059542628, -0.0586271435, -0.0215537604, -0.0557673872, -0.0333767235, 0.0322677977, 0.0222339127, 0.0382705927, 0.0717538446, 0.0367966481, 0.0242071971, 0.0144539671, 0.0724166483, -0.0678109005, -0.0874859244, -0.0354912840, -0.0122679854, 0.0289075989, 0.0009817012, 0.1091247723, -0.0103188166, -0.0048999204, -0.0136996284, -0.0269265641, -0.0878208801, -0.0494763292, 0.0529489145, -0.0340204276, -0.0290283579, -0.0257353745, -0.0636712387, 0.0423477888, 0.0074179093, -0.0602576062, -0.0330608822, -0.0387153514, 0.0614644997, -0.0601557754, -0.0043455493, -0.0541669317, -0.0033177498, 0.0085205948, 0.0221221838, 0.0745721385, 0.0067853280, -0.0744821727, -0.0330704264, -0.1306486279, 0.0113620535, -0.0298813730, 0.0004963952, -0.0624826774, -0.0679719970, -0.0160167255, -0.0070301904, 0.0033659376, -0.0103450119, -0.0027413473, 0.0378817730, 0.0766446963, -0.0711697266, 0.0705189258, 0.1393359303, 0.1355000436, -0.1441324949, 0.0279757604, 0.0403079055, -0.0412135795, 0.0500956140, -0.0885018930, 0.0591716431, 0.0787051171, 0.0063205301, -0.0724657476, -0.0728493035, 0.0201962050, 0.0199459065, 0.0486835837, -0.0008260467, 0.0105879214, -0.0487879850, 0.2166173160, 0.0709839910, 0.0488553382, -0.0666360110, -0.0705161393, -0.0019027357, -0.0014770798, 0.0487751178, -0.0162282009, 0.0134617817, 0.0051149875, 0.0652759522, 0.0309447777, -0.0247594435, -0.0011652968, 0.1341192275, -0.0580155142, -0.0473191477, -0.0517853089, -0.0086193783, 0.1086138114, -0.0199391320, -0.0905673355, 0.0127197970, -0.0199071467, -0.0094487844, 0.0021509000, 0.1048624739, 0.1187264770, -0.0638431534, 0.0782603994, -0.0388097614, -0.0414383300, -0.0277200490, -0.0028259847, 0.0568113588, -0.0398598425, -0.0297553446, 0.0048478055, 0.0389543884, -0.0480121411, -0.0451743938, 0.0140461707, 0.0246828608, 0.0273644999, 0.0062721758, -0.0715643764, -0.2241348326, -0.1247262880, 0.0473725237, -0.0429921895, 0.0327232443, 0.0009501376, 0.1058268994, -0.0235593151, -0.0751615092, -0.0626682937, 0.0166235995, -0.0282763131, 0.0518648550, -0.1019296274, 0.0549166724, -0.2474352121, 0.0618219934, -0.0471419580, 0.0670596287, 0.0276272744, 0.0012724773, 0.0520864092, 0.0326723643, 0.0522451513, 0.0461315401, 0.0514231808, -0.0279231761, -0.0571292005, 0.0634813160, 0.1076543629, 0.1299901903, 0.0654215887, -0.0212465897, -0.0676942170, -0.0373248905, -0.0299388841, -0.0200157631, 0.1177506596, 0.0149001805, -0.0394731686, -0.0415628403, 0.0073516862, -0.0213711876, -0.0060559288, -0.0433209985, -0.0473104641, -0.0384718925, 0.0014001417, -0.0282159466, -0.0300744735, -0.0534534119, 0.0099262530, -0.0263385363, -0.0113465656, -0.0799393728, -0.0547191501, 0.0935582072, -0.0212653633, 0.0415835641, 0.0733654276, -0.0446334369, 0.1083129495, -0.0323894881, 0.0022654920, 0.0619142577, 0.0263056047, 0.0063336003, 0.0746473745, -0.0299716946, -0.0225068126, -0.0852462724, 0.0057892310, 0.0043619061, -0.0504605807, 0.0333678015, -0.0408552811, 0.0295568276, 0.0012382308, -0.0280078761, -0.0000671013, -0.0345231630, -0.0129172569, -0.0104254596, 0.0612575859, -0.0423222594, 0.0720903575, -0.0581696481, 0.0055865822, -0.0066580297, -0.0211683102, -0.0041009379, -0.0508833639, 0.1034459323, -0.0462947600, -0.0063255616, 0.0164147001, 0.1173321605, -0.0216414351, -0.0052071740, 0.0787737966, -0.0546137393, 0.0230685137, -0.0060562780, -0.0667895451, 0.0148887346, -0.0300320815, 0.0250862017, -0.0077622607, 0.0860743523, 0.1158894673, -0.0479439422, -0.0171283726, -0.0230205711, -0.0705499351, -0.0059601949, -0.0358738787, -0.0765071437, 0.0013294842, 0.0246865768, -0.0161215719, -0.0308020767, -0.0747771859, 0.0310243666, -0.0096056340, -0.0059724594, -0.0326825678, -0.0502593257, -0.0824454203, 0.0862245336, -0.0876945630, -0.0214895532, 0.1321120709, -0.0450798422, 0.0051681614, -0.0404207297, -0.0344317667, -0.0419540256, 0.0108643202, 0.0043729628, 0.0511486568, -0.0465990491, -0.0233827569, -0.0084953243, -0.0022129053, 0.0420833975, 0.0121030034, 0.0783547536, -0.0551932715, 0.0514068305, 0.0672879070, 0.0259058643, 0.1001764312, 0.0191931725, -0.0680942759, -0.0273811724, 0.0633686557, -0.0853931308, 0.0022139684, 0.0716991723, 0.0131231323, 0.1689749658, -0.0138756409, -0.0693032220, -0.0204643235, -0.0496303700, 0.0855613202, -0.0177570842, 0.0400110222, 0.0325765014, 0.0020659303, -0.0890396833, -0.0002725488, 0.0188056398, -0.0834526122, 0.0105734020, 0.0490105748, 0.0214095451, 0.0065942379, -0.0569565669, 0.0948699713, -0.0140632475, 0.0079772677, -0.0505907275, 0.0013646039, -0.0379106626, 0.0001232031, 0.0675300360, 0.0476882942, 0.0080654798, -0.0270294156, -0.0088568907, -0.0040546660, -0.0310416352, -0.0697083995, -0.0355751738, 0.0700240284, -0.0205405764, 0.0062759584, 0.0656902492, 0.0230065193, -0.0183557048, 0.0300733931, -0.0444477685, -0.0150382249, -0.0753795207, 0.0109247295, 0.0588143766, -0.0428910702, 0.0097922804, 0.0020907100, 0.0177011285, -0.0396116488, 0.0081730448, -0.0658339411, 0.0496011414, -0.0267038401, -0.0879951790, 0.0036148271, 0.0282137860, -0.0447933935, -0.0242908336, 0.0626403689, -0.0272774547, 0.0255109947, -0.0505681671, 0.0437623896, -0.0389390439, -0.0174818467, 0.0353270583, 0.0317354910, 0.0032393900, 0.0137485955, 0.0479480550, -0.0307770036, -0.0611367449, 0.0826947689, 0.0063718525, -0.0141583914, 0.0149405124, 0.0694276318, -0.0144925574, -0.0138320327, 0.0173097420, 0.0272039827, 0.0336059928, -0.0655189082, -0.0597660020, -0.0578800328, 0.0062291627, 0.0258864276, -0.0033061206, 0.0235113036, 0.0046568736, -0.0412018783, -0.0518314503, -0.0448518209, 0.0708615556, -0.0651398823, 0.0555319227, -0.0402394198, 0.0406056084, 0.0483690575, -0.0174898934, -0.0259096194, 0.0063654860, -0.0405693054, -0.0051401570, 0.0233061165, 0.1500770599, -0.0401374735, -0.0109050190, -0.0184276290, -0.0286890175, 0.0421680808, -0.0174242929, 0.0096221603, -0.0490016304, 0.0392568223, 0.0576997474, 0.0134578664, 0.0048856176, 0.0557274073, 0.0063480292, -0.0164537504, 0.0338371396, 0.0549217500, -0.0082475757, 0.0080584586, 0.0110611301, 0.0275385622, 0.0045382073, -0.0149769504, 0.0017015070, -0.0412329622, 0.0196645819, -0.0184875317, 0.0283816848, -0.0425937027, -0.0068132849, 0.0140749700, 0.0288488325, 0.0128798988, 0.0224698707, -0.1165907085, -0.1422889978, -0.0206667352, 0.0207464080, 0.0289377365, -0.0196367372, -0.0513471998, -0.0466886424, -0.0027684509, -0.0103930691, -0.0208064038, -0.0065728109, -0.0265544299, -0.0135662025, 0.0484800711, -0.0059411288, -0.0093413945, -0.0213196650, -0.0532978848, 0.0016852603, 0.0410902873, 0.0382334851, 0.0231877416, -0.0132329678, -0.0603976026, 0.0191498883, -0.0532912686, -0.0665911287, -0.0964449048, -0.0064580007, -0.0013960300, -0.0952424332, 0.0483454987, -0.0644451156, 0.0052796723, -0.0795049220, -0.0115374373, 0.0307178721, -0.0558933988, -0.0215148013, 0.0101233413, 0.0151254116, -0.0818356648, -0.0287955739, 0.0246241540, 0.0234303046, -0.0728003606, -0.0082216235, 0.0349288248, -0.0064206035, -0.0777355358, -0.0656273961, 0.0345507562, -0.0530488193, 0.0284847524, -0.0285074394, 0.0040478967, 0.0462404080, -0.0065668076, 0.0730595812, 0.0041453945, 0.0013722382, -0.0906389430, -0.0119023621, -0.0185406730, 0.0029153556, -0.1429532468, -0.0371987894, -0.0032029825, -0.0414343365, -0.0479768142, 0.0332730189, 0.0475963652, 0.0486251190, -0.0417111516, 0.0448001474, -0.0058993543, 0.0427598841, -0.0120465616, -0.0929373577, -0.0539693274, 0.1015361473, 0.0454296917, -0.0252475142, 0.0515143126, -0.0182840284, -0.0110532353, -0.0651235133, 0.0138894673, -0.0111747514, 0.0154081332, -0.0602878071, -0.0089612929, -0.0173705891, -0.0683563277, 0.0527571626, -0.0024485274, -0.0117835440, 0.0009885717, 0.0255498346, 0.0061978912, 0.0542712063, -0.0126590328, 0.0040109828, -0.0353659093, 0.0111742187, -0.0173671898, -0.0260332115, 0.0089324638, 0.0387303792, 0.0394542292, -0.0416275822, 0.0062339026, 0.0865172148, 0.0035176580, -0.0240822975, -0.0101733245, -0.0275987387, -0.0016673787, -0.0488894433, -0.0972118527, -0.0237879716, -0.0129029211, 0.0118034026, -0.0226757471, -0.0784128904, 0.0235487483, -0.0060464088, 0.0463270508, -0.0505022593, -0.0342739858, -0.0422492251, 0.0179278366, 0.0043383040, -0.0253882091, -0.0094890147, -0.0258725025, -0.0093894396, -0.0014380469, 0.0033914370, 0.0097794095, 0.0325100608, -0.0284060091, -0.0604367591, -0.0239915419, 0.0053421645, -0.1402843744, -0.0071580089, -0.0354188532, 0.0964110270, 0.0037021663, -0.0570147000, -0.0212837085, 0.0075084399, 0.0145795969, 0.0292031951, -0.1275331676, 0.0487529524, -0.0431341231, -0.0788084492, 0.0764025897, -0.0488168448, -0.0563400649, -0.0489348844, 0.0145509085, -0.0882291570, -0.0451484323, -0.0547735170, 0.0529761463, -0.0234886613, 0.0269221533, -0.1085624173, -0.0336335115, -0.0050524189, -0.0874243304, 0.0003457524, -0.0597306341, 0.0405215360, -0.0276755393, -0.0567045324, -0.0383993797, -0.1262963563, -0.0942465886, -0.0399722047, 0.0319963954, 0.0270788353, -0.0154768322, 0.0542733446, 0.0138925370, -0.0254672784, -0.0307356268, 0.0947142914, -0.0283946469, 0.0125415996, -0.0665557981, -0.0622504540, -0.0259055085, -0.0330338553, -0.0452852510, -0.0228073038, -0.0202174708, -0.0454088151, -0.0823649690, -0.0106721371, -0.0264117736, -0.0426903293, -0.0274309330, -0.0772182196, 0.0064045321, 0.0077259815, 0.0342955478, -0.0611395389, -0.0205564089, 0.0040243263, 0.0375651829, -0.0393994860, -0.0332758352, -0.0014044347, -0.0201157872, -0.1194194704, -0.0017604022, 0.0163690783, 0.0063806511, 0.0443042479, -0.0164292287, 0.0055018649, -0.0090138009, -0.0027266396, 0.0433091410, 0.0388279818, 0.0900102854, -0.0205214638, -0.0014093495, -0.0027424041, -0.0368358530, 0.0503787883, -0.0386291370, -0.0028147018, -0.0077206031, 0.0091297133, -0.0499751270, 0.0008630874, 0.0093998853, -0.0116445478, 0.0072820601, -0.0077263871, 0.0323443562, -0.0264425781, -0.1008447409, 0.0197650734, -0.0033164260, -0.0455957130, -0.0188870095, 0.0010939547, -0.0480699614, 0.0730333105, 0.0806526095, 0.0169085208, 0.0383384861, -0.0172642134, 0.0195085071, 0.0394714400, -0.0111035109, -0.1088034958, -0.0283117425, 0.0383999273, 0.0272898525, -0.1396251023, 0.0356318280, 0.0286419112, -0.0199297909, 0.0000372592, 0.0980766192, 0.0741031766, -0.0147680100, -0.0468874723, -0.0325859264, 0.0189001709, -0.1670795530, 0.0705169961, -0.0039021603, 0.1060257778, 0.0189186949, 0.0094155530, -0.0422381908, 0.0106199766, 0.0410913154, 0.0409827717, -0.0126463892, 0.0030816963, -0.1235333756, -0.0185103733, -0.0144475773, -0.0780546963, -0.0483103655, -0.0730866864, 0.0329356603, 0.0021890283, -0.0021505421, 0.0125076482, 0.0295040123, -0.0988792256, -0.0242003947, -0.0149103096, 0.0139417872, -0.0526662171, -0.0581920296, 0.0278350003, -0.0650143474, 0.0545259453, -0.0779306740, -0.0326673724, -0.0595077500, -0.0086076036, -0.0584506094, 0.0165222827, -0.0190624930, -0.0718636215, -0.0345412679, 0.0146301109, -0.0161703881, 0.0341888629, 0.0499233268, -0.0628237426, 0.0271606669, 0.0494478345, -0.0229300503, 0.0123477466, 0.0070650070, -0.0734973252, 0.0686251670, 0.0060353274, 0.0518144481, 0.0528233945, 0.0213989280, 0.0608620606, 0.0734491050, 0.0458940715, -0.0090138447, 0.0294194929, 0.0069013410, -0.0743994564, 0.0338277407, -0.0478507988, 0.0720537081, 0.0673905611, -0.0944463015, 0.0095559135, 0.0525743812, 0.0024608802, -0.1131840050, -0.0747927055, 0.1100369170, -0.0476189815, 0.0059196958, 0.0070354715, 0.0193131510, -0.0341669954, -0.0045784796, -0.0722992718, 0.0458632484, -0.0068711797, -0.0066592982, 0.0402600095, -0.0077619925, -0.0009293562, 0.0295441095, -0.1125936657, -0.0547773466, -0.0026364822, -0.0422543883, 0.0248176027, 0.0110266367, -0.0074823438, -0.1363230795, 0.0232653059, 0.0388681181, -0.0367554240, -0.0071530654, 0.0461755469, -0.1006587297, -0.0615556203, 0.0074817659, -0.0399658978, -0.0670720041, 0.0553204268, 0.0322712101, -0.0540399328, 0.0345826223, 0.0058273333, -0.0500240773, 0.0243072286, -0.0439625904, 0.0069204019, 0.0392355062, -0.0074440991, 0.0419632383, 0.0550609194, 0.1037108079, -0.0045384509, 0.0163518451, 0.0451499373, -0.0194970444, 0.0949407443, 0.0563794412, 0.0711149052, 0.0069025969, 0.0693772510, 0.0450531617, -0.0271025095, 0.0573801436, -0.0184222888, 0.0346550755, 0.0145150675, -0.0304213185, 0.0236159302, 0.0126159443, -0.0607090779, -0.0196075942, -0.0363507792, 0.1163300574, 0.0527833402, -0.0614363775, -0.0189942028, -0.0196368806, -0.0313166939, -0.0565394647, -0.0136463614, -0.0356541090, -0.0142974108, 0.0220681690, -0.0552497692, 0.1008419544, 0.0421627313, -0.0426034629, -0.0006483307, -0.0756708458, 0.0624849647, 0.0559662618, 0.0349566489, -0.0413105488, 0.0164881330, 0.0153276706, 0.0251016896, -0.0636614561, -0.0089557106, 0.0396218635, 0.0470849313, -0.0131093608, 0.0140832150, 0.0294739492, -0.0694410428, -0.0527055264, 0.0230255667, -0.0447437018, -0.1156105027, 0.0211768597, 0.0041685691, -0.0735667869, -0.0461724363, 0.0883439630, 0.0213275924, -0.0019381159, -0.0458598137, -0.0435963124, 0.0545487478, -0.0787089318, -0.0204062480, -0.0809098855, -0.0027388756, -0.0397053175, 0.0326641761, 0.0154572269, -0.0342616402, 0.0694623590, -0.0377697982, 0.0345733911, -0.0273019858, 0.0234268941, 0.0139344037, 0.0026400969, 0.0521322191, 0.0050182790, 0.0698841512, -0.0693028718, -0.0455982015, -0.0108745331, 0.0874202698, 0.0411525033, 0.0350722224, -0.0111537483, 0.0021701111, 0.0106597738, -0.0637309253, 0.0208332092, 0.0289255232, 0.0005324984, 0.0585051253, 0.0160738677, 0.0052934685, -0.0366489552, -0.0197029412, 0.0144067081, -0.0689290091, -0.0171690509, -0.0493206270, 0.0404507890, 0.0564137846, 0.0264659580, 0.0934617668, 0.0297991596, 0.0104454104, 0.0116063403, 0.0590813719, 0.0622569956, -0.0256414562, -0.0000288100, 0.0148197217, -0.0626466125, 0.0276913419, 0.0675992742, 0.0056974739, 0.0210860129, -0.0209576394, 0.0375395752, 0.0368643552, -0.0183098391, -0.0037064727, -0.0350355320, 0.0676754043, 0.0095478417, -0.0285753049, -0.0104748039, -0.0397960283, 0.0910976529, -0.0358511358, -0.0089790579, 0.0252623092, 0.0377809256, 0.0291522872, -0.0465325378, 0.0874746889, -0.0450989380, 0.0376232527, -0.0325990692, -0.0490160994, -0.0248598270, -0.0675956979, -0.0711941049, 0.0118513480, -0.0197561700, -0.0245372728, 0.0039634565, 0.1600352824, 0.0486066900, -0.0545074344, 0.0093605723, -0.0307087079, -0.0636025593, 0.0107916724, -0.0536634102, -0.0224636029, 0.0410357080, -0.0642847419, -0.0164754204, 0.0035669389, -0.0361465998, -0.0775211528, -0.0120303715, 0.0346702263, 0.0167810339, -0.0478192493, 0.0495228916, -0.0249371063, 0.0419742502, 0.0740964338, -0.0397255272, -0.0326309763, -0.0152066685, -0.0887086317, 0.0218497142, 0.0639093667, 0.0540736057, 0.0262752865, -0.0186864380, 0.0241524968, -0.0588470288, -0.0882900730, -0.0425117463, 0.0502326153, 0.0081123710, 0.0079677729, 0.0052359700, -0.0244625937, -0.0344444551, -0.0010350785, -0.0033508518, 0.0666870028, -0.0430817120, 0.0331597738, -0.0808190629, -0.0245138314, -0.0078397188, -0.0416423269, -0.0034912596, -0.0336842462, 0.0748255104, 0.0461020321, -0.0896601379, 0.0558033064, -0.0352129489, 0.0591729805, -0.0273554251, 0.0097359549, -0.0122133931, -0.0199623462, -0.0324150212, 0.0101755830, 0.0114175053, -0.0226004273, -0.0406723134, 0.0114138592, -0.0533335023, 0.0523013212, -0.0390610620, -0.0147462338, -0.0448436141, -0.0698105469, -0.0147216078, 0.0132266385, -0.0387062319, -0.0129256183, 0.0052517704, 0.0104360795, 0.0279412810, -0.0155495992, 0.0512948669, 0.0012802088, -0.0134514105, 0.0410389118, 0.0358400643, -0.0373990014, -0.0249974765, -0.0691284239, -0.0627769157, -0.0436933674, -0.0090060672, 0.0286863055, 0.0340111703, -0.0790519714, -0.0408126563, -0.0677210838, -0.0170380305, 0.0209301170, -0.0175476316, 0.0535682589, -0.0530664772, -0.0538768508, -0.1114159897, -0.0310022067, -0.0141237145, 0.0669098124, -0.0148064438, -0.1006188691, -0.0069387080, -0.0204852764, 0.0172421951, -0.0540940128, -0.0915555432, -0.0773651972, -0.0153287584, 0.0427260995, 0.0844905823, -0.0944671780, 0.0262246672, -0.0387726240, -0.0067259599, 0.0695638880, -0.0326176845, -0.0227048434, 0.0498766340, -0.0125658140, 0.0299007427, -0.0989754796, 0.0257287920, -0.0000295867, -0.0967365950, 0.0182626322, -0.0475553386, 0.0192097593, 0.0062410198, -0.0521934256, 0.0085104620, -0.1360422224, 0.0319036655, -0.0793859661, 0.0537014157, -0.0193000231, 0.0056654364, 0.0104089268, -0.0117601240, -0.0401126668, -0.0461949892, -0.0095628472, -0.0252417903, 0.0158430617, -0.0532376617, -0.0697849914, -0.0088514844, -0.0379130654, -0.0241611246, -0.0409298912, -0.0551534146, -0.0311730616, -0.0241605639, -0.0273982529, 0.0312608667, 0.0767151117, -0.0374430418, -0.1002117321, -0.0302714109, -0.0463746563, -0.0481158085, -0.0275851004, -0.0014807614, -0.0592170171, -0.0181558244, -0.0159444306, -0.0202121418, -0.0449526571, -0.0782969892, -0.1080197319, -0.0002474051, -0.0334085263, -0.0428759903, 0.0948784277, -0.0541055501, 0.0096083563, -0.0380117148, -0.0146554438, -0.0041057812, 0.1024349779, -0.0551484302, -0.0333000235, -0.0042651654, -0.0300768632, -0.0396671332, 0.0537433438, -0.0556462705, 0.0044629946, 0.0019057709, 0.0000781654, -0.0644217357, -0.0080331080, 0.0226998664, -0.0434595719, 0.0461721197, -0.0248976741, -0.0219547506, 0.0170936845, -0.0167996045, -0.0338429809, -0.0153170209, 0.0510755293, 0.0525023751, -0.0000034910, 0.0581383631, 0.0531851538, 0.1015334800, -0.0175430253, -0.0380208828, 0.0005920565, 0.0119147189, 0.0189219676, -0.0400991067, -0.0005075163, 0.0069494355, 0.0101757720, -0.0400008112, -0.0161436591, -0.0500986800, 0.0890582651, 0.0367084406, 0.0190538913, -0.0476359911, -0.0209676176, 0.0001100884, 0.0083086062, -0.0992139727, 0.0767202750, -0.0275738537, -0.0470223278, -0.0047893100, 0.0631523132, 0.0703570619, -0.0671929941, 0.0151614975, -0.0056568310, 0.0008064546, 0.0797595680, 0.0648863614, -0.0149867097, -0.0643068403, 0.0346568152, 0.1163783744, 0.0490904301, -0.0016271145, -0.0032785425, -0.0033544798, 0.0598883815, -0.0455141701, 0.0484869108, -0.0922286808, -0.0668365732, 0.0454263315, -0.0118656717, -0.0838322863, -0.0166151635, 0.0157308485, 0.0712377355, 0.0001170121, 0.0277442280, -0.1009742692, 0.0003292175, 0.0113022961, 0.0100839641, 0.0300643463, 0.0309695378, 0.0254145581, -0.0450398512, 0.1115118191, 0.0316756591, 0.0273154918, -0.0216378234, 0.0640726760, -0.0359305069, 0.0163346082, -0.0022631544, -0.0068472987, -0.0492595397, -0.0922717452, 0.0920218080, 0.0038113410, -0.0199934822, 0.0646836683, -0.0065946179, 0.0107294982, -0.0229073204, -0.0337366909, -0.0436242707, 0.0281733833, 0.0434760787, -0.0768833607, -0.0182077792, -0.0230291728, -0.0493770763, 0.0078266962, 0.0897876546, -0.0641367286, 0.0701295733, -0.0401206613, 0.0063029309, -0.0290689860, -0.0726143345, 0.1535093635, -0.0305629354, -0.0045669316, 0.0556526184, 0.0150719397, -0.1064819023, 0.0334973671, 0.0002467126, 0.0242856275, -0.0089575518, -0.0279986113, -0.0400512330, -0.0722663105, 0.0852011144, 0.0177063420, -0.1227086037, 0.0439749323, -0.0001058973, -0.0315213352, -0.0594919436, -0.0750048086, 0.0293189213, -0.0154948961, 0.0268570557, -0.0012510653, -0.0153701790, -0.0517568998, -0.0276708063, 0.0342624933, -0.0160751268, -0.0472261123, 0.0026055130, -0.0078787478, 0.0117755607, -0.0155634293, 0.0896487162, -0.0261653382, -0.0404958352, 0.0203572735, -0.0280749295, 0.0479612462, -0.0129860248, -0.0209629405, -0.0390785970, -0.0084237549, 0.0227396023, 0.0345802940, -0.0334681273, -0.0364534408, -0.0053542648, 0.0214528255, -0.0259358324, -0.0121091241, 0.0563529767, 0.0653611943, -0.0235020295, -0.0476309173, -0.0012681177, 0.0072084717, -0.0662300959, 0.0495917201, -0.0943863168, 0.0497997738, 0.0262052473, -0.0123177981, 0.0380062871, -0.0217784569, -0.0046595545, 0.0993009880, -0.0105833150, -0.0362589471, 0.0679485798, 0.0124558946, -0.0145437447, -0.0523976870, -0.0953580663, 0.0095334379, 0.0518143028, 0.0638683215, 0.0253294483, 0.0115152532, -0.0245822389, -0.0346283428, 0.0093811564, -0.0029761428, 0.0969779268, -0.0033330047, 0.0314419381, -0.0912629515, -0.0449524969, 0.0132508585, 0.0449820682, -0.0382257290, -0.0044514486, 0.0370698273, -0.0657257810, 0.0002395981, 0.0267587677, 0.0762521401, -0.0294055361, 0.0206668470, -0.0698964670, -0.0238874406, -0.0667235106, 0.0002457261, -0.0230406150, 0.0738674179, 0.0139745306, 0.0059200954, -0.0543413796, -0.0084444731, -0.0270202160, 0.0060242871, 0.1349351108, -0.0154871251, -0.0307107400, 0.0265729316, -0.0452362075, 0.0063715931, 0.0113416119, 0.0151878409, 0.0595550090, -0.0108578214, -0.0802478716, 0.0271536559, -0.0188363660, 0.0591560304, 0.0070382277, 0.0735574886, -0.0116802873, 0.0281826612, -0.0417142250, 0.0509824902, 0.0488271713, -0.0275053922, -0.0537146069, -0.0108862827, 0.0172791965, 0.0264931191, -0.0326700769, -0.0195247829, -0.0100073935, -0.0326574817, -0.0333614461, 0.0453912504, 0.0465029851, -0.0182599127, 0.0540674590, -0.0531529561, 0.0220880732, 0.1046808437, -0.0142334215, 0.0156929716, 0.0017910850, 0.0044488311, -0.0061547183, -0.0014909618, -0.0303599983, 0.0011779534, -0.0136772078, 0.0706317499, -0.0391582958, 0.0628947914, 0.0096296621, -0.0579183176, -0.0362076573, -0.0304620955, -0.0619586036, 0.0247834418, -0.0349563770, -0.0128968041, 0.0285903402, -0.0216028411, -0.0646311119, 0.0190715455, -0.0520579331, -0.0146461884, 0.0819128379, 0.0290913768, 0.0724362135, -0.0293904785, -0.0409854911, 0.1090534478, 0.0386140086, -0.0789887607, 0.0114427228, 0.0234035123, 0.0301490463, -0.0150012141, 0.0146341166, 0.0115367668, -0.0239590462, -0.0518781841, -0.0048730480, 0.0274633486, -0.0425915793, 0.0788157359, -0.1745910347, 0.0760434642, -0.0178269781, 0.0079335459, -0.1186005250, 0.0342884474, -0.0224422235, -0.0214486923, 0.0194499753, 0.0425219759, -0.0002817316, -0.0085351923, -0.0943584070, -0.0179312676, 0.0929481089, 0.0084032444, -0.0068487818, 0.1284503639, -0.0232148021, -0.0545657799, 0.0592053384, -0.0275931060, 0.1183541119, 0.0320963301, -0.0282377899, -0.0610240586, 0.0460278392, 0.0448887721, -0.0348557681, 0.0380842015, 0.0145237613, 0.0325514898, -0.0605435483, 0.0224106275, -0.0349393152, -0.0653056651, 0.0021862073, -0.0212031957, -0.0625624880, 0.0715693906, -0.0238121171, -0.1211838052, -0.0202942509, 0.0099179698, 0.0331127159, -0.0090325028, -0.0226862021, 0.1110288650, -0.0246127602, -0.0414615944, 0.0149638802, 0.0270886719, -0.0178520214, -0.0812720284, 0.0408762954, 0.0169006959, -0.0024468859, -0.0364365950, 0.0162559394, -0.1161074340, 0.0567167252, 0.0140351718, 0.0235421881, 0.0324130841, 0.0090328883, -0.0538481772, 0.0563514158, 0.0197418425, -0.0060893237, -0.0017388962, -0.0418897979, 0.0166115798, 0.0354679339, -0.0918316543, 0.0151872076, 0.0389938690, -0.0060620657, 0.0765682533, 0.0276011117, 0.0199442785, 0.0443966351, -0.0863804072, 0.0380263403, -0.0595540926, 0.0243563671, -0.0797190964, -0.0323558263, -0.1159195751, 0.0518900789, 0.1114386246, -0.0092709493, -0.0110967401, -0.0296026599, 0.0125076864, -0.0637938976, -0.0397261158, 0.0354321375, 0.0005033276, 0.0385935567, -0.0250662453, -0.0290519688, 0.0161119457, -0.0091320425, 0.0261515770, 0.0005710189, 0.0137180276, 0.0293370467, 0.0125057800, -0.0491341874, -0.0329342596, -0.0356093571, 0.0361842178, -0.0277778674, -0.0372333862, 0.0027161574, 0.0050758375, 0.0157709494, 0.0716904253, -0.0035184720, 0.0116095198, 0.0544393510, -0.0274546705, -0.0241520293, 0.1020666063, -0.0576209612, 0.0273454152, -0.0118343271, 0.0167932473, 0.0927431509, -0.0001712386, 0.1286942363, -0.0164751150, 0.0634054020, -0.0520269871, -0.0416217968, 0.0895086303, 0.1360521615, -0.0815065950, 0.1209877729, 0.0473841764, -0.0162343625, 0.0070397374, 0.0016991727, 0.0104318429, -0.0795647055, 0.0436957702, -0.0535393134, -0.0206022859, 0.0674583167, -0.0358751155, 0.0074382462, -0.0158282053, 0.0645989403, 0.0959812328, 0.0600794852, -0.0270747710, -0.0295022018, -0.1429242045, 0.0110246055, -0.0485093854, 0.0346913598, 0.0310584195, 0.0426749401, 0.0029077902, 0.0236453358, -0.1007567421, 0.0376326740, 0.0085120630, 0.0590557903, 0.0402370878, -0.1103462204, -0.0272513907, -0.0358007066, -0.0247345883, -0.0585270301, 0.0602499098, 0.0421573296, -0.0571025759, 0.0068622790, -0.0363728255, 0.0102025559, 0.0315191187, -0.0539096966, 0.0004827573, -0.0397562943, 0.0880539268, -0.0342424549, 0.0080095427, 0.0461734682, 0.0014007884, 0.0538900234, -0.0198471081, 0.0392874181, 0.0134153264, -0.0462287217, -0.0141719207, -0.0055031707, -0.0281125288, -0.0653319433, 0.0612568147, 0.0318115503, 0.0751553848, 0.0609229021, -0.0396193489, -0.0109815802, 0.0621879958, -0.0644539520, 0.0251343567, -0.0813288391, 0.0010370121, 0.0709195361, -0.0462042764, 0.0203983635, 0.0565768741, 0.0176224299, 0.0232341755, -0.0164594501, -0.1225549579, -0.0326052047, 0.0680430606, 0.0174282882, 0.0260070842, -0.0845717937, 0.0348938070, 0.0609587766, 0.0932062417, -0.1688690037, -0.0058888448, 0.0226265360, 0.0147738038, 0.0037258626, -0.1131351814, -0.0163578950, -0.1404724717, -0.0176696014, -0.0525990576, -0.0084255747, 0.0574142970, -0.0218952801, 0.0319947377, 0.0221450832, -0.1317551434, -0.0555452555, -0.0025553990, -0.0048735091, -0.0382807069, 0.0475129746, 0.0244073197, -0.0144753270, -0.0224249307, -0.0605150051, 0.0218104720, -0.0158764347, -0.0492777415, -0.0053945663, 0.0793450549, -0.0427790917, -0.0529161654, -0.1035538018, 0.0163511559, 0.0073148618, -0.0550283492, -0.0038623635, -0.1020269245, 0.0114463456, 0.0715901926, -0.0028165586, -0.0181859918, -0.0100888060, -0.0142994476, 0.0474025048, 0.0202044491, 0.0421245955, -0.1363766938, 0.0096249413, 0.1397223324, -0.0012404978, 0.0940429345, 0.0024075562, -0.0309190452, -0.0671229810, 0.0049080527, -0.0185497459, 0.0149396183, -0.0008354604, -0.1212521195, 0.0180484727, -0.0303567182, 0.0196078122, 0.0393102542, -0.0066408790, 0.0895026326, 0.1020587012, -0.0736721456, -0.0862988159, -0.0128574511, 0.0293879136, 0.0141416099, -0.0257091280, -0.0016677339, 0.1642184556, -0.0253304094, -0.0733426362, -0.0419262052, -0.0230171215, -0.0357360989, 0.0053686970, -0.0366998278, -0.0187355783, -0.0939503610, 0.0262245014, -0.0225507971, -0.0150384065, 0.1638571769, 0.0247027595, 0.1918823272, -0.0055944724, -0.0666739717, 0.0306509696, -0.0547316670, -0.0365653485, 0.0829252452, -0.1122843698, -0.0944484100, 0.0048896573, -0.0120343929, 0.0204484873, -0.0405229293, -0.0967591852, -0.0092249364, -0.0051890220, 0.0135030644, 0.0555068627, -0.0375746526, 0.0077540460, -0.0321790203, -0.0532563068, 0.0923288241, -0.1021091044, -0.0216622408, 0.0220403243, -0.0308011509, 0.0073410473, 0.0453186631, -0.0542835928, 0.0629386157, 0.0115755554, -0.0104028555, -0.0123259807, -0.0324213915, 0.0252408795, -0.0373977907, -0.0042566783, 0.0600529797, -0.0113280294, -0.0064902841, 0.0302128382, 0.0480050258, 0.0741636753, 0.0334073305, -0.0273015890, -0.0163613874, 0.0432979427, 0.0196601972, 0.0004977811, 0.0436020009, -0.0242726430, -0.0244855825, 0.1011749506, -0.0698414221, -0.0177787673, 0.0244182926, -0.0296059139, -0.0623097271, 0.0597955547, 0.0269086231, 0.0089471964, 0.0078852661, -0.0204858668, -0.0147785693, 0.0263710655, -0.0374977700, 0.0038249115, 0.0503745116, 0.0257186480, -0.0558215529, 0.0229388922, 0.0487167761, 0.0547100417, -0.0528195761, 0.0243030638, -0.0392186753, 0.0551065542, -0.0161690116, 0.0079109762, 0.0361340232, 0.0257119983, 0.0002064453, -0.0142258033, -0.0057445690, 0.0690959767, -0.0256677754, 0.0021180203, 0.0082319975, -0.0213959739, -0.0255335402, 0.0398877449, -0.0404210500, 0.0280514061, -0.0829547271, -0.0429523028, -0.0244599860, -0.0076700845, 0.0133004282, 0.0219251793, -0.0224465802, -0.0343014561, 0.0070213005, -0.0796375945, -0.0662197322, -0.0483259447, -0.0038081461, 0.0551212654, -0.0144676324, -0.0249163248, 0.0525072291, -0.0310629029, 0.0236337129, 0.0108181750, -0.0135883428, -0.0017274914, 0.0711657703, -0.0327497721, -0.0958205462, -0.0143828634, -0.0090487078, 0.0242062956, 0.0440674573, -0.0099424198, -0.0252097063, -0.0522239432, -0.0545143411, -0.0565033965, 0.0397341177, -0.0264041238, -0.0036552618, 0.0236342046, 0.0118646026, 0.0197114889, 0.0183008444, 0.0594870672, 0.0120953377, 0.0516189560, -0.0433937125, -0.0371469706, 0.0247131139, -0.0013446885, 0.0031775180, -0.0269580521, -0.0008223397, 0.0390836932, 0.0018577928, 0.0039082225, -0.0286596008, 0.0172233637, 0.0233301073, -0.0083614159, 0.0392057821, -0.0499636345, -0.0139391124, -0.0003206368, -0.0647451282, -0.0103734918, -0.0539960526, -0.0336527899, 0.0608583204, 0.0172114968, -0.0330220200, -0.0191618819, 0.0833636299, 0.0224029515, -0.0050133867, -0.0858928934, -0.0538577028, -0.0068316301, -0.0525264516, -0.0404849909, 0.0203354359, 0.0457627065, 0.0967902094, 0.0205252040, -0.0473317206, 0.1321558505, -0.0156088974, 0.0586707518, 0.0246065222, 0.0905125737, 0.0509466156, 0.0235211439, 0.0520101711, 0.0007877784, 0.0091271661, -0.0192899127, 0.0488356389, -0.0298315790, 0.0107624279, -0.0135422125, -0.0096119456, 0.0505759977, 0.0297273025, 0.0246529225, -0.0467795543, -0.0118732825, -0.0679000840, -0.1273391396, 0.0170121957, -0.0098536303, -0.0450104289, 0.0261213370, -0.0159293246, -0.0509635359, 0.0330398567, 0.1300854832, -0.0576033331, -0.0099294269, -0.0002549670, 0.0482128076, -0.0193113182, 0.0922111049, -0.0336811319, 0.0388325229, -0.0159201492, 0.0155655202, -0.1024543867, 0.1481891274, -0.0473005846, 0.0155334100, 0.1086530089, 0.0061153215, -0.0116715375, -0.0275522545, 0.1443353295, -0.0832665414, -0.0052811429, 0.1566115916, 0.0617911257, -0.0432447456, -0.0000133489, 0.1184620857, -0.0075957612, 0.0530142933, -0.0212691221, 0.0068942490, 0.0057020215, -0.0331708677, -0.0369176716, -0.0996904895, -0.0530640408, -0.0739146918, 0.0127248801, -0.0964619443, 0.0486695804, -0.0622257330, 0.0025509801, -0.0188318435, 0.0257762782, 0.0385264680, -0.0076901168, -0.0178581309, 0.0033473661, 0.0479687452, -0.0933434144, -0.0227654297, -0.0342760161, -0.0514478423, 0.0339201167, 0.0697042570, 0.0830404386, 0.0629813224, -0.0353240073, -0.0109336786, -0.0060782149, -0.0015246352, -0.0042012273, -0.0162679181, -0.0933299884, -0.0135204587, 0.0060838247, 0.0555352978, -0.1121035740, 0.0386003107, 0.0437595546, 0.0055439118, 0.0290643275, 0.0219101533, 0.0195818394, 0.0453874730, 0.0091639645, 0.0115958499, -0.0071538044, -0.0127908234, -0.0522261113, 0.0234629791, 0.0487672389, -0.0342357904, 0.0053452700, -0.0329041369, 0.0492532998, -0.0586625487, -0.0114951394, 0.0056181466, 0.0045311414, -0.1305240393, -0.0295547303, 0.0713004619, -0.0733531266, -0.0242459793, 0.0025650014, -0.0576789789, -0.0034310424, -0.0151314130, -0.0814788565, 0.0297373142, -0.0089297332, 0.0104096802, 0.0029124641, -0.0083636539, 0.1061398312, -0.0949648395, 0.0208188649, -0.0042224987, 0.0444288589, -0.0414737761, 0.0567172095, -0.0026093533, 0.0398155861, 0.0467150398, -0.0435654037, -0.0549407378, 0.1381074041, 0.0426487215, -0.0488051511, 0.0194630884, -0.0146546541, -0.0049969847, -0.0086037619, -0.0737742856, -0.0816156045, -0.0426810756, -0.0160722788, -0.1087584943, -0.0931452289, -0.0158244278, -0.0558985956, -0.1490934640, 0.0362303369, 0.0458083563, 0.0010976715, 0.0067531602, -0.0471628569, -0.0360088274, -0.0749570206, -0.0455290861, -0.0469823554, -0.0617704466, -0.0616054349, 0.0156311728, -0.0052324273, -0.0481937341, -0.0584778748, -0.0168284476, -0.0045121638, 0.0090824403, -0.0284890588, 0.0202858020, 0.0053642560, 0.0313857868, 0.0430033281, 0.0257559642, 0.0042672004, -0.0184954926, 0.0072811930, -0.1355535090, -0.0315176807, -0.0043994896, -0.0983164236, -0.0183430929, -0.0523811318, 0.0253728181, -0.0196901783, 0.0129435807, -0.0065706307, -0.0125470301, 0.0331311189, -0.0017789684, -0.0632541031, 0.0711373687, -0.0555198193, -0.0387714654, -0.0807267725, -0.0244681910, -0.0661523417, 0.0123506486, 0.0192927103, -0.0186963826, 0.0066817231, 0.0335656889, -0.0181728583, -0.0506148897, 0.0300386641, -0.0472537838, -0.0167178549, 0.0306367744, -0.0412736461, -0.0373325013, 0.0317235179, -0.0283878148, -0.0370412953, 0.0416799113, -0.0569776744, 0.0318753459, -0.0177787170, -0.0234820899, -0.0226883851, -0.0163223092, 0.0019586601, -0.0055416725, 0.0695077777, 0.0302587897, -0.0272749402, 0.0233876370, -0.1027807146, 0.0313857533, -0.0245499481, 0.0139700808, 0.0334883668, 0.0034217697, 0.0167200807, -0.0500305183, 0.0085735479, -0.0393286236, -0.0173894148, 0.0525992550, -0.0027059896, -0.0146786151, 0.0123221166, -0.0475576222, 0.0032852145, -0.0109930942, -0.0616489686, 0.0324166939, 0.0040146667, -0.0122752441, 0.0686048269, -0.0283372328, -0.0585997440, -0.0387778878, -0.0103063947, 0.0624399446, 0.0648248494, -0.0714631006, -0.0343763717, 0.0824170932, -0.0045401002, -0.0040091779, 0.0302798506, -0.0707865506, 0.0182351694, 0.0294302106, -0.0114288153, 0.0163895506, 0.0045724814, -0.0375195555, -0.0295341350, -0.0104020685, -0.0865418538, -0.0966537893, 0.0620041862, 0.0044680284, -0.0621705763, -0.0277270954, -0.0095976116, -0.0626639500, -0.0461588390, 0.1103124917, -0.0751777068, -0.0039137853, -0.0115158437, -0.0368471332, -0.0112493644, 0.0637586936, 0.0769613460, 0.0161595326, 0.0335123241, 0.0150609612, 0.0482522137, 0.0029022070, 0.0942330807, -0.0460730866, 0.0090066120, -0.0527497940, 0.0732857808, 0.0158075951, -0.0122107631, -0.0434046909, 0.0549905002, -0.0183520131, 0.0118894326, -0.0363424309, -0.0333693177, -0.0371137969, 0.0100222491, -0.0170359705, -0.0339089446, 0.0080315927, -0.0020861635, 0.0315909386, 0.0784211084, 0.0097511401, -0.0096008293, 0.0303507000, 0.0151352743, 0.0452634953, -0.0273114685, 0.0941176414, -0.0637374446, -0.0562874004, -0.0607764646, -0.0210054386, 0.0257103834, 0.0068919281, 0.0487900749, 0.0440123118, 0.0167172346, 0.0599105097, -0.0385683030, 0.0411008783, 0.0208538044, 0.0341283940, 0.0253972653, -0.0215474553, -0.0492309444, -0.0037700224, 0.0187559277, -0.0393623672, 0.0098935887, 0.0381415039, 0.0358100682, 0.0385494679, -0.0725274459, -0.0347127542, -0.0487255342, -0.0392420478, 0.0392802991, 0.0139314067, 0.0455608815, 0.0374625549, -0.0609033592, 0.0615998991, -0.0533848442, -0.0449781939, 0.0340800509, 0.0158540625, -0.0617463477, -0.0297572389, -0.0332650542, -0.0387139656, 0.0007219440, -0.0526308566, -0.0438087210, 0.0917305723, 0.0124505442, -0.0592258722, 0.0257013328, -0.0251455512, -0.0093749631, -0.0202378351, -0.0595951714, 0.0568446815, -0.0953433290, -0.0771058500, -0.0810752138, 0.0031079927, 0.0807894021, 0.0431979448, -0.0119184107, 0.0119524682, 0.0206835791, -0.1337361932, -0.0356115587, -0.1386557668, -0.0201641582, 0.0008496093, -0.0612882078, -0.0772841647, -0.0040628463, -0.0095214695, 0.0292231049, 0.0702858493, 0.0293252505, -0.0136637231, -0.0430110805, -0.0384863950, -0.0856506675, -0.0317984633, -0.0397512391, -0.0970395356, -0.0015703631, -0.0184418112, 0.0276521388, -0.0123282457, 0.0151774427, -0.0255418420, 0.0188879184, -0.0243144054, 0.0324394777, -0.0103828851, 0.0550690107, -0.0363748185, 0.0173047651, -0.0585308708, 0.0389621109, 0.0087354816, -0.0105340136, 0.0267634355, -0.0078912396, -0.0078605739, 0.0135296229, -0.0304473918, 0.1372689605, 0.0560496375, 0.0063825217, -0.0405674055, -0.0231388863, 0.0031330681, -0.0441465266, 0.0074145864, -0.0173268560, 0.0091705937, -0.0594672151, -0.2021240145, -0.0301218368, 0.0323969871, 0.0196999554, -0.0096118627, 0.0504429489, 0.0000555214, 0.0275122933, -0.0572099127, -0.0220036414, -0.0436330363, 0.0628823936, 0.0230732486, -0.0054818438, -0.0091187581, -0.0042826640, 0.0255716760, -0.0232292470, -0.0388059467, -0.0510473400, -0.0194094740, -0.1004221588, -0.0726923496, 0.0062536187, -0.0173659641, -0.0032136308, 0.0548997968, -0.0271946825, -0.0359134935, -0.0169393830, -0.0225058012, -0.0210735537, -0.0333704427, -0.0270490851, 0.0529217534, -0.0037694012, -0.0392380357, -0.0307801403, 0.0304348320, -0.0029180648, -0.0480647571, 0.0721026435, 0.0155498767, -0.0405538529, -0.0322114602, -0.0543159805, -0.0069719036, -0.0869972706, 0.0245054420, -0.0188237689, -0.0348796919, -0.1017769277, 0.0376061499, 0.0539516658, 0.1531559825, 0.0083853425, -0.0667731017, -0.0783369169, -0.1885682046, 0.0984127447, 0.0399868153, 0.0407840759, -0.0826034695, 0.0587864518, 0.0008336658, 0.0337499455, 0.0075827297, -0.0310813729, 0.0727786720, 0.1499819607, 0.0088005727, -0.0369346999, -0.0976802036, -0.0466793776, -0.0538939089, 0.0792581886, -0.0157641154, -0.0905543715, -0.0168013144, 0.0066455817, -0.0498661324, 0.0228603613, 0.0697095916, 0.0863475427, -0.0209937301, 0.1974202245, -0.1091759056, 0.0225550123, -0.0499947071, -0.0138078555, -0.0024180370, -0.0185843445, 0.0366933234, -0.0100503406, 0.0295000486, 0.0499440543, -0.0545524731, -0.0009390618, -0.0320167504, 0.0450675599, -0.0179264322, 0.0318964310, 0.0298482887, 0.0890218541, -0.0401884429, -0.0631797910, -0.0127558047, 0.0636967495, -0.0264209993, -0.0145323435, -0.1644182950, 0.0163368862, 0.0567744747, 0.0089259222, -0.0092082405, -0.0537999459, -0.0294269081, -0.0247025862, -0.0052329977, 0.0471490733, 0.0373032279, 0.0147462757, -0.1080816984, -0.0303349774, -0.0354599953, 0.0387792066, 0.1135625988, 0.0258837529, -0.1829635948, 0.0103223482, 0.0393035524, -0.0272726547, -0.0091275079, -0.0505295731, 0.0128668295, -0.0314409286, -0.0327599198, -0.0379650928, -0.0613646433, 0.0558045022, -0.0862636864, -0.0506447516, 0.0159738138, -0.0996855944, -0.0399185233, -0.0409869552, -0.0698460266, 0.0760290250, 0.0530183725, -0.0731551871, -0.1527723372, 0.0227447860, 0.0805741623, -0.0019331602, 0.0993652493, 0.1275864094, 0.0712420642, -0.1761210114, -0.0578377619, 0.0268588345, 0.0377862602, 0.0426276475, -0.0210636090, 0.0089996122, -0.0301337596, -0.1222685874, 0.0469094999, -0.0224538352, 0.0177172963, 0.0415328145, -0.0356255807, -0.0753616318, 0.0769228116, 0.0580958128, 0.0114713823, 0.0062723113, -0.0469961949, 0.0118704149, -0.0270939805, -0.0034290424, -0.0478743464, -0.0058244257, 0.0340289325, 0.0410925336, -0.0510643162, -0.0742045492, 0.0918048695, -0.0138657549, -0.0050039170, -0.0148342950, -0.0366748832, 0.0329473689, -0.1091125309, -0.0213223919, 0.0001476847, -0.0441648588, 0.0481082089, 0.0708830431, -0.0400596187, -0.0265218094, -0.0014975802, 0.0099667618, 0.0364599191, -0.0399725623, -0.0548970737, 0.0246176980, -0.0015238592, 0.0621707886, -0.0498372503, -0.0183162410, -0.0416289978, 0.0667856559, -0.0845481306, 0.0423997790, 0.0243435334, 0.0683197305, 0.0513387993, -0.0269293543, -0.0243825503, -0.0023043614, -0.0470822342, 0.0217961092, -0.0594987459, 0.0588249117, 0.0599366687, -0.0280955080, -0.0634073392, 0.0833082348, -0.0246953685, 0.0060869637, -0.0016667768, 0.0881409645, 0.0391331315, -0.0019970676, 0.0152541008, -0.0063018124, -0.0559940860, 0.0369467363, -0.0322130769, -0.0404709689, -0.0489378236, -0.1026084647, 0.1028260663, -0.0558750592, 0.0433883443, -0.0253968313, -0.0685890093, -0.0204957891, -0.0297995470, 0.0259256791, -0.0758344829, -0.0215003267, 0.0388558246, 0.0223211590, -0.0867119655, 0.0252013244, -0.1081906706, 0.0787774920, 0.0173704363, -0.0858072639, -0.0072322492, -0.0447180420, -0.0843430683, 0.0291677453, 0.0789893195, -0.0959380493, 0.0474582836, 0.0281590726, 0.0304560941, -0.0964515656, -0.0477200672, 0.0952561721, -0.0043591266, 0.0449226275, -0.0012722547, 0.0501837209, 0.1062938869, 0.0213594921, 0.0358380154, 0.0087311957, 0.0774846748, -0.0051490162, 0.0053736246, 0.0223087054, 0.0164160505, 0.0181885939, -0.1182832271, 0.0002173487, 0.0235194005, -0.0379016846, 0.0168582574, 0.0322101563, -0.0155491624, 0.0551516935, 0.0006489889, 0.0060577230, -0.0306859948, -0.0356786437, 0.0193857420, 0.0402313434, 0.0317526683, -0.0459146798, -0.0543878935, -0.0345946364, -0.0793871209, -0.0183724705, 0.0104530808, 0.0203639679, -0.0228368994, -0.0454343222, 0.0019950978, -0.0001214032, -0.0173856653, -0.0636562482, 0.0475580916, 0.0133104734, 0.0288795810, 0.0069359355, 0.0501581430, 0.0625250041, 0.0925683230, -0.0128928162, 0.1208960414, -0.0448616259, -0.0018772698, -0.0391656309, 0.0162286498, 0.0682763532, -0.0643284395, -0.0286342390, -0.0997545421, -0.0611593239, 0.0146873146, 0.0083461860, -0.0232161079, 0.0194446426, -0.0231127702, 0.0234454088, -0.0004046139, 0.0698373020, 0.0296110343, 0.0932884067, -0.0270957965, -0.0581714958, 0.0498299152, -0.0366456434, -0.0757564455, -0.0244793650, -0.0495110154, -0.0143944854, 0.0332245342, 0.0031721569, 0.1393844932, -0.0194749143, -0.0254732091, 0.0694547892, -0.0645433068, -0.0349318199, 0.0790553540, 0.2809902132, -0.0028787141, 0.0420354269, -0.0198389869, 0.0387271345, 0.0264576059, -0.0482987538, 0.0053400509, 0.0203618146, 0.0769043788, 0.0548401289, 0.0478489213, 0.0273387060, -0.1208620891, -0.0021243752, 0.0050807507, 0.0260411650, -0.0256764386, 0.0001455929, 0.0163363889, 0.0950820819, -0.0388645567, 0.0122945150, -0.0653873011, -0.0200436860, -0.1447967738, 0.0470832065, 0.0307379402, 0.0193532445, -0.0106489640, 0.0462988354, -0.0585626476, -0.0027765383, -0.1036884636, 0.0070155556, 0.0173454322, 0.0453163832, 0.0566961356, 0.0873336941, 0.0328894407, 0.1578078717, 0.0002959793, -0.0653967559, -0.0122672664, -0.0548902862, 0.1004137024, -0.0144507792, -0.0464854985, -0.0450480841, -0.0148086203, -0.0176439863, 0.0478779264, 0.0244229361, -0.0209218934, 0.0780672282, 0.1237589195, -0.0444807932, 0.0049051922, -0.0124646779, 0.0407812372, 0.0262985174, 0.0971605703, -0.1020208076, 0.0034570354, 0.0422693342, -0.0887291580, -0.0210511331, 0.0205054060, 0.0669987872, 0.0180050023, 0.0313290209, -0.0097766221, -0.0237755962, -0.0020584634, -0.0124985930, -0.0347514078, -0.0687373430, 0.0117414175, 0.0584621355, 0.0673312172, 0.0112432512, 0.0600142293, -0.0108250519, -0.0756774023, 0.0347297452, 0.0051410650, 0.0091837840, 0.0296944287, -0.0258552525, 0.0637530535, -0.0098036202, -0.0300857555, 0.0517442673, -0.0031273395, 0.0157234389, -0.0371002294, -0.0352154635, 0.0193118379, 0.0821596310, -0.0628336370, -0.0515730940, 0.0350002460, 0.0563892722, -0.0374822542, 0.0927483588, -0.0702216402, 0.0024364134, 0.0173789747, -0.0349199027, 0.0231253188, 0.0246207844, 0.0003375096, -0.0251199901, 0.0317324437, -0.0303960200, -0.0497929342, -0.0155036394, -0.0050859130, -0.0348445512, 0.0664928183, -0.0733026713, 0.0303761158, -0.0352283083, 0.0080335783, -0.0325148106, -0.1393397748, -0.0362015069, 0.0016301244, -0.0003798420, 0.0317717046, 0.0249751285, -0.0474481545, -0.0700068772, 0.0094086034, -0.0221261699, 0.0005285118, -0.0916678384, -0.0059544141, -0.0820245296, 0.0155659569, -0.0098978821, -0.0648440793, 0.0157239418, -0.0038053782, -0.0245598573, -0.0216014683, -0.0565093793, 0.0470979102, -0.0626898929, 0.0673331395, 0.0439742580, -0.0875685290, -0.0735496879, -0.0005118973, 0.0611017160, -0.0386412106, 0.0290206727, -0.0517160185, -0.0138712265, 0.1011138409, -0.0063192779, 0.0060878163, 0.0157673713, -0.0249386895, 0.0123802563, 0.0128009208, 0.0777812973, 0.0027422709, 0.0706683323, -0.0288227368, -0.0224365480, -0.0164091233, -0.0447297506, 0.1221594289, 0.0167159848, 0.0255061593, -0.0231176801, -0.0078241630, -0.0149644613, -0.0176812317, 0.0036641143, 0.0102640577, 0.0571608245, -0.0259635113, 0.0018076998, -0.0276303310, 0.0579802133, -0.0620413795, 0.0549227893, -0.0071839816, -0.0897467062, 0.0581427068, -0.0258683469, 0.0112103652, 0.0524011068, 0.0097082146, -0.0746487826, -0.0540995970, -0.0366320014, 0.0815060213, 0.0981083289, 0.0128749805, -0.0015493574, 0.0343680866, 0.0991193280, -0.0631282032, 0.0065490850, 0.0270307139, -0.0205145478, -0.0024576047, 0.0256459154, 0.0986890197, -0.0478948914, 0.0104769282, -0.0655427799, 0.0120802270, 0.0057552811, 0.0287463218, -0.0247520972, 0.0979539230, -0.0563098937, -0.0282857679, 0.1074251905, -0.0097441254, -0.0419693775, -0.0130032254, -0.0044835978, -0.0411789380, -0.0419267677, -0.0579708144, -0.0651348382, -0.0203464851, 0.0141091896, -0.0278303213, 0.0034964089, -0.0315426327, 0.0633117408, 0.0186527409, 0.0367700234, 0.0207118504, -0.0456117056, 0.0515520461, -0.0189373028, 0.0191933047, -0.0313936472, -0.0521609001, -0.0049704933, -0.0658612996, 0.0497854538, 0.0802504718, 0.0108117517, 0.0101524517, -0.0200756136, 0.0509760901, 0.0357820727, -0.0639757589, -0.0377839841, -0.0876784846, 0.0415783413, -0.0090431087, 0.0319163874, -0.1119946390, 0.0202329587, -0.0148783419, 0.0988112837, -0.0274669435, 0.0317753740, 0.1216372699, 0.0297402702, -0.0146424156, 0.0014401572, 0.0336348191, 0.0191036593, -0.0124131702, 0.0383334644, -0.0048262952, -0.0401764661, 0.0444646999, -0.0318999588, -0.0348962136, 0.0285379048, 0.0222106092, 0.0029337837, -0.0114646005, -0.1012612283, -0.0062974733, 0.0653911531, -0.1029873863, 0.0047797887, -0.0580955893, -0.0353644639, 0.0088762250, 0.0113554019, 0.0663298815, 0.0700419396, 0.0538392961, -0.0085450839, 0.0503187105, -0.1258603036, -0.0011405764, 0.0503885895, 0.0064153587, -0.0993637666, 0.0334293097, 0.0275823865, 0.0444971398, 0.0081815477, 0.0168874152, -0.0464621112, -0.0135258660, -0.0248305090, 0.0541595109, -0.0151687432, -0.0175250787, -0.0499655381, 0.0340147093, -0.0290721152, -0.0033230386, 0.0098178210, -0.0382541902, 0.0291217584, 0.0448506474, -0.0324254669, 0.0373353288, 0.0005817369, -0.0276666302, 0.0273970477, 0.0464758091, -0.0421348140, -0.0341989137, -0.1104753017, -0.0974543914, -0.0499997921, -0.0181269888, 0.0638353229, -0.0066931685, -0.0915192589, 0.0483380482, 0.0337757766, -0.1776422262, -0.0169875845, 0.0836875662, -0.0537338033, -0.0350406580, -0.0340945721, -0.0252901725, -0.0446894057, 0.0466613546, 0.0349677317, 0.0070568216, 0.0570190735, 0.1186465472, -0.0428746156, 0.0874094293, -0.0591449924, -0.1597080976, -0.0879117697, -0.0591535009, -0.0890929699, 0.0644035414, -0.0144061828, 0.0077046929, -0.0377861857, -0.0481369197, 0.0898596644, -0.1946076006, 0.0440855846, -0.0316321477, -0.0597208366, -0.1725954860, 0.0379669666, -0.0358655155, 0.0102547659, -0.0406515114, -0.0403923616, 0.0474770628, 0.0896159038, -0.1096250936, -0.0231339056, -0.0232737008, -0.0132410321, -0.0105848461, 0.1138556823, -0.0746276230, 0.0246658623, -0.1376992166, 0.0852125734, 0.0493003912, 0.0612265319, 0.0342461318, 0.0275014583, -0.0401798896, -0.0244281292, 0.0327977128, -0.1073114574, 0.0745206401, -0.0120432423, -0.0405062065, -0.0315530375, 0.2053904384, -0.0374291353, -0.0750967488, -0.0313388929, -0.0186852943, 0.1988069713, 0.0050045010, 0.0143496608, 0.0607914180, -0.0525501929, 0.1845826805, 0.0517776273, -0.0252317451, 0.0113878855, -0.0483370684, 0.0869352296, -0.0264285747, 0.0698402077, -0.0208093375, -0.0172611102, 0.0522893593, 0.0093922513, 0.0463053212, -0.0974157080, -0.0581761226, 0.1108325273, 0.0596507937, 0.1030405089, -0.0056888307, -0.0227901693, 0.0331126451, -0.0557670929, -0.1110975370, -0.0641127974, 0.0312865637, 0.0377600044, 0.0497081652, -0.0143711688, -0.0416640714, -0.0663985908, -0.0016443903, -0.0444288813, 0.0286362171, -0.0228501223, 0.0701083839, -0.0555909760, 0.0014228533, -0.1328556240, 0.0111966627, 0.0060739201, -0.0547152199, 0.0460245311, 0.0568885095, -0.0051549049, 0.0117243286, -0.1414536387, -0.1205502450, -0.0129391458, -0.0066200937, 0.0129882293, 0.0083072521, 0.0026179459, -0.0329479948, 0.0493739285, -0.1195133924, 0.0309666377, 0.0224417653, -0.0201722700, 0.0195201151, -0.0082291774, -0.0392437689, 0.0322276317, -0.0507527366, -0.0144085409, -0.0718758479, 0.0011916991, -0.0320743769, 0.0115839615, -0.0243142769, -0.0217218138, 0.0814710855, -0.0060136179, -0.0198344477, 0.0097871674, 0.0258367471, 0.0991690978, -0.0644727200, 0.0624345392, 0.0741689578, 0.0497579798, -0.0743410587, 0.0823411196, -0.0194124971, -0.0585788861, -0.0405416563, -0.0210523698, 0.0848871842, -0.0021181204, -0.0290337205, 0.0536357947, -0.0071163648, -0.0363496840, 0.0577999800, -0.0552457422, 0.0116069904, -0.0567879155, -0.0745733902, 0.0002482750, 0.0594673865, -0.0016953398, -0.0265567210, -0.0799875781, -0.0673762336, 0.0142950872, 0.0097160731, -0.1011259183, 0.0930056050, -0.0504007004, 0.0788728595, -0.0680472478, -0.0639599487, 0.0005999157, -0.0041916016, 0.0416458063, 0.0436292589, 0.0690655559, -0.1060813889, -0.0999003127, -0.0496939905, 0.0071115009, -0.0523662120, 0.0395705514, -0.0215545110, -0.0298190583, -0.0395124890, -0.0312445052, 0.1112979949, -0.0832513794, -0.0057307757, 0.0460855812, -0.0279773008, -0.0229362790, -0.0259709302, -0.1178289875, 0.0242271889, 0.0160459001, -0.0928301513, -0.0027877328, -0.0179739483, 0.0125121828, 0.0497822277, 0.0277744904, 0.0248193201, -0.1161335409, -0.0235068258, 0.0187569335, 0.0349876918, 0.0128852511, -0.0676060691, 0.1110396311, 0.0424386486, -0.1045993119, 0.0140955746, -0.0403358079, 0.0700695515, -0.0936791971, -0.0670365393, -0.0280566551, 0.0116132880, -0.0228676591, 0.0802211389, -0.0377598107, 0.0120015480, 0.0551107079, -0.1647687405, -0.0121164834, 0.0677348822, 0.0474643670, -0.0320122726, 0.0038452696, -0.0325726755, 0.0005375150, -0.0570109151, -0.0031875758, 0.0156225823, -0.0162749719, -0.0332728513, -0.0390131399, 0.0676355734, -0.0584532954, -0.0132138934, -0.0593257062, 0.0127044413, -0.0217873938, 0.0831897557, 0.0610066615, -0.0149845360, -0.0329190455, -0.0489990450, 0.0619583875, -0.0749923289, -0.0225473270, 0.0453876965, -0.0355204269, 0.0732102990, 0.0263392702, -0.0025849761, -0.0897139609, 0.0666405335, -0.0332122855, 0.0396294221, 0.0448799878, -0.0439721085, -0.0425614901, -0.0285220016, -0.0339050777, -0.0106020328, 0.0424143262, -0.0280621797, -0.0287334863, -0.0032929352, 0.0467889234, 0.0194929913, -0.0013115869, -0.0647812784, 0.0422156639, -0.0163624883, -0.0259264149, -0.0551918857, 0.1147771701, 0.0088896193, -0.0090758074, 0.0414890274, -0.0067018317, -0.0531723574, 0.0094497539, -0.0155064268, 0.0253701489, -0.0076668235, -0.0267153792, -0.0216079410, 0.1337014884, -0.0949519351, 0.1147300750, -0.0055482704, 0.0609729849, 0.0427264385, -0.0547757782, 0.1033225730, -0.0179327503, 0.0176249761, -0.0376726687, 0.0461351722, -0.0028872378, -0.0397497378, 0.0397322364, -0.0253099035, -0.0910402909, -0.0448968410, -0.0022113605, 0.0778779984, -0.0034224982, 0.0259335693, 0.0150220599, -0.0563584790, 0.0082968771, -0.0115969321, -0.0152002051, 0.0023406749, -0.0416418649, -0.0537580624, 0.0125892209, -0.0276788715, -0.0663509369, 0.0483340286, 0.0419438519, 0.0366355442, 0.0052720378, -0.0234998632, 0.0113580506, -0.0123840366, 0.0390408300, 0.0703218356, -0.0139235398, -0.0030267055, 0.0111137200, 0.0207643490, -0.0614492074, -0.0423605517, -0.0194567461, 0.0156389028, -0.0079936963, -0.0494632125, 0.0631135255, -0.1500953287, 0.0009244264, 0.0004739813, 0.0005655065, 0.1082962826, 0.0410134643, 0.0284887534, -0.0257178806, -0.0682426989, 0.1744521409, -0.0379558615, 0.0259988029, -0.0036533310, -0.0414688960, -0.0024986304, -0.0228452645, 0.0186077654, 0.0267174114, -0.0419700779, -0.0189614724, 0.0188825969, -0.0292141605, -0.0790603980, 0.0066600787, 0.0309936907, 0.0747292712, -0.0624141879, -0.0100580407, -0.0104635339, 0.0247708783, -0.1053270176, -0.0292783156, -0.0327236354, 0.0542772636, -0.0631069243, 0.0293933153, -0.0610031672, 0.0387129895, -0.0949616656, 0.0059483154, 0.0191612691, -0.0205404535, -0.0281887464, -0.0390980169, -0.0505315773, 0.0120434640, 0.0128815696, -0.0409868397, 0.0187369753, 0.0318743885, 0.0172543004, 0.0183312446, -0.0045193946, 0.0066453596, -0.0433137678, -0.1498466879, 0.0613323450, -0.0356963500, -0.0729129612, -0.0104923919, -0.0258684009, -0.0095996819, -0.0667831078, -0.0388484932, 0.0649839267, 0.0049951146, 0.0136102196, -0.0567570999, -0.0506066382, 0.0036879960, 0.0340299755, -0.0055977656, 0.0426882356, -0.0215676874, -0.0886428356, 0.0372903012, 0.0644627959, 0.0010081080, -0.0081204018, -0.0045183101, 0.0062476126, -0.0207221266, -0.0317165367, -0.0285141822, -0.0296293516, -0.0615189597, 0.0552768074, 0.0156978704, -0.0340839215, 0.0189692620, -0.0282479636, -0.0167414751, 0.0268702954, -0.1073686630, -0.0227630083, 0.0099234274, 0.0103790294, -0.0270533059, -0.0649357513, -0.0312127713, 0.0633409545, -0.0379809104, -0.0672610924, -0.0305504445, -0.0161802154, 0.0422793403, -0.0353439450, -0.0687134117, 0.0482080057, 0.0483072549, -0.0336992405, -0.0646857992, -0.0293657649, 0.0157536454, -0.0399407260, 0.0197592340, 0.0489907935, 0.0478934608, -0.0623303354, -0.0086021964, -0.0095597580, 0.0261986554, 0.0319305994, -0.0917555466, -0.0083932215, -0.0208043065, 0.0244458038, 0.0597701296, -0.0174297877, 0.0407769233, 0.0407755822, 0.0087056151, 0.0079883551, 0.0154711735, -0.0333088003, -0.0130400378, -0.0767716169, 0.0483394638, -0.0225650072, 0.0060145766, -0.0159889217, -0.0064490903, -0.0648852363, 0.0550129339, 0.0093459394, -0.0475213230, -0.0171470735, -0.0175564438, 0.0067323837, -0.0439989679, 0.0100905979, 0.0726468116, -0.0653970987, 0.0424880162, -0.1797594875, 0.0519836657, -0.0019920876, -0.0109083969, -0.0224010199, -0.0316698439, -0.0210883133, -0.0759684592, -0.0375552289, 0.0409254991, -0.1034351736, 0.0481499173, -0.0355126001, -0.0519767180, -0.0152690010, -0.1127257124, 0.0818936527, -0.0472601950, -0.0315281264, -0.0386234745, -0.0317734554, 0.0520695075, 0.0075242682, 0.0914492980, -0.0883707777, -0.0409321003, -0.0111873653, 0.0266838595, -0.0188018363, -0.0479953438, 0.1085769311, -0.0133806309, 0.0042563151, 0.0445291214, 0.0273345802, -0.0886366367, 0.0110658538, 0.0271231383, 0.0729064792, -0.0131376600, 0.0423175357, 0.0918921530, -0.0587063543, -0.0354604758, -0.0203809887, 0.0311585478, 0.0372685902, -0.0031364528, 0.0180512834, -0.0717253685, 0.0370917246, 0.0874090791, -0.0343316942, -0.0505349971, -0.0911286175, -0.0145890675, -0.1030360088, 0.0102488426, 0.0576423146, 0.0010849643, 0.0380798616, 0.0034785767, 0.1558977962, -0.0360348485, 0.0867218748, -0.0935374200, -0.0091109043, -0.0373995230, -0.0486302488, -0.0023544712, -0.0103851445, -0.0599621907, 0.0312847272, 0.0355450176, -0.1825945377, -0.0015436237, 0.0206633545, -0.0013485152, -0.0019509941, -0.0299611073, 0.0119124511, -0.0538382716, -0.0335004367, -0.0243835803, 0.0282813553, 0.0111069186, 0.0346261039, 0.0533534922, -0.0076443194, -0.0144973081, 0.0600874536, -0.0514077321, -0.0410532020, -0.0380064808, 0.0365586355, -0.0810127556, -0.0536019355, -0.0250199530, 0.0027150034, -0.0308610927, 0.0835754275, -0.0808740333, -0.1139918119, -0.0443403050, 0.0673625544, 0.0460512042, 0.0218268167, 0.0001205994, -0.0392309912, 0.0080978377, -0.0335460417, -0.0297113992, -0.0915214345, 0.0579899997, 0.0330525972, -0.0489146225, -0.0769722685, -0.0187834911, 0.0321744382, 0.0167734940, 0.1162139624, -0.0365165286, 0.0720142499, 0.0171042960, 0.0567613244, 0.0670348555, -0.0302428678, -0.0662042052, 0.0477807410, -0.0042413455, -0.0748785287, 0.0313017331, -0.0311953872, -0.0040880907, -0.0719145462, -0.0361152850, 0.0238972977, -0.0595004670, 0.0025913112, -0.0034998602, -0.0224923082, 0.0279507022, 0.0014387858, 0.0612918064, -0.0696989149, -0.0124413623, 0.0145139638, 0.0113073289, 0.0490819812, 0.0688226894, -0.1313764751, 0.0397708789, 0.0625224337, -0.0276081078, 0.1031381935, -0.0020710377, -0.0183309224, 0.0309702531, -0.0058762236, -0.0274098013, -0.0455957130, -0.0461640619, -0.0192085020, 0.0107296491, 0.0151952580, -0.0886181965, -0.0303788576, 0.0261810105, -0.1082586944, 0.0434193127, -0.1099521592, -0.0667328686, -0.0012818048, -0.0031780808, 0.1056375951, -0.0513700694, 0.0316314101, 0.0085594812, -0.0385137349, 0.0150377965, -0.0002252371, 0.0646507293, -0.0072568203, 0.0654610544, 0.0923035443, 0.0612365641, 0.0136826215, 0.0633880049, -0.0365388580, 0.0477980636, -0.0697184131, 0.0355411582, -0.0071234019, -0.0184256732, -0.0755806342, -0.0245680902, -0.0286432672, -0.0188659579, -0.0456978194, -0.0272063296, -0.0583641827, 0.0576294176, 0.0141823441, -0.0362985469, -0.0150664682, -0.0303091295, -0.0271131098, -0.0038856636, -0.0271089710, 0.0064453236, 0.0370212309, 0.0226494484, -0.0053492906, 0.0049804328, 0.0454237945, 0.0565091670, -0.0360214897, -0.0870309621, -0.0101512121, -0.0301516633, 0.0563288629, 0.0372984819, -0.0173340663, -0.0053101615, 0.0506041832, 0.0298415590, 0.0250650924, 0.0225950312, -0.0087538837, 0.0095571065, -0.0633451939, -0.0089216959, -0.0174706634, 0.0759060830, 0.0269977339, -0.0337328687, 0.0137694646, 0.0165888984, 0.0569970645, -0.0979448631, -0.0548929423, -0.0658350736, 0.0051831161, 0.0333632343, 0.0196803585, 0.0338047631, 0.0101745138, -0.0858257115, 0.0063118562, -0.1370549649, 0.0382107608, -0.0093043000, -0.0100622876, 0.0098772859, -0.0415301062, 0.0226360410, -0.0580225214, 0.0015676805, -0.0330097415, 0.0168050919, -0.0530339554, -0.0039603659, 0.0296755955, 0.0121153034, -0.0898561329, -0.0253572781, -0.0341316387, -0.0142746354, -0.0150057469, 0.0350316949, 0.0073284321, 0.0410764255, -0.0030780393, -0.0435494855, 0.0905959308, -0.0347161517, 0.0051124641, 0.0695025697, -0.0349831879, 0.0352695622, 0.0853571519, -0.0759433731, 0.0614747107, 0.0031602646, 0.0138518754, 0.0566749163, -0.0310002584, -0.0110493889, 0.0356388390, 0.0047117593, -0.0248906333, 0.0185718331, 0.0554723926, -0.0374715887, -0.0215660725, 0.0289688967, -0.0427165590, -0.0860607624, -0.0336519741, -0.0393217355, 0.0154324370, -0.0209159721, 0.0373696722, 0.0260717291, -0.0001749965, 0.0029075355, -0.0058340402, -0.0213415958, -0.0505027175, 0.0149134276, 0.0381347090, 0.0218579657, 0.0086240293, 0.0746480003, 0.0098715033, 0.0643378869, -0.0766029879, 0.0571515746, 0.0371808074, -0.0429311655, 0.0363794193, 0.0065812971, 0.0504776090, 0.0501795597, 0.0159033835, 0.0679832175, -0.0097303856, -0.0330137499, 0.0144599611, 0.0897538066, -0.0402796492, -0.0026488900, -0.0025207361, -0.1149248183, 0.0156977754, 0.0322011262, -0.0595623404, -0.0157105234, -0.0170035101, 0.0499933437, 0.0358906500, 0.0304230414, 0.0321582593, -0.0332029313, -0.0573056675, 0.0596860200, 0.0208211057, -0.0033604465, 0.0853488743, 0.0656297356, -0.0628359616, 0.0040215282, 0.0646975785, 0.0402675606, 0.0434709080, -0.0646850765, 0.0662287995, 0.0400178619, 0.0590160713, -0.0257186871, 0.0223723277, 0.0430522934, 0.0154757807, 0.0184628442, 0.0077691828, 0.0241469238, 0.0012597014, -0.0260120761, -0.0483132005, -0.0186127871, -0.0161614176, -0.0004369830, 0.0301524289, -0.0045420290, 0.0549553894, 0.0032075327, -0.0285961572, -0.0238910839, -0.0482241996, 0.0551323555, 0.0113287587, -0.0925755873, 0.0049222321, -0.0979826450, -0.0062750098, 0.0037548582, 0.0118888430, 0.0338491499, -0.0552448481, 0.0010500763, 0.1173714772, -0.0693899840, 0.0720313638, 0.0535476357, 0.0693082139, 0.0475709997, -0.0092102168, 0.0210933480, 0.0228523482, -0.0575778224, -0.0273205042, -0.0120127555, -0.0153108602, 0.0223674886, -0.0977133587, -0.0558316037, -0.0994175002, 0.1175753400, 0.0433566011, 0.0634752586, -0.0325098448, 0.0614070408, 0.0425841585, 0.0507895760, -0.0593888611, 0.0482688323, 0.1528886557, -0.0119102607, -0.0301240869, 0.0018290295, 0.0212719049, -0.0239719525, -0.0008564706, 0.0442671925, -0.0613736100, -0.0325737335, -0.1179585308, 0.0190909132, -0.0983809158, 0.0122304037, -0.0653199404, 0.0032935862, 0.0145654380, -0.0128563913, 0.0611937903, -0.0952540338, -0.0332041569, -0.0022452120, -0.0724859312, -0.0214748997, -0.0243574809, -0.0183216408, -0.0088717733, -0.0378866084, 0.0357979611, -0.0028354246, -0.0505462214, -0.0810734630, -0.0339785181, 0.0685597211, -0.0043392656, 0.0565375425, -0.0321391523, -0.0212280415, -0.0273196101, 0.0231274627, -0.0497506894, -0.0561890192, -0.0490858406, -0.0287252739, -0.0242277458, 0.0447162241, -0.0604558736, -0.0352349579, -0.1117398217, -0.0330181085, -0.0126213562, 0.0450931862, 0.0009308867, 0.0065660565, -0.0237315800, -0.0223680791, 0.0307931844, -0.0148123885, -0.0317565314, -0.0764433667, -0.0102945678, 0.0114324931, -0.0068932949, 0.0174487773, 0.0991816819, 0.0563402101, -0.0720453560, 0.0630162060, -0.1142151430, -0.0401292145, 0.0056921486, 0.0470413454, 0.0508749261, 0.0021645837, 0.0159189105, 0.0138165234, 0.0308188219, -0.1077587679, 0.0595278256, 0.0875743777, -0.0033956491, 0.0166424904, -0.0223483425, -0.0129010696, -0.0320817865, -0.0231003333, -0.0358850658, -0.0416830257, 0.0061291405, 0.0183327440, -0.0032098575, 0.0124246562, -0.0342180952, -0.0406662002, -0.0429852940, 0.0167634003, -0.0948861390, 0.0684673414, -0.0773098394, -0.0283600651, -0.0054298108, -0.0376488864, 0.0280439053, -0.0175296701, 0.0095644435, 0.0347694233, -0.0826376379, -0.0200733822, 0.0300074089, -0.0032757979, -0.0298955534, -0.0345291235, -0.0129475752, 0.0244528297, -0.0076490645, -0.0023580634, -0.0186161026, 0.0776776001, -0.0694044754, -0.1186021566, 0.0105932252, -0.0074668662, 0.0429411754, 0.0166820716, -0.0138945784, -0.0208234303, -0.0024544769, -0.0004841886, 0.0347044766, -0.0055208700, 0.0266051423, -0.0202378947, -0.0344324447, -0.0505652130, 0.0116476016, 0.0343620628, -0.0204673689, 0.0092662061, -0.0600399487, -0.0327520110, 0.0677259564, -0.0343319736, 0.0409623832, 0.0580585264, -0.0249671191, -0.0974567011, 0.0573478527, -0.0717160478, 0.0371628515, 0.0886583105, 0.0463077687, -0.0000404589, -0.0441363454, 0.0612233095, -0.0574724562, -0.0239809770, 0.0404276624, 0.0077343960, -0.0268074777, -0.0401776321, 0.0123975938, -0.0114922775, -0.0653160512, 0.0257554799, -0.0066901390, 0.0404205583, -0.0735117197, 