//Numpy array shape [256, 256]
//Min -0.528762161732
//Max 0.856605291367
//Number of zeros 0

#ifndef W46_H_
#define W46_H_

#ifndef __SYNTHESIS__
model_default_t w46[65536];
#else
model_default_t w46[65536] = {0.0321134999, 0.0354505703, 0.0125093181, -0.0108877895, 0.0218810923, -0.0246011056, -0.0554160066, -0.0465545282, -0.0208386909, 0.0410301425, -0.0584425665, -0.0518279001, 0.0017181411, -0.0590070710, 0.0091028325, 0.0065215603, 0.0236184075, -0.0000515843, 0.0207884014, 0.0138700018, -0.0440064892, 0.0036125684, -0.0294683743, -0.0250909682, -0.0536850281, -0.0527877584, 0.0034929484, -0.0058328034, -0.0075965384, -0.0024757411, -0.0336897969, -0.0542358495, -0.0591053888, 0.0333396010, -0.0462996699, -0.0399375111, 0.0173599962, 0.0011636658, -0.0366331413, -0.0517992154, 0.0468952544, -0.0493239127, -0.0636861920, 0.0155608049, -0.0213839374, -0.0353788696, 0.0022679560, -0.0145505620, -0.0169761460, 0.0315821879, -0.0554757677, -0.0588441268, -0.0177843943, 0.0588561594, -0.0184214152, -0.0210353956, -0.0115133934, -0.0311484933, -0.0328924917, 0.0690130517, -0.0206895601, 0.0106780864, 0.0202227365, -0.0705802590, 0.0516056269, -0.0313203707, -0.0465616956, 0.0344132297, 0.0185939949, -0.0152426288, -0.0579290651, -0.0462235883, -0.0124973152, 0.0315548554, -0.0146573512, 0.0027360376, -0.0125296162, -0.0007723469, -0.0000303477, -0.0502841696, -0.0677399486, -0.0270602759, -0.0157948118, -0.0478426181, 0.0231431611, -0.0343091935, 0.0077348812, -0.0152051318, -0.0150040742, -0.0489479825, -0.0258840621, -0.0013156761, 0.0295339879, 0.0055070105, -0.1364393085, -0.0655885041, 0.0291398205, -0.0738075674, -0.0273728594, -0.0806858912, 0.0197228603, 0.0152497524, -0.0416946709, -0.0156050408, -0.0211611055, 0.0186600331, -0.0313427672, -0.0461448804, -0.0142100053, -0.0046588993, -0.0468689390, -0.0424321033, -0.0732958540, -0.0043645641, -0.0275979768, 0.0176712535, -0.0133909155, 0.0344660096, -0.0150473528, -0.0008826355, -0.0070630517, 0.0363636129, -0.0340269767, -0.0472044498, -0.0158697236, -0.0326226652, 0.0331044160, 0.0001556226, 0.0092809256, -0.0222640280, 0.0564913750, -0.0222847480, -0.0027580978, 0.0032094852, 0.0038444924, -0.0131552527, 0.0119754337, -0.0260357969, -0.0105990553, 0.0368314199, 0.0039087241, -0.0395899191, -0.0218281355, -0.0436346866, -0.0127831697, -0.0659590513, -0.0126996497, -0.0514012948, -0.0433270931, 0.0063638296, -0.0020038832, -0.0228502676, -0.0274683665, 0.0329823941, -0.0554327518, -0.0336100906, -0.0329583064, -0.0238020327, -0.0290445052, 0.0152409086, -0.0062428168, -0.0035761050, 0.0359598733, -0.0085280687, -0.0274948720, 0.0364947803, 0.0587484092, -0.0093574859, 0.0633278936, -0.0035598334, -0.0834890679, -0.0633193180, -0.0785354823, -0.0005029381, -0.0177977160, -0.0145780528, -0.0230455268, 0.0263618864, -0.0243018270, -0.0145858582, -0.0000803318, -0.0089620417, 0.0031706991, 0.0163006708, 0.0000313165, 0.0437282212, -0.0505490936, 0.0546486974, -0.0550889298, -0.0276768655, -0.0132807288, -0.0009786219, 0.0146438256, 0.0220053755, 0.0248564798, -0.0167415030, -0.0085315797, -0.0490158536, 0.0007368586, 0.0435826443, 0.0136202006, -0.1425915658, -0.0396420136, 0.0147477202, -0.0117073897, -0.0132327694, -0.0372356102, -0.0205197986, 0.0181021784, 0.0151102766, -0.0161781162, -0.0136251180, -0.0214919485, -0.0096906405, 0.0534613654, -0.0031755699, -0.0459670015, 0.0174729284, -0.0291457232, -0.0234240443, -0.0057341680, 0.0010555754, -0.0466805212, 0.0108147766, -0.0415400006, 0.0141871497, -0.0080597512, 0.0204015244, -0.0400673561, -0.0044933958, -0.0077055418, -0.0255846456, 0.0183983874, 0.0286548752, 0.0121848695, 0.0214607567, -0.0526271537, 0.0043781931, -0.0291563720, -0.0132491924, 0.0039124391, -0.0389591008, 0.0245884452, 0.0215126406, 0.0056952215, -0.0067187604, 0.0003290204, -0.0072186901, 0.0139340851, -0.0244671199, -0.0185410865, -0.0428435653, 0.0022637844, -0.0363163687, 0.0451907851, 0.0158555657, -0.0247494653, 0.0011385360, 0.0145792160, 0.0103302523, 0.0179110393, -0.0186632276, -0.0100211436, -0.0008772887, 0.0346522853, -0.0213723090, -0.0336374715, -0.0243269950, 0.0445200168, -0.0205410514, -0.0032422165, 0.0020749704, 0.0139465416, 0.0144520309, -0.0330803543, -0.0008508707, -0.0079348600, 0.0021825125, 0.0096813915, -0.0189840235, -0.0075056385, -0.0225326698, -0.0175949559, -0.0257148966, 0.0015319479, 0.0185140744, -0.0000883210, 0.0421737991, -0.0169021450, -0.0034084055, -0.0064327125, -0.0239798073, -0.0180063862, -0.0049285311, 0.0034427508, -0.0174189657, 0.0171372350, 0.0188305788, -0.0244428106, 0.0143444212, 0.0067722052, -0.0047499011, -0.0290661324, 0.0416768119, 0.0324699655, -0.0006033974, 0.0333529040, 0.0086856633, -0.0102099506, -0.0135767693, -0.0171028450, -0.0039076963, -0.0004478216, -0.0271851998, -0.0349165201, -0.0543049127, 0.0140862949, 0.0048557725, -0.0035288371, -0.0398305096, 0.0198341943, 0.0033746636, -0.0049767117, -0.0047821989, -0.0102604972, -0.0235803965, -0.0334273353, 0.0051121912, -0.0184702314, 0.0027796982, 0.0231227055, -0.0143953115, -0.0103889825, 0.0271599200, 0.0136582823, 0.0254017003, -0.0006696438, 0.0219710376, 0.0111921271, 0.0087698400, 0.0137648378, -0.0047125081, -0.0203106925, 0.0131955817, 0.0051667830, -0.0311916806, -0.0374160446, -0.0125799580, 0.0103082797, 0.0207175147, 0.0010061730, -0.0152337682, 0.0042497977, 0.0011831353, 0.0008233287, -0.0152656296, 0.0186259020, -0.0316325426, -0.0166504923, -0.0179278087, 0.0375741497, 0.0108511727, 0.0313047282, -0.0334464945, 0.0003384468, 0.0308695473, -0.0126098031, -0.0165585987, -0.0327203833, -0.0094682584, -0.0093763499, 0.0166084077, -0.0250429511, 0.0429093987, -0.0324232914, 0.0068132333, 0.0217514522, 0.0192657355, -0.0363535434, 0.0018038237, -0.0224185009, -0.0081847282, 0.0026402201, 0.0521511622, 0.0157099385, -0.0225003865, -0.0099966899, -0.0195966512, 0.0322990455, -0.0292665847, -0.0128524965, -0.0039462098, 0.0165366028, -0.0456864014, -0.0114360526, 0.0022423286, -0.0249071084, 0.0206547435, 0.0288488641, 0.0074563050, 0.0400275737, -0.0283719413, -0.0125787398, 0.0125578167, -0.0198293887, -0.0235146582, 0.0123586403, 0.0040900591, -0.0006514158, 0.0017307345, -0.0319999009, -0.0238094237, -0.0229930636, -0.0243953299, -0.0012999241, -0.0044846386, -0.0245219711, -0.0125879422, -0.0214384813, -0.0066855457, -0.0097330436, 0.0231782049, 0.0252767783, 0.0100252628, 0.0432200953, 0.0169807598, 0.0191140380, 0.0063956892, -0.0190847833, -0.0124284327, -0.0296647809, 0.0194563549, -0.0458835326, 0.0041406276, 0.0004017972, -0.0587982163, 0.0044495240, -0.0181609150, 0.0079839993, -0.0144834034, -0.0490539670, 0.0365510695, -0.0006424923, 0.0098185325, 0.0114240935, -0.0017151448, 0.0196346659, 0.0006488573, -0.0317176133, -0.0311402641, -0.0071790721, 0.0035221220, 0.0006493031, 0.0135656614, -0.0030192840, 0.0058580260, 0.0062386068, 0.0033602088, -0.0079841586, -0.0131004099, 0.0255810972, 0.0071175578, 0.0346798636, -0.0028799060, 0.0072858520, -0.0018399566, -0.0586579852, -0.0149815092, 0.0178771075, -0.0069226269, -0.0061597996, 0.0020789213, 0.0012724396, 0.0186495800, -0.0305201374, 0.0135617470, 0.0070983353, -0.0159806311, -0.0001920034, 0.0132691767, -0.0196403041, -0.0050384537, 0.0110810259, 0.0346551351, -0.0144883972, 0.0022916340, 0.0166593976, 0.0023803888, -0.0010069691, 0.0014761087, -0.0077044135, -0.0358847789, -0.0628608614, 0.0007911558, 0.0003517310, -0.0133458860, 0.0043316064, -0.0340596549, 0.0038900487, -0.0090173259, 0.0168804638, 0.0218200143, -0.0073220618, -0.0492359959, -0.0044445163, 0.0164184757, -0.0125924088, 0.0184750073, 0.0235107634, -0.0137425531, 0.0104005421, -0.0187857375, 0.0030240135, -0.0124064619, 0.0203669220, 0.0263397731, -0.0134738255, -0.0135413231, -0.0378745012, -0.0122692958, -0.0023469655, -0.0075029712, -0.0148585690, -0.0261901543, 0.0160086229, -0.0070195561, -0.0075332038, -0.0433887653, -0.0071788630, -0.0176934693, -0.0486017428, 0.0014713635, -0.0182286426, -0.0145177301, -0.0072861579, -0.0217848253, 0.0206715707, -0.0595875829, -0.0057392311, -0.0219770353, 0.0003786098, 0.0184298493, -0.0056236759, 0.0303899962, -0.0525899306, -0.0049272287, -0.0081074117, -0.0211549178, 0.0003826179, -0.0150745418, -0.0137891769, -0.0157851502, 0.0030330997, 0.0014556269, -0.0075488500, 0.0017258432, -0.0026145598, -0.0222745482, 0.0036341401, 0.0184419900, -0.0259141047, 0.0029622472, 0.0016655594, -0.0191151351, -0.0095931562, -0.0095885796, 0.0088476483, -0.0493896417, -0.0239168070, -0.0274621733, -0.0070761517, -0.0278254934, -0.0018448159, -0.0200376697, 0.0133674219, -0.0164144076, -0.0180328470, 0.0124792270, -0.0253636576, 0.0153665524, -0.0262778886, -0.0025458569, 0.0037205766, -0.0424196608, -0.0196863487, -0.0077147223, -0.0428131446, 0.0097695077, -0.0262971409, 0.0216358379, 0.0322080553, -0.0008414937, -0.0079565346, 0.0031422465, 0.0045645656, -0.0153516578, -0.0215873718, -0.0051768222, -0.0228123330, 0.0096659819, 0.0289198793, 0.0063928165, -0.0117569380, -0.0281192902, 0.0037746439, 0.0058877678, -0.0022270454, -0.0212152731, 0.0135042667, -0.0395088047, -0.0198669452, -0.0136807282, -0.0153117599, -0.0057107224, -0.0059443349, 0.0048122192, 0.0427108184, -0.0118176620, 0.0125712520, 0.0105337640, -0.0395251662, 0.0045836871, -0.0007245809, -0.0128216892, -0.0226257592, 0.0348997116, -0.0030735980, 0.0150309997, -0.0169043392, 0.0093566747, -0.0325435810, -0.0100138653, 0.0055340128, 0.0044220216, -0.0040014265, 0.0267591421, -0.0302470475, 0.0273481160, -0.0179124456, 0.0300693605, -0.0141497543, -0.0026978739, 0.0075496645, -0.0114133805, 0.0019429254, -0.0212409236, 0.0017496081, 0.0159184523, -0.0090443501, 0.0244322885, -0.0001440541, 0.0099923080, -0.0289118644, 0.0351257287, 0.0202616826, -0.0272489320, -0.0121399313, -0.0143554797, 0.0002171078, -0.0176396053, -0.0076752924, -0.0137625169, 0.0038125946, 0.0040766508, 0.0382312387, 0.0306193568, -0.0316105261, 0.0051416010, -0.0256680120, -0.0043859882, 0.0070159594, -0.0386380590, 0.0117012663, 0.0015951686, -0.0388621092, -0.0419187285, 0.0251221284, 0.0099536246, -0.0148908319, 0.0073470976, 0.0290051382, 0.0165516119, 0.0150933275, -0.0409367457, -0.0234079026, -0.0158766098, 0.0408690013, -0.0109437024, 0.0083401939, -0.0101443594, -0.0330972001, -0.0381055884, -0.0209406279, -0.0433965623, -0.0143175572, -0.0395245142, -0.0256200582, 0.0286151003, -0.0140565876, 0.0155369313, -0.0127650043, -0.0345200300, 0.0164363272, 0.0109006474, 0.0009040087, -0.0179471262, -0.0028106121, 0.0039068628, -0.0408783555, -0.0128302202, -0.0058497288, -0.0070104883, -0.0008195791, -0.0186339095, -0.0362268500, -0.0160280857, 0.0224252604, -0.0162621792, 0.0286999736, 0.0304887295, 0.0232711211, -0.0370145179, 0.0159704052, -0.0001596110, 0.0283416342, -0.0242013987, -0.0181828868, 0.0065952684, -0.0174183249, -0.0162957087, -0.0202023108, -0.0307212491, -0.0059150015, -0.0072932024, 0.0037419293, 0.0172861032, -0.0373405293, -0.0379090868, 0.0080312751, -0.0060135806, -0.0232929531, -0.0215516817, 0.0190248601, -0.0159581080, -0.0178547893, -0.0054605994, 0.0030350375, -0.0186339840, -0.0265223645, -0.0300290473, 0.0028329676, -0.0065120151, -0.0091371210, 0.0033258530, -0.0067955232, 0.0057440931, -0.0226691570, 0.0068267868, 0.0131955380, -0.0493026115, -0.0340027474, -0.0054772194, -0.0009992920, 0.0188580472, 0.0030578070, -0.0089340834, 0.0075494605, -0.0200379044, -0.0180813912, 0.0204035603, 0.0187277291, 0.0216839425, -0.0017413959, -0.0081908284, -0.0201475341, -0.0394541472, 0.0099304616, -0.0159996897, -0.0212516338, 0.0037272875, 0.0185242631, -0.0238910113, -0.0125587331, 0.0057530687, 0.0079849726, 0.0087123858, -0.0150152342, -0.0001032058, -0.0170206856, -0.0014401249, 0.0292077549, -0.0354560651, 0.0122393426, -0.0266487394, 0.0042163385, -0.0167941134, 0.0122282840, 0.0069976589, 0.0137929022, 0.0478630774, -0.0370742865, 0.0152510665, 0.0050186939, -0.0213539153, 0.0137373228, 0.0057700179, -0.0249856245, -0.0175365917, 0.0055232570, -0.0277890507, -0.0421054736, 0.0046649538, -0.0168336276, -0.0135152396, -0.0168045163, 0.0469366722, -0.0133317336, 0.0079521658, -0.0056213797, -0.0048284293, -0.0271570012, -0.0011328394, 0.0032844217, 0.0122666610, -0.0312593058, 0.0044801361, -0.0246223193, 0.0091297468, 0.0404893830, -0.0388800316, 0.0319049880, -0.0291654281, 0.0101925191, 0.0114967665, -0.0144894738, 0.0316504501, -0.0227308162, -0.0395551585, -0.0200505853, -0.0169487186, -0.0026096671, 0.0237417147, 0.0173809435, -0.0083472030, -0.0219345223, 0.0316490196, -0.0138239525, -0.0143106133, -0.0237175804, 0.0411815494, -0.0036457421, 0.0149066858, -0.0030202509, -0.0183324944, 0.0198881496, 0.0043946174, -0.0007705514, -0.0330955125, -0.0101242485, 0.0466339886, -0.0058723260, 0.0366917700, 0.0165540669, -0.0253876857, 0.0088336999, -0.0156834796, -0.0296791531, -0.0128251361, 0.0042576403, -0.0085382955, -0.0263849515, 0.0059730322, 0.0273542572, 0.0020326069, -0.0030213562, -0.0225847289, -0.0356273986, 0.0082180584, -0.0304128695, -0.0163740199, -0.0215761419, 0.0053161099, -0.0238013025, -0.0003738141, 0.0015849163, 0.0357625037, -0.0099015376, 0.0066530388, 0.0001541508, -0.0211711433, -0.0214642230, 0.0042192657, -0.0350499786, -0.0063673602, 0.0023105477, 0.0034405438, -0.0205774400, -0.0224944539, -0.0017727937, -0.0514332317, 0.0141515182, -0.0202137232, -0.0115070976, 0.0193573944, -0.0341955423, 0.0336379334, 0.0134700965, -0.0115883462, -0.0253630895, 0.0107934475, -0.0060007153, 0.0154750263, 0.0081669046, 0.0056515234, -0.0120958546, -0.0105216810, -0.0147294020, 0.0284016635, 0.0176472440, 0.0054639466, 0.0023907775, -0.0189145971, -0.0056906245, -0.0569799431, -0.0426671430, -0.0277596880, -0.0284827892, -0.0089965733, -0.0046481672, -0.0147992913, -0.0410693511, -0.0220302455, -0.0022116364, -0.0035125169, 0.0196879450, 0.0120721301, 0.0193983149, 0.0214537848, 0.0194067601, -0.0333585776, 0.0337770842, -0.0119527271, -0.0090095969, -0.0000216943, 0.0007985030, -0.0256944448, -0.0363857299, -0.0118917506, 0.0240938328, -0.0065638209, -0.0505743772, -0.0280090272, -0.0123191634, 0.0221338123, 0.0003936621, -0.0107240602, -0.0238234848, -0.0481432416, 0.0329220220, 0.0311372429, -0.0302099083, -0.0159165226, 0.0350451991, -0.0142172100, -0.0219210163, -0.0194606148, -0.0022678487, 0.0100974264, -0.0126307793, -0.0237991493, -0.0016193592, 0.0141125238, -0.0152839590, 0.0114191892, 0.0308037028, 0.0292880088, 0.0108098509, 0.0017612235, -0.0302909501, -0.0210408382, 0.0251481291, -0.0202098284, 0.0163091961, 0.0067608170, -0.0024686388, 0.0177449938, 0.0013536148, -0.0285443738, -0.0053943922, 0.0161559414, 0.0012379477, -0.0008170362, -0.0343144499, -0.0037421016, -0.0155918859, -0.0030733817, -0.0232243352, -0.0181414429, 0.0150058838, 0.0069650104, -0.0004125806, 0.0094461758, -0.0070983791, -0.0281760469, -0.0245166887, 0.0067563346, 0.0025435647, -0.0102500338, 0.0045628976, -0.0064865518, 0.0115556270, -0.0234512780, 0.0289895516, 0.0426940061, -0.0108477175, -0.0215713009, -0.0276419371, 0.0099562770, 0.0099086463, 0.0154529437, -0.0043810606, -0.0252710208, 0.0194360726, 0.0023276021, 0.0351255797, 0.0026575506, -0.0356389917, -0.0402567759, 0.0146880746, -0.0049368544, -0.0361828618, -0.0305737760, 0.0722300336, -0.0187770259, -0.0597442202, 0.0428291447, -0.0030429973, -0.0295021199, -0.0079607684, -0.0247211233, 0.0344591253, -0.0309664030, 0.0580966435, 0.0391606949, -0.0495545194, -0.0360018648, -0.0328221694, 0.0666055381, 0.0258642863, -0.0013914240, -0.0250678509, -0.0290170405, 0.0037548374, -0.0491466485, -0.0130313812, 0.0171758514, -0.0349145941, 0.0479598045, -0.0016594485, -0.0019590410, -0.0387504138, 0.0396048278, -0.0640721694, 0.0302551985, -0.0416633263, -0.0081860153, 0.0129172541, -0.0263935868, -0.0186398961, -0.0440799706, -0.0052918470, -0.0382256806, -0.0022903290, 0.0014674105, -0.0055525582, 0.0018804348, -0.0014757636, -0.0335768573, 0.0235008746, -0.0302519128, 0.0071409079, 0.0233706497, -0.0142760538, -0.0359675959, -0.0132805500, 0.0465383939, -0.0488760397, 0.0106484257, -0.0143274888, -0.0011990409, -0.0135789113, -0.0166752730, 0.0039768592, 0.0064431676, -0.0205567237, 0.0117636835, 0.0259394161, 0.0060381102, -0.0033286284, -0.0261580888, -0.0465449579, -0.0114668421, -0.0040897089, -0.0052502984, -0.0422017239, 0.0138760656, -0.0493531264, 0.0198472179, -0.0434079878, -0.0323992483, 0.0106897783, -0.0126369633, -0.0155668715, -0.0141351186, -0.0007538212, -0.0307556894, 0.0224909279, -0.0217080060, -0.0368483327, -0.0048031607, -0.0271352381, -0.0190106723, 0.0148426043, -0.0540823713, 0.0478482284, 0.0508534126, -0.0127870422, 0.0425938331, -0.0039767441, -0.0455472805, -0.0678733885, -0.0146822613, -0.0023646329, -0.0449491926, 0.0292465221, -0.0307497513, -0.0286468174, 0.0632568523, -0.0081882682, -0.0091933450, 0.0594728552, -0.0485020988, 0.0450925156, -0.0287202019, -0.0092208721, 0.0059521329, 0.0169293396, -0.0929857194, -0.0187650695, -0.0137311630, -0.0389255360, -0.0349713936, -0.0171582680, -0.0384242684, -0.0773291364, -0.0298433416, -0.0040246383, 0.0354742743, -0.0020606245, -0.0114100864, -0.0041346112, -0.0142107485, 0.0164725427, -0.0575567596, 0.0021391753, 0.0058464049, -0.0037114846, 0.0069789886, 0.0480044410, -0.0185248330, -0.0104445051, -0.0105964625, -0.0245501157, -0.0425049812, -0.0230287705, -0.0238698032, -0.0236586370, -0.0464434288, 0.0103004910, 0.0185094085, -0.0007784488, 0.0179021861, -0.0226744264, -0.0395622179, -0.0173220411, -0.0086724441, 0.0355834402, -0.0001135258, -0.0061398991, -0.0221357699, -0.0196126513, -0.0120569896, 0.0066864388, 0.0522401631, -0.0558550321, 0.0467448011, -0.0609695800, 0.0101715121, -0.0222876370, 0.0329933912, -0.0263455398, -0.0018040438, 0.0012538850, 0.0655596778, -0.0418087468, -0.0055872994, 0.0305389017, 0.0154910097, 0.0742102042, 0.0017592495, 0.0092747351, -0.0404099785, 0.0059820740, 0.0313895680, -0.0264797043, -0.0441264622, 0.0780035630, 0.0546492487, -0.0404032990, 0.0007794879, 0.0083671063, 0.0066487184, 0.0281944703, -0.0734425709, -0.0172678102, -0.0106809037, -0.0127412565, -0.0281676296, -0.0789225698, 0.0366719700, -0.0099952519, -0.0277543943, -0.0046777832, -0.0057444656, 0.0261270292, -0.0253006630, -0.0256839953, -0.0764039233, 0.0199677031, -0.0021210324, -0.0016090946, -0.0125229396, -0.0103836115, -0.0218081456, -0.0004268437, -0.0135520278, -0.0072678309, -0.0213288590, -0.0203440227, -0.0317209885, -0.0080533391, 0.0104206158, 0.0353268981, 0.0178070553, -0.0493967868, -0.0974593833, 0.0265142322, 0.0197682474, -0.0099661648, 0.0134417238, -0.0307294205, 0.0106804762, -0.0350747332, 0.0160106383, 0.0058502601, 0.0105539691, 0.0336002745, 0.0069685290, -0.0542318262, 0.0037339819, -0.0249103084, -0.0577489585, 0.0003609282, 0.0528840460, -0.0202667713, -0.0207672231, -0.0204839762, -0.0427702628, 0.0048876447, -0.0257437006, -0.0000708409, -0.0446629226, 0.0252966825, -0.1012769118, 0.0133827105, -0.0187160727, -0.0183408298, -0.0122870496, 0.0175715704, -0.0160114262, 0.0423350930, -0.0163237788, -0.0007766103, -0.0300587658, -0.0590241253, -0.0288087446, 0.0315351710, -0.0525939502, 0.0558789000, 0.0246433541, -0.0238480456, 0.0027521402, -0.0459067076, -0.0234186836, -0.0208943542, 0.0102646155, -0.0448477678, 0.0002898576, -0.0129425712, -0.0238798354, -0.0261416379, -0.0605738051, -0.0388024077, -0.0235534701, 0.0168243647, -0.0008939303, -0.0197463948, 0.0078104343, -0.0040535638, -0.0334030539, -0.0304139089, -0.0328294151, -0.0321525633, 0.0011056876, -0.0168639813, 0.0255814642, -0.0088148955, 0.0185360666, 0.0367541760, -0.0479052998, -0.0162137281, -0.0000862296, 0.0533764362, 0.0144624971, -0.0045057666, 0.0112639936, -0.0121571291, 0.0590598695, 0.0005266252, 0.0047126221, 0.0129091153, 0.0320862047, -0.0129866423, -0.0238557532, 0.0385735556, -0.0385623574, -0.0548958816, -0.0208550394, 0.0153868841, 0.0305721276, -0.0355145261, 0.0166153163, 0.0013776014, -0.0496747680, 0.0033341285, -0.0408736318, -0.0212936625, -0.0137013309, -0.0092413556, -0.0061877985, 0.0050135111, -0.0040008947, -0.0412266515, -0.0006830934, -0.0631403476, -0.0151971160, 0.0353609398, -0.0162182692, -0.0070496043, 0.0099960510, -0.0371740684, -0.0237627234, -0.0100761801, 0.0083024707, -0.0449439511, -0.0351945497, -0.0355853662, 0.0009721856, 0.0030384315, -0.0358038098, 0.0362267606, 0.0351397283, -0.0235054232, -0.0433210768, -0.0079678874, 0.0371622890, -0.0317429416, 0.0227870643, -0.0421986617, -0.0217512399, -0.0024339566, -0.0353205390, -0.0042297891, -0.0002818362, -0.0232906993, -0.0117048910, 0.0172587689, 0.0015537997, -0.0007547202, 0.0130993053, -0.0444803163, 0.0058350819, 0.0887548402, -0.0407371670, -0.0866916999, 0.0070008524, 0.0244517010, -0.0532074980, -0.0150394971, -0.0117680682, -0.0353212133, -0.0360223949, -0.0324400067, 0.0457324684, -0.0087254215, 0.0468537658, 0.0285578482, -0.0328409560, -0.0712062716, -0.0010672563, 0.0657015592, -0.0186520331, 0.0028871186, 0.0443776771, -0.0092441849, 0.0114082284, -0.0123690609, -0.0014541002, -0.0457515605, 0.0128034344, -0.0223969538, -0.0357077569, -0.0058169449, 0.0159586035, -0.0039073355, -0.0146299694, -0.0348331816, 0.0148933399, 0.0056304452, 0.0194582418, -0.0205328818, -0.0267045517, 0.0205126330, 0.0078353994, 0.0223225038, 0.0040620086, -0.0061746123, -0.0029437041, -0.0423273966, -0.0291676652, -0.0664247870, -0.0061067962, -0.0144507820, -0.0004455384, -0.0120621761, -0.0708292723, 0.0162958615, -0.0128669161, 0.0383851901, -0.0415339805, -0.0414867848, -0.0630118176, -0.0021664309, 0.0168986246, 0.0295880102, 0.0104623269, -0.0022867355, -0.0021142340, 0.0079914927, -0.0175862312, -0.0804271474, -0.0633993149, 0.0266130660, 0.0129679674, 0.0065665287, 0.0055896067, -0.0118046813, 0.0252993368, 0.0216745697, -0.0309603941, -0.0629905835, -0.0346296541, -0.0134090381, 0.0000490308, -0.0392330512, -0.0633205101, -0.0308950897, -0.0858458728, -0.0756881386, 0.0295073148, 0.0138263376, -0.0305672549, -0.0574200675, -0.0657095239, 0.0223587397, -0.0197695605, -0.0080042761, 0.0447744131, 0.0288774762, -0.0190085527, -0.0149606569, -0.0210457556, 0.0049353568, -0.0127981361, -0.0112052960, -0.0290208161, -0.0360182486, 0.0011530935, 0.0116799315, 0.0107618757, 0.0327414609, -0.0404087827, -0.0249735471, -0.0010981952, -0.0473887101, 0.0262720771, -0.0507476479, -0.0140435817, -0.0412873067, 0.0063243560, 0.0125587266, -0.0024936257, -0.0019123476, -0.0288828835, -0.0173817612, 0.0109159136, 0.0061010746, -0.0351000018, 0.0015485784, -0.0032712892, 0.0408114940, -0.0149715012, -0.0263433699, -0.0400224067, 0.0385659225, -0.0057836706, 0.0054350407, -0.0194788612, 0.0136185205, -0.0074436236, -0.0023271632, 0.0137371132, 0.0166248195, 0.0128954463, -0.0123640886, 0.0223899167, 0.0225101374, 0.0145506188, -0.0047076377, -0.0060737096, 0.0090460833, 0.0014943419, -0.0152626522, -0.0043351646, 0.0055043348, -0.0130926380, -0.0000932672, -0.0048174155, 0.0101736775, 0.0096107731, -0.0171280690, -0.0168568976, 0.0087879961, 0.0064848731, 0.0093590198, 0.0030746041, 0.0204152185, -0.0032646311, 0.0044912607, 0.0261660311, -0.0012716427, 0.0300133079, 0.0100162476, 0.0136665711, -0.0223286022, 0.0037696662, 0.0049153650, -0.0108047323, 0.0196344294, 0.0230062921, -0.0311973542, -0.0117742345, 0.0028872576, 0.0226302892, 0.0050617578, -0.0193130560, -0.0146796713, -0.0093409475, 0.0353707150, 0.0019285274, 0.0009380586, -0.0298575945, 0.0214786176, -0.0058133551, -0.0098427422, 0.0240402278, -0.0246634483, 0.0040402026, 0.0007902554, -0.0003915561, 0.0000437474, 0.0034519695, 0.0167866461, 0.0033279767, 0.0123011842, 0.0135772470, 0.0256094076, 0.0072471066, 0.0024604453, 0.0015657839, -0.0006404590, 0.0071598650, -0.0140340077, 0.0094563235, 0.0123652034, 0.0053570280, 0.0114349276, -0.0279088318, 0.0053521879, 0.0038764291, 0.0024108463, 0.0062889257, 0.0196912996, -0.0035792189, -0.0014225367, -0.0018267365, 0.0097767450, 0.0266857482, 0.0013365184, -0.0322768874, -0.0032204834, -0.0031907114, 0.0138754006, 0.0038058294, 0.0093031302, 0.0017388684, 0.0030166942, -0.0188559275, 0.0119382516, 0.0173814408, 0.0003278096, -0.0147389388, 0.0077318260, -0.0027162549, -0.0035372756, -0.0029874323, 0.0082605695, 0.0011663612, 0.0122785335, 0.0060289754, -0.0009286416, -0.0032294961, 0.0058059492, 0.0019188684, 0.0257306043, 0.0017026323, 0.0025527438, -0.0028903226, 0.0268569924, -0.0007427029, -0.0114271892, 0.0148448413, -0.0071623032, -0.0122471796, 0.0059487037, 0.0109693799, 0.0068304143, 0.0284063593, 0.0244271904, 0.0003229409, -0.0215511322, -0.0069665122, 0.0263286587, -0.0043213898, -0.0004806311, 0.0235375725, 0.0246078633, -0.0148383360, 0.0077598714, 0.0164410975, -0.0176573172, -0.0009429192, 0.0072312648, 0.0368690789, 0.0013145501, 0.0044174851, 0.0076788594, 0.0077818441, -0.0088938503, 0.0308222063, 0.0060420372, 0.0147752939, 0.0355491489, 0.0109563656, -0.0114128180, 0.0031194473, 0.0196119994, 0.0009720092, 0.0072849202, -0.0082822833, 0.0144797452, 0.0151987113, 0.0087678609, -0.0064577162, 0.0046180049, 0.0195630398, -0.0022051472, 0.0030358979, -0.0224871468, 0.0220000651, 0.0226750560, 0.0117081134, -0.0115333153, 0.0247231144, -0.0017125021, 0.0090203583, 0.0154707273, 0.0093008606, -0.0103492858, -0.0008873875, 0.0124379341, 0.0129419733, 0.0028301615, -0.0231053494, 0.0056637698, -0.0040417481, 0.0028669231, -0.0048141819, -0.0130042741, 0.0207401253, -0.0013578427, 0.0005605858, -0.0083574830, -0.0023492682, -0.0257951152, 0.0134368706, -0.0127600050, 0.0003041386, -0.0054400251, 0.0409306996, 0.0086517148, -0.0028606083, 0.0139191151, -0.0053255218, 0.0070183235, -0.0365312435, 0.0033665681, -0.0177365728, -0.0025985530, -0.0041911164, 0.0189365633, 0.0025801593, 0.0086556375, 0.0116854459, 0.0017327861, -0.0180238392, 0.0120698772, 0.0039166380, 0.0003474027, -0.0043900898, 0.0149171418, 0.0137362536, 0.0045922208, -0.0008297560, 0.0006896900, 0.0095818052, -0.0151821747, -0.0179210939, 0.0165701322, -0.0010846648, -0.0010977972, 0.0114492597, -0.0027265225, -0.0212297738, 0.0020625675, 0.0024550550, -0.0012466003, 0.0043160105, -0.0251340177, -0.0150237000, 0.0098531106, 0.0346077308, -0.0178739633, -0.0068864203, -0.0258229971, 0.0048296661, -0.0024283160, -0.0084498301, 0.0123424530, 0.0149887763, -0.0014717509, 0.0054682624, -0.0484931320, -0.0061566164, 0.0154225482, 0.0241844654, -0.0311741345, -0.0185570233, -0.0306247808, -0.0729412064, 0.0018804456, -0.0071817418, -0.1034402177, -0.0201916117, 0.0206755530, 0.0631121024, 0.0053535099, -0.0282078721, 0.0021296754, -0.0377924480, -0.0084480746, 0.0175590534, 0.0461390018, 0.0034445780, 0.0663233325, -0.0425979048, -0.0029359094, 0.0042030294, -0.0301125143, -0.0291820243, 0.0302808341, -0.0262266845, -0.0225719605, 0.0471301451, -0.0602453984, -0.0303932689, 0.0108459797, -0.0105218496, -0.0162748564, -0.0454552546, 0.0317254029, 0.0233625434, 0.0063148928, -0.0309004523, -0.0067099291, -0.0091271764, 0.0307938848, -0.0273097828, 0.0111722089, 0.0487269163, 0.0188695192, 0.0103398012, -0.0039743287, -0.0022131817, -0.0350069068, 0.0089932447, 0.0154288318, 0.0170480311, -0.0555066988, -0.0164279249, -0.0189723875, -0.0307737589, -0.0079121040, -0.0134920105, 0.0097858012, -0.0132216057, 0.0074623218, 0.0309337564, 0.0067191371, 0.0103210844, -0.0009483310, 0.0239134952, 0.0078664701, 0.0154928695, 0.0090517513, -0.0049004988, 0.0138035119, -0.0098752026, 0.0103118299, 0.0228162855, -0.0011546520, -0.0235378221, -0.0379658230, -0.0215145256, -0.0257847439, -0.0187353939, -0.0023225166, -0.0322309285, -0.0312948748, -0.0093520209, -0.0508801080, 0.0222121459, 0.0337833948, 0.0024892208, -0.0164944921, 0.0165268537, -0.0416183025, -0.0433893502, 0.0029531568, -0.0103038494, -0.0120970523, 0.0171694793, -0.0084500983, -0.0194517672, -0.0193873812, 0.0097141266, 0.0765095875, -0.0017747729, -0.0268520527, -0.0020442174, -0.0291096028, 0.0118896561, 0.0070556430, -0.0159493163, -0.0053077447, -0.0376157686, -0.0483478755, -0.0238010809, -0.0107893292, 0.0429040715, -0.0337684192, 0.0065246685, 0.0743984580, 0.0864727870, 0.0004547682, -0.0042966227, -0.0185003895, -0.0468277559, -0.0319202542, -0.0117334062, 0.0166128054, -0.0383247435, -0.0050332779, -0.0175891705, 0.0225454364, 0.0033290144, -0.0218545664, 0.0067214128, 0.0124415290, 0.0830709264, 0.0195303671, -0.0141116492, -0.0643664971, 0.0470887087, 0.0043790201, 0.0236472022, -0.0265254565, -0.0367860273, -0.0051678200, -0.0293971226, -0.0346127376, -0.0531931259, -0.0398141816, -0.0006557486, 0.0496219434, -0.0038624923, -0.0332748145, -0.0139816878, -0.0141973924, -0.0143828373, 0.0017046657, 0.0022495685, -0.0169993583, 0.0271019805, -0.0072649829, -0.0111739114, -0.0018509359, 0.0476840772, -0.0025180369, 0.0084214723, -0.0191235784, 0.0134732891, -0.0169528574, -0.0391186140, 0.0144912582, -0.0203535128, 0.0334892608, -0.0292255580, -0.0363366641, -0.0239455067, -0.0028823430, -0.0405004956, 0.0628032908, 0.0369898044, 0.0101934858, 0.0149235372, -0.0009189331, 0.0400918238, -0.0242185518, -0.0189828798, -0.0161654577, -0.0006192164, -0.0291624162, 0.0137777189, -0.0409339070, 0.0104290256, 0.0207179692, 0.0085294340, -0.0336600430, 0.0148983579, -0.0071497750, -0.0287472773, 0.0131611051, -0.0169051606, -0.0012300746, -0.0236941129, 0.0103171039, -0.0163952596, -0.0063762269, 0.0540562123, 0.0067200190, -0.0015800808, -0.0313280076, -0.0199857745, 0.0017498902, -0.0149292210, -0.0330246948, -0.0448761992, -0.0012643120, -0.0195564851, 0.0547473505, -0.0020221903, -0.0305110943, -0.0364751928, -0.0142946793, 0.0390360132, -0.0034852934, -0.0650001168, -0.0341362692, -0.0312688984, -0.0261646118, -0.0413191319, 0.0179197285, 0.0498432294, -0.0103677185, 0.0208468270, 0.0413041674, -0.0262498371, -0.0427205227, -0.0116213541, 0.0101224054, 0.0406552367, -0.0299795363, 0.0660742894, -0.0293167531, -0.0150193078, -0.0082817059, 0.0025006786, -0.0159614533, -0.0035377985, -0.0248148013, -0.0461478680, -0.0687920749, 0.0373832993, 0.0194971208, -0.0389342457, -0.0376087539, 0.0901609138, 0.0566438437, -0.0218121391, 0.0077997088, 0.0712805986, 0.0939167663, 0.0095727108, 0.0002330654, -0.0053239339, -0.1118349582, -0.0422890000, 0.0529906526, -0.0638645142, -0.0604551062, -0.0858777910, 0.0304723345, -0.0319796503, -0.0293636844, 0.0282581188, -0.0752125084, 0.0474742241, 0.0104488442, -0.0173318181, -0.1470279098, -0.0229675081, 0.0542899594, -0.0855003074, -0.0859192386, -0.0326076411, -0.0068083387, 0.0207250137, -0.0293610469, 0.0433113649, -0.0860490352, 0.0497138910, -0.0564612187, -0.0639118105, -0.0814447328, 0.0800606385, -0.0819109976, -0.0437013954, 0.0498155132, -0.0729119331, 0.0232552476, -0.0716229975, 0.0160590317, -0.0906715468, -0.0558415726, 0.0163856428, -0.0353871547, 0.0115475524, -0.1115972772, -0.0107644852, 0.0320873521, 0.0196044352, 0.0094457204, 0.0723483786, -0.0799104944, -0.0041146786, -0.0070372340, 0.0255219787, -0.0155223617, -0.0695019960, 0.0258271135, 0.0388988666, 0.0973911136, -0.0573410392, 0.0389536098, 0.0423214883, 0.0858059302, 0.0198128708, 0.0057963324, -0.0065790997, -0.0476596504, -0.0187623445, 0.0575140975, 0.0237432849, 0.0242683291, -0.0703235045, 0.0068202065, 0.0172126889, -0.0388079770, 0.1041624919, -0.0124057354, -0.0201005153, -0.0616817884, 0.0593576692, -0.0737330690, 0.0045705820, -0.0986107811, -0.1136165857, -0.1059218124, -0.0607859828, -0.0069677476, -0.0475328490, -0.1221028268, 0.0058754142, -0.0273395479, -0.0197788440, -0.0885763466, 0.0415412523, -0.0211465377, 0.0255218651, 0.0778669119, 0.0336553082, 0.0200838707, 0.0099215973, -0.0566457026, -0.0599232204, 0.0950980261, -0.0244205371, 0.0187332649, -0.0374067202, -0.0125208655, 0.0594501421, -0.0004326561, 0.0183709562, 0.0844896436, -0.0493565910, -0.0947867632, -0.0213504359, -0.0000357693, 0.1065367609, -0.0217286590, -0.0574255399, -0.0165751148, -0.0503069721, 0.0187617559, 0.0114159025, -0.0060998616, 0.0027057137, 0.0555225648, -0.0649475232, -0.0192451384, -0.0452914797, -0.0085010221, -0.1217020899, -0.0340909138, 0.0510896854, 0.0073630763, -0.0383106023, 0.0022734534, -0.0594031513, -0.0197137780, 0.0045444816, -0.0018613798, -0.0201889146, 0.0537800230, -0.0360104479, 0.0363628641, -0.0729214698, 0.0297126975, -0.0317270309, 0.0779739544, 0.0664667934, -0.1113037392, -0.0193229038, 0.0390141904, 0.0034868605, -0.0954450443, -0.0189729147, -0.0776023790, -0.0236239061, -0.0619984642, -0.1231929585, 0.0194706563, 0.0161375422, 0.0795139000, 0.0232864246, 0.0360443406, -0.0418378636, -0.1058579683, -0.1550772339, -0.0312543698, -0.0433553532, -0.0447638184, 0.0406144708, -0.0029229014, 0.0232680868, 0.0543564335, -0.0513394810, -0.0621766821, -0.0648458004, -0.0120859277, -0.0006094976, 0.0216093231, -0.0417356826, 0.0525796413, -0.0031935514, -0.0344178490, -0.0506651141, -0.0071655735, -0.0095722219, -0.0163643323, -0.0626589805, 0.0052087167, 0.0469461344, -0.0197058301, 0.0247394890, 0.0378269777, 0.0047925510, -0.0655059740, -0.0539659038, -0.0504808314, 0.0076432987, 0.0208881907, 0.0214639660, 0.0748317614, 0.0164476801, 0.0140448408, -0.0003928151, -0.0804984495, -0.0833693072, -0.0076377997, -0.1572261751, 0.0488808565, 0.0051348051, -0.0691750497, -0.0086229462, -0.1120211631, -0.0178397279, 0.0295285787, -0.0228659473, -0.0518834963, -0.0985677242, -0.0607603267, -0.0163684469, 0.0446971767, -0.0259301569, 0.0342257805, -0.1492664963, 0.0125055490, -0.0171344560, -0.0560413264, 0.0151213417, -0.0012229155, 0.0263167787, -0.0649663061, 0.0677692071, -0.0423293896, 0.0010958272, -0.0045879898, -0.0343859456, -0.1074962765, 0.0371846855, -0.0786880553, -0.0414062552, 0.0179512836, -0.0154137006, -0.0127110751, 0.0874431506, 0.0616467074, 0.0193810854, 0.0370639637, -0.0642051101, -0.0272402540, -0.0061438712, -0.0108066304, 0.0007503289, -0.0122409668, -0.0128612993, -0.0015465951, -0.0025440881, 0.0199428312, -0.0013894455, -0.0186636411, -0.0138211371, 0.0097920597, 0.0109601244, -0.0043724249, 0.0034754933, -0.0000045684, -0.0084090056, -0.0210830141, -0.0118876509, -0.0094544226, 0.0126140229, -0.0004497576, -0.0077262032, -0.0014571585, 0.0086551961, -0.0120493295, 0.0097258585, -0.0102097690, -0.0070844754, 0.0081041139, -0.0009514305, -0.0054436792, -0.0136817237, -0.0020193744, 0.0110873580, 0.0176785868, -0.0004903773, -0.0070049176, 0.0003986585, 0.0034649172, -0.0026020331, -0.0063516740, 0.0036351625, -0.0175424218, 0.0032473616, -0.0048618279, 0.0094542773, 0.0076303221, -0.0088660382, 0.0049853316, -0.0084178727, -0.0006850361, -0.0056831851, 0.0087789204, -0.0148560675, -0.0116708996, 0.0002512374, 0.0014847587, -0.0007594952, -0.0062311999, 0.0064395037, 0.0010966584, -0.0034045980, -0.0265680160, 0.0032559738, 0.0017246125, -0.0074450593, 0.0065397057, -0.0200877767, 0.0046350551, 0.0049800435, 0.0030006459, 0.0062391255, 0.0022344068, -0.0059562214, -0.0141261481, 0.0031988129, 0.0089806207, -0.0002739491, -0.0066407165, 0.0051803174, -0.0088414280, -0.0029739849, 0.0095482813, -0.0110108061, -0.0007513463, -0.0068443585, -0.0102313906, -0.0121881627, -0.0231667589, 0.0089093903, 0.0052673011, -0.0060311966, 0.0016797389, -0.0080748200, -0.0138698816, 0.0072582308, 0.0018393163, 0.0267758239, 0.0017014259, 0.0139102936, 0.0111685442, 0.0009106560, -0.0040749633, -0.0059037558, 0.0112786693, -0.0013700014, -0.0099039068, 0.0122553399, -0.0010236977, -0.0017576661, 0.0123848198, 0.0076094610, 0.0040266407, -0.0021531663, -0.0154639902, -0.0088460753, -0.0111918878, 0.0069058281, -0.0207252521, -0.0186912511, -0.0135994609, 0.0099940961, 0.0214800816, 0.0077123339, 0.0091941515, 0.0093815913, 0.0013315026, -0.0009170613, 0.0178724639, 0.0039776247, -0.0291347913, 0.0159739014, -0.0017113137, 0.0028915950, -0.0016471081, -0.0066727796, -0.0063114716, 0.0090769846, -0.0199969187, -0.0001120167, 0.0203806050, -0.0134515120, -0.0260305647, 0.0051474418, -0.0227993801, 0.0070687872, -0.0006545128, 0.0038749983, 0.0128903883, -0.0043236180, 0.0016581081, -0.0165432114, -0.0051047918, -0.0308732726, 0.0031670269, 0.0049152239, -0.0013820358, 0.0183347724, 0.0112986984, -0.0068516191, 0.0129830865, -0.0029550705, 0.0107958801, 0.0017320616, 0.0072057704, -0.0114825377, 0.0144587383, -0.0146183465, -0.0092145698, 0.0030069354, -0.0035643158, 0.0241867285, -0.0087091504, -0.0082097063, -0.0020287344, -0.0050428002, 0.0119607281, -0.0042074542, 0.0072032190, 0.0102018714, -0.0077276309, -0.0030440488, -0.0189611539, -0.0021741327, -0.0091376919, 0.0013815075, 0.0037319199, -0.0062524178, 0.0029820220, 0.0058675036, -0.0000280234, -0.0030775347, -0.0131178787, -0.0107558351, -0.0070556467, 0.0016431712, 0.0163949523, 0.0089719119, 0.0135129010, -0.0155122709, 0.0262311473, -0.0121365609, 0.0007149286, 0.0104857245, -0.0067023146, 0.0130204251, 0.0022386198, -0.0051642405, -0.0063899350, 0.0017489932, -0.0022713149, 0.0103569170, -0.0079804035, 0.0103738876, 0.0031156063, -0.0190830790, -0.0017438618, 0.0100915246, 0.0142621277, 0.0130479122, -0.0154772559, -0.0110734496, 0.0062252861, 0.0010152707, 0.0065110484, 0.0087591652, -0.0003467552, -0.0153432032, 0.0029147584, 0.0061594741, -0.0143601792, -0.0050562099, -0.0028777944, 0.0035658951, 0.0068524438, 0.0178762022, 0.0107523045, 0.0006315371, 0.0041671004, -0.0041640359, -0.0037557462, -0.0067639994, -0.0057359212, -0.0089096939, -0.0150162969, -0.0101779224, 0.0166786853, 0.0292123817, -0.0096456641, -0.0166918878, 0.0023102788, -0.0194869693, -0.0102156997, 0.0081693772, 0.0031845586, -0.0029732599, -0.0022703640, 0.0025355378, -0.0101746852, 0.0004110132, -0.0054229558, -0.0004685328, -0.0056092972, -0.0005427857, -0.0001765720, 0.0033447412, 0.0051611471, -0.0052710040, 0.0019536670, -0.0083878301, -0.0060079480, -0.0037937136, -0.0043806117, 0.0020658616, 0.0009177254, -0.0058590006, -0.0059409640, 0.0028785390, -0.0011661529, -0.0018046018, -0.0010854905, -0.0010520243, -0.0044640917, -0.0009932767, -0.0014222945, -0.0070700585, 0.0003841064, -0.0053861528, -0.0055829189, -0.0000729488, 0.0027849791, -0.0037917621, -0.0044443998, 0.0025930149, -0.0001010278, 0.0039511141, -0.0028616618, -0.0117248483, -0.0061706398, -0.0038211097, 0.0010820923, -0.0033213289, -0.0052404245, -0.0066731069, -0.0014396306, -0.0043831179, -0.0014485532, -0.0052786162, 0.0042337561, 0.0005496834, -0.0091433628, -0.0011323722, -0.0052261087, -0.0063003069, -0.0041817348, 0.0024859423, 0.0019318432, -0.0002297469, 0.0016357731, -0.0032390491, -0.0049654162, 0.0062769433, -0.0062904903, -0.0047210581, -0.0040079467, -0.0044558034, 0.0007572966, 0.0056076604, 0.0010372776, -0.0007920119, -0.0015742007, 0.0001268026, -0.0031416239, -0.0036059287, 0.0000258149, 0.0004441311, 0.0008497057, -0.0018493601, -0.0049262443, -0.0045040902, 0.0043049045, 0.0057951300, -0.0070658862, 0.0114631150, 0.0037467706, -0.0014151703, -0.0047225291, -0.0080438880, -0.0037158353, 0.0037761959, 0.0048445077, -0.0044378266, 0.0026883811, -0.0055880430, -0.0069568120, -0.0014936347, -0.0008118609, -0.0048323511, 0.0007229553, 0.0034056820, -0.0029232416, 0.0040320056, -0.0002908604, 0.0020345284, -0.0006138014, -0.0006361440, -0.0028660798, 0.0005116820, -0.0055389809, -0.0031136423, 0.0036711346, 0.0041988879, -0.0007180320, -0.0072333594, 0.0051299990, -0.0015848276, -0.0069221715, 0.0057488829, -0.0045294100, 0.0018942871, -0.0094679985, -0.0052792192, -0.0000896759, 0.0015898969, -0.0030082786, -0.0075721974, 0.0048262742, -0.0032307603, -0.0047762948, 0.0020280387, -0.0014706621, 0.0013877348, -0.0074309907, -0.0058542932, 0.0037248221, -0.0003859824, 0.0046181027, -0.0095490282, 0.0107743302, -0.0070048212, -0.0029188059, -0.0049041384, -0.0058321650, -0.0064707748, 0.0037301560, 0.0024462126, -0.0002075124, -0.0010385185, -0.0079163555, -0.0044195615, -0.0051019662, 0.0000619650, -0.0004291749, 0.0053023193, -0.0112395724, -0.0038358700, -0.0052093910, -0.0069625219, -0.0007016074, -0.0107442560, -0.0035778130, -0.0082389154, -0.0006019695, -0.0033282116, -0.0109425876, -0.0038114376, -0.0047694268, -0.0073997481, -0.0066514132, -0.0018447925, -0.0022298594, -0.0041344534, -0.0083431564, -0.0018966931, -0.0044724769, -0.0001542022, -0.0022052177, -0.0117098875, 0.0007887435, 0.0000531944, 0.0016950355, -0.0043680477, -0.0058825496, -0.0015242526, 0.0014343804, 0.0011981592, 0.0032585894, -0.0022703840, -0.0079495898, -0.0052913832, -0.0077946982, -0.0154252276, -0.0020631670, -0.0023772386, -0.0048177973, 0.0019950832, -0.0079405308, -0.0033994834, -0.0112839267, 0.0018254137, -0.0022131221, 0.0057429629, 0.0037342026, -0.0063458919, 0.0019825872, 0.0050311764, 0.0029492951, -0.0061076633, 0.0074582151, -0.0012376152, -0.0021781782, -0.0018784527, -0.0026763454, -0.0041213818, -0.0066581070, -0.0003951332, 0.0046119438, -0.0071470249, -0.0017980841, -0.0019861162, 0.0003894157, 0.0020939950, 0.0009328826, -0.0036013338, -0.0036041385, -0.0020458656, 0.0025334442, -0.0015484315, -0.0008627981, 0.0073505510, -0.0081633832, -0.0047034575, -0.0062222434, -0.0061856261, -0.0027387245, 0.0016671630, 0.0001692416, -0.0015433762, -0.0040024198, -0.0056564901, -0.0040368340, -0.0056228125, -0.0044285594, -0.0062725390, -0.0022949986, 0.0012808555, -0.0009456116, -0.0012188253, -0.0184476972, -0.0001298104, 0.0027557097, 0.0075671370, -0.0034463562, -0.0137129538, -0.0018699573, -0.0004820916, 0.0204703100, 0.0032434475, 0.0036381860, 0.0200160500, 0.0079401257, 0.0163096488, 0.0212291908, 0.0113898693, -0.0185150653, 0.0067135706, -0.0021055720, -0.0004327106, -0.0146069052, 0.0113568474, 0.0059979060, -0.0059511461, -0.0036907753, -0.0094529502, 0.0113281263, 0.0204495564, -0.0089189475, 0.0099960901, 0.0149007253, 0.0072825383, 0.0030006298, -0.0059518768, 0.0158138070, 0.0045554941, -0.0054644784, -0.0048670094, 0.0114463503, 0.0062948251, 0.0080209961, 0.0090209404, 0.0031878168, 0.0186563246, 0.0137561969, -0.0012272490, -0.0044979728, 0.0172475297, -0.0219697449, -0.0018608832, 0.0187809616, 0.0215565581, -0.0010102059, -0.0092368880, -0.0056235450, -0.0047944533, 0.0348876566, 0.0137696480, 0.0131649412, -0.0261592139, 0.0091370177, 0.0095908493, 0.0066362540, 0.0164405555, -0.0130106052, -0.0021377767, 0.0091591226, -0.0006151160, -0.0004135639, -0.0112207569, -0.0041551883, 0.0084333764, -0.0040108054, -0.0007553590, 0.0102673238, 0.0180266220, 0.0227239244, 0.0065985085, -0.0325108059, 0.0064974581, 0.0024923203, -0.0081805028, 0.0060029845, 0.0195065513, 0.0046609445, 0.0022040450, 0.0046758414, -0.0107629895, 0.0174683258, 0.0051526437, 0.0094532911, 0.0006957051, 0.0051091090, -0.0069668475, 0.0038821485, -0.0036547098, -0.0064548119, -0.0240418110, 0.0030899674, 0.0097093498, 0.0001985876, 0.0016876971, 0.0079674190, 0.0080897585, 0.0118760699, -0.0184916705, 0.0117778825, 0.0084971208, -0.0105210682, -0.0090641631, 0.0055086133, -0.0180407595, 0.0069070417, 0.0171865299, -0.0011069603, 0.0001499646, -0.0058596064, 0.0053200466, 0.0029330177, 0.0003750237, 0.0093231443, 0.0031022164, 0.0139284721, 0.0039135828, -0.0074902596, 0.0070175254, 0.0124822445, -0.0109837344, 0.0052179717, 0.0119424984, -0.0172949173, 0.0061746337, 0.0008293112, 0.0099516418, 0.0040120175, 0.0103084892, -0.0096427687, -0.0181624275, -0.0009523854, -0.0170565993, 0.0035163471, -0.0113471104, 0.0051673935, 0.0059537441, 0.0111752246, -0.0053470624, 0.0033887166, -0.0023720628, -0.0104816454, 0.0064566568, 0.0044897222, 0.0252042767, 0.0133172506, 0.0018195516, 0.0002864654, 0.0010812097, 0.0010365776, 0.0068301242, -0.0028580409, -0.0070282118, -0.0054406188, 0.0085919527, 0.0127631491, 0.0183155499, 0.0023359321, 0.0145629328, 0.0061626653, -0.0029041166, 0.0103990491, 0.0087603061, -0.0024422614, -0.0036552974, -0.0053078490, -0.0028219908, -0.0018452508, 0.0056900769, 0.0011509769, 0.0186784491, 0.0041961125, 0.0070400545, 0.0034493918, 0.0155028515, -0.0080864960, 0.0012129912, 0.0060847620, 0.0098291934, -0.0110030053, -0.0044141030, 0.0043664426, 0.0034805038, -0.0072319526, -0.0259897597, 0.0056850598, -0.0001968304, -0.0031874939, 0.0143299289, 0.0114386082, 0.0017271726, -0.0144944768, -0.0086432584, -0.0087644653, -0.0219734926, -0.0205882508, -0.0118806735, -0.0086731147, -0.0025569659, -0.0083391061, 0.0105498629, 0.0127086835, 0.0075197401, -0.0080140531, 0.0064144824, 0.0139168715, -0.0070098424, 0.0093984306, -0.0040964759, 0.0030459424, -0.0052893404, 0.0149275512, 0.0038642942, -0.0077272831, 0.0220904239, -0.0014861509, -0.0134335663, -0.0066569722, 0.0002721893, -0.0037017262, -0.0013606270, -0.0067264601, 0.0146890320, 0.0067895465, -0.0123369526, 0.0173866581, 0.0203579161, 0.0003652423, -0.0133480532, -0.0147405406, 0.0080198208, 0.0032477789, 0.0116347903, -0.0003614640, -0.0021112729, 0.0024571305, 0.0102168284, 0.0100679630, 0.0001161843, 0.0041362233, 0.0084353713, -0.0026645674, 0.0118190022, -0.0046936949, -0.0119407736, -0.0076850490, -0.0138020366, 0.0218974352, -0.0092829932, 0.0115422057, -0.0131895319, -0.0061890949, 0.0025274982, -0.0044110604, -0.0120567707, 0.0052119754, -0.0147600276, -0.0076522566, -0.0053001307, 0.0004341888, 0.0083682518, -0.0359276272, 0.0057106409, 0.0022899501, -0.0206046626, 0.0086290278, 0.0122535164, -0.0304670390, -0.0223791078, 0.0030454479, -0.0264579020, -0.0000958320, 0.0307859574, -0.0146818571, -0.0223431755, -0.0031741017, -0.0212601367, -0.0095011014, -0.0110932477, 0.0025673946, -0.0275283530, 0.0019978387, -0.0386402793, -0.0368198156, -0.0052016717, -0.0174604654, 0.0079216780, 0.0179664474, -0.0310610216, -0.0361838415, -0.0178211760, -0.0256352127, -0.0336203240, -0.0249520596, -0.0163186397, -0.0269854032, 0.0083877975, -0.0168030802, 0.0447551720, -0.0283788405, -0.0347026139, -0.0025029243, -0.0020175052, -0.0046364674, -0.0380617529, -0.0013546989, -0.0115032475, 0.0003294643, -0.0066262819, -0.0099146366, 0.0160685983, -0.0263058841, 0.0067095305, -0.0041523078, -0.0126831476, -0.0234481953, -0.0288805608, 0.0169072039, 0.0205280576, -0.0197829455, 0.0224056914, -0.0261223372, 0.0089292089, -0.0372375250, -0.0065449183, -0.0156723913, 0.0082120327, 0.0063148928, -0.0206596311, -0.0040601334, 0.0149128307, -0.0199026875, -0.0251791626, -0.0273146648, 0.0155507177, -0.0298570581, -0.0270220805, -0.0228013322, -0.0047198236, 0.0075361566, -0.0123452013, 0.0048891571, -0.0031715671, -0.0010414360, -0.0116048679, -0.0265495088, 0.0219011195, -0.0151213827, -0.0375515111, -0.0031755499, -0.0016760575, -0.0108595127, -0.0161296185, -0.0290285032, -0.0195453167, -0.0292174462, -0.0288183130, 0.0227945019, -0.0061017536, 0.0105153676, -0.0171595886, -0.0347531401, 0.0075144768, -0.0084837368, -0.0228774268, -0.0227600206, -0.0396435522, -0.0162116997, -0.0208745543, -0.0063352059, -0.0134923058, -0.0182389189, -0.0282489005, -0.0099279443, -0.0036841352, -0.0291287284, 0.0313580483, -0.0180863384, 0.0224244483, -0.0019431944, -0.0247807484, -0.0107297767, -0.0070112841, -0.0304362476, 0.0171011277, -0.0007065121, -0.0024478254, -0.0108845457, 0.0105824564, -0.0044847741, 0.0035599996, -0.0204287358, -0.0002651512, -0.0023397510, -0.0093274247, 0.0146138612, -0.0284125786, -0.0069682356, -0.0080101574, -0.0161159113, -0.0146919200, -0.0190964472, -0.0363113545, -0.0161787309, -0.0372900367, -0.0012373159, -0.0322982073, -0.0133838579, 0.0024214813, -0.0278826952, 0.0030538614, -0.0191350933, 0.0160598028, -0.0134225758, 0.0096040526, -0.0007532050, 0.0129841547, -0.0260834694, -0.0084838998, -0.0130366078, -0.0239695758, -0.0168341175, 0.0237588268, 0.0141744083, -0.0044504274, -0.0282934532, -0.0208124742, 0.0021156445, -0.0332476906, -0.0075251916, -0.0089149969, -0.0178179964, -0.0101938276, 0.0025700289, -0.0083905673, -0.0197683163, 0.0033549285, -0.0036010491, 0.0042147222, -0.0155968405, -0.0167599022, -0.0228172708, -0.0285594165, -0.0059268204, -0.0257566720, 0.0005378477, -0.0157639347, 0.0078751510, 0.0002914831, -0.0096913967, -0.0056380820, 0.0149303079, -0.0268443339, -0.0141673563, -0.0029087537, -0.0030968443, -0.0057832659, -0.0075045144, 0.0003038023, -0.0214746930, -0.0063391528, -0.0285459645, -0.0151569508, -0.0142088840, -0.0138339456, 0.0112666534, -0.0070145358, 0.0018699870, -0.0169544220, -0.0009096840, -0.0027412234, -0.0086728055, -0.0313494802, -0.0385774747, -0.0065873135, -0.0285194553, -0.0123419827, 0.0123928683, 0.0023129794, 0.0018722438, -0.0215928219, 0.0008942558, 0.0035089094, 0.0095198834, -0.0095336307, -0.0232902505, 0.0042426204, -0.0223150607, 0.0124450112, 0.0141091626, 0.0146005489, -0.0108064078, -0.0069730435, -0.0127184903, -0.0473185144, -0.0253760610, -0.0180553664, -0.0180362910, 0.0138127226, -0.0131171467, -0.0243772641, 0.0054855905, -0.0127773192, 0.0173376910, 0.0088508883, -0.0012970804, -0.0005351737, -0.0344498307, -0.0135288611, -0.0039412952, 0.0118073104, -0.0054178028, -0.0053313724, -0.0057369783, 0.0079147248, 0.0064185960, 0.0146834645, 0.0045400416, -0.0061424044, 0.0092837317, -0.0031632725, -0.0158381313, 0.0004147916, 0.0130883716, -0.0147882253, 0.0012301328, -0.0127184279, 0.0079374984, 0.0083426693, 0.0011127489, 0.0016002231, -0.0116595374, 0.0124506056, -0.0041863979, 0.0069351792, -0.0024284429, -0.0115430150, -0.0064638122, -0.0059133596, -0.0076962402, -0.0012646567, 0.0108921872, -0.0031769304, -0.0064628236, -0.0004077630, 0.0076429993, -0.0174203962, 0.0075874147, 0.0119717540, -0.0154974656, 0.0188349430, -0.0110187726, -0.0007482402, 0.0022023432, 0.0074975113, -0.0002772498, 0.0067668064, 0.0060932925, -0.0128160333, 0.0171044469, 0.0067245150, 0.0010029032, 0.0070536775, -0.0007032504, 0.0015377234, 0.0158405639, 0.0057588099, 0.0054365238, 0.0054426217, 0.0042593088, 0.0012837983, 0.0039942567, 0.0069753379, -0.0023487338, -0.0197937172, 0.0132036787, -0.0112812566, 0.0004816698, 0.0074107298, 0.0098223826, 0.0015137922, 0.0025641173, 0.0023195222, -0.0061111669, 0.0044004433, 0.0097742584, 0.0007014862, 0.0015397446, 0.0130110634, -0.0041009379, -0.0009202677, 0.0000616533, -0.0087268222, -0.0221317317, 0.0023365819, -0.0064114193, -0.0135909943, -0.0229331478, 0.0206359755, 0.0234536640, 0.0051089306, 0.0049387128, -0.0040315101, -0.0195187535, -0.0015278303, -0.0102676544, 0.0055652303, 0.0167661030, 0.0070834942, 0.0100350734, -0.0010241818, 0.0112214508, 0.0038365480, -0.0047496497, -0.0090830559, 0.0060730320, 0.0192236546, 0.0111275595, -0.0101286098, 0.0128192771, 0.0079824952, 0.0255677048, 0.0035065752, -0.0058448915, -0.0053378721, 0.0006740211, -0.0121234888, -0.0104014520, 0.0016684032, 0.0043141460, 0.0057494421, 0.0099089164, 0.0110670710, 0.0180882476, -0.0004781060, -0.0097290268, -0.0009756248, -0.0037072899, 0.0150232520, -0.0008572561, -0.0024921801, 0.0012466448, 0.0052744895, 0.0017655003, -0.0042103818, -0.0016386273, -0.0015702978, -0.0113382097, -0.0090468666, 0.0093101049, -0.0143291811, -0.0160819441, -0.0134600662, 0.0025946712, 0.0104948869, 0.0053385897, 0.0187813658, 0.0040034982, -0.0041557630, -0.0068645831, 0.0032483849, -0.0123301176, -0.0023993945, 0.0177802537, 0.0142906336, 0.0112920208, 0.0001143587, -0.0045986157, -0.0011648920, -0.0015465528, -0.0026271164, 0.0112691326, 0.0011736347, -0.0120923724, -0.0079107173, 0.0175566524, -0.0142138209, 0.0123663610, 0.0035335738, -0.0082748495, 0.0201037470, 0.0107133370, -0.0113050882, -0.0104680080, 0.0007261675, 0.0104930764, 0.0022576607, 0.0118086888, -0.0013948871, 0.0005390947, 0.0033842784, 0.0033406832, 0.0018436972, 0.0197184030, -0.0006323406, 0.0024377385, 0.0004689465, 0.0000091775, -0.0033429640, 0.0025016388, 0.0023499369, -0.0010188444, -0.0096986517, -0.0063462430, -0.0125640575, 0.0137536088, 0.0082883202, 0.0092224870, 0.0086307423, 0.0019551429, -0.0041652853, 0.0006822438, 0.0121145789, -0.0022118420, 0.0137444725, -0.0088440888, 0.0041853366, -0.0097281896, 0.0096251806, 0.0136580337, 0.0161316860, -0.0141229769, 0.0200812146, 0.0036012889, -0.0051257177, 0.0048585385, 0.0074824654, 0.0012118022, -0.0078065093, -0.0092519103, -0.0017448600, 0.0139360186, 0.0010788884, 0.0107344249, 0.0032002535, -0.0075562256, -0.0015072449, 0.0084509291, 0.0148683600, 0.0107116792, -0.0025424580, 0.0066236067, 0.0097384462, 0.0097696176, 0.0084513221, 0.0124026313, -0.0004389322, 0.0319981761, 0.0078922063, 0.0019787538, -0.0109056327, -0.0002039738, 0.0009601956, 0.0020757869, -0.0014348906, 0.0143886022, 0.0088607334, -0.0098745842, -0.0042306799, 0.0118333269, -0.0060375649, 0.0035121224, 0.0151299546, -0.0149061037, 0.0069414526, 0.0021560125, 0.0191461518, 0.0508010760, 0.0283574909, 0.0119187897, 0.0000749982, -0.0295333136, 0.0082815159, -0.0498425327, 0.0450801551, -0.0105539784, 0.0340144858, 0.0174853690, -0.0529796965, -0.0155751491, 0.0316828378, 0.0011544041, 0.0159435552, -0.0169235654, -0.0053159413, -0.0269323792, 0.0039394223, -0.0085219415, 0.0238744002, -0.0172535982, -0.0509545207, 0.0437446348, 0.0377879776, 0.0480490439, 0.0071461648, 0.0290311817, -0.0372673161, -0.0407872573, 0.0175310802, -0.0296804160, 0.0048818006, -0.0531825237, 0.0299446136, -0.0258469153, -0.0484954305, 0.0119220950, -0.0262623820, -0.0355987549, 0.0223879144, 0.0705355853, 0.0305750612, -0.0321996920, 0.0080086533, -0.0027431592, 0.0358182788, 0.0094120000, -0.0227459762, -0.0150061809, 0.0306256227, 0.0337991565, 0.0096573718, -0.0372793339, -0.0031430332, -0.0214999244, 0.0872064456, -0.0008412957, 0.0331921615, 0.0427294299, -0.0181828272, 0.0290823523, -0.0065333517, -0.0140317436, 0.0390247814, 0.0079352017, -0.0166212115, -0.0248365123, -0.0195649322, 0.0142823067, 0.0038514165, -0.0049026585, 0.0203007981, 0.0001560542, -0.0122522991, 0.0449135602, -0.0171453655, -0.0392643809, -0.0677898675, -0.0387321375, 0.0000678493, -0.0003263689, 0.0109293871, 0.0554748811, -0.0323876254, -0.0469488055, -0.0346547589, -0.0372148342, -0.0010750178, 0.0262703970, 0.0095891971, -0.1036127359, -0.0443562232, 0.0211678836, -0.0373091772, -0.0121416189, 0.0012106908, -0.0009707545, 0.0479223281, -0.0412168242, 0.0133283529, -0.0165369678, 0.0214666426, 0.0037994082, -0.0376784801, -0.0221720636, 0.0615141727, -0.0261009317, 0.0036468001, -0.0460539795, -0.0096173864, -0.0124364374, 0.0270943660, -0.0055179414, 0.0325830840, 0.0311553553, 0.0218052790, 0.0113488901, 0.0093638618, 0.0181610025, 0.0043033636, -0.0268829502, -0.0136737823, -0.0135436943, 0.0135718752, -0.0188879129, 0.0035467029, -0.0257760882, -0.0564597733, 0.0546289124, 0.0217203014, 0.0251062941, 0.0346510895, 0.0049255402, -0.0291047301, 0.0227381177, 0.0310816653, -0.0020568324, -0.0387394018, -0.0501703210, -0.0370168276, -0.0133682424, -0.0348769911, -0.0483214408, -0.0086300578, -0.0194191318, 0.0062918752, 0.0404923521, -0.0013196799, -0.0092260381, 0.0223471262, -0.0481028557, -0.0266040843, -0.0341643319, 0.0369649120, -0.0099399155, 0.0432985388, -0.0163545255, 0.0128527358, 0.0211369786, -0.0472016707, -0.0307091158, 0.0029145002, 0.0309837051, 0.0228731856, 0.0136905089, -0.0022719130, -0.0546297804, -0.0640503541, -0.0596785061, 0.0440326333, -0.0380087011, -0.0546073988, -0.0207085814, 0.0251637436, -0.0709922984, -0.0115644159, 0.0004509629, -0.0340762138, 0.0078947814, 0.0210869350, -0.0267510954, 0.0145335216, -0.0115498099, -0.0020632129, -0.0449600071, -0.0169098396, 0.0061339103, 0.0012073966, -0.0420082398, 0.0065329485, 0.0263351183, 0.0052522602, -0.0271409526, -0.0336327739, 0.0207163915, 0.0126703195, -0.0147483414, -0.0744552687, -0.0061609633, 0.0628597513, -0.0124301566, -0.0306998827, -0.0006405340, -0.0734156147, -0.0027547211, -0.0107847331, -0.0017242815, -0.0077466229, 0.0004298970, 0.0002432087, 0.0870279968, 0.0239041764, -0.0347280130, -0.0106378831, 0.0045430749, -0.0160266701, 0.0110497195, 0.0139935371, -0.0604503006, 0.0079379966, 0.0120926546, 0.0183479115, 0.0088354321, 0.0205973666, -0.0052060783, 0.0265030786, -0.0174446255, 0.0105187977, 0.0147185540, -0.0064404598, -0.0273554232, 0.0398042090, -0.0282677412, -0.0082941540, 0.0167272203, 0.0298869163, -0.0048586298, -0.0436934642, 0.0024687338, 0.0342067927, -0.0246676579, 0.0149864871, -0.0468061529, -0.0376668610, 0.0206775367, -0.0078620231, 0.0413515680, 0.0141987987, 0.0273525659, -0.0331746899, 0.0069991904, 0.0106204879, -0.0284313317, 0.0185196158, 0.0442231596, -0.0201268885, -0.0436681099, -0.0357355364, -0.0184751023, 0.0018994688, 0.0049355398, -0.0044237762, 0.0156691074, 0.0136959124, 0.0616774037, -0.0419064611, 0.0063427249, 0.0327771008, 0.0097684031, 0.0016216147, 0.0448278263, 0.0157263856, -0.0439261198, 0.0105539802, 0.0184560884, -0.0227190144, -0.0531313233, -0.0563458651, 0.0541157126, 0.0104118893, -0.0164297521, 0.0099303974, -0.0135295633, -0.0295255091, -0.0271736737, -0.0281514749, -0.0224780440, 0.0053569977, -0.0061436915, 0.0469947048, -0.0302395895, -0.0153912017, 0.0439380296, -0.0120408041, -0.0226750541, 0.0057689715, -0.0133754238, 0.0252131186, -0.0185083710, 0.0366456099, -0.0366173573, 0.0096860509, 0.0313081741, -0.0158410501, 0.0086828806, 0.0110584283, 0.0281267017, -0.0137145016, -0.0140623283, -0.0306293946, -0.0192487687, 0.0195113663, 0.0310710277, -0.0083288606, -0.0076565701, 0.0117982952, 0.0389479510, -0.0009775141, -0.0258876644, 0.0099805938, 0.0169828851, -0.0098795677, -0.0420590304, -0.0422503538, 0.0052744690, 0.0282914452, 0.0108884610, 0.0384290554, -0.0369258747, -0.0110846832, 0.0093241232, -0.0330956243, -0.0389606319, -0.0588388816, 0.0221747663, -0.0159264784, 0.0087354649, 0.0134858005, 0.0030731596, 0.0718281493, -0.0398360789, -0.0414957777, 0.0365297347, -0.0120064821, 0.0300840605, -0.0022844442, -0.1051853895, -0.0423938632, 0.0260332897, -0.0283989832, -0.0668903440, 0.0381142497, -0.0062290868, -0.0179395117, -0.0158471055, 0.0404704511, -0.0285227839, 0.0029000153, -0.0115876170, -0.0252459776, -0.0170443002, -0.0038362744, -0.0290260706, -0.0113159176, -0.0319844857, 0.0246664286, -0.0296034236, 0.0496873669, -0.0395267867, 0.0124502322, -0.0607592165, 0.0019509582, 0.0481385402, -0.0297698341, -0.0366377421, -0.0104740635, -0.0637362897, 0.0082101263, 0.0137465568, 0.0060679992, 0.0131416572, -0.0375249498, -0.0123974876, -0.0286415927, 0.0014462100, -0.0636303797, -0.0014998561, 0.0319775231, 0.0393390432, -0.0078886086, 0.0306438878, 0.0376066230, -0.0170145761, -0.0207823645, -0.0481328554, -0.0129240919, -0.0621284768, -0.0169645362, -0.0419065617, 0.0053520137, -0.0426189192, 0.0173540004, 0.0146521609, -0.0294703078, 0.0143213375, -0.0336634032, -0.0357044414, -0.0296590086, -0.0207459051, -0.0090019973, -0.0040852036, 0.0364954285, -0.0214212686, -0.0146126905, -0.0530958846, -0.0466783345, 0.0051512714, 0.0466074422, -0.0150327664, 0.0405870602, -0.0055479370, 0.0003365243, -0.0928062797, -0.0146458438, 0.0101405317, 0.0422284789, 0.0139263989, -0.0235268250, -0.0076771346, 0.0084303040, -0.0084391097, -0.0094079692, -0.0313375257, -0.0077163405, 0.0342752747, 0.0392355211, -0.0194119625, 0.0104896696, -0.0157623645, 0.0427152738, -0.0401368663, -0.0622034818, 0.0424266234, 0.0238862466, -0.0109720752, 0.0079461057, -0.0062791584, 0.0179629754, -0.0130633647, -0.0173750073, 0.0126527995, 0.0168170221, -0.0130276876, -0.0440986082, -0.0102682691, 0.0392130762, 0.0521337837, -0.0476668999, -0.0085597504, -0.0296539571, -0.0316821933, 0.0157598443, -0.0261045098, -0.0236329809, -0.0249323864, -0.0472366884, 0.0216769557, 0.0351170152, -0.0120861894, -0.0096778721, -0.0038263660, 0.0376898348, 0.0017033593, 0.0024459274, -0.0460665189, 0.0198726635, 0.0007401221, 0.0091815153, 0.0146941915, 0.0005292244, 0.0059650908, 0.0468113385, -0.0285728201, -0.0160971619, -0.0118958065, 0.0488146767, 0.0210677795, -0.0005585157, -0.0217861030, 0.0067393426, 0.0095642181, 0.0167825893, 0.0385121740, -0.0428703018, 0.0103697944, -0.0066512283, 0.0076592881, 0.0169021096, -0.0088768704, -0.0333782509, -0.0123738535, -0.0093548251, -0.0069192844, 0.0287932288, 0.0202781986, -0.0402411744, 0.0308335945, -0.0074688280, 0.0135394102, -0.0048633981, -0.0001450141, -0.0103326449, 0.0079347249, 0.0055486481, -0.0365223438, -0.0279185679, -0.0521205366, 0.0474728532, -0.0074543618, -0.0039726435, 0.0169530474, -0.0227842946, 0.0109997857, 0.0018157958, 0.0026998087, 0.0022776208, 0.0160720367, -0.0324716382, -0.0070978189, -0.0073390827, 0.0049087671, 0.0060937861, -0.0207331255, -0.0102779027, 0.0198656637, 0.0093203960, 0.0226310547, 0.0115409419, -0.0155384336, -0.0163228102, 0.0009696758, 0.0251478497, -0.0126853026, -0.0150946993, 0.0076728114, 0.0181122925, -0.0324154310, -0.0279432721, 0.0417776853, -0.0047857589, -0.0066473768, 0.0175080579, 0.0460098311, 0.0004995472, -0.0114983954, 0.0190514009, 0.0066473051, 0.0201707985, -0.0211527422, -0.0380919203, 0.0043270625, 0.0153888157, 0.0196528044, -0.0133003751, 0.0038708609, 0.0195382759, 0.0164723247, 0.0848014280, 0.0263003465, 0.0482864976, 0.0097586783, -0.0550930277, 0.0108771147, 0.0385132022, -0.0244679302, 0.0610507764, 0.0252344031, 0.0159222502, -0.0581786521, -0.0293784421, -0.0231569521, 0.0110805221, 0.0194718614, 0.0348077156, -0.0267726500, -0.0020927156, 0.0233430304, -0.0425167270, -0.0250544492, -0.0767803788, -0.0136302933, -0.0096916836, -0.0014619300, 0.0594639033, 0.0366169736, 0.0079817045, -0.0261708703, -0.0355614871, 0.0140532451, 0.0326196589, 0.0074537713, 0.0141042368, -0.0726307705, -0.0107621150, 0.0154644307, -0.0331587493, -0.0193347428, -0.0160180926, 0.0143273361, 0.0058646463, -0.0342701003, 0.0027768805, -0.0210067593, 0.0081089446, 0.0141010154, -0.0104479594, 0.0068236338, 0.0299695134, -0.0196989886, -0.0126588279, -0.0457036383, 0.0198211856, -0.0192059521, 0.0111664711, -0.0030056485, 0.0149568142, 0.0382933356, 0.0288605280, -0.0077923825, 0.0141887981, 0.0047606551, -0.0338995121, -0.0310151409, -0.0069688233, 0.0257921610, 0.0036601520, 0.0007026025, -0.0193312280, 0.0298506897, 0.0056761135, 0.0009086749, 0.0253741723, 0.0570308007, 0.0252822805, -0.0045849313, -0.0295401737, 0.0215042327, 0.0324514955, 0.0150763402, -0.0139346104, -0.0044486928, -0.0071900203, -0.0059665809, -0.0166778360, -0.0601521209, -0.0145388152, -0.0519491658, 0.0252119638, 0.0318864621, 0.0263734888, -0.0054701231, 0.0111256475, -0.0076449327, 0.0009845080, -0.0226871613, 0.0467033349, 0.0095402300, 0.0454487652, -0.0507021397, 0.0308636855, 0.0089326240, -0.0648820922, 0.0187176336, -0.0246028192, 0.0506320894, 0.0202830471, -0.0059176381, 0.0150517644, -0.0661721304, -0.0175310373, -0.0365354344, 0.0650017783, 0.0287026260, -0.0104045579, -0.0168708861, 0.0183869284, -0.0347588100, -0.0127738379, 0.0098716002, 0.0142378472, -0.0190996733, -0.0012224842, -0.0164419319, -0.0009356805, 0.0217899960, -0.0158470981, -0.0505056605, -0.0146552548, 0.0380831026, -0.0068400325, 0.0152542861, 0.0434452966, 0.0493223742, -0.0007550970, -0.0177271236, -0.0111146718, 0.0173578765, -0.0122303711, -0.0367830694, -0.0480691381, -0.0417614169, 0.0322154053, 0.0272858609, -0.0176035576, 0.0399660282, -0.0092597604, -0.0033006314, -0.0203797724, 0.0034058271, -0.0057378686, 0.0140527338, 0.0080052493, 0.0537812002, 0.0221121293, -0.0070423707, 0.0113575989, -0.0111973910, 0.0040237834, 0.0140748480, 0.0147191230, -0.0315980539, 0.0179219991, -0.0247132219, 0.0128527191, -0.0239443406, 0.0090246573, 0.0286700223, 0.0415355451, -0.0006023349, 0.0209534764, 0.0096922899, 0.0176295396, 0.0004451269, 0.0646337718, -0.0351508260, 0.0111567378, -0.0036328135, 0.0137621453, 0.0411494039, -0.0266025700, -0.0103857154, 0.0248245765, 0.0127641251, 0.0299768299, -0.0030190893, -0.0197118968, 0.0204807185, -0.0509699881, 0.0239936132, 0.0264083184, 0.0021564630, -0.0228343755, 0.0062168688, -0.0020703420, 0.0193334185, 0.0187565628, -0.0391970724, -0.0368144624, -0.0243428927, -0.0029367290, 0.0053183064, 0.0037230696, 0.0168763306, 0.0026877122, 0.0053606103, -0.0028495621, -0.0136515629, 0.0044508609, -0.0415346064, -0.0397729389, 0.0274653938, -0.0544772930, 0.0168895628, 0.0049895081, -0.0507759973, -0.0558766499, -0.0384351462, 0.0810844377, -0.0129173230, -0.0055173580, -0.0012615486, -0.0132942814, 0.0001717578, -0.0069933450, -0.0307271853, 0.0055646938, -0.0310604014, 0.0059771896, -0.0051580528, 0.0050738542, -0.0149075957, 0.0005336530, -0.0392480008, -0.0207289085, -0.0083545176, -0.0489680506, -0.0224062614, -0.0546902306, 0.0116583863, 0.0269150138, -0.0208684430, -0.0196395200, 0.0103327855, -0.0197396744, 0.0278513376, -0.0031904422, 0.0498126261, -0.0073377001, -0.0114540523, -0.0111767342, -0.0268615317, 0.0097757215, -0.0054253903, 0.0171381105, 0.0077246195, 0.0205929223, -0.0506969579, 0.0029641681, -0.0178828463, -0.0154065294, -0.0590352379, 0.0121099986, 0.0098690968, 0.0212980080, -0.0216754097, 0.0021214783, 0.0364969783, -0.0637596622, -0.0056263981, -0.0397058800, -0.0469488576, 0.0136884227, -0.0250025522, -0.0288054291, -0.0266528986, 0.0028137441, -0.0293763354, -0.0075038616, -0.0520573482, -0.0069154254, 0.0119009642, -0.0186994653, -0.0284537487, -0.0145766735, -0.0682195425, 0.0210272036, -0.0255588964, 0.0259138718, -0.0138591137, -0.0085422900, -0.0494174287, -0.0219348036, -0.0021511512, -0.0375622287, 0.0044090743, 0.0129594794, -0.0242225658, -0.0527864806, -0.0128967436, 0.0210607853, -0.0493353009, 0.0125464154, 0.0010931517, -0.0419048071, 0.0030956818, -0.0165348295, -0.0341194458, 0.0149396965, 0.0010450373, -0.0122115072, 0.0137743633, 0.0016581188, -0.0205385610, -0.0225172322, -0.0198099948, -0.0122659719, 0.0272329785, -0.0437950604, -0.0372491516, -0.0073438394, -0.0046188179, -0.0412837677, -0.0350619629, -0.0137819750, -0.0201000553, -0.0419110209, -0.0377294570, 0.0246030185, -0.0015782333, 0.0235009808, -0.0417370722, -0.0295097921, -0.0464228317, 0.0388616174, 0.0140017290, -0.0268178768, 0.0042781150, 0.0142315216, 0.0151045751, -0.0555116683, -0.0502819791, -0.0024255367, 0.0106474841, -0.0320966616, -0.0351956561, -0.0553483292, -0.0140098715, -0.0662430227, 0.0001165752, -0.0265014526, 0.0139784655, 0.0293323211, -0.0521997921, -0.0339926146, -0.0062964251, -0.0080833565, 0.0431350693, 0.0342292152, -0.0300622694, 0.0451997481, -0.0177259836, -0.0476930887, 0.0098829446, 0.0160604790, -0.0788839757, 0.0099928547, -0.0343886986, 0.0040579722, 0.0018579352, 0.0202147979, -0.0287669860, -0.0027715366, -0.0305609033, 0.0581314638, 0.0255458839, -0.0328440592, -0.0136748170, -0.0232152753, -0.0298664570, -0.0024550413, 0.0772925988, 0.0392176397, -0.0473917462, -0.0344636589, -0.0695573837, -0.0948508009, -0.0004172196, -0.0031309831, -0.0112031661, -0.0302939732, -0.0438112058, -0.0438267216, 0.0383640192, -0.0085069202, -0.0179429036, -0.0193854123, -0.0279326644, 0.0147593664, -0.0069157807, -0.0402380787, -0.0662626103, -0.0085348338, -0.0330545977, 0.0001432931, -0.0255367775, -0.0375611410, -0.0268814731, -0.0342612043, 0.0185328759, 0.0020857367, -0.0252910033, 0.0215815455, -0.0364569835, 0.0300705563, -0.0262160450, -0.0422878042, -0.0538044162, 0.0146813057, -0.0132782627, -0.0179770291, -0.0175399426, -0.0248091482, 0.0587500930, 0.0536994226, -0.0251638256, -0.0555710271, 0.0231406763, 0.0284934863, -0.0353954248, 0.0420754179, -0.0310884137, 0.0346461646, -0.0352122299, 0.0062470343, 0.0201876275, -0.0187753197, 0.0095518725, 0.0161703080, -0.0563612841, -0.0152272629, -0.0448385365, -0.0073114927, 0.0170154553, 0.0603854023, -0.0089112502, 0.0450772010, -0.0178234037, -0.0355310738, -0.0173011422, -0.0054941946, -0.0014097444, -0.0011023195, -0.0075688814, -0.0131774331, -0.0035368928, 0.0074119340, -0.0158312991, -0.0029829822, -0.0223776270, -0.0259342697, 0.0257706400, 0.0189954415, 0.0027676318, -0.0086794570, -0.0287223868, -0.0496208817, -0.0305723380, -0.0122054974, 0.0194986295, 0.0131687196, -0.0260467883, -0.0297742542, -0.0377725810, -0.0154005419, -0.0333118588, -0.0252771750, 0.0042013554, -0.0359430276, -0.0052358438, -0.0305404086, -0.0608478040, -0.0534471497, -0.0063231979, 0.0337964073, 0.0178112946, -0.0179009177, -0.0310302693, -0.0350050591, -0.0310889017, 0.0024386619, -0.0492798500, 0.0008622046, -0.0120432591, 0.0157159008, 0.0036181577, 0.0126581388, 0.0066807214, -0.0337436683, 0.0203096252, 0.0008972530, -0.0143036041, -0.0099916635, 0.0009496450, -0.0002546406, 0.0134868473, -0.0035837370, 0.0050918548, -0.0049775937, -0.0101652769, -0.0379031487, -0.0037251979, -0.0163546037, -0.0389975123, 0.0109613696, 0.0171416663, -0.0007793685, -0.0096772863, 0.0177134089, -0.0044075693, -0.0153759569, -0.0033638501, 0.0095583433, 0.0128722368, -0.0005139111, -0.0041679936, -0.0239406154, 0.0170859620, 0.0038032271, -0.0277712047, 0.0047300146, -0.0245110225, -0.0215334445, 0.0072036041, -0.0092355330, -0.0413311236, -0.0102634234, 0.0042442214, -0.0474048033, -0.0380467027, -0.0291164257, 0.0225493703, 0.0015053226, -0.0027396709, -0.0039893761, -0.0220601317, -0.0101955850, -0.0061293091, -0.0253807921, -0.0183442868, 0.0172865167, -0.0095729753, -0.0375361517, -0.0219978169, -0.0414629988, -0.0290649254, -0.0464110374, 0.0039383289, 0.0090716155, -0.0298144389, 0.0303074308, 0.0085308179, 0.0061235772, -0.0210261829, -0.0359218679, -0.0517029017, -0.0124329422, 0.0158937871, 0.0408958793, 0.0200556275, -0.0257931091, -0.0108768800, -0.0190028213, -0.0125766536, 0.0155192958, -0.0012357455, 0.0005320106, 0.0008020148, -0.0421887822, -0.0130587034, 0.0154719856, -0.0030794526, -0.0108775441, -0.0407116115, 0.0110135861, -0.0040516406, 0.0027636865, -0.0207741596, -0.0166907404, -0.0440236777, -0.0230517648, 0.0061523034, -0.0313479044, -0.0239575990, -0.0171906166, -0.0079713026, -0.0162276067, 0.0070844581, 0.0039377408, -0.0211112481, -0.0223675594, -0.0296565499, -0.0736646876, -0.0100411754, -0.0433519110, -0.0013197891, -0.0293664914, 0.0045872047, 0.0006639044, -0.0241765901, -0.0300865415, 0.0070240558, 0.0147192758, 0.0134921689, -0.0481447205, -0.0426981971, 0.0157576296, 0.0034097463, -0.0082076788, -0.0390596911, 0.0111169135, 0.0284495540, 0.0014068108, -0.0208628979, -0.0032367378, 0.0220204610, -0.0275821220, -0.0330293663, 0.0101864124, -0.0419706404, -0.0384652838, -0.0031405236, -0.0146487663, -0.0302257203, 0.0006356256, 0.0167920198, 0.0069704806, -0.0080449348, -0.0034277281, 0.0004637034, -0.0302645657, -0.0266192853, -0.0339117907, -0.0039880220, -0.0267481618, 0.0028942686, 0.0136752874, -0.0063982648, 0.0111526037, 0.0112134246, -0.0119363489, -0.0201584604, -0.0346665643, -0.0251986906, -0.0255176853, -0.0169446338, -0.0032771484, -0.0338634774, -0.0728632212, -0.0321252905, -0.0433821343, -0.0086156698, 0.0453299955, 0.0202107318, 0.0144694736, -0.0026656222, -0.0221779887, 0.0008349849, -0.0006726022, -0.0065398021, 0.0268021189, -0.0171689931, -0.0247710235, -0.0128099965, -0.0071542161, -0.0415176600, 0.0146499062, -0.0106027434, -0.0406275541, -0.0084904367, -0.0016564876, -0.0271516647, 0.0279971678, -0.0291240271, 0.0104715824, -0.0043171211, -0.0107083721, -0.0088866428, -0.0109572690, 0.0013807291, 0.0056580892, -0.0037774735, -0.0166560560, -0.0205421355, -0.0148745421, 0.0055620037, -0.0028335582, 0.0007025517, 0.0192835089, 0.0003048475, -0.0416017920, 0.0175662674, 0.0080414265, -0.0255394597, -0.0168308262, -0.0091474615, -0.0048607970, 0.0039748866, 0.0012426412, 0.0030153545, -0.0032607752, 0.0030881653, 0.0022901632, 0.0000362087, 0.0040499098, -0.0053758658, 0.0033242991, -0.0014420609, 0.0011812203, -0.0036894006, -0.0010257019, 0.0018446057, -0.0090370085, -0.0006656192, -0.0045165848, 0.0027030257, 0.0006791224, 0.0017858907, -0.0028105373, 0.0035377778, 0.0006073680, -0.0044705519, -0.0012466672, 0.0040080827, -0.0003132535, 0.0043381425, -0.0046692686, 0.0036035466, -0.0009776761, -0.0032954379, 0.0010364859, -0.0018523891, -0.0036776825, -0.0025868532, 0.0073040677, 0.0005972646, 0.0009419065, 0.0023869593, 0.0032555552, 0.0036047045, -0.0022777894, -0.0098410780, -0.0007934868, -0.0022100843, -0.0004465571, -0.0013279581, 0.0023309125, -0.0008911312, -0.0010427724, -0.0001519222, -0.0041461317, 0.0003182312, -0.0114870081, 0.0067113293, -0.0018198036, 0.0050255489, 0.0088699171, -0.0023793955, -0.0007510773, -0.0017981073, -0.0006231150, 0.0034093021, -0.0043624421, -0.0033091458, -0.0003879100, 0.0016694468, 0.0025002954, -0.0031942334, -0.0008140450, 0.0034753496, -0.0003492677, -0.0038557125, -0.0014615291, -0.0052467366, -0.0016354494, -0.0032291920, 0.0048020571, -0.0000766359, -0.0053550298, -0.0036053499, 0.0037963409, 0.0028518757, -0.0050213020, 0.0075134207, -0.0046173991, 0.0054203612, -0.0033247091, 0.0021620572, 0.0031760181, 0.0003453462, 0.0026852542, 0.0029190076, -0.0043514059, -0.0033005381, -0.0032226546, 0.0006598386, 0.0018457393, 0.0018739417, 0.0015390049, 0.0011239139, -0.0013854101, 0.0011626126, -0.0010230003, -0.0003551637, -0.0026676776, -0.0025653993, 0.0027175837, -0.0006771508, 0.0020410661, 0.0002184987, -0.0022782984, -0.0009345502, -0.0036227100, 0.0000119024, 0.0054621045, 0.0089618452, -0.0025533156, 0.0054477653, 0.0004758796, 0.0032924374, 0.0025599583, -0.0040974272, -0.0002881524, -0.0006594322, 0.0004231788, 0.0017105789, -0.0009394442, -0.0034256345, 0.0027581009, 0.0006525741, 0.0007422785, -0.0071978830, -0.0005160769, 0.0017403344, -0.0023652033, -0.0000248808, 0.0038779629, 0.0052736527, -0.0034168623, 0.0030300645, -0.0000770205, -0.0044749361, -0.0018821431, 0.0041736113, 0.0001710326, -0.0009080939, 0.0007660069, -0.0046993895, -0.0034281707, -0.0018131097, -0.0049194242, -0.0008093546, -0.0000680667, 0.0039043354, 0.0034811746, 0.0033458362, 0.0019327176, -0.0009378080, -0.0007345586, 0.0057454687, -0.0077705141, -0.0014140680, 0.0033147195, 0.0017591440, -0.0001710443, 0.0016919322, 0.0029871950, -0.0090766689, -0.0012081378, -0.0031817246, 0.0149684232, -0.0026271793, 0.0005135002, 0.0003698603, 0.0033928875, -0.0019726618, 0.0021313492, -0.0017278623, -0.0002346894, -0.0014342986, 0.0009601067, 0.0029817575, 0.0012492468, -0.0013112662, -0.0058950703, -0.0018902065, 0.0011872040, -0.0021149605, -0.0038821336, -0.0001901040, 0.0044766427, 0.0046047871, -0.0024062432, -0.0013887325, -0.0015948350, -0.0097033326, -0.0035580227, -0.0007039785, -0.0002525179, -0.0020655182, 0.0027276604, 0.0002794371, -0.0025052766, 0.0012057262, 0.0010922988, -0.0040493365, 0.0013303501, 0.0048331595, 0.0025347532, 0.0013906709, -0.0045072245, 0.0079364125, 0.0033909332, -0.0010725337, 0.0021251431, 0.0006035482, -0.0018778086, -0.0006117953, 0.0037054461, -0.0012115741, 0.0058075842, -0.0002620189, -0.0037513499, -0.0074248742, -0.0047132643, 0.0018039173, 0.0040885471, -0.0023068856, -0.0082862349, -0.0026098522, -0.0009970823, 0.0036350223, -0.0010990126, -0.0046439287, -0.0041151932, -0.0001465327, -0.0031555307, 0.0032371953, -0.0013014260, 0.0011924308, -0.0033442543, -0.0045514610, 0.0026981994, -0.0062489016, -0.0011451256, -0.0033715297, -0.0028125674, 0.0005523505, 0.0029939024, 0.0010845584, -0.0010629236, -0.0003224860, 0.0019739475, -0.0238008257, 0.0324188620, -0.0077554230, -0.0045912559, -0.0046635577, -0.0358069837, -0.0164975263, -0.0196202453, 0.0101772463, 0.0092656622, -0.0707249567, -0.0352683626, 0.0002485663, 0.0045342892, -0.0121911382, -0.0066023199, 0.0012200822, -0.0207094438, -0.0062640067, 0.0048385919, -0.0110944267, -0.0288388748, -0.0052610571, -0.0181279033, 0.0352513753, -0.0289192107, -0.0056941831, 0.0055995109, -0.0061577111, -0.0139590101, -0.0345368199, -0.0066236127, -0.0166151095, 0.0035738342, 0.0201471280, -0.0233298205, -0.0271797311, 0.0122500686, -0.0073392331, -0.0191079192, -0.0154777849, -0.0108233709, -0.0292547327, -0.0000244678, 0.0237091240, 0.0191719513, -0.0163764693, -0.0014208807, -0.0141879749, -0.0092476280, 0.0001420361, 0.0235499516, 0.0105365310, -0.0148174111, 0.0125985639, 0.0382555239, -0.0235806853, -0.0081672631, -0.0258872043, -0.0197694041, 0.0128553780, -0.0083080735, -0.0106731150, -0.0267455298, -0.0234163143, 0.0263413787, -0.0202687867, -0.0066870237, -0.0022403738, -0.0178862587, -0.0214966871, -0.0178192984, -0.0162762888, -0.0157098826, 0.0048635830, -0.0250999667, -0.0215941966, -0.0027255204, -0.0203318316, -0.0031916311, -0.0327403098, -0.0266809557, -0.0131030148, -0.0095607135, -0.0249286611, 0.0012286709, -0.0093888156, -0.0079854522, -0.0057623475, -0.0008245732, 0.0106268637, -0.0077082301, -0.0158983488, 0.0457886681, -0.0225122515, -0.0193928964, -0.0213152692, -0.0102134217, -0.0259448793, -0.0253541917, -0.0068453858, 0.0068235495, -0.0573295578, -0.0257110428, 0.0013132085, 0.0430578291, -0.0199163090, -0.0190918893, -0.0266139526, -0.0106049804, -0.0116158286, 0.0025723453, -0.0201790538, -0.0093216645, -0.0209877677, -0.0225876570, 0.0206731427, 0.0081593525, -0.0315074436, -0.0313887596, -0.0135526229, 0.0407113768, -0.0245219804, -0.0449352786, -0.0296790339, -0.0581735969, 0.0066671399, -0.0143132387, -0.0026538458, -0.0208797008, -0.0104543390, -0.0233220439, -0.0083191451, -0.0088453721, 0.0011170898, -0.0007310880, -0.0140573392, 0.0140511431, -0.0146876555, 0.0094313221, -0.0342674181, -0.0046015051, -0.0038840696, 0.0256576352, -0.0049008466, -0.0076057711, -0.0005229556, -0.0231149308, -0.0272323955, -0.0121305473, -0.0147554539, -0.0270737484, 0.0029349376, -0.0429841056, -0.0268090554, -0.0059027183, -0.0179035477, -0.0149530172, -0.0153935309, -0.0060083438, -0.0175087228, 0.0058231638, -0.0184249710, -0.0356179588, -0.0213703942, -0.0142170498, 0.0115718488, -0.0246239603, -0.0064447522, -0.0272178743, -0.0035580981, -0.0087702647, -0.0174413584, -0.0116205132, 0.0078115398, -0.0099061318, 0.0070326878, -0.0245035980, -0.0181418043, -0.0297466740, -0.0060982765, -0.0182071719, 0.0149258347, 0.0045643724, -0.0025078033, 0.0102005554, -0.0181560330, -0.0063511515, -0.0217075013, -0.0351421572, -0.0237660650, -0.0251755733, 0.0058809821, 0.0041745105, -0.0006545453, 0.0005072017, -0.0155348042, -0.0226105116, 0.0144289518, -0.0209381431, 0.0073185563, 0.0075609246, -0.0100383684, -0.0115274787, -0.0205206368, -0.0230611358, -0.0186701268, -0.0228144471, -0.0184720624, 0.0270705111, -0.0358459353, -0.0157484375, 0.0021211954, -0.0608496405, -0.0319526866, -0.0234962478, -0.0266549215, -0.0212835632, -0.0215692725, 0.0167883150, 0.0183195528, -0.0235474836, -0.0040586693, 0.0458619334, -0.0078098974, -0.0227872599, -0.0218317453, -0.0087486636, -0.0191800613, -0.0218898393, 0.0294133462, -0.0431866124, 0.0027894722, 0.0268042553, -0.0055123037, -0.0104411570, -0.0145173473, -0.0246837847, -0.0319509692, 0.0162825324, -0.0087439194, 0.0049256966, 0.0150367413, -0.0001200908, -0.0128586171, 0.0040649185, -0.0211322755, -0.0040956619, 0.0046360441, 0.0133283241, -0.0227951016, 0.0185895357, 0.0118311634, -0.0110564036, -0.0330952927, 0.0373455249, 0.0118690357, 0.0331705697, -0.0104255341, -0.0907474458, -0.0116244536, 0.0222791005, -0.0333295763, -0.0229472332, 0.0111249024, 0.0205791891, -0.0473971441, -0.0162270814, 0.0138977319, 0.0014111655, 0.0142442323, 0.0151156131, -0.0402645506, -0.0303200968, -0.0268866606, 0.0367788337, -0.0763554201, -0.0627987385, -0.0457625687, -0.0024886273, 0.0234425515, -0.0161038209, -0.0208009593, -0.0480602272, -0.0316037908, -0.0176066831, 0.0014812305, 0.0050703129, -0.0563666373, -0.0089986334, -0.0393959023, 0.0264804810, -0.0101547623, 0.0057766414, -0.0534293912, -0.0776346624, -0.0831277147, -0.0148329129, 0.0077274605, 0.0156141920, -0.0352483876, 0.0256671999, 0.0142896278, 0.0118554160, -0.0099931061, 0.0629642084, 0.0213147663, -0.0035738808, 0.0882264301, -0.0110602444, -0.0183282271, -0.0587784797, -0.0211430993, 0.0293348413, 0.0198458210, 0.0069595776, 0.0167531706, 0.0672492683, 0.0050354907, 0.0136208776, 0.0311402623, -0.0559611097, 0.0078769932, -0.0506874099, 0.0308199525, 0.0079657147, -0.1260723621, -0.0726801157, 0.0177266989, -0.0093648769, -0.0070358380, -0.0593854897, -0.0114863729, -0.0068019526, -0.0067088855, 0.0192412864, -0.0022432995, 0.0246693529, -0.0030251325, -0.0114291003, -0.0047298484, -0.0269363075, 0.0459200069, -0.0450708531, -0.0651721656, 0.0216081236, -0.0381595381, -0.0015571949, -0.0188401993, 0.0267662201, 0.0268378835, -0.0008739488, -0.0562285185, -0.0023553681, 0.0029480224, -0.0016552577, -0.0245043822, 0.0231127627, 0.0085512800, -0.0311312154, -0.0492929369, 0.0883737653, -0.0402659029, -0.0344105698, -0.0365560353, -0.0169002898, 0.0015643729, 0.0354600362, -0.0175654609, 0.0098142428, -0.0216978583, 0.0683321953, -0.0162991863, -0.0214509647, 0.0282406770, -0.0382982641, 0.0249830894, 0.0525787398, 0.0684871152, -0.0395825617, 0.0002526415, 0.0371734053, 0.0052478896, -0.0507668480, -0.0189770907, -0.0178096797, -0.0285876654, -0.0283244532, -0.0159945488, 0.0697980523, 0.0214416124, 0.0203306843, 0.0430722460, -0.0167898480, 0.0142769068, 0.0442257524, 0.0758660659, -0.0066701649, 0.0682023987, 0.0145840347, 0.0160826910, -0.0733924583, 0.0221010447, -0.0429559946, -0.1000879034, 0.0428070650, 0.0122036375, -0.0103789000, 0.0140579063, -0.0455006734, 0.0129389642, -0.0863172635, 0.0090294341, 0.0077917171, 0.0231694244, 0.0095913457, -0.0378597081, 0.0183904972, 0.0436189584, -0.0056460258, -0.1009997353, -0.0354877599, -0.0143828662, -0.0522159711, -0.0261899363, -0.0066432483, -0.0463963784, 0.0096061239, -0.0146093769, 0.0278924834, 0.0528222509, -0.0310515780, -0.0186692234, -0.0509318262, -0.0433513969, -0.0173746943, -0.0269223470, 0.0372201726, 0.0454316176, 0.0372410603, -0.0064099832, -0.0058390033, 0.0828231648, 0.0010594699, -0.0029367444, -0.0026864568, -0.0482793376, -0.0074971179, 0.0729505345, -0.0003471658, -0.0323431268, -0.0174209010, 0.0078438679, -0.0404397883, -0.0130510405, -0.0526962802, -0.0019517712, -0.0114686871, -0.0309420433, 0.0568941906, -0.0548795238, -0.0572248511, -0.0165233333, -0.0187531263, 0.0364265256, -0.0628901944, -0.0460394323, 0.0259810295, 0.0594626702, -0.0462496765, 0.0460310429, -0.0196550488, 0.0118179321, 0.0108737387, -0.0580307618, 0.0256197788, -0.0023611807, -0.0278069284, 0.0353320204, -0.0255617052, 0.0123898936, 0.0073874672, 0.0336485356, -0.0779996291, 0.0045248261, -0.0402033702, 0.0176307280, -0.0845915228, -0.0048936713, 0.0977434143, -0.0083922287, 0.0326257683, 0.0292357914, 0.0024075429, -0.0066648275, -0.0374546349, -0.0026823611, 0.0690039769, -0.0119832642, -0.0411039256, -0.0170930605, 0.0217524115, 0.0149529018, -0.0633215383, -0.0472073443, 0.0469217822, 0.0214387551, 0.0011928192, -0.0409031324, -0.0433512554, -0.0462146290, -0.0134116663, -0.0037810418, 0.0000453521, 0.0151345069, -0.0013612373, 0.0082861735, 0.0091175903, 0.0122380862, 0.0108158840, -0.0130267506, 0.0018892596, 0.0145040303, 0.0092446981, -0.0046658739, 0.0164943524, -0.0026562919, -0.0021921818, -0.0197893586, 0.0067662285, 0.0171357598, 0.0043894784, 0.0153332222, -0.0156516600, -0.0168269947, 0.0180380475, -0.0095815444, 0.0021061753, 0.0081527364, -0.0099677062, -0.0047511691, 0.0018365579, 0.0004983704, 0.0007083172, 0.0183263980, 0.0028470540, 0.0174891111, 0.0199746676, 0.0094375396, 0.0200209841, 0.0184713993, 0.0147328088, -0.0030953062, 0.0050635771, 0.0082649514, 0.0117590521, -0.0240978673, -0.0178104583, -0.0010266793, 0.0124748917, 0.0040308312, 0.0125175687, -0.0087354807, -0.0211070068, 0.0238322131, 0.0144331744, -0.0054671969, -0.0320440531, 0.0054965569, -0.0045355931, 0.0191575121, 0.0134208063, -0.0141171394, 0.0051246816, 0.0215358380, 0.0131623931, 0.0146166217, -0.0124952393, 0.0228791889, 0.0050443937, 0.0269720573, -0.0030138902, -0.0030117892, 0.0138269179, 0.0184216835, 0.0009818241, -0.0139080025, 0.0147353001, 0.0149826957, -0.0083157700, 0.0223974083, 0.0072434079, -0.0069052279, -0.0199530628, -0.0079867933, -0.0085077267, 0.0111045865, -0.0119814780, 0.0029312477, 0.0105214883, 0.0277920756, 0.0000508010, -0.0015835162, 0.0046494491, -0.0031622818, -0.0175808333, 0.0184269305, 0.0084636044, 0.0060934806, 0.0011498948, 0.0158847030, -0.0000325214, 0.0009212712, -0.0215888023, -0.0094886245, 0.0100485403, 0.0096934363, -0.0270755347, 0.0008766247, -0.0034188491, -0.0028597920, 0.0097100297, -0.0058690584, -0.0068600858, 0.0061884834, 0.0161533318, 0.0056532752, 0.0028989026, 0.0097995363, -0.0068412693, 0.0231279023, 0.0117988884, 0.0203914717, 0.0015962573, 0.0063571576, -0.0000175981, 0.0079120276, 0.0050263787, -0.0119235665, 0.0036649434, 0.0140959648, -0.0011162983, 0.0214261618, 0.0136830704, -0.0015748881, -0.0021143365, -0.0324506573, 0.0068699992, 0.0169788860, -0.0025070992, 0.0131337596, 0.0157115795, 0.0436841659, -0.0051435940, -0.0026191650, 0.0079342555, -0.0153003391, 0.0059888912, 0.0105013587, 0.0150363576, 0.0045192111, 0.0098398784, 0.0073212255, 0.0099946344, -0.0014576359, -0.0050442927, 0.0025538832, 0.0140485270, 0.0181822926, -0.0113932760, 0.0035554483, 0.0235304479, 0.0175400972, -0.0074701584, 0.0088984938, -0.0133346925, 0.0091710975, 0.0033403737, 0.0147541445, 0.0064922939, 0.0070893276, -0.0011638578, -0.0003651744, 0.0014679154, -0.0025505018, 0.0135109806, 0.0102048917, -0.0077867955, 0.0048542758, 0.0015813995, -0.0118090333, 0.0086609824, -0.0034341959, 0.0116088996, -0.0103761451, -0.0235210862, 0.0079319924, 0.0017604633, 0.0318715945, -0.0221744217, 0.0114402836, 0.0099636484, 0.0123664681, -0.0067413058, 0.0032332181, 0.0159021076, 0.0055819596, -0.0010535101, -0.0026960957, -0.0046812426, -0.0057743341, 0.0061737415, 0.0032583249, 0.0018404432, -0.0088388948, 0.0307273362, 0.0024604993, 0.0018467444, 0.0058281161, -0.0004571967, 0.0024376840, -0.0233517718, 0.0215802509, -0.0049522528, -0.0202770066, 0.0078032925, 0.0226018596, 0.0039357576, -0.0114281103, 0.0041327956, 0.0017452835, -0.0110468203, 0.0004662696, 0.0031981228, -0.0065096319, -0.0114282956, 0.0082184803, 0.0086853663, 0.0110324351, -0.0090155527, 0.0242730211, 0.0068139457, -0.0218556449, -0.0163301900, -0.0003896624, -0.0159476604, 0.0007738895, 0.0234546922, -0.0231720340, -0.0111931777, 0.0110378480, 0.0184777956, -0.0006998267, -0.0136149433, -0.0329883248, 0.0089492500, 0.0006529197, 0.0042254664, -0.0064495294, -0.0025566695, -0.0150668519, -0.0052144704, 0.0127638886, 0.0137162134, 0.0143786483, -0.0140797645, -0.0013218274, 0.0006203970, -0.0018287764, -0.0048122974, 0.0001163104, 0.0003853401, 0.0168772619, 0.0107643381, 0.0145674776, 0.0537293367, -0.0034113808, 0.0030351132, 0.0441404209, 0.0137254912, -0.0112381168, 0.0358316638, -0.0083071301, -0.0024362460, -0.0224187225, 0.0100970017, 0.0426647104, -0.0012845151, 0.0161661636, 0.0065665278, -0.0105312523, 0.0321571864, -0.0188645199, 0.0212570466, 0.0217103008, 0.0081151770, -0.0019170461, 0.0093973605, 0.0073238160, -0.0093424357, -0.0025642337, 0.0100271804, -0.0002153185, 0.0091013955, 0.0042254673, 0.0221425146, -0.0237814076, 0.0216174088, 0.0148498761, 0.0038906380, 0.0151297003, -0.0041683144, -0.0177222043, -0.0166645646, 0.0098851621, 0.0056907129, 0.0149542876, -0.0049462267, -0.0169842485, 0.0031744074, 0.0470639803, 0.0077914428, -0.0046873265, -0.0119042210, 0.0265597589, 0.0072675855, 0.0349073634, 0.0198648833, -0.0287784226, 0.0137145324, -0.0027384788, 0.0051360475, -0.0154525787, -0.0159750115, 0.0057694814, -0.0024778717, 0.0318583511, 0.0178454146, 0.0008502785, 0.0042962162, 0.0143927727, 0.0120041864, 0.0002033015, -0.0016526966, -0.0009575432, -0.0068287509, 0.0022045558, 0.0072685224, 0.0087374803, 0.0017055868, -0.0145624615, -0.0117250588, 0.0074867583, 0.0307436138, 0.0136068873, 0.0000240683, 0.0056008571, 0.0256487411, 0.0110500026, -0.0036600316, 0.0099887457, -0.0144886672, 0.0123509644, 0.0088166604, 0.0069655459, 0.0032106498, -0.0042130798, -0.0032538918, -0.0073699816, -0.0123343589, 0.0175558049, 0.0167841166, -0.0257204268, -0.0094053745, 0.0082101496, 0.0014084629, 0.0017950641, -0.0021778797, -0.0125464331, 0.0030896880, 0.0113253314, 0.0257744100, 0.0230274219, 0.0032923766, 0.0049295872, -0.0005799140, 0.0396583751, 0.0126024056, -0.0016219966, 0.0085484423, 0.0378046744, -0.0204514265, 0.0022156090, 0.0267444998, -0.0215125866, 0.0033858905, -0.0005609870, 0.0129834386, 0.0017291306, 0.0075585623, 0.0009774822, -0.0013003530, -0.0086426092, 0.0068424623, 0.0066867606, -0.0076039876, -0.0048896838, -0.0003202503, 0.0456512235, -0.0163211692, -0.0105269393, -0.0109521626, -0.0186158195, 0.0042114961, -0.0016345799, 0.0411046110, 0.0001082527, 0.0157070402, -0.0136724319, 0.0047092154, -0.0016013129, 0.0097549492, 0.0002193243, 0.0253821891, 0.0213357620, 0.0177066904, 0.0026910086, 0.0202886760, 0.0152027002, -0.0030107216, 0.0528354272, 0.0042441883, -0.0012975177, 0.0007852016, 0.0022295250, 0.0066581289, 0.0319212265, -0.0074840253, 0.0071250871, -0.0083742440, -0.0006115654, 0.0323281325, 0.0272853971, 0.0100309644, 0.0104963388, 0.0133103682, 0.0048772851, 0.0415528007, 0.0127887987, -0.0130609646, -0.0083174882, -0.0139020691, 0.0033883341, 0.0064875307, 0.0325348154, -0.0280513465, -0.0143399341, 0.0185439419, 0.0109973252, 0.0231909603, -0.0096257636, -0.0003580735, -0.0029644677, -0.0049105734, -0.0285313074, 0.0037453258, -0.0223527085, -0.0032558318, -0.0071603856, 0.0111569734, -0.0182941277, 0.0486904830, 0.0054092146, 0.0076032612, 0.0124711758, -0.0069652591, 0.0073227836, -0.0313045233, 0.0157580767, -0.0183521453, -0.0046279421, 0.0282062441, 0.0142386993, 0.0032049143, 0.0135625582, 0.0043836026, 0.0160113629, -0.0031651072, 0.0153947305, 0.0163389612, -0.0134611204, 0.0062975409, 0.0066538043, 0.0284721088, 0.0240885653, 0.0163689684, 0.0365507454, 0.0238893628, -0.0179674979, -0.0044850809, -0.0068343836, -0.0136888959, -0.0021449928, 0.0273028612, -0.0134730218, -0.0091949962, 0.0007941943, -0.0175327137, 0.0036445039, -0.0100544998, -0.0201459806, -0.0126444036, -0.0053877491, 0.0055788881, 0.0009116985, 0.0060873651, -0.0054219346, 0.0087258304, 0.0269684475, 0.0028915277, -0.0178973954, -0.0247622989, -0.0004819812, 0.0109826261, 0.0287862048, 0.0394323803, -0.0137503222, 0.0077817775, 0.0122806281, -0.0387111902, 0.0037351102, 0.0189085100, -0.0844578594, 0.0203744192, -0.0248967521, 0.0144138644, 0.0023882464, -0.0513214916, -0.0209190417, 0.0189230107, -0.0244831014, 0.0103911972, -0.0282147843, -0.0400814749, 0.0148963779, 0.0106328931, -0.0095551386, -0.0114651760, -0.0287980959, -0.0439838469, 0.0090593919, 0.0002379784, 0.0056767520, 0.0090330457, -0.0222443640, -0.0177423079, -0.0533067025, 0.0365523696, -0.0014110018, -0.0186731741, -0.0031736235, 0.0004899498, -0.0483130440, 0.0015614157, 0.0268178917, -0.0367332473, -0.0570742935, 0.0153240254, 0.0040535005, 0.0069456967, -0.0140949376, -0.0303965770, -0.0353127271, -0.0307441354, -0.0071228058, -0.0467039384, 0.0228451565, 0.0011126735, -0.0094181243, 0.0125968922, 0.0021141255, 0.0311260913, -0.0107949264, 0.0426970311, -0.0019829727, 0.0586371198, 0.0117569799, -0.0341740772, 0.0160065442, 0.0461162552, -0.0378226601, 0.0020130828, -0.0030131396, -0.0061355475, -0.0351756960, -0.0773079246, 0.0207401011, 0.0441313162, 0.0247788448, 0.0269395486, -0.0130647672, -0.0409903973, 0.0171234794, -0.0053925929, -0.0715914741, -0.0373972729, -0.0009994156, -0.0484421477, 0.0089511666, 0.0115809329, 0.0695776194, -0.0049160626, -0.0339683220, -0.0447705686, -0.0038291519, 0.0535076410, 0.0217150208, 0.0354158841, -0.1085531861, -0.0603282899, 0.0265814122, -0.0049614934, -0.0661328137, -0.0426291637, 0.0151001709, 0.0329993851, -0.0232983660, -0.0074818525, -0.0548107065, 0.0026859038, 0.0035006511, -0.0260756649, -0.0341806337, 0.0388355255, -0.0235435814, -0.0490292497, -0.0356254466, -0.0037001348, 0.0052529466, 0.0360249355, 0.0229571760, 0.0445042178, 0.0075372062, 0.0300815776, 0.0113950912, 0.0128056919, -0.0036357276, 0.0263363477, -0.0518523641, 0.0398381166, 0.0258224756, 0.0121515132, -0.0383700170, -0.0414142087, -0.0180737674, -0.0686790273, -0.0032689264, 0.0198868383, 0.0022229832, 0.0227134526, -0.0029088249, -0.0321676843, 0.0373161621, 0.0347044095, -0.0077028931, -0.0335023403, -0.0483358726, -0.0196828712, -0.0233409498, -0.0164899845, -0.0059713828, -0.0277592149, -0.0680159852, 0.0079962378, 0.0342291817, 0.0363049619, -0.0277489834, 0.0073437919, -0.0372236595, -0.0433796160, -0.0303606447, 0.0230192132, 0.0101257283, 0.0050964784, -0.0749420822, 0.0003778282, 0.0043400144, -0.0511938222, 0.0014335082, -0.0012773989, 0.0379394479, 0.0084711406, -0.0154628335, 0.0100357626, -0.0935677364, -0.0494391620, -0.0576449297, -0.0216710288, 0.0156289637, -0.0105254203, -0.0315285958, 0.0652240589, 0.0083787180, -0.0162718538, 0.0446151197, -0.0310297236, 0.0134282773, -0.0397971906, -0.0324961171, -0.0354511552, 0.0245438479, 0.0232224297, -0.0236340724, -0.0357288495, -0.0103528071, -0.0190008730, 0.0527759567, 0.0014906875, 0.0130165853, 0.0073999516, -0.0420355126, 0.0027661389, 0.0332746506, 0.0257875249, -0.0190815888, -0.0927786008, -0.0484520867, -0.0011689146, 0.0202008709, -0.0387067422, -0.0317004994, -0.0250030067, -0.0285141487, 0.0022379747, 0.0257782787, -0.0133108478, -0.0303868260, 0.0073176618, 0.0581033863, 0.0199815873, -0.0198839102, -0.0106740734, -0.0406443924, -0.0169002973, -0.0065769698, -0.0175803546, -0.0475811698, -0.0132900085, -0.0485389605, 0.0309208166, -0.0155577715, 0.0173007008, -0.0364004672, 0.0143063320, -0.0075355517, 0.0057388814, 0.0131528918, 0.0165546630, -0.0336111747, 0.0504402742, -0.0139919603, 0.0405252054, -0.0209579412, 0.0118868882, 0.0253009759, -0.0139638493, -0.0063219015, -0.0107895741, -0.0268601868, -0.0214920323, -0.0560132600, -0.0534018986, 0.0027672714, -0.0290293097, 0.0163677987, 0.0231225248, -0.0110666072, -0.0426937640, 0.0059454339, -0.0001408543, -0.0242745150, 0.0178668890, -0.0024844203, 0.0163254794, 0.0032674335, -0.0353345647, -0.0143816462, -0.0403371416, 0.0098280711, -0.0121118026, -0.0137111750, -0.0188469980, 0.0031878676, -0.0441934839, 0.0266603380, 0.0246950276, 0.0215548649, 0.0480871722, -0.0186735056, -0.0347875208, -0.0283530075, -0.0004598697, -0.0010221263, -0.0134528335, -0.0030985218, -0.0189567767, -0.0100096166, -0.0006294765, -0.0064144512, 0.0378365703, -0.0299521480, 0.0173725281, -0.0131247910, 0.0098374616, -0.0034816903, -0.0212492589, -0.0037683526, 0.0173786320, -0.0048947395, -0.0168093313, 0.0053921570, -0.0033418611, -0.0136522288, 0.0258971378, 0.0042082998, -0.0254970174, -0.0349081755, -0.0090427613, 0.0028512804, 0.0047136629, 0.0066086994, 0.0257331319, -0.0180362742, 0.0040403879, 0.0474467576, 0.0153844291, -0.0035292178, -0.0181114506, -0.0149392057, -0.0068589207, 0.0006877841, -0.0029952922, 0.0058981939, -0.0143653937, 0.0038266934, -0.0040212576, -0.0273803379, 0.0116827535, -0.0096834768, -0.0069722356, 0.0033132788, -0.0077940272, 0.0027585779, 0.0262560695, -0.0121200234, 0.0128569808, -0.0132728200, -0.0227453522, 0.0218854398, -0.0056062797, 0.0079217544, 0.0023041377, -0.0014583785, 0.0016729394, 0.0019814707, -0.0122451689, -0.0345935114, 0.0067537604, 0.0290945116, 0.0010459607, -0.0472866260, 0.0346921571, -0.0028647361, 0.0291673671, -0.0090121021, -0.0321614183, -0.0063077114, -0.0140750594, 0.0157371070, 0.0027059242, -0.0216600634, -0.0011940761, -0.0258230921, -0.0044097006, 0.0347550511, -0.0279436391, 0.0364090949, -0.0050679981, -0.0368259102, -0.0032961916, -0.0073620495, -0.0216114987, -0.0070274710, 0.0076760328, -0.0179275461, 0.0039457036, -0.0202004872, 0.0251805764, -0.0295589920, -0.0051174834, 0.0277225636, 0.0070554274, 0.0004462452, -0.0059628305, -0.0378594920, -0.0136451591, 0.0058592036, 0.0217224080, 0.0086418362, 0.0095839174, -0.0091809928, -0.0280311313, 0.0183179826, -0.0322736427, -0.0272852480, 0.0297223497, 0.0137206186, 0.0029957932, 0.0093679316, -0.0029394298, -0.0115788048, 0.0184220411, 0.0493651927, 0.0040203519, 0.0097447094, -0.0245573372, -0.0008249051, 0.0116231423, 0.0033354035, -0.0027065913, 0.0198144969, 0.0277433470, -0.0036000879, 0.0052626310, -0.0082948906, -0.0174696408, -0.0371137895, -0.0239104219, 0.0029686999, -0.0152568212, -0.0081124725, 0.0206180587, 0.0043746373, -0.0046740058, -0.0128632337, 0.0034666080, -0.0028166971, 0.0183562376, 0.0174493622, 0.0011952325, 0.0045821955, -0.0261471141, -0.0228684060, -0.0079594050, 0.0018991815, -0.0180226695, -0.0207116473, -0.0225509405, -0.0193333160, 0.0166004337, -0.0324107930, -0.0025118282, 0.0145935025, -0.0054273717, 0.0004970625, -0.0051296321, -0.0358903855, -0.0031409469, -0.0077255992, -0.0361320153, 0.0372195095, 0.0046680067, -0.0473819375, -0.0303710960, 0.0162067302, 0.0000545330, -0.0136534283, -0.0080012428, -0.0172659531, -0.0041309572, -0.0181455649, -0.0354141295, -0.0185379349, -0.0239908881, 0.0200713798, -0.0009207454, 0.0397269949, 0.0276666973, -0.0007991615, -0.0016693191, -0.0454003997, 0.0167123470, 0.0288989805, -0.0168866441, -0.0199835114, 0.0005253574, -0.0016537358, 0.0064984323, -0.0448265634, 0.0048184800, -0.0164823495, 0.0156611688, 0.0056988900, -0.0376305617, -0.0383340269, -0.0079139853, 0.0286221914, 0.0039179116, -0.0023174658, -0.0171490647, 0.0653235540, 0.0063134483, 0.0012640994, 0.0084046749, -0.0060869060, 0.0002178284, 0.0034612087, 0.0133551359, -0.0135723613, -0.0167252254, 0.0061905445, 0.0041371356, -0.0016724843, -0.0101865595, 0.0179255698, -0.0173343215, 0.0006291725, -0.0151264891, 0.0038822161, 0.0236276053, -0.0192193147, 0.0218118299, 0.0149397124, -0.0304377954, 0.0068296581, -0.0109485677, 0.0500071682, 0.0292402022, 0.0238286983, -0.0961787850, -0.0982127190, -0.0182528272, 0.0004795581, 0.0591596626, 0.0351862721, -0.0116080763, 0.0211094730, 0.0076927673, 0.0034955626, -0.0012087536, -0.0326043330, -0.0099721700, 0.0385919511, -0.0256048851, 0.0313085020, -0.0197113305, -0.0452606045, -0.0151476748, -0.0365010612, 0.0203322265, -0.0040944894, -0.0130134905, -0.0600678176, -0.0236977916, -0.0069769388, -0.0146260075, -0.0327101462, -0.0461966619, -0.0260121059, 0.0255178548, 0.0391442105, 0.0004503737, -0.0399473682, 0.0156538077, -0.0390013084, 0.0132343685, -0.0458189398, -0.0330276713, -0.0357613489, -0.0415754840, 0.0150017086, 0.0056653777, 0.0077154227, -0.0407328792, 0.0114053097, -0.0459867790, -0.0231055003, 0.0019589218, 0.0667267442, -0.0295223501, -0.0251795780, -0.0261000469, -0.0149137108, 0.0059195259, 0.0204002503, 0.0602631569, -0.0142014772, 0.0031381676, -0.0336818136, -0.0658237711, -0.0318998024, 0.0174012557, 0.0132485721, -0.0076671531, 0.0186569821, -0.0295056030, -0.0310384594, 0.0205108188, -0.0017080009, -0.0236416794, 0.0401552245, -0.0659029186, -0.0067844046, 0.0084645515, -0.0473198146, -0.0069383206, -0.0751688406, 0.0438597500, -0.0439339615, -0.0053151692, -0.1032686979, -0.0085112667, -0.0142869763, -0.0160634685, -0.0755115226, -0.0208288617, -0.0413735285, -0.0154122859, -0.0071619758, 0.0090401508, -0.0553440601, -0.0232675932, -0.0462659597, -0.0138965799, -0.0197365861, -0.0178928953, 0.0240066834, 0.0020330094, -0.0060200836, -0.0296956226, 0.0141481478, 0.0212743171, -0.0132842939, 0.0020633724, 0.0144548230, 0.0019701102, -0.0090478584, -0.0252348669, -0.0311407167, 0.0232765246, -0.0032007871, -0.0414766744, 0.0306451228, 0.0153008588, -0.0625192821, -0.0620087571, 0.0228666011, 0.0020437387, 0.0241901986, -0.0919016227, -0.0340284519, 0.0133524854, -0.0260515492, -0.0390824191, 0.0229924023, -0.0451817624, -0.0002991151, -0.0348245353, -0.0461221412, 0.0213314369, 0.0122576440, 0.0447514057, 0.0090955896, -0.0326539837, -0.0630290955, 0.0090135327, 0.0060503525, -0.0100294175, -0.0094901556, -0.0065337266, 0.0234690122, -0.0009189011, -0.0389460176, 0.0095315510, -0.0179232452, -0.0084563540, 0.0138858156, -0.0626621023, -0.0059996592, -0.0644381940, -0.0497466736, -0.0573865734, -0.0298524871, 0.0566881187, -0.0509960316, -0.0355580039, -0.0290107243, -0.0106394868, 0.0516586229, 0.0056092339, -0.0665600598, -0.0450365394, -0.0004765744, -0.0324178487, 0.0384300388, -0.0162149630, -0.0735911056, -0.0447057225, -0.0507373661, 0.0329025760, -0.0171511304, -0.0140809817, -0.0242719352, -0.0078588873, -0.0250421371, 0.0147299021, -0.0500643253, -0.0017392071, -0.0139205921, 0.0040404177, -0.0528325029, -0.0169137102, 0.0138977868, -0.0010458119, -0.0159501377, -0.0100660678, -0.0632181615, -0.0206017159, 0.0295823645, 0.0338618718, -0.0148157440, -0.0301253740, 